1067 100
하 -0.04481173 0.3526288 0.376937 -0.044990085 0.42868 -1.0314057 0.6116539 1.2271609 -0.32657477 -0.8288876 0.009466949 -1.188791 -0.1077215 0.34856308 0.4446521 -0.32957295 0.22644234 -0.41636002 -0.2571606 -1.2628256 0.19548324 0.74847287 0.34514964 -0.41313094 -0.118219875 -0.08217239 -0.7391879 -0.24498056 -0.3365674 0.08048317 0.6980239 0.17997326 0.42124587 -0.6143471 -0.21252805 1.074951 -0.12518461 -0.2922792 -0.025151815 -1.1398448 0.1507274 -0.25204137 -0.17656459 -0.17495082 0.5287538 -0.054770667 -0.5389459 -0.39357895 0.34311405 0.43604723 0.39964765 -0.7469513 -0.15180531 0.0056061177 -0.35888988 0.31105745 0.619592 -0.081441745 -0.3853863 0.313234 0.3168726 0.03623946 0.33148587 -0.19033691 -0.44821924 0.47835016 -0.00955467 0.6684407 -1.0655627 0.66310424 -0.10145231 0.4175642 0.912306 0.33685043 0.807994 0.2957502 0.19411029 -0.17991932 -0.63523525 -0.026895303 -0.33820826 0.07663403 -0.41082358 0.5864317 -0.1766164 0.07662751 0.30476275 0.58386135 0.59399486 0.33897248 1.0591233 0.30118892 0.35074234 0.031307176 1.1362877 0.69229245 0.05514219 -0.28409246 0.2126413 0.035505805
이 -0.05069314 0.34215704 0.36063913 -0.047663502 0.42788565 -0.9890123 0.57880986 1.1707882 -0.310621 -0.7953864 0.00026263582 -1.1475526 -0.1043143 0.33751988 0.43381074 -0.30419582 0.22309792 -0.3912587 -0.24206406 -1.2010856 0.18332706 0.70763546 0.33352798 -0.40812486 -0.1130272 -0.06925174 -0.7127532 -0.23776603 -0.31565115 0.0881451 0.68595356 0.16950163 0.3944175 -0.5891679 -0.19657889 1.034154 -0.11839118 -0.2680571 -0.016906293 -1.0773883 0.16253297 -0.2540572 -0.16900499 -0.16582827 0.502999 -0.045026686 -0.5004741 -0.39010575 0.32533097 0.4114685 0.4002446 -0.7309009 -0.14297666 0.0031830024 -0.35183233 0.309715 0.60020125 -0.06261354 -0.36644667 0.29885852 0.29475594 0.036699735 0.31705406 -0.17951684 -0.42397103 0.46001515 0.00012660191 0.6307719 -1.0082299 0.64144474 -0.10677746 0.3803448 0.8820971 0.33974084 0.77059346 0.276116 0.16871285 -0.17319177 -0.6012617 -0.01975325 -0.33386934 0.072694406 -0.39712915 0.55000484 -0.16120316 0.068602055 0.2874539 0.5542219 0.57507116 0.31285104 1.013441 0.2865622 0.33396202 0.021075333 1.0742606 0.6603427 0.06733201 -0.26449817 0.19431275 0.031158578
. -0.039893683 0.31687835 0.31846708 -0.051456507 0.3964255 -0.896809 0.52681607 1.0734082 -0.2925218 -0.7207453 -0.0030664634 -1.0502665 -0.08161168 0.30310383 0.40531343 -0.29418886 0.20729655 -0.3568424 -0.22806388 -1.112262 0.15762356 0.6493439 0.29403818 -0.37546307 -0.103357226 -0.07094053 -0.6436953 -0.21592091 -0.29678273 0.079885766 0.629321 0.15238313 0.35249248 -0.5406997 -0.19373961 0.9457942 -0.11765394 -0.24765004 -0.021486333 -1.001588 0.13435034 -0.22569914 -0.14894561 -0.14547518 0.47079712 -0.044093285 -0.4626965 -0.36248657 0.29406285 0.3781235 0.3645076 -0.6670134 -0.13796689 -0.006553627 -0.33368158 0.27091342 0.5419823 -0.07029066 -0.3447092 0.26482645 0.284464 0.024759976 0.30508825 -0.15847568 -0.4025621 0.42891845 0.0034498924 0.5917484 -0.94338113 0.5920401 -0.091995984 0.36338928 0.8123884 0.3086529 0.70585763 0.26852623 0.17422757 -0.15199874 -0.56146127 -0.015793342 -0.2980206 0.056209974 -0.37956977 0.51228416 -0.14699636 0.05653962 0.25911537 0.51160234 0.53617984 0.29208532 0.92839366 0.27047095 0.31624982 0.022360023 0.9998921 0.6082102 0.06604714 -0.24158695 0.19415472 0.018605728
다 -0.046841003 0.29941866 0.29963332 -0.04812465 0.36059514 -0.83492756 0.49359182 0.9949749 -0.2534471 -0.6786965 0.011697111 -0.95848185 -0.07739011 0.2742279 0.37580037 -0.26638016 0.19309348 -0.3395022 -0.2131941 -1.007075 0.15568036 0.5984182 0.2837618 -0.32494238 -0.112528674 -0.059221737 -0.5900779 -0.20225923 -0.26348868 0.06979185 0.5709842 0.1434828 0.32608223 -0.49520043 -0.16856474 0.88713384 -0.09291957 -0.23965769 -0.036028873 -0.90687394 0.13596496 -0.20176408 -0.12716927 -0.14284001 0.43853834 -0.04059849 -0.42493054 -0.3314928 0.2708475 0.34175298 0.3370902 -0.6116663 -0.13190109 -0.012840612 -0.30351168 0.2530201 0.50317574 -0.046700608 -0.30141556 0.23836765 0.25817367 0.03385343 0.28005928 -0.15168725 -0.3552153 0.3793788 -0.008733311 0.546707 -0.863105 0.52487344 -0.08141563 0.3264537 0.7395257 0.29421416 0.65159893 0.23639299 0.14258364 -0.13412356 -0.5175289 -0.010327387 -0.27996975 0.06691101 -0.33350345 0.47223568 -0.13835692 0.057487726 0.25251064 0.48201695 0.48185354 0.25648072 0.84950143 0.24515092 0.27999333 0.021448124 0.9210813 0.55505097 0.059527572 -0.23009105 0.16747811 0.018187474
을 -0.051828858 0.34638712 0.35572234 -0.054612976 0.43379226 -0.9964625 0.59434 1.1943533 -0.31907716 -0.79930943 -0.004019292 -1.1598632 -0.10926494 0.33821625 0.43461227 -0.32336605 0.21648991 -0.40361762 -0.23621193 -1.2301645 0.18577197 0.7216849 0.34155458 -0.39626914 -0.12294635 -0.07411895 -0.7234512 -0.24167073 -0.33157232 0.08426683 0.6966212 0.18088584 0.40416753 -0.6059534 -0.19629014 1.0475754 -0.13321252 -0.27784523 -0.02767412 -1.1114575 0.1598048 -0.261989 -0.17278065 -0.15637253 0.5260642 -0.061089512 -0.5156247 -0.39632136 0.33705667 0.41168863 0.4053106 -0.73088026 -0.1348869 -0.0035897053 -0.36138764 0.3007758 0.592266 -0.080284975 -0.37529528 0.2898843 0.3152374 0.0291542 0.3316538 -0.1762965 -0.44357333 0.46564406 0.0014450878 0.6613668 -1.0430995 0.6572447 -0.11166914 0.40576842 0.89417505 0.34297377 0.7923454 0.29571164 0.17723289 -0.1669798 -0.60971963 -0.024861166 -0.339199 0.06216247 -0.4083874 0.5640008 -0.17338414 0.062110845 0.30112305 0.5784639 0.5745602 0.31968862 1.0412827 0.28978717 0.3443308 0.027623774 1.1075606 0.66226757 0.06905884 -0.26556584 0.20875286 0.02874243
ㄴ -0.05284702 0.33856216 0.35566512 -0.059939343 0.4106603 -0.981093 0.58359814 1.1689025 -0.31412047 -0.797008 -0.0031049869 -1.1414765 -0.10527186 0.31809458 0.42773557 -0.32063618 0.20642887 -0.40714306 -0.23925635 -1.200183 0.17197113 0.7147215 0.33397126 -0.3876083 -0.12647264 -0.078142345 -0.7050286 -0.25166065 -0.3131631 0.08764007 0.68303204 0.16630156 0.38990682 -0.5896595 -0.20069174 1.0412501 -0.12147664 -0.2690887 -0.019350674 -1.092578 0.16452791 -0.25454313 -0.16835944 -0.16586863 0.5055959 -0.05453522 -0.5098771 -0.378295 0.32353473 0.4068187 0.39490697 -0.7292804 -0.13347507 0.012218461 -0.35835937 0.30308646 0.5998197 -0.0788653 -0.37364373 0.2820135 0.3111629 0.034231476 0.33057657 -0.18421495 -0.42519403 0.45741513 -0.007111893 0.6363946 -1.0248358 0.623752 -0.09901784 0.39795652 0.88461614 0.3379955 0.7683085 0.29062927 0.16743992 -0.16925587 -0.6054141 -0.012341814 -0.31639478 0.061200704 -0.39470136 0.54411983 -0.16557458 0.06212985 0.279888 0.5740494 0.5701765 0.32267976 1.025248 0.2981261 0.3225246 0.028429966 1.0879068 0.6621546 0.05743815 -0.27249208 0.2063067 0.02014637
는 -0.033186436 0.32176632 0.3441494 -0.048667558 0.40806904 -0.948427 0.56790096 1.1277654 -0.30115268 -0.7653739 0.0073564136 -1.1023595 -0.095769 0.32602915 0.41224647 -0.30410174 0.2169374 -0.3817305 -0.22683969 -1.1709498 0.17604952 0.68857867 0.32372698 -0.3838144 -0.11457125 -0.06945909 -0.6887199 -0.23909272 -0.305188 0.07673258 0.66160756 0.17784607 0.38005522 -0.56165135 -0.20149605 1.000535 -0.13039702 -0.2748278 -0.030339409 -1.0650339 0.1566131 -0.24485715 -0.14653534 -0.16670619 0.49405417 -0.040944044 -0.5006531 -0.38528037 0.30935603 0.39375633 0.37997591 -0.7083828 -0.1454235 0.005813155 -0.34892932 0.28094977 0.5698209 -0.07799669 -0.36222905 0.27058297 0.29254106 0.028670436 0.31808183 -0.16754392 -0.41986617 0.4474173 -0.014183902 0.6114671 -0.9920254 0.6084906 -0.101089954 0.3863245 0.8466322 0.32765293 0.752141 0.2644314 0.17696065 -0.15981077 -0.58993936 -0.0103896065 -0.30721936 0.059921917 -0.3959025 0.5399976 -0.15946376 0.06235618 0.28607586 0.5414917 0.54760003 0.30811515 0.9795556 0.2811197 0.31720158 0.02893731 1.0434043 0.63828975 0.0665696 -0.25949684 0.19475983 0.032636493
의 -0.033013877 0.32391298 0.35595104 -0.039873283 0.40630695 -0.96014386 0.5731733 1.1373813 -0.30889487 -0.77966946 0.0005468147 -1.1169748 -0.091821045 0.31727275 0.42025506 -0.30468288 0.21349028 -0.39443612 -0.23777062 -1.1832074 0.17821297 0.70544744 0.3218526 -0.39761242 -0.124372564 -0.06752068 -0.6999595 -0.23025298 -0.313825 0.08775157 0.655415 0.17567438 0.38491744 -0.5765817 -0.19880585 1.0074744 -0.13209814 -0.2721883 -0.032458108 -1.06494 0.16095658 -0.24560553 -0.15850069 -0.15475811 0.50461245 -0.057303376 -0.5074233 -0.3822554 0.32645512 0.39945894 0.3754424 -0.70741695 -0.12727028 -0.0046313014 -0.349478 0.306529 0.5678709 -0.06529683 -0.35915324 0.29058868 0.30543405 0.030940715 0.31086493 -0.16132946 -0.41991425 0.45347795 -0.020369926 0.6329521 -0.9959909 0.6126855 -0.098844975 0.38241524 0.8624043 0.32342476 0.74827325 0.27743706 0.1818585 -0.17380117 -0.59142077 -0.024295222 -0.32531184 0.066365466 -0.40299225 0.5464377 -0.15928052 0.06658309 0.28539875 0.5631261 0.5669704 0.31006876 0.99649113 0.27791533 0.3138263 0.036225725 1.0558792 0.6426151 0.055885725 -0.26457787 0.20395052 0.020960962
에 -0.050999913 0.3273439 0.3428942 -0.038513776 0.40633178 -0.932029 0.56235474 1.1048783 -0.2998857 -0.7471524 0.0044566225 -1.0911832 -0.08363668 0.30900913 0.4195701 -0.2960864 0.195341 -0.38311148 -0.23165667 -1.1437885 0.17457587 0.6907894 0.32056168 -0.38426524 -0.10826469 -0.069010824 -0.6784193 -0.23856863 -0.29795134 0.06747479 0.6490928 0.16195513 0.38158134 -0.5432224 -0.18980476 0.9864723 -0.12550811 -0.25401348 -0.02046991 -1.0461973 0.14461483 -0.23189619 -0.15325111 -0.15612534 0.4809824 -0.052139517 -0.48521984 -0.3626459 0.3028758 0.38433415 0.37306732 -0.685394 -0.13473354 -0.0023136197 -0.33022097 0.28534874 0.5621047 -0.06678329 -0.34217688 0.26837707 0.2811985 0.028993603 0.31600222 -0.16775401 -0.4212019 0.43383744 -0.01375226 0.61073536 -0.9764195 0.60398984 -0.1062142 0.37434313 0.8403552 0.32322752 0.7246717 0.26209646 0.1618776 -0.17501102 -0.58700776 -0.017679367 -0.30952552 0.05802097 -0.3732971 0.52948177 -0.15035175 0.06971897 0.27259266 0.52935266 0.54097754 0.30871722 0.9609691 0.27488193 0.31741884 0.029253166 1.037973 0.63549495 0.06005642 -0.24488312 0.20017785 0.019539442
를 -0.04722982 0.3198789 0.33901483 -0.040483583 0.40719762 -0.9629022 0.56098133 1.1403248 -0.30317834 -0.7713775 0.0031975233 -1.1131624 -0.0974249 0.32048336 0.41557485 -0.29620522 0.21026926 -0.40127534 -0.2217601 -1.1745707 0.17725511 0.6998999 0.3127339 -0.38969898 -0.1071176 -0.07753815 -0.70026135 -0.22553845 -0.3093395 0.07290427 0.6669725 0.17528561 0.38946173 -0.556577 -0.20225234 1.0079055 -0.123346895 -0.26352134 -0.023262395 -1.0569328 0.15369941 -0.23501278 -0.16046898 -0.16303103 0.4933527 -0.04744781 -0.49886054 -0.37049383 0.32007572 0.4068137 0.38339904 -0.6923143 -0.13759758 0.011397064 -0.33763024 0.28569496 0.568572 -0.071990035 -0.35260028 0.28193018 0.2941965 0.04275014 0.32281545 -0.17066178 -0.42514542 0.43821073 -0.015008825 0.60972524 -0.9882371 0.6123973 -0.09771039 0.38775596 0.8502143 0.31310108 0.7514821 0.26704443 0.17383526 -0.17288361 -0.5826636 -0.015577843 -0.3117222 0.06391025 -0.39381528 0.548899 -0.15786868 0.06192332 0.2705483 0.55181384 0.5635553 0.31690782 0.98107535 0.2895864 0.3275521 0.0387651 1.0621527 0.63363796 0.048563126 -0.2508058 0.2069389 0.02960631
가 -0.03745616 0.35778427 0.38869196 -0.06509548 0.44154143 -1.0583986 0.6171848 1.2532916 -0.33359858 -0.8538243 0.010127721 -1.2263757 -0.09471013 0.34622192 0.4642726 -0.33033282 0.2308038 -0.4318947 -0.24920611 -1.2935742 0.19153447 0.7620442 0.35466602 -0.42924544 -0.13496648 -0.076474935 -0.7620088 -0.26307517 -0.33062434 0.08952467 0.72024775 0.1910685 0.4328518 -0.6140914 -0.20634474 1.110854 -0.13552296 -0.29806605 -0.034790494 -1.1694227 0.16350417 -0.2650884 -0.17834236 -0.1673569 0.5357448 -0.06327529 -0.54967016 -0.4165597 0.3379679 0.439053 0.41445497 -0.77322817 -0.1594412 0.0047874227 -0.37229168 0.32343453 0.6259286 -0.07719334 -0.38636792 0.31441057 0.31661493 0.03389656 0.3475275 -0.18549879 -0.46979165 0.49197847 -0.019651154 0.673927 -1.0854132 0.67479736 -0.1068059 0.42953783 0.93504107 0.36703125 0.82615024 0.31226394 0.19580062 -0.19597399 -0.65319943 -0.009875333 -0.34063795 0.08282035 -0.4218506 0.60334975 -0.1864921 0.08201293 0.301792 0.6098627 0.6204339 0.34851685 1.095163 0.3108085 0.35342455 0.03991113 1.1516026 0.70472753 0.072585925 -0.2872696 0.22251268 0.021806877
고 -0.020064095 0.24574405 0.25143456 -0.030410087 0.2975241 -0.69889426 0.40716395 0.8260823 -0.2222984 -0.56061864 0.005565945 -0.7963024 -0.072596386 0.22653466 0.30985346 -0.22601011 0.1478196 -0.28744486 -0.17248888 -0.85278904 0.12207664 0.49281844 0.22969536 -0.28832215 -0.09394639 -0.060136974 -0.50643945 -0.16244525 -0.21842308 0.05810952 0.47172016 0.114620246 0.27753097 -0.4096557 -0.1412777 0.7249138 -0.089096114 -0.1922588 -0.025700722 -0.7709029 0.09990241 -0.17582978 -0.1093277 -0.10667942 0.3546335 -0.03959771 -0.3465942 -0.27260742 0.22607414 0.29693088 0.279354 -0.5143744 -0.09226864 0.004869085 -0.2567723 0.21235915 0.41479784 -0.043356102 -0.25936055 0.20107996 0.21642081 0.024686318 0.22775403 -0.12544513 -0.3084802 0.3277319 0.0023229436 0.45732117 -0.7242995 0.44766116 -0.07489129 0.2848389 0.61975074 0.23890977 0.5452076 0.20498276 0.119788416 -0.111339465 -0.42843264 -0.016924303 -0.23046337 0.059846565 -0.28900078 0.38860774 -0.10571755 0.048482884 0.19599777 0.39041364 0.41147277 0.2297988 0.71860296 0.19887775 0.22427028 0.025344912 0.7664126 0.45604926 0.03674425 -0.1894017 0.13639209 0.016609509
은 -0.043320924 0.32687524 0.36215144 -0.060771752 0.42002517 -0.96426195 0.57002467 1.1598717 -0.29287618 -0.7833965 -0.0056334916 -1.1308743 -0.10461222 0.32019576 0.4181016 -0.31673917 0.21226753 -0.3934048 -0.22706212 -1.1861881 0.17420474 0.70503753 0.32283077 -0.384146 -0.11699369 -0.065178916 -0.7105701 -0.22972684 -0.3124246 0.09008844 0.65878874 0.17450428 0.39104822 -0.5741672 -0.20194563 1.0083154 -0.13509858 -0.27940467 -0.023350261 -1.0749351 0.1496696 -0.23618329 -0.16041292 -0.16223046 0.49051014 -0.062595904 -0.49345973 -0.38785255 0.31235117 0.41010913 0.39385036 -0.71891034 -0.13863254 -0.0028718114 -0.34533694 0.29450858 0.57795155 -0.06627245 -0.35298762 0.2930745 0.2899379 0.02894551 0.32547674 -0.16972351 -0.4276246 0.4496387 0.000866166 0.62658113 -1.0120667 0.6266522 -0.09667382 0.39329123 0.87021977 0.3223575 0.7589455 0.27852198 0.17906086 -0.1787699 -0.60706615 -0.01563471 -0.32768333 0.07387262 -0.39581433 0.5572262 -0.16687159 0.0705211 0.29067102 0.553354 0.5592899 0.31610525 1.0048528 0.2823277 0.3327171 0.022663655 1.0690602 0.6506031 0.06893267 -0.252577 0.20765992 0.034860857
았 -0.04500447 0.27629384 0.27137768 -0.04250899 0.32734972 -0.77689433 0.44533253 0.90738636 -0.24780208 -0.62196434 -0.0059148185 -0.888279 -0.0873337 0.25435665 0.34992757 -0.23982398 0.17649911 -0.3103455 -0.18750879 -0.9482969 0.1478244 0.5615884 0.26453745 -0.3058282 -0.08406803 -0.048055768 -0.5684601 -0.19661821 -0.24656881 0.07281623 0.53913546 0.14131346 0.31692523 -0.46341565 -0.15038063 0.8054987 -0.1085934 -0.20587581 -0.018699061 -0.85855347 0.11798732 -0.2002501 -0.120589964 -0.12391725 0.39433172 -0.048070196 -0.40208936 -0.304659 0.2614173 0.31845304 0.30836043 -0.56694406 -0.11948521 0.004038181 -0.27765694 0.23992825 0.46896237 -0.05664697 -0.2917654 0.23544279 0.24428996 0.034813408 0.2572045 -0.12798184 -0.32899567 0.35824543 0.003931153 0.50473535 -0.7932253 0.49722287 -0.08354927 0.3023593 0.67954355 0.2639141 0.6146817 0.23037778 0.13583264 -0.12716357 -0.4725054 -0.017397963 -0.25279596 0.048247777 -0.30620855 0.4443207 -0.12409115 0.058353428 0.23390801 0.45182672 0.4493014 0.24180046 0.80523175 0.23511222 0.26253536 0.021853473 0.8407552 0.5123922 0.05802218 -0.21069258 0.15241456 0.031298056
ㄹ -0.023637358 0.25814727 0.25922617 -0.05078413 0.3170688 -0.7198949 0.42731348 0.85548645 -0.21335663 -0.58709323 0.012161252 -0.840853 -0.07980703 0.23170887 0.30818203 -0.21983612 0.16810903 -0.2939204 -0.16825423 -0.8788682 0.14061709 0.5272868 0.23665458 -0.29279786 -0.09509547 -0.050000597 -0.5136571 -0.1782892 -0.22309929 0.053259086 0.4833041 0.12569448 0.28784487 -0.43391362 -0.15284686 0.74489594 -0.0806612 -0.19189554 -0.020864397 -0.78366506 0.12261886 -0.18035853 -0.10777164 -0.11624073 0.37624347 -0.0301506 -0.37407038 -0.28679875 0.23891698 0.3051283 0.29021266 -0.5205408 -0.09832028 -0.009590139 -0.26045862 0.21052222 0.44142643 -0.045327034 -0.26488087 0.2168964 0.215041 0.018563353 0.2380157 -0.121891014 -0.3081089 0.3366794 -0.0074355667 0.46099845 -0.7420384 0.46051624 -0.08092731 0.2757622 0.64824164 0.24281798 0.5641004 0.19727007 0.13995148 -0.12264803 -0.43860114 -0.008334689 -0.2447258 0.05339954 -0.2904907 0.39614058 -0.11350682 0.053965885 0.21733208 0.4185303 0.41408816 0.22580832 0.7485868 0.21232541 0.2496378 0.027895192 0.7868383 0.47304368 0.0476423 -0.18249674 0.1417313 0.030387143
있 -0.037196636 0.23235002 0.23862165 -0.027800864 0.27519897 -0.65917146 0.38020855 0.7816818 -0.21020658 -0.5183991 -0.0035546818 -0.76878387 -0.071542494 0.22774684 0.27997696 -0.21401094 0.13679253 -0.25840467 -0.15420213 -0.79759645 0.117006205 0.48320517 0.20984699 -0.2680932 -0.08517338 -0.051572863 -0.47270918 -0.1513307 -0.21048848 0.044172153 0.44462013 0.108512886 0.26594007 -0.3788316 -0.14024846 0.6975481 -0.07467368 -0.19055992 -0.027647207 -0.7134423 0.11398423 -0.17024884 -0.11450367 -0.10215403 0.3423667 -0.026370194 -0.34668073 -0.26899 0.21703388 0.26268438 0.25586542 -0.48406553 -0.08536414 0.008961819 -0.23878144 0.20721954 0.40439722 -0.049661566 -0.23484099 0.20275211 0.2058466 0.01934464 0.20826566 -0.119430274 -0.27519295 0.295889 -0.008412568 0.43373942 -0.6757257 0.43045342 -0.07632812 0.25926173 0.5906939 0.21765319 0.5223009 0.19779266 0.11802136 -0.11512426 -0.40419307 -0.016863137 -0.2244279 0.045499247 -0.2704516 0.37538522 -0.11524188 0.05522125 0.18451385 0.3677733 0.38935137 0.22258814 0.6735732 0.1957574 0.2150655 0.008447891 0.7115204 0.4444231 0.049084947 -0.16559437 0.14327066 0.026235776
, -0.04430193 0.3510715 0.3890806 -0.054413058 0.45877075 -1.0542569 0.62050176 1.2635529 -0.3298165 -0.8473785 -0.00523293 -1.2373935 -0.1121503 0.3611216 0.4511354 -0.32816222 0.21799307 -0.43367696 -0.25551608 -1.2997931 0.2045504 0.7755273 0.3542499 -0.42188048 -0.12735175 -0.07164248 -0.7587562 -0.27115834 -0.34452137 0.08572348 0.728802 0.18511695 0.42710346 -0.6334478 -0.21169367 1.1147696 -0.13529693 -0.30311024 -0.03614056 -1.1860564 0.1635171 -0.2755105 -0.17991431 -0.16699263 0.5526843 -0.055669617 -0.55809677 -0.42307347 0.35614476 0.44548678 0.41608328 -0.7829309 -0.15055996 0.007469871 -0.3764093 0.32854292 0.6281811 -0.08695149 -0.40304318 0.31218484 0.3309479 0.043128856 0.34745875 -0.18152736 -0.4636783 0.49459887 -0.020951321 0.69262594 -1.0867794 0.6872667 -0.10441375 0.43227446 0.9447287 0.35617438 0.82776976 0.29454783 0.19999872 -0.19586748 -0.64413667 -0.022547016 -0.34768742 0.06347454 -0.4414431 0.5885367 -0.18501586 0.07802129 0.29916316 0.60326886 0.6106155 0.3400977 1.1017071 0.31598747 0.36340997 0.041846737 1.1564853 0.7178123 0.053204298 -0.2869807 0.21276806 0.03277098
되 -0.03362702 0.28667718 0.29827842 -0.051024877 0.3578836 -0.8239447 0.492472 0.9750207 -0.2617616 -0.66339654 -0.0034606555 -0.95634604 -0.07124079 0.26944634 0.3651402 -0.27087924 0.17853001 -0.3359935 -0.18742386 -1.008721 0.15920742 0.58888495 0.26480612 -0.3373685 -0.10442305 -0.06591642 -0.59430456 -0.20959803 -0.2610277 0.06714221 0.56065303 0.1508176 0.32113707 -0.48820013 -0.16068694 0.86744756 -0.11890402 -0.22169632 -0.016020576 -0.9109916 0.13824323 -0.21642993 -0.12571031 -0.13024446 0.42390266 -0.048525527 -0.42871097 -0.3271119 0.27036363 0.34199142 0.33501562 -0.5894771 -0.108438715 -0.0023778314 -0.2821902 0.25044566 0.496745 -0.05672481 -0.3064518 0.24571496 0.2474982 0.023040045 0.2593953 -0.14430647 -0.35127535 0.3805027 -0.005842683 0.5322878 -0.8375504 0.5189596 -0.084045425 0.31972277 0.7341824 0.2867389 0.64849854 0.24145901 0.15569928 -0.13797802 -0.4977884 -0.0029828544 -0.2747697 0.06726632 -0.32958144 0.4589584 -0.12782499 0.06433583 0.24830027 0.4731923 0.48792186 0.2680459 0.8554297 0.24317336 0.28224945 0.022431279 0.90646863 0.5562563 0.046995834 -0.22140804 0.17256613 0.01612755
아 -0.024635756 0.25973704 0.2793233 -0.037802886 0.3453331 -0.79584867 0.46945742 0.94761366 -0.2549039 -0.64109683 -0.005039733 -0.9217018 -0.07828745 0.27403694 0.35333282 -0.25283605 0.17272991 -0.31510133 -0.17861077 -0.9585957 0.15376379 0.56814265 0.25884247 -0.32385862 -0.08867804 -0.06451438 -0.58178264 -0.18629964 -0.24561805 0.061755214 0.55436176 0.1410493 0.3134249 -0.46836022 -0.16020598 0.82599974 -0.10150506 -0.21511865 -0.01329287 -0.88804674 0.121963605 -0.20585029 -0.12129218 -0.122862175 0.40261686 -0.039959 -0.4167048 -0.31061807 0.27163532 0.3266554 0.3113286 -0.5868222 -0.115604155 0.0011199224 -0.27867815 0.25368646 0.47110146 -0.05561698 -0.286212 0.23439443 0.24645655 0.039661694 0.26862806 -0.13297412 -0.35294455 0.37620208 -0.0010225249 0.5221057 -0.8201175 0.5128149 -0.07581122 0.31069735 0.71292996 0.27099574 0.63061446 0.22338702 0.13888004 -0.13361038 -0.4965519 -0.021302791 -0.26788458 0.053651564 -0.3262822 0.45399803 -0.12256908 0.056292452 0.23032965 0.4582058 0.45805898 0.24994674 0.82689285 0.22739357 0.27161422 0.03460974 0.87202585 0.5333222 0.051584587 -0.21612108 0.1673308 0.020803869
것 -0.024428388 0.23597132 0.24285568 -0.03000397 0.2761217 -0.6587342 0.40099967 0.7862182 -0.20666678 -0.54042524 0.0011742078 -0.76877105 -0.058066852 0.22467211 0.29508433 -0.20932284 0.15437798 -0.27637607 -0.16954142 -0.8163821 0.12000542 0.48769915 0.21176614 -0.27121118 -0.08838904 -0.043033898 -0.4812222 -0.17286345 -0.20963354 0.065359645 0.45435715 0.111844696 0.2696278 -0.39548633 -0.1463317 0.70958525 -0.09131311 -0.19045125 -0.021192769 -0.74226934 0.10569553 -0.15806085 -0.103076495 -0.10341265 0.34461084 -0.034870464 -0.34738272 -0.27123472 0.22356279 0.2794752 0.25668895 -0.49390438 -0.107107244 -0.0052542705 -0.23421507 0.21383883 0.40547952 -0.043952323 -0.23908786 0.19558205 0.2048666 0.013286095 0.21898463 -0.12105285 -0.2903077 0.31578872 -0.011673296 0.4268385 -0.6962983 0.42653003 -0.07168728 0.26709822 0.59786296 0.22088416 0.5185094 0.19399163 0.12642074 -0.10983164 -0.41361794 -0.014238363 -0.2255812 0.045979448 -0.2686445 0.37709972 -0.10232672 0.04370078 0.19419448 0.37713873 0.3864679 0.20733745 0.6874767 0.19889548 0.21734485 0.029368564 0.72068083 0.43670633 0.03333255 -0.1714906 0.14210057 0.029101992
후보 -0.02641874 0.2387794 0.2496359 -0.026452636 0.30365974 -0.6945782 0.41330165 0.831853 -0.212048 -0.5615762 0.00416949 -0.8121656 -0.06253108 0.23644264 0.30961227 -0.22842321 0.14751615 -0.2825644 -0.17453738 -0.85483474 0.12872876 0.51112896 0.22273728 -0.27225557 -0.08682619 -0.0608617 -0.502507 -0.17261885 -0.2330687 0.052466426 0.4816829 0.115660585 0.28077835 -0.4110561 -0.14398357 0.7360928 -0.0913568 -0.18753526 -0.016783986 -0.7746334 0.11271416 -0.1786515 -0.124480635 -0.105603024 0.35671347 -0.048631154 -0.37299243 -0.27809674 0.23371123 0.2962987 0.28623307 -0.5202427 -0.09808951 -0.0002734853 -0.25680357 0.22381353 0.4239332 -0.05202268 -0.27146655 0.20104165 0.21378112 0.03301481 0.23544684 -0.13346031 -0.31787294 0.33229378 -0.009537587 0.44940618 -0.71682733 0.44350892 -0.06981082 0.27855313 0.615087 0.23546366 0.5531838 0.21138012 0.12899864 -0.11668909 -0.43880832 -0.012098144 -0.23823573 0.050342593 -0.2889862 0.39281154 -0.12683976 0.06285483 0.20700118 0.39894107 0.40271282 0.23518892 0.7134968 0.20841901 0.23440997 0.031931806 0.77639145 0.4660552 0.0446698 -0.19065009 0.1353453 0.015412506
도 -0.03428811 0.27993935 0.29779285 -0.03227405 0.33234012 -0.7868754 0.4629534 0.94285154 -0.24803415 -0.6321644 0.005614342 -0.9171074 -0.069866754 0.26581976 0.34207958 -0.25962967 0.1799631 -0.32960817 -0.19421713 -0.96696115 0.14439699 0.57120943 0.26113224 -0.3193952 -0.09503495 -0.053241275 -0.5794529 -0.19241515 -0.2468542 0.06854055 0.5527575 0.1368573 0.32521576 -0.47871837 -0.15918037 0.8265868 -0.105268806 -0.23272936 -0.022296008 -0.8862179 0.12106942 -0.19897121 -0.1262112 -0.13430177 0.40193537 -0.048190653 -0.4111649 -0.31767344 0.25239947 0.32977417 0.32357222 -0.57756907 -0.12509874 0.0051633543 -0.29039842 0.23434913 0.4777104 -0.057571787 -0.30410653 0.22735758 0.24219374 0.035001837 0.25172707 -0.13434899 -0.34637398 0.3693897 0.002374782 0.51878655 -0.82630783 0.5168188 -0.08026743 0.32394806 0.709594 0.26538843 0.6236964 0.22252949 0.14427102 -0.1340865 -0.48551857 -0.0040622014 -0.27007514 0.04985157 -0.31818143 0.45037463 -0.13895577 0.059692256 0.23413423 0.45376265 0.45739803 0.26295575 0.8298282 0.2266134 0.2671337 0.021641532 0.8661148 0.5314721 0.043746218 -0.20381804 0.15859549 0.025984177
들 -0.03482417 0.27571777 0.28819585 -0.030233 0.33890066 -0.7962905 0.46636406 0.94212997 -0.25066367 -0.6441776 -0.0048885415 -0.9252383 -0.071480505 0.267807 0.35406834 -0.24495615 0.16535312 -0.32158437 -0.18193564 -0.96529233 0.14927623 0.58128047 0.2530781 -0.30965897 -0.0884643 -0.051314127 -0.5815451 -0.18838613 -0.24661878 0.06310183 0.5373445 0.14746408 0.3103211 -0.47541022 -0.15635927 0.8406236 -0.095243864 -0.22784293 -0.030185344 -0.86981934 0.13070752 -0.20405486 -0.13953216 -0.13632345 0.40339154 -0.046808623 -0.41087213 -0.31171793 0.25696686 0.32292253 0.32563743 -0.58659697 -0.12183591 0.011050685 -0.28018323 0.25311184 0.47016013 -0.064451255 -0.2964893 0.23279533 0.23376715 0.026104204 0.2634457 -0.13416679 -0.33987328 0.37037367 -0.012413526 0.5113695 -0.82290685 0.5171134 -0.08863917 0.3187306 0.7053944 0.2621168 0.6121202 0.23382387 0.13458677 -0.1407867 -0.48622957 -0.00624981 -0.26931107 0.058315337 -0.31296512 0.44093707 -0.137251 0.06309728 0.2363285 0.45664585 0.4697957 0.25908843 0.81928706 0.23145206 0.25583667 0.029607255 0.8734519 0.5218354 0.04672207 -0.21376342 0.16512297 0.030049728
어 -0.03678353 0.26872367 0.29758853 -0.05099968 0.33487836 -0.80226195 0.46403453 0.95133394 -0.2489416 -0.64577544 -0.0062174764 -0.9303504 -0.08054404 0.27173275 0.35935315 -0.24965407 0.18206066 -0.33655056 -0.18213192 -0.9814176 0.15777071 0.5852699 0.2687096 -0.33345714 -0.10744348 -0.05249346 -0.5822411 -0.19490647 -0.2505767 0.06601097 0.56125915 0.14263102 0.31141892 -0.48253408 -0.16326632 0.83311594 -0.0972642 -0.22044638 -0.030264368 -0.88172287 0.13411872 -0.1958505 -0.12289054 -0.14214508 0.4140545 -0.05221596 -0.41939238 -0.3157134 0.26441318 0.3365842 0.32390705 -0.5857687 -0.109045476 0.009422896 -0.29265705 0.255002 0.48841968 -0.046739787 -0.29388613 0.23391575 0.24453196 0.028186494 0.2605222 -0.1324706 -0.34924054 0.37449196 -0.0023198992 0.50994444 -0.8221402 0.5266515 -0.08427454 0.32199165 0.7098859 0.26562738 0.6366122 0.22725686 0.15211692 -0.14004391 -0.4967129 -0.009526821 -0.26938775 0.05321355 -0.32613316 0.45655122 -0.13440385 0.05927137 0.22564623 0.47125632 0.45841286 0.26920655 0.8339056 0.22836144 0.2650016 0.01826536 0.873967 0.5448777 0.05851534 -0.21257433 0.16630335 0.032983102
으로 -0.03930917 0.26630437 0.28692505 -0.04810361 0.32453024 -0.7936422 0.4717803 0.9368347 -0.252246 -0.6380452 0.0010606839 -0.90759796 -0.07961854 0.26351172 0.33753037 -0.24547164 0.17090891 -0.3118018 -0.19842921 -0.963904 0.13575512 0.5702478 0.2524157 -0.3119946 -0.10220066 -0.06607984 -0.5613392 -0.20091088 -0.24960694 0.05679471 0.55089337 0.14880498 0.31727678 -0.4578733 -0.15500131 0.81588876 -0.092492856 -0.22951894 -0.01127525 -0.8668507 0.12088941 -0.20171425 -0.11880102 -0.13580519 0.411735 -0.046764128 -0.39821073 -0.30893493 0.26648143 0.32337537 0.31849566 -0.56553143 -0.110184304 0.0030472449 -0.27479392 0.2496557 0.47936746 -0.048909627 -0.28562772 0.2399742 0.25122932 0.028003553 0.25509286 -0.13737217 -0.3418506 0.36442712 -0.015485729 0.49667805 -0.8133528 0.51524144 -0.086331755 0.30559567 0.7044619 0.2657575 0.614695 0.22824594 0.14560778 -0.13332066 -0.4820478 -0.011697315 -0.2500187 0.05796958 -0.32494816 0.44957322 -0.12498959 0.06027986 0.22467633 0.454333 0.46362016 0.26322 0.8108927 0.22061317 0.26478225 0.025587492 0.8650348 0.51619554 0.057991084 -0.21706724 0.16914116 0.0120122675
었 -0.022302276 0.26148432 0.2665779 -0.042714152 0.3152357 -0.734796 0.4258205 0.8777245 -0.22829789 -0.58637017 -0.007537088 -0.84363085 -0.073525526 0.2456445 0.31299034 -0.23042703 0.16820134 -0.29236066 -0.18533486 -0.9059669 0.12923363 0.53135145 0.2343174 -0.3071465 -0.09136961 -0.053391688 -0.54183984 -0.18570162 -0.23536961 0.06932421 0.5078147 0.12992243 0.28727418 -0.4433748 -0.15051815 0.77871454 -0.0888364 -0.2076808 -0.019038072 -0.8245432 0.11343697 -0.18998228 -0.11247661 -0.12603013 0.37383828 -0.049724095 -0.38109964 -0.2984001 0.24004777 0.30381307 0.2912821 -0.54390913 -0.11494021 -0.00026429998 -0.26218253 0.22176269 0.43415144 -0.05568146 -0.28423598 0.21673565 0.23381998 0.023469549 0.24450609 -0.124815844 -0.31086272 0.34667522 0.004289305 0.46645936 -0.76873654 0.46761343 -0.08562532 0.2839869 0.6482468 0.24608533 0.57785517 0.2084038 0.12369822 -0.12227249 -0.45324048 -0.0069483146 -0.23461312 0.059606105 -0.30084723 0.42015442 -0.12771009 0.055265047 0.21974336 0.43268338 0.4253766 0.2418097 0.75341535 0.21404904 0.25567827 0.01747234 0.80487806 0.4824931 0.036631946 -0.1876305 0.14614916 0.026272362
에서 -0.04544943 0.30598482 0.3207166 -0.038225558 0.39658335 -0.9032353 0.5462628 1.0775504 -0.29524443 -0.71945494 -0.0049472987 -1.0500612 -0.08491531 0.3018403 0.38998833 -0.29027635 0.20302051 -0.38065875 -0.2166957 -1.1182781 0.17705768 0.6582905 0.31300768 -0.37508133 -0.12113107 -0.07856915 -0.6627503 -0.22093612 -0.29237872 0.08400291 0.62862664 0.16747993 0.36811295 -0.52991027 -0.18628111 0.9627773 -0.13169916 -0.2521204 -0.024963163 -1.0095038 0.1503723 -0.23272797 -0.15283631 -0.15090553 0.46682602 -0.050987292 -0.46565157 -0.36544004 0.30807745 0.3784507 0.3670644 -0.6653777 -0.12941416 0.0047376757 -0.3285105 0.2854949 0.54759604 -0.06893028 -0.3497684 0.25872016 0.2803082 0.026251009 0.29594818 -0.16585189 -0.40863097 0.42317662 -0.0035638725 0.58494484 -0.9476481 0.5886912 -0.09627411 0.3576282 0.81048065 0.30687842 0.70788115 0.24969521 0.17316826 -0.15835945 -0.56458086 -0.005472276 -0.3006158 0.07071273 -0.37311208 0.5215215 -0.15290168 0.059260897 0.2602042 0.5336098 0.5301007 0.29767302 0.9496723 0.26029953 0.30339444 0.022221114 0.99334663 0.6012521 0.05815829 -0.24086276 0.19355562 0.029401127
일 -0.032364942 0.28517544 0.2932631 -0.03966114 0.35998914 -0.8149183 0.4879213 0.96038014 -0.24894074 -0.65047926 0.0059921 -0.9595895 -0.08250588 0.27593353 0.3510573 -0.2664744 0.18456374 -0.34133798 -0.2012057 -0.98881704 0.14315498 0.60270494 0.27103496 -0.32598984 -0.10275461 -0.06633154 -0.5997252 -0.20256479 -0.26777267 0.06540215 0.56991756 0.13860011 0.32126275 -0.48928833 -0.17252006 0.84817976 -0.10824472 -0.21785119 -0.013419213 -0.91113067 0.12119027 -0.20772389 -0.14312692 -0.14235182 0.41340718 -0.038818248 -0.4305928 -0.3209447 0.27179256 0.34655997 0.32464185 -0.6100447 -0.11136367 -0.0047355737 -0.28670692 0.2528989 0.49978355 -0.05624211 -0.30765706 0.24861452 0.2449636 0.020082092 0.27037227 -0.14812568 -0.36170146 0.37626335 -0.017271642 0.527633 -0.8454455 0.5223958 -0.08342203 0.3298373 0.73578 0.26799735 0.63395137 0.22402157 0.13842098 -0.1480663 -0.50658405 -0.021221438 -0.2750913 0.05397651 -0.32698065 0.4631527 -0.1288871 0.050126962 0.23297444 0.4687435 0.48463002 0.26650718 0.84627485 0.24145894 0.27872616 0.01691073 0.8997049 0.5523613 0.055552542 -0.21373232 0.15973698 0.01964969
’ -0.021921622 0.2541941 0.26100585 -0.03251438 0.3140664 -0.74047816 0.44775036 0.8824592 -0.22998716 -0.5949457 -0.0024043964 -0.8704137 -0.06472107 0.25780487 0.31472865 -0.22954515 0.17296934 -0.31132054 -0.17591588 -0.91498303 0.14826927 0.5422565 0.25521043 -0.2916031 -0.08637153 -0.065609135 -0.5441955 -0.18286407 -0.23772961 0.064494275 0.5236524 0.13923992 0.3115273 -0.4517886 -0.15736072 0.7863157 -0.09444856 -0.21113963 -0.02818402 -0.832238 0.106614105 -0.17827193 -0.11903069 -0.13153464 0.38874346 -0.035957087 -0.3933176 -0.30087614 0.24673255 0.3210768 0.28567445 -0.54803824 -0.11233377 0.0008109802 -0.26381382 0.22481826 0.44525206 -0.053011455 -0.28697416 0.22874255 0.23578498 0.016892279 0.24313928 -0.13070764 -0.33702672 0.33811375 -0.017306937 0.4781304 -0.76372606 0.48699048 -0.07489363 0.29016793 0.6750985 0.25887296 0.5856256 0.20497566 0.13242927 -0.1323565 -0.47031307 -0.009647596 -0.24580355 0.044488437 -0.31501427 0.42858702 -0.13387093 0.047457475 0.22459976 0.43109342 0.43183315 0.23849572 0.77270216 0.22568844 0.24525887 0.017520744 0.8184698 0.49547017 0.035220396 -0.2108795 0.16256323 0.027874146
ㄴ다 -0.035179395 0.22846046 0.24895751 -0.040794104 0.30796406 -0.69400257 0.40566516 0.8239397 -0.23020098 -0.5599908 -0.0028209884 -0.81079334 -0.06403972 0.2416499 0.31127018 -0.22934256 0.15796733 -0.29491636 -0.17687999 -0.85896045 0.12603083 0.50630915 0.226933 -0.2789146 -0.07582558 -0.046101555 -0.5041619 -0.16116866 -0.22066647 0.055917602 0.47370446 0.13093644 0.27045715 -0.41518888 -0.1339222 0.72895086 -0.087882034 -0.20477667 -0.012453626 -0.765386 0.10026473 -0.17997688 -0.10354887 -0.113424055 0.3599585 -0.035835646 -0.37319574 -0.26270047 0.2285008 0.28422993 0.2826427 -0.5100078 -0.107783645 0.007168679 -0.25029132 0.20803055 0.42682037 -0.042690784 -0.2503982 0.20661432 0.21577956 0.01680594 0.2327287 -0.115403794 -0.3042356 0.3226618 -0.009916007 0.4501072 -0.7296737 0.4555785 -0.07275605 0.28669518 0.6132323 0.2304522 0.540244 0.19229478 0.12817577 -0.1157187 -0.42852503 -0.006227134 -0.24056807 0.049952418 -0.29189587 0.3994848 -0.118556805 0.060211215 0.19922993 0.4090613 0.4111199 0.22680013 0.71887356 0.21409717 0.23743697 0.030428434 0.76900095 0.4729522 0.046870317 -0.19667481 0.1378435 0.021554431
‘ -0.03534597 0.28688437 0.3020921 -0.03525003 0.3542072 -0.83383197 0.50101846 0.99243754 -0.25667843 -0.66325337 -0.0020271728 -0.9772011 -0.08023889 0.26535246 0.36075097 -0.2746908 0.18014202 -0.353047 -0.1907115 -1.0241432 0.16501702 0.5975951 0.27273324 -0.33590248 -0.104076155 -0.06288072 -0.61072946 -0.20807469 -0.27283418 0.05689987 0.5789182 0.15146919 0.3422191 -0.50187474 -0.16451718 0.8646928 -0.102153875 -0.22899742 -0.029313842 -0.9173206 0.12503631 -0.21942642 -0.13496321 -0.13449478 0.42060128 -0.054954 -0.42418948 -0.3290152 0.27500948 0.35086137 0.3280576 -0.60974175 -0.115790695 0.015913857 -0.30494693 0.2596311 0.5070368 -0.06779856 -0.32337815 0.25621185 0.26650587 0.025967058 0.27753422 -0.14692761 -0.3710797 0.3842211 -0.014293932 0.5454235 -0.8594621 0.5275883 -0.088539526 0.3317466 0.7517716 0.2811452 0.66119045 0.24066705 0.14658992 -0.13735676 -0.5118934 -0.018567575 -0.28172007 0.053084977 -0.34834695 0.47559953 -0.14933488 0.054457802 0.24791053 0.4819378 0.49129686 0.2674358 0.86276966 0.24886516 0.28553897 0.028645188 0.92706347 0.5640755 0.042242926 -0.2257245 0.16427332 0.017446652
적 -0.03682083 0.25788862 0.29346856 -0.039185394 0.33359706 -0.7882415 0.45369193 0.9207484 -0.23532729 -0.6324717 0.005540332 -0.9126854 -0.065661065 0.2662888 0.34243584 -0.25269574 0.17024444 -0.32191887 -0.17971751 -0.9509717 0.14777063 0.5728585 0.26416484 -0.3217634 -0.085800596 -0.057184752 -0.5724244 -0.18212421 -0.2512513 0.072625734 0.53624946 0.14821678 0.31782982 -0.46854702 -0.16457646 0.8321299 -0.10125436 -0.22673488 -0.020125128 -0.871454 0.12434669 -0.20585726 -0.1186926 -0.12820895 0.41397104 -0.036429487 -0.4114984 -0.30436605 0.25751695 0.31685346 0.3214322 -0.56222755 -0.102270305 -0.0033369635 -0.28955865 0.24590148 0.4614917 -0.045439605 -0.28852528 0.23723489 0.24815087 0.028584111 0.25373253 -0.1383393 -0.3317346 0.3554099 -0.007646515 0.5033701 -0.80312407 0.51254624 -0.087699145 0.3159331 0.69313896 0.2677877 0.62203044 0.22956355 0.13656245 -0.14214905 -0.47434288 -0.0010461209 -0.2520382 0.050671086 -0.32085845 0.43557766 -0.13501944 0.059267364 0.22088401 0.44215444 0.46470386 0.26338717 0.81759095 0.23224358 0.2531683 0.01760534 0.863215 0.5148172 0.038747568 -0.20954393 0.15906717 0.012217763
지 -0.019403262 0.19622451 0.20989017 -0.034496155 0.25898403 -0.602656 0.3495335 0.72204524 -0.17794412 -0.49162892 0.012144689 -0.6908067 -0.06826105 0.19939901 0.2683704 -0.18286303 0.12669118 -0.2525153 -0.13845877 -0.74422973 0.10574451 0.4362313 0.2056345 -0.24772638 -0.067599244 -0.04655162 -0.43253803 -0.14060202 -0.19253702 0.057349164 0.41343972 0.098358795 0.251563 -0.36164045 -0.11631492 0.6285634 -0.086705364 -0.1770056 -0.011099992 -0.66805923 0.09559016 -0.16054395 -0.10421941 -0.10662427 0.32007504 -0.041234713 -0.30704206 -0.23722959 0.19822961 0.2607017 0.23630697 -0.4488601 -0.08609419 0.010695115 -0.20476381 0.18017875 0.36400795 -0.03793303 -0.2300458 0.18414205 0.17858906 0.02377561 0.20147677 -0.102580935 -0.2675989 0.28095812 0.002071545 0.3996395 -0.63266927 0.39424282 -0.058283668 0.23869705 0.54722685 0.1994401 0.47004166 0.16563386 0.10442855 -0.10580997 -0.37438923 -0.01550133 -0.1914925 0.03768018 -0.25236243 0.34878784 -0.09066167 0.049218714 0.17505176 0.34652218 0.349253 0.20340979 0.61526644 0.17724065 0.207699 0.016581947 0.66324234 0.40734237 0.04826481 -0.15935728 0.13454653 0.010351244
과 -0.03894605 0.33195636 0.35144925 -0.04866798 0.41533688 -0.98760104 0.58356816 1.1758983 -0.31501162 -0.7990007 -0.0026766742 -1.133605 -0.10750889 0.3371139 0.42837968 -0.31157959 0.20998871 -0.40808785 -0.23238038 -1.1944811 0.17480054 0.713416 0.32807443 -0.3918642 -0.11087543 -0.07817885 -0.7047021 -0.24765132 -0.31730387 0.09079741 0.6805245 0.16815287 0.39322433 -0.5930824 -0.20114759 1.0381663 -0.13844423 -0.27087033 -0.018855102 -1.0968283 0.14362474 -0.2515642 -0.16346677 -0.15810952 0.51650625 -0.05216731 -0.5136919 -0.38363662 0.31764236 0.40735763 0.3912958 -0.710948 -0.14614348 -0.0035582662 -0.3493783 0.3054908 0.5810284 -0.07773988 -0.36974275 0.28692645 0.29377764 0.031384706 0.31885672 -0.16660015 -0.43083063 0.4587419 -0.009889801 0.6344324 -1.0129397 0.6348282 -0.09697256 0.39207605 0.86891824 0.33386618 0.78002393 0.2773223 0.17191808 -0.17838459 -0.59759337 -0.017196475 -0.31482312 0.058946125 -0.3926652 0.54502165 -0.15487388 0.07235772 0.2877984 0.55936766 0.5803957 0.32549065 1.0126779 0.27868629 0.3375511 0.026830742 1.0723687 0.66165596 0.05414666 -0.27313122 0.21384658 0.024499761
로 -0.033556815 0.24704103 0.2611803 -0.044488914 0.3090559 -0.74130917 0.42606878 0.883184 -0.22410533 -0.5942056 0.0028219305 -0.861922 -0.06654052 0.25389275 0.32239798 -0.2407499 0.15612493 -0.29545692 -0.17950068 -0.8949502 0.14584716 0.5389794 0.23853049 -0.29212195 -0.09357433 -0.06294442 -0.5245802 -0.19084927 -0.23698963 0.05896487 0.49848947 0.13119091 0.30137408 -0.44062933 -0.15620673 0.77878284 -0.09913206 -0.21342301 -0.018870097 -0.81618756 0.12332234 -0.1845944 -0.111564934 -0.13192268 0.38358137 -0.031662595 -0.3799733 -0.29263997 0.24404599 0.30602637 0.28547868 -0.54589874 -0.10328274 -0.0012702282 -0.2526981 0.22534828 0.44796368 -0.050788637 -0.265661 0.20758368 0.22915183 0.024567397 0.24222626 -0.13105106 -0.32822612 0.3500246 -0.009387735 0.4771689 -0.76733005 0.47723672 -0.06744498 0.29169095 0.6643137 0.2496866 0.58502567 0.22116578 0.13261332 -0.13172819 -0.4628735 -0.0011363906 -0.24506348 0.05414162 -0.3008357 0.4237931 -0.11314079 0.054561958 0.21638739 0.43013903 0.43121478 0.24647379 0.76064926 0.21339604 0.25383165 0.01931039 0.805595 0.50248075 0.034968924 -0.20084526 0.14926991 0.026323326
기 -0.017741421 0.19980755 0.22473414 -0.032226235 0.25013313 -0.6067981 0.3543895 0.7127333 -0.19085841 -0.49102262 0.0072512394 -0.6910502 -0.061683446 0.206884 0.26460335 -0.19336076 0.12308492 -0.24518307 -0.14139348 -0.7294114 0.1184673 0.44250634 0.20432483 -0.25120655 -0.07533392 -0.0518214 -0.429172 -0.13947724 -0.19824061 0.051368643 0.4217368 0.1097838 0.24316086 -0.36543137 -0.112113036 0.6275156 -0.08439483 -0.17553492 -0.02131366 -0.6740722 0.08493348 -0.15139769 -0.102178745 -0.102977544 0.31890666 -0.027361095 -0.31201577 -0.23908472 0.2102186 0.25182548 0.24699341 -0.43306163 -0.09696222 -0.008643137 -0.20469955 0.18925434 0.36049727 -0.03783299 -0.2295656 0.17235851 0.17849171 0.02913776 0.19531307 -0.114947334 -0.2695169 0.28751734 -0.006989121 0.3851557 -0.627024 0.38922623 -0.06768831 0.23853317 0.5435488 0.20616153 0.47036693 0.17667864 0.11402668 -0.116088726 -0.38010883 -0.0029592693 -0.2086424 0.042912584 -0.25635386 0.35071406 -0.10505265 0.03620981 0.17380731 0.34676936 0.35996693 0.2056094 0.6243546 0.18062808 0.20954964 0.01917018 0.6588314 0.4046194 0.038987376 -0.15435474 0.12132117 0.0064419117
수 -0.020028528 0.21540095 0.20358811 -0.03558167 0.24571651 -0.578067 0.35633132 0.69482505 -0.1775971 -0.4648189 0.0064979703 -0.6880939 -0.05394883 0.19502386 0.25679955 -0.18051901 0.13009053 -0.22314566 -0.1430308 -0.7177939 0.10520991 0.4160646 0.18054602 -0.23188512 -0.0816249 -0.040547676 -0.4159089 -0.15269691 -0.19331329 0.04212523 0.39291832 0.103232935 0.24475507 -0.35660818 -0.1259974 0.6293377 -0.063305356 -0.15191974 -0.029281273 -0.6421863 0.08536686 -0.13631563 -0.08711928 -0.103210144 0.3130418 -0.040885445 -0.2943714 -0.2275816 0.19847189 0.25028262 0.23028257 -0.4260708 -0.09263894 -0.009412856 -0.20762879 0.16618855 0.35320774 -0.04244299 -0.20742476 0.16386104 0.1793584 0.015002959 0.18768632 -0.10546642 -0.24863952 0.2650105 -0.004544377 0.3911296 -0.61046803 0.37499925 -0.05169806 0.23439372 0.5245359 0.21275845 0.4729332 0.1734308 0.111113064 -0.1016188 -0.35022685 -0.003786284 -0.20014273 0.033290174 -0.24045888 0.3216329 -0.091784686 0.031267725 0.1702765 0.33850247 0.34444076 0.19342723 0.5932405 0.17668977 0.20810829 0.021252617 0.6521867 0.39375454 0.046555266 -0.14473695 0.11789149 0.017328592
” -0.024160426 0.19269942 0.21608694 -0.035408966 0.24610904 -0.581117 0.34950334 0.6897312 -0.18290317 -0.46750376 -0.0024960607 -0.6719679 -0.06344813 0.1907222 0.25339335 -0.18018016 0.13059743 -0.22720924 -0.14080243 -0.709441 0.098251335 0.425003 0.20020081 -0.24206984 -0.0632536 -0.032219872 -0.42507133 -0.14553815 -0.19580135 0.051812824 0.39421618 0.103508435 0.24154094 -0.35249558 -0.1282966 0.6090028 -0.08491248 -0.17129485 -0.026987107 -0.63898176 0.08872163 -0.14472422 -0.096556105 -0.08652116 0.30808115 -0.037789095 -0.28926322 -0.23958394 0.19010739 0.24437167 0.23220938 -0.4293502 -0.082899824 0.0017967912 -0.21898888 0.17238525 0.33863086 -0.036674485 -0.2176116 0.16328152 0.18683957 0.020754293 0.19286062 -0.09645445 -0.2559753 0.2776449 -0.013281819 0.3711186 -0.6070191 0.375562 -0.07019314 0.23967567 0.5224826 0.18702675 0.46153823 0.17445259 0.095075816 -0.09508148 -0.36475945 0.0006725871 -0.18670398 0.040894732 -0.24595273 0.32634947 -0.09655792 0.040861163 0.17839573 0.32819614 0.3273681 0.17734234 0.596471 0.17084418 0.19636492 0.01368329 0.64564925 0.38734016 0.04538418 -0.15130125 0.1120369 0.013418205
“ -0.038699277 0.24021989 0.25700557 -0.031052895 0.30830052 -0.7105767 0.42279917 0.8491774 -0.22072652 -0.5755124 8.067779e-05 -0.8385661 -0.07725811 0.24281657 0.30783406 -0.23848371 0.14716849 -0.28746834 -0.16911855 -0.87192446 0.14358374 0.5151433 0.24422051 -0.28695628 -0.08125995 -0.05727184 -0.5127552 -0.18509191 -0.22458526 0.06634573 0.4943212 0.13431314 0.29516396 -0.42425796 -0.13847908 0.75886136 -0.09790303 -0.19603065 -0.014250019 -0.8026032 0.11391829 -0.18048434 -0.112493016 -0.12425591 0.36522186 -0.0394824 -0.37038285 -0.29062614 0.24548598 0.2968907 0.29454497 -0.5263354 -0.09588571 -0.0017416051 -0.2608453 0.22497286 0.4291668 -0.044638485 -0.2760469 0.21435222 0.22142477 0.025518045 0.23773716 -0.13008219 -0.31910992 0.3245458 -0.0042629754 0.4701822 -0.7513773 0.47294843 -0.07226141 0.28234962 0.64099187 0.24674118 0.5552102 0.20952788 0.13493232 -0.119741485 -0.4389824 -0.0069316286 -0.2402096 0.044183396 -0.28494182 0.39878237 -0.122686446 0.048723876 0.2160485 0.4077562 0.4227924 0.23577537 0.74012613 0.20366968 0.23187983 0.027385773 0.78226167 0.48749378 0.039189577 -0.20366731 0.14343752 0.028268415
와 -0.038918335 0.30436605 0.30550194 -0.054010656 0.3686176 -0.8727185 0.5099504 1.0275857 -0.28454754 -0.70302564 0.009021546 -1.025659 -0.092135444 0.2911914 0.38498944 -0.2876994 0.19874574 -0.36876348 -0.20389484 -1.0592395 0.16869181 0.644061 0.29863814 -0.3489177 -0.11409455 -0.06106626 -0.6426208 -0.22194365 -0.274722 0.06328439 0.5969602 0.15427715 0.35454556 -0.5132895 -0.17501508 0.9238256 -0.11888635 -0.24266328 -0.030411635 -0.97490174 0.12957397 -0.22140288 -0.13828447 -0.13929868 0.4458014 -0.0453338 -0.44833848 -0.35059807 0.2842715 0.3633571 0.3437289 -0.6335496 -0.116787836 0.013493945 -0.30264345 0.26083893 0.52452415 -0.07228834 -0.33389616 0.24919513 0.27256212 0.030999241 0.27942297 -0.14707837 -0.3839595 0.40681198 -0.01178505 0.5628186 -0.90770394 0.57075626 -0.08883373 0.34422 0.7855918 0.29713944 0.6817562 0.25873077 0.15416692 -0.14742786 -0.54501486 -0.022620553 -0.29408687 0.05663658 -0.35928425 0.49362275 -0.14258623 0.069441386 0.25225794 0.50807726 0.50764596 0.28634775 0.9029933 0.2548005 0.28834653 0.024220675 0.9616246 0.5875002 0.041651137 -0.22982197 0.18026362 0.020662006
게 -0.030667227 0.199654 0.21053001 -0.04143861 0.25433463 -0.6031666 0.34640557 0.6998614 -0.17668384 -0.4809329 -0.006605426 -0.6859628 -0.06851834 0.19741678 0.26443493 -0.19706821 0.12018223 -0.2505564 -0.13577113 -0.71745116 0.11364351 0.43549693 0.20157318 -0.24460635 -0.06322713 -0.038783055 -0.42680806 -0.13797481 -0.2003574 0.051034953 0.4198727 0.10504822 0.2327405 -0.35656708 -0.123458534 0.6232113 -0.07928538 -0.15869299 -0.014849328 -0.6566194 0.089909196 -0.14205283 -0.103570044 -0.108499944 0.30381548 -0.03892483 -0.31410062 -0.2341555 0.2002494 0.25064087 0.24356706 -0.43831947 -0.08283339 0.0017186219 -0.20450257 0.19184361 0.35576117 -0.04148238 -0.2291861 0.17114533 0.17798112 0.021294275 0.1900256 -0.109648146 -0.2590129 0.2795862 -0.014691854 0.38761163 -0.6111794 0.3886533 -0.06553367 0.24603735 0.5416012 0.20217755 0.4695846 0.16159062 0.102253675 -0.10439038 -0.36282393 -0.00852419 -0.2057529 0.047702238 -0.2507684 0.3459929 -0.09377805 0.03480798 0.17604665 0.35220367 0.34183383 0.18699622 0.626669 0.17696415 0.21215095 0.008870384 0.65335125 0.40586644 0.0342507 -0.16267057 0.11527044 0.010705572
없 -0.030196644 0.19492592 0.18735948 -0.038414847 0.23520634 -0.5308709 0.30918962 0.62599784 -0.16251488 -0.4301328 0.0003937665 -0.6163609 -0.045130774 0.18418022 0.23285037 -0.17497271 0.12216753 -0.21254176 -0.13418496 -0.65376514 0.09327675 0.38714468 0.16502061 -0.21844678 -0.05489887 -0.044402055 -0.37140125 -0.12921704 -0.17623037 0.038269795 0.3637076 0.0981324 0.20570303 -0.3204908 -0.116334096 0.56412166 -0.068629675 -0.14261192 -0.01763276 -0.59103674 0.08288086 -0.13206077 -0.08151858 -0.097770214 0.2666587 -0.035348345 -0.26920813 -0.21496348 0.17608997 0.22512847 0.214899 -0.38559306 -0.07868944 0.00070264464 -0.19569936 0.15461972 0.329007 -0.043406736 -0.2069126 0.16154626 0.17332527 0.017782317 0.17488205 -0.09738548 -0.23328416 0.2339827 -0.010529049 0.33405524 -0.5546744 0.35108608 -0.04497772 0.20743296 0.47410217 0.18868974 0.41907188 0.14698641 0.09892437 -0.08790139 -0.32868773 -0.014425087 -0.16553804 0.045067806 -0.22542372 0.29340258 -0.08520633 0.040154163 0.14563982 0.3138157 0.30197632 0.1771328 0.5558832 0.15632805 0.18520935 0.010952528 0.5670935 0.354282 0.034172047 -0.15172105 0.11617513 0.009193494
국민 -0.017770855 0.18206196 0.18643668 -0.03668299 0.23971502 -0.5492346 0.32779434 0.6449365 -0.1610171 -0.4299718 0.010948431 -0.6231035 -0.061492983 0.17087579 0.23295765 -0.17493184 0.12367955 -0.21980125 -0.13297933 -0.6614405 0.0972048 0.38963425 0.18559158 -0.22965184 -0.06478927 -0.04704645 -0.38718724 -0.13682288 -0.17142558 0.037536755 0.38517112 0.09137012 0.22135426 -0.32023865 -0.10167095 0.56557995 -0.07712273 -0.16060801 -0.0075621423 -0.610083 0.08959791 -0.13917011 -0.08210882 -0.095963426 0.28034994 -0.030093186 -0.29345742 -0.20559034 0.17761217 0.23333742 0.21794958 -0.39389142 -0.075532794 0.012667412 -0.20482807 0.1769842 0.3354191 -0.03843457 -0.2005761 0.16471142 0.17231433 0.015290615 0.1817352 -0.095547654 -0.23475596 0.26153654 -0.014012293 0.35342568 -0.5724837 0.3489525 -0.067233734 0.22129889 0.48334622 0.18282436 0.4326592 0.1484772 0.09914587 -0.097511165 -0.34128973 -0.017280819 -0.1891809 0.045935128 -0.23192747 0.3131332 -0.09542869 0.038439903 0.16203043 0.30490208 0.3115242 0.16875799 0.5524282 0.15504904 0.1791092 0.018701412 0.60004264 0.35574785 0.028886134 -0.1500823 0.10590859 0.006655631
· -0.035557516 0.2654052 0.2837842 -0.049858928 0.34891385 -0.8190896 0.4750312 0.9688666 -0.24613 -0.6586331 0.0072037783 -0.95137167 -0.08059759 0.27550733 0.35188857 -0.24683012 0.17563263 -0.32886156 -0.18419799 -1.002119 0.14509092 0.58329546 0.26848984 -0.3379066 -0.09942981 -0.07170805 -0.58849823 -0.20280617 -0.2513626 0.05694591 0.5555734 0.15442516 0.33535552 -0.481764 -0.16218852 0.84710807 -0.10714421 -0.23638025 -0.030954907 -0.9025952 0.12513092 -0.1983053 -0.14605033 -0.13105161 0.4189686 -0.048061665 -0.42234167 -0.31362438 0.2581023 0.33929682 0.327352 -0.5932953 -0.11311742 0.010371945 -0.28220692 0.25331983 0.49583727 -0.070392504 -0.29698494 0.24297448 0.24180996 0.024961174 0.2728711 -0.13764693 -0.36706543 0.3782765 -0.008756488 0.5267012 -0.8309909 0.5155341 -0.072773725 0.31532112 0.7315743 0.28628746 0.62947506 0.22032392 0.15230525 -0.1557162 -0.5112049 -0.013745534 -0.27375665 0.06472916 -0.32239097 0.458109 -0.1271533 0.07096597 0.24263334 0.4720854 0.47752222 0.27547985 0.8466097 0.24488853 0.2636459 0.036543395 0.9009272 0.55361307 0.03583754 -0.22056809 0.16804501 0.027392318
등 -0.040580574 0.26425117 0.28696626 -0.0283465 0.3283225 -0.77175516 0.46359205 0.9176502 -0.24145319 -0.6311739 0.0014664371 -0.8964307 -0.072176754 0.24858384 0.33238035 -0.2437829 0.16933033 -0.32266095 -0.17884898 -0.94269264 0.13550055 0.5734144 0.24837972 -0.31628853 -0.08334542 -0.05791289 -0.5674926 -0.19043404 -0.25206402 0.05668913 0.5241826 0.14401095 0.30252233 -0.45501658 -0.16264565 0.8185567 -0.10646599 -0.22325386 -0.013398268 -0.8712665 0.122185275 -0.19809818 -0.13400845 -0.13552743 0.40698 -0.046641085 -0.39745897 -0.3152146 0.25787544 0.32081115 0.3028103 -0.57116234 -0.12048125 -0.001397747 -0.27866977 0.23641917 0.45877522 -0.065907516 -0.28491348 0.2276899 0.24541946 0.030817788 0.2633731 -0.14062692 -0.34984058 0.36015782 -0.018579856 0.508679 -0.7912378 0.49953035 -0.07368877 0.31878442 0.69651765 0.26851436 0.6161636 0.2228835 0.1307417 -0.14734158 -0.47969547 -0.013705332 -0.24666257 0.04349846 -0.31916952 0.44701716 -0.13157216 0.047126185 0.22683287 0.4403684 0.44543484 0.24566987 0.80266315 0.23513366 0.26486355 0.03502436 0.8624467 0.523338 0.03842721 -0.20173219 0.15131952 0.015280241
않 -0.009199517 0.15511964 0.14846374 -0.031487636 0.19091737 -0.42941377 0.2462585 0.512506 -0.12677427 -0.33865407 -0.0004382862 -0.48547938 -0.033370323 0.1497854 0.19636232 -0.14237511 0.094587885 -0.17524393 -0.095432974 -0.5104982 0.08416865 0.3130961 0.1468289 -0.16492052 -0.05188575 -0.041530304 -0.309703 -0.09409562 -0.14254636 0.036466867 0.29791328 0.06787451 0.17998827 -0.25117657 -0.084400155 0.4558387 -0.051769312 -0.11802256 -0.02209139 -0.4616495 0.05604502 -0.097404525 -0.06282486 -0.07101067 0.21209674 -0.01259497 -0.22199562 -0.16199063 0.13768636 0.1738749 0.17019603 -0.32198375 -0.06813973 -0.010127205 -0.14701557 0.13175696 0.25565743 -0.024381813 -0.1608862 0.11727938 0.1352479 0.009150663 0.1403375 -0.066384695 -0.18728174 0.2039454 0.0019900133 0.272841 -0.44602036 0.28323248 -0.04252354 0.16877232 0.3816853 0.139299 0.33877742 0.11949154 0.08146077 -0.079096645 -0.26410952 -0.0028119949 -0.14873615 0.027890626 -0.18296461 0.24320365 -0.06812737 0.034128096 0.1251064 0.24546096 0.24959332 0.1384546 0.4462642 0.12228127 0.13939953 0.0072334665 0.4577142 0.27703854 0.029388439 -0.10919876 0.080915436 0.0017943301
) -0.039450288 0.25864124 0.26068145 -0.0289423 0.3298225 -0.73925036 0.43322983 0.892114 -0.24019434 -0.587911 -0.004475134 -0.876493 -0.06778475 0.24789082 0.3311166 -0.24482824 0.16643469 -0.32242915 -0.17196102 -0.9161025 0.1315042 0.544838 0.24939984 -0.30231664 -0.09129728 -0.06810073 -0.55363387 -0.19587559 -0.25092456 0.05737025 0.52567255 0.13299741 0.29202858 -0.45153967 -0.14651027 0.780479 -0.10263537 -0.21653695 -0.012225007 -0.8437544 0.10833572 -0.17901707 -0.13355695 -0.121658616 0.38410214 -0.027315715 -0.38523495 -0.29355773 0.25231597 0.31684953 0.30092758 -0.55269575 -0.10197457 0.011551379 -0.25500607 0.23034196 0.44760963 -0.046597272 -0.292105 0.22029498 0.22191301 0.032412663 0.23446126 -0.12754448 -0.32081848 0.3431073 -0.019685566 0.47208422 -0.76880854 0.47760653 -0.07152442 0.29761308 0.6790556 0.25149754 0.57483 0.20738724 0.13622937 -0.14228031 -0.45518643 -0.01437868 -0.25411054 0.05093711 -0.3129066 0.41259134 -0.13376358 0.049323544 0.21650715 0.4370523 0.4443883 0.25211057 0.7853061 0.22075276 0.24339312 0.03620317 0.82274044 0.5093187 0.038975168 -0.19524726 0.1603717 0.013655814
( -0.036585353 0.27679503 0.29718333 -0.050594248 0.35685214 -0.8074984 0.48094848 0.96279573 -0.26510715 -0.6420785 -0.010399743 -0.95862687 -0.07536631 0.25948948 0.3507625 -0.26326865 0.17200385 -0.3463375 -0.1886871 -0.9922471 0.15553525 0.5911967 0.28171638 -0.34181353 -0.08884683 -0.067873836 -0.58991426 -0.21317458 -0.26439664 0.060744636 0.5542252 0.15965843 0.33086485 -0.48190203 -0.16996759 0.8601587 -0.12166007 -0.23302655 -0.028871927 -0.91594464 0.13043131 -0.21170819 -0.13081998 -0.12853467 0.40951967 -0.046295296 -0.4279439 -0.3339381 0.25740153 0.34183696 0.3298094 -0.59850574 -0.121356115 0.007524955 -0.28903514 0.24117775 0.49719244 -0.04999077 -0.3169167 0.24149296 0.25804213 0.026264023 0.26638442 -0.14895207 -0.35208154 0.38683802 -0.006289416 0.5198744 -0.84419394 0.51929647 -0.098645575 0.33533216 0.7274842 0.27412754 0.643359 0.22148542 0.15680137 -0.15557556 -0.50917596 -0.0049673044 -0.27427095 0.050239462 -0.3409215 0.45411694 -0.14115995 0.054440685 0.24895586 0.48103675 0.47351268 0.2659119 0.8388199 0.24814962 0.26687014 0.034477003 0.9069515 0.5556592 0.04518511 -0.21185122 0.17633301 0.02034146
만 -0.023554845 0.20227863 0.21282572 -0.031934164 0.24779522 -0.5768968 0.32580674 0.6720407 -0.18502384 -0.45696247 -0.0044926372 -0.6633434 -0.048413627 0.20025101 0.25782087 -0.1789478 0.12132871 -0.23012334 -0.13928822 -0.70740104 0.11211723 0.40469047 0.19302592 -0.23448181 -0.07551174 -0.04457986 -0.41960704 -0.13233165 -0.19033635 0.03801607 0.39838064 0.10748527 0.23450494 -0.3353397 -0.119067565 0.5938196 -0.071996056 -0.15076861 -0.021382181 -0.6366142 0.09083212 -0.13630407 -0.10007988 -0.09973845 0.2909915 -0.029285787 -0.28985655 -0.21990255 0.1784899 0.24635364 0.22590531 -0.421467 -0.09104123 -0.005053604 -0.19307952 0.17874296 0.33455792 -0.037668854 -0.22127593 0.15947545 0.18088888 0.02213985 0.18857978 -0.0919295 -0.24222843 0.2585282 -0.0024865519 0.3720028 -0.5868087 0.37654027 -0.06805273 0.22454107 0.5108389 0.19990261 0.44648418 0.17332494 0.09753121 -0.11043122 -0.3594429 -0.012223475 -0.17805494 0.033586174 -0.23786041 0.33123007 -0.10418862 0.043996 0.17263643 0.32212576 0.3331646 0.18384674 0.5964964 0.16344036 0.18619558 0.028470173 0.621862 0.39036366 0.026087541 -0.14437753 0.11560513 0.008080255
정부 -0.026063794 0.20010757 0.21247505 -0.031609595 0.2480816 -0.597695 0.34689018 0.7126526 -0.17915364 -0.47806656 -0.0046711606 -0.6837657 -0.068075076 0.19921541 0.26378313 -0.18968998 0.123514935 -0.25293413 -0.15006629 -0.7191062 0.1141339 0.43142188 0.20715126 -0.24868551 -0.07169521 -0.046598155 -0.4394363 -0.1560882 -0.18248263 0.04429331 0.40015462 0.11562029 0.23222119 -0.3554605 -0.11834458 0.62022984 -0.08599653 -0.17080387 -0.025688514 -0.65748537 0.08779724 -0.14956124 -0.09493314 -0.1010805 0.31489715 -0.025460681 -0.309797 -0.23460558 0.19568244 0.2555956 0.24616231 -0.4373593 -0.08625818 -0.0011829729 -0.21250802 0.17655185 0.3544599 -0.05221032 -0.22276394 0.1777913 0.18741931 0.017876484 0.20073088 -0.112800024 -0.25022066 0.27560082 -0.0035580127 0.3896292 -0.6128559 0.38597175 -0.060952783 0.22715351 0.52678037 0.19846119 0.4554474 0.17300354 0.112707384 -0.10740341 -0.3587612 -0.011182008 -0.19687665 0.047156643 -0.25239053 0.329835 -0.09257572 0.036663793 0.18304741 0.34734404 0.3375366 0.20215937 0.62132066 0.16712715 0.19051917 0.010586108 0.6569447 0.40438208 0.03245862 -0.15884848 0.114344634 0.010946176
화 -0.016767913 0.16306692 0.17269784 -0.023993649 0.2078867 -0.5146236 0.304771 0.6112654 -0.16739896 -0.39774463 0.010896946 -0.5833219 -0.05558682 0.17960544 0.21251479 -0.16591829 0.112632416 -0.21691085 -0.1320161 -0.61629146 0.10220131 0.3619439 0.1629813 -0.19975531 -0.059881758 -0.04927204 -0.3604838 -0.12764908 -0.1595831 0.04506978 0.3592428 0.101392135 0.21217488 -0.30922616 -0.10111324 0.53055215 -0.066252425 -0.13226771 -0.008036837 -0.5732552 0.08995999 -0.12899736 -0.08236209 -0.076309755 0.2550389 -0.028877107 -0.26260206 -0.19212127 0.17167345 0.20887612 0.19259493 -0.3768424 -0.06272077 -0.008269245 -0.1706243 0.15600069 0.30273214 -0.025872298 -0.18000883 0.15898746 0.16731262 0.006948199 0.17448969 -0.100337625 -0.23271284 0.2255215 -0.0037703763 0.33651146 -0.5317621 0.3224679 -0.05533753 0.19895677 0.45182925 0.17696235 0.40219283 0.14201792 0.08728737 -0.09193265 -0.31659606 -0.004449949 -0.15629856 0.043929968 -0.21607909 0.27943704 -0.09575517 0.030680008 0.15151101 0.28624123 0.29709062 0.176079 0.5290604 0.15001018 0.18092872 0.023812197 0.55573577 0.33389243 0.029019443 -0.12838224 0.11369896 0.008164173
크 -0.012225733 0.18676539 0.19953321 -0.03501482 0.23481083 -0.53790516 0.30625644 0.6443356 -0.17916971 -0.4388075 0.002867227 -0.61506575 -0.05575379 0.18731467 0.24044463 -0.16675828 0.11059936 -0.21487917 -0.13743177 -0.66195405 0.1061955 0.38228786 0.18446173 -0.22102414 -0.06563984 -0.047940705 -0.3955511 -0.13633895 -0.16316395 0.050527625 0.3599287 0.089703776 0.21922293 -0.32868415 -0.1009347 0.57149106 -0.08031828 -0.14102824 -0.005527762 -0.5979463 0.08689509 -0.14273477 -0.08063175 -0.080793194 0.28215283 -0.038367618 -0.2743324 -0.21542881 0.17585132 0.23031719 0.21744774 -0.38935593 -0.08308793 0.0063642226 -0.19564599 0.1657465 0.32968846 -0.03401292 -0.1939697 0.15597183 0.17021005 0.026901174 0.17203788 -0.08843326 -0.24507286 0.25889614 -0.00020213475 0.35432383 -0.55094177 0.35235476 -0.0607299 0.20705216 0.47846413 0.18432695 0.41924122 0.14609946 0.0903568 -0.086000524 -0.32162404 -0.0010389758 -0.18238357 0.038686633 -0.22797315 0.3111713 -0.088822596 0.04618065 0.15120356 0.30683511 0.3161671 0.17886998 0.55079305 0.14980102 0.18407352 0.008106276 0.59741235 0.36601782 0.028650042 -0.15170291 0.10220782 0.013366142
러시아 -0.021252098 0.2151885 0.222294 -0.019674474 0.2619415 -0.62774974 0.38162327 0.75417393 -0.20926851 -0.50251585 -0.007964606 -0.74230754 -0.05256052 0.2035207 0.26917884 -0.20774157 0.13980833 -0.25777918 -0.15898594 -0.77763957 0.1269079 0.47135654 0.22152852 -0.25527453 -0.07142006 -0.046568923 -0.45708066 -0.15120485 -0.19934975 0.05313719 0.4337156 0.10703047 0.26359168 -0.38230798 -0.12639575 0.664015 -0.08811204 -0.18505326 -0.011609368 -0.7117848 0.091926515 -0.16361159 -0.09941339 -0.099222004 0.32491684 -0.026289426 -0.33826527 -0.2544434 0.20100033 0.25708005 0.2606972 -0.47553208 -0.10129886 -0.00889126 -0.21596795 0.19322237 0.381941 -0.052903112 -0.23979865 0.1870483 0.19121285 0.013401122 0.20185916 -0.110125765 -0.28985608 0.29605815 -0.009239854 0.41896692 -0.6559917 0.41587225 -0.07272596 0.24556269 0.5723006 0.21503872 0.48937055 0.1778866 0.124273814 -0.124314845 -0.3969544 -0.010215134 -0.21043046 0.054381926 -0.2601674 0.3505948 -0.11490745 0.036027912 0.17546816 0.3583959 0.36277717 0.20479056 0.6563141 0.18104011 0.21427678 0.024510605 0.7075349 0.4217204 0.041981243 -0.16453351 0.12721723 0.009422786
투표 -0.040215682 0.2911218 0.3289487 -0.037095007 0.3867829 -0.8899045 0.52547383 1.0477566 -0.26642486 -0.71665263 0.0020282913 -1.0313326 -0.10076411 0.29695025 0.3997946 -0.27098358 0.1803279 -0.35555905 -0.21465488 -1.0591116 0.15126833 0.6556515 0.2805912 -0.36398876 -0.106773555 -0.06900327 -0.6444024 -0.2184757 -0.2849086 0.06209704 0.61370254 0.16199017 0.36453024 -0.50825113 -0.18660435 0.9312367 -0.106650606 -0.23597485 -0.016716823 -0.9817603 0.14744042 -0.21769689 -0.1437844 -0.15513752 0.45434976 -0.03790417 -0.4663708 -0.33586586 0.2914002 0.36750188 0.34638402 -0.64597666 -0.11638751 0.007349603 -0.31902504 0.27909285 0.52802265 -0.074620485 -0.31567433 0.2672459 0.27800247 0.042148247 0.27917483 -0.16658157 -0.38478556 0.40061793 -0.009774922 0.56871283 -0.92279536 0.5692524 -0.085074596 0.34793156 0.7910362 0.3001094 0.69856316 0.24913995 0.16887979 -0.15665914 -0.5372979 -0.019567447 -0.28135228 0.06623639 -0.35498977 0.5061989 -0.15781765 0.07903606 0.25741577 0.5049103 0.50811034 0.27781263 0.9096788 0.2604832 0.30604643 0.039342847 0.9532326 0.6012482 0.03926787 -0.22729725 0.19106808 0.02357716
다는 -0.031264722 0.16858463 0.18767393 -0.02803141 0.21080124 -0.5112537 0.30547264 0.61688244 -0.15572506 -0.41013825 -0.008889087 -0.59016883 -0.046508882 0.16314848 0.22317202 -0.1630587 0.11228883 -0.21132347 -0.12867321 -0.6278357 0.09980892 0.37316546 0.17025726 -0.20564619 -0.067999996 -0.047111485 -0.36213577 -0.1358918 -0.16833228 0.04102384 0.34519404 0.09291863 0.21516174 -0.3086293 -0.096868984 0.5424373 -0.07277866 -0.14613613 -0.014770921 -0.5630643 0.08866411 -0.12175656 -0.08960893 -0.093507 0.27253166 -0.025837755 -0.2594987 -0.20267764 0.17899358 0.20573796 0.21624151 -0.3865611 -0.075330615 0.0073869564 -0.19489053 0.16199031 0.3016435 -0.044156637 -0.18918276 0.15330932 0.15581116 0.025773462 0.1618099 -0.09190044 -0.21610099 0.24055195 -0.011129327 0.3377752 -0.5377589 0.33334807 -0.05146994 0.21299435 0.4684214 0.17019944 0.41623664 0.1426516 0.10250182 -0.09777501 -0.3247673 -0.010052062 -0.1791028 0.033216905 -0.21088967 0.2902582 -0.09677393 0.029804446 0.14148419 0.29566324 0.30528986 0.168063 0.5425276 0.14683579 0.18301097 0.02254252 0.57437164 0.3441499 0.032294042 -0.13554136 0.09583474 0.023856752
대하 -0.024635542 0.17789581 0.18277514 -0.021076743 0.21124493 -0.50736535 0.29667997 0.59417534 -0.16810891 -0.40445742 -0.0021200797 -0.58467597 -0.046640586 0.1668013 0.22163442 -0.16685688 0.10039349 -0.1992174 -0.110954635 -0.60221374 0.09771314 0.35639688 0.17399846 -0.20894547 -0.06942952 -0.029695364 -0.36319092 -0.1324867 -0.1629384 0.04654628 0.33903837 0.09539984 0.20132378 -0.29123446 -0.10130075 0.5132004 -0.07136648 -0.13003197 -0.009856448 -0.5608442 0.0882936 -0.11910264 -0.07388076 -0.08238051 0.2464481 -0.02973239 -0.25427976 -0.20357978 0.17522873 0.19529925 0.1905634 -0.37088674 -0.06404919 -0.0058755646 -0.16881502 0.14300556 0.30283767 -0.033152845 -0.18692227 0.15805116 0.15939766 0.018405741 0.16705227 -0.08308111 -0.21510305 0.24203756 -0.0075795273 0.31324786 -0.5209329 0.3189452 -0.058552735 0.19818057 0.45357886 0.16269515 0.3954134 0.14569017 0.09046186 -0.08886901 -0.30234075 -0.014595018 -0.16127996 0.04301312 -0.20731273 0.27156392 -0.0944572 0.026325034 0.14859778 0.29238147 0.29685584 0.16155691 0.51807797 0.14848796 0.15681301 0.007633386 0.552556 0.32480147 0.027009936 -0.13825472 0.10964814 0.010286326
대선 -0.017602798 0.219976 0.22687326 -0.03705406 0.27665552 -0.6465459 0.38727152 0.7709535 -0.19746871 -0.523645 -0.005541698 -0.74604386 -0.063909814 0.20771164 0.28962427 -0.19871375 0.13480648 -0.26206133 -0.14902297 -0.7810641 0.12911633 0.46489325 0.20648077 -0.2593923 -0.086560555 -0.03851487 -0.4746719 -0.16018863 -0.2085773 0.05634953 0.44686753 0.10749166 0.2522511 -0.38102424 -0.12603313 0.67948896 -0.086468585 -0.1809814 -0.025129626 -0.708594 0.09328546 -0.15876438 -0.107220955 -0.11500387 0.3373707 -0.034520645 -0.34434924 -0.2614924 0.21169488 0.25899178 0.26135668 -0.4684035 -0.08860084 -0.00342844 -0.22161172 0.18858157 0.39303946 -0.04680273 -0.24265796 0.19309756 0.19479015 0.018836988 0.20710087 -0.12007817 -0.28152785 0.29189646 -0.0008184699 0.4061958 -0.66833574 0.40430856 -0.077937186 0.2544509 0.5633666 0.21118884 0.50519633 0.18296365 0.11868745 -0.10374525 -0.40596715 -0.0037906414 -0.22114909 0.051587556 -0.25505447 0.37336543 -0.11598516 0.050454985 0.17943843 0.36872607 0.36926684 0.19908369 0.6689005 0.19318636 0.2105129 0.012625619 0.7088772 0.42719463 0.028658433 -0.1782035 0.13072897 0.026318524
안 -0.029087806 0.18329187 0.19165671 -0.031957384 0.21938631 -0.5162413 0.30720875 0.6107781 -0.16482261 -0.42257553 0.0070588337 -0.6072882 -0.060104363 0.17253937 0.22761731 -0.1640703 0.11164921 -0.20862855 -0.12144476 -0.6211707 0.09185457 0.36571753 0.16212694 -0.19865738 -0.06027953 -0.045700446 -0.36647877 -0.11794442 -0.15741394 0.03571708 0.34871256 0.09047718 0.19990803 -0.30076697 -0.09830542 0.5335262 -0.06128426 -0.15300277 -0.0069070593 -0.57650256 0.083379224 -0.1337379 -0.080805086 -0.0764466 0.26365253 -0.032927215 -0.2770016 -0.19934724 0.17488626 0.22140935 0.20149535 -0.3878554 -0.06576351 -0.0026280608 -0.18000686 0.16724406 0.30478916 -0.034644514 -0.19749255 0.1447391 0.15334815 0.01884279 0.16055565 -0.09382178 -0.22880311 0.24542344 -0.0037556305 0.33887675 -0.527794 0.32796887 -0.059588898 0.21586423 0.46622851 0.16436477 0.4081828 0.15616722 0.10248169 -0.098645575 -0.31980598 -0.007287338 -0.16662426 0.034020573 -0.21596086 0.2975639 -0.07946133 0.037122965 0.143782 0.2919036 0.29508728 0.17296821 0.53311926 0.14904687 0.16295522 0.015461332 0.5720531 0.35168216 0.03536523 -0.14190884 0.11626463 0.015014296
년 -0.027810182 0.244485 0.24733548 -0.029040568 0.30963534 -0.6942038 0.41542897 0.8337703 -0.22087088 -0.5679419 0.0009518036 -0.8120546 -0.07626146 0.234695 0.31031057 -0.23038234 0.1534864 -0.27957013 -0.17576137 -0.8490047 0.12070954 0.49957976 0.23876904 -0.29007614 -0.085425764 -0.06209512 -0.5151642 -0.18098809 -0.2241628 0.06031686 0.47171384 0.11773417 0.2781483 -0.41594213 -0.1479171 0.72863376 -0.088598296 -0.19390942 -0.012334103 -0.77462566 0.10785867 -0.1736583 -0.10518509 -0.11326584 0.36193678 -0.036331028 -0.3729086 -0.2705956 0.23553373 0.2922329 0.28768614 -0.5186495 -0.09748355 -0.006512071 -0.25839567 0.21728687 0.42409155 -0.044133235 -0.2702584 0.21054685 0.21822536 0.03049095 0.22791897 -0.117575444 -0.29949638 0.31613007 -0.018203588 0.45992726 -0.72316074 0.43976343 -0.078940116 0.2818324 0.63302463 0.23480721 0.5454004 0.19311379 0.11864595 -0.1237571 -0.43202 -0.01937246 -0.22895907 0.038775925 -0.28753975 0.39976317 -0.11615475 0.059748065 0.20948428 0.4019146 0.4123733 0.23435889 0.73300904 0.21531206 0.24026142 0.02848246 0.77634394 0.46802944 0.034718554 -0.17820585 0.1466612 0.014157399
선거 -0.028702315 0.2192758 0.24786843 -0.03090448 0.28689465 -0.6497167 0.39748517 0.77562004 -0.21153279 -0.5318781 -0.0031604304 -0.7745708 -0.066222705 0.21071014 0.29682282 -0.21253544 0.1359012 -0.27854982 -0.16091804 -0.8130414 0.12313768 0.4845923 0.21536148 -0.2569167 -0.08176969 -0.057830427 -0.47982386 -0.16566044 -0.21789396 0.04299679 0.44784558 0.11723058 0.27016982 -0.39678186 -0.13957873 0.692003 -0.08810029 -0.1805873 -0.019466052 -0.72573394 0.111686446 -0.173573 -0.10355877 -0.1030877 0.33798262 -0.02831563 -0.34733748 -0.264351 0.20874365 0.28434202 0.25243208 -0.48639938 -0.09356105 -0.0025745425 -0.22534502 0.19527021 0.38728237 -0.03767551 -0.25512463 0.20460653 0.1995158 0.02923963 0.21412413 -0.12203149 -0.2960274 0.297301 0.00038427822 0.43129173 -0.6802607 0.43064508 -0.06381834 0.2668001 0.5896111 0.2127548 0.5243896 0.18045326 0.11491804 -0.11466599 -0.40086445 -0.019332338 -0.21485771 0.051250733 -0.27817813 0.38154706 -0.11659932 0.057453945 0.18567792 0.38527295 0.39234754 0.20390548 0.6806644 0.18586756 0.2297139 0.030774964 0.71603787 0.44289187 0.036772326 -0.18474108 0.13722226 0.008388897
아야 -0.015448576 0.13017073 0.15064333 -0.013930674 0.16995971 -0.4068651 0.22786352 0.4844506 -0.12467159 -0.31620443 0.0035771967 -0.47085866 -0.03644636 0.14547126 0.18818866 -0.12069004 0.0781423 -0.17242683 -0.0898334 -0.50030726 0.077853955 0.30105078 0.12987448 -0.15607673 -0.057589285 -0.02429934 -0.28515795 -0.0957183 -0.13732845 0.043575775 0.2877016 0.0700834 0.16533536 -0.2338173 -0.084063515 0.42977154 -0.05604901 -0.11468389 -0.010719606 -0.4526899 0.06320059 -0.11078347 -0.06192763 -0.05823943 0.21401514 -0.014198809 -0.21383986 -0.15348196 0.12665999 0.16261923 0.17231615 -0.2884371 -0.06380263 -0.00572719 -0.13529466 0.12712534 0.24929456 -0.036369655 -0.15195492 0.1181027 0.12461231 0.016405256 0.12518653 -0.0673248 -0.17883904 0.19628128 -0.0037517168 0.2710454 -0.41801313 0.2669436 -0.050672907 0.15020168 0.35890207 0.13443269 0.32761747 0.120112084 0.06675511 -0.06238082 -0.24735098 -0.016216163 -0.12825924 0.026630463 -0.17523362 0.23848912 -0.05967324 0.037033536 0.11795044 0.24042389 0.24146268 0.123467594 0.42708194 0.11510331 0.12649776 0.021864712 0.43784285 0.27910185 0.0153663065 -0.099931754 0.076633915 0.01383107
자 -0.01732161 0.23989846 0.2486276 -0.044561867 0.2861768 -0.6899245 0.41837743 0.8178366 -0.2104048 -0.55029255 -0.009483271 -0.8050411 -0.07681397 0.22695117 0.3062085 -0.2270832 0.14527306 -0.2934297 -0.172612 -0.85722846 0.1405944 0.51383644 0.22923233 -0.28451014 -0.07893238 -0.053132713 -0.5126793 -0.17978819 -0.2207254 0.06532952 0.48270944 0.13698283 0.28694856 -0.40891865 -0.12941179 0.73942286 -0.0807409 -0.18402898 -0.030662285 -0.7675207 0.099246055 -0.18207003 -0.12528221 -0.11088408 0.35677397 -0.043962173 -0.35444954 -0.26381925 0.23073182 0.29927185 0.27363402 -0.5155679 -0.09546006 -0.0014508278 -0.25487828 0.2189215 0.41475955 -0.05705151 -0.25660715 0.21419476 0.22204727 0.025080413 0.2374423 -0.120687485 -0.29560664 0.3197177 -0.003953733 0.45682585 -0.7289046 0.45369577 -0.06917935 0.28462708 0.6187622 0.23305967 0.5371083 0.19588591 0.12143853 -0.13059333 -0.42859 -0.0013154225 -0.22247826 0.039581917 -0.28985238 0.3887961 -0.112076335 0.042619985 0.20991842 0.40353656 0.4025104 0.23944543 0.72899365 0.20459114 0.2389289 0.011670216 0.7523479 0.4626091 0.05044411 -0.1822994 0.1506841 0.012577317
면 -0.018942447 0.191737 0.20218857 -0.033812966 0.24563563 -0.57167906 0.3360578 0.6739539 -0.17844121 -0.455171 -0.0076428843 -0.65927804 -0.06049595 0.19118083 0.24021469 -0.17948493 0.11254458 -0.23436321 -0.13522881 -0.69457763 0.10772344 0.4192556 0.19056138 -0.225959 -0.07346582 -0.044364255 -0.40505868 -0.13618138 -0.17140064 0.045546245 0.39496005 0.107107855 0.22853997 -0.32599726 -0.118636586 0.58573556 -0.06745036 -0.1489722 -0.010310078 -0.62864596 0.09605702 -0.13971585 -0.09173216 -0.08417472 0.2948403 -0.025621327 -0.2924117 -0.22995555 0.18176961 0.23813358 0.21938708 -0.40454307 -0.07230352 -0.007949076 -0.20712206 0.16728961 0.3362527 -0.04139991 -0.21327789 0.16457327 0.17787969 0.030005371 0.17904325 -0.108144 -0.24222039 0.2533288 0.00118926 0.36622608 -0.5887298 0.35522485 -0.069523096 0.22641335 0.50482744 0.19263998 0.44091564 0.16217047 0.10546057 -0.101146966 -0.3551138 -0.009337584 -0.18183541 0.036725465 -0.2326373 0.3157003 -0.08627525 0.037578296 0.17268948 0.31962004 0.31849205 0.17751145 0.57780147 0.16667129 0.19539663 0.020470185 0.62652665 0.3785781 0.03903861 -0.15109408 0.114735395 0.021649929
보 -0.015193861 0.15432951 0.14608511 -0.03348441 0.18243958 -0.42931536 0.24902861 0.506571 -0.13976888 -0.35200608 0.009414311 -0.5004468 -0.045449898 0.14264365 0.186697 -0.14618172 0.08969918 -0.17518625 -0.09251653 -0.530406 0.07443897 0.30868685 0.14346112 -0.17922229 -0.05868656 -0.042006057 -0.30138606 -0.11464283 -0.14170575 0.035280187 0.29670933 0.06615833 0.18070018 -0.2545903 -0.08573538 0.44020897 -0.06412214 -0.11471757 -0.0067850878 -0.4708603 0.074008815 -0.11545528 -0.07082102 -0.07476586 0.21850634 -0.017075924 -0.21982287 -0.17592633 0.14398457 0.1844778 0.16422999 -0.30976865 -0.06564427 0.010650517 -0.14672086 0.13255845 0.2560831 -0.040311847 -0.15071565 0.124366865 0.14053558 0.020414513 0.13066366 -0.07631903 -0.18318051 0.19500965 0.0070034466 0.27106822 -0.45037177 0.27968058 -0.047794685 0.16244517 0.3827234 0.15065695 0.33018124 0.11783082 0.06960956 -0.0725485 -0.26772243 0.0029803715 -0.13970654 0.032086942 -0.17773053 0.24974552 -0.0724259 0.023383118 0.116826005 0.24709257 0.2582252 0.14364406 0.43682063 0.118367985 0.13493888 0.018047586 0.45858923 0.29078552 0.02725905 -0.11472164 0.077696115 0.01828861
다고 -0.019094007 0.1356559 0.14602956 -0.01383762 0.18667082 -0.43510282 0.25035715 0.5123907 -0.14421017 -0.3511864 -0.0014966874 -0.5061859 -0.042173326 0.14573509 0.1968099 -0.13545488 0.09410477 -0.16896299 -0.10817784 -0.5128051 0.07814867 0.30907395 0.13035588 -0.17095575 -0.044721477 -0.031370703 -0.31619525 -0.10792992 -0.14417739 0.040732518 0.28759208 0.081384555 0.16539307 -0.26009148 -0.09582519 0.4511911 -0.06404184 -0.12456119 -0.01890686 -0.47741884 0.06337135 -0.106366865 -0.06228556 -0.07205978 0.21496147 -0.019545132 -0.21580032 -0.1735802 0.13572975 0.18344021 0.17797592 -0.32100576 -0.052359212 -0.0103324335 -0.1608716 0.124616295 0.25676525 -0.031029068 -0.15593089 0.13288532 0.13793862 0.011787968 0.13298906 -0.08450321 -0.1876561 0.20769352 -0.011845845 0.28028476 -0.4374971 0.27174067 -0.05258129 0.16407712 0.37529323 0.1370003 0.34193608 0.11444663 0.07422586 -0.0696407 -0.2620524 -0.014690725 -0.14596087 0.03431437 -0.17308202 0.24119824 -0.07241661 0.032561965 0.12630689 0.24298882 0.25493515 0.12956978 0.4472721 0.11476486 0.14325766 0.021074446 0.46390602 0.29270926 0.032835536 -0.12199737 0.08829796 0.006969946
말 -0.027132202 0.14681242 0.16253658 -0.013406533 0.17934714 -0.43191904 0.24729009 0.51090986 -0.1307782 -0.35476547 0.0027839965 -0.506645 -0.04270183 0.14784323 0.18224145 -0.13611796 0.09166893 -0.18418151 -0.106333 -0.51958215 0.07032579 0.30504835 0.14226145 -0.16431959 -0.049925115 -0.022283144 -0.3186569 -0.09637426 -0.14303778 0.028884808 0.28738463 0.07812177 0.16995232 -0.24649177 -0.08792168 0.4527703 -0.04997543 -0.12924282 -0.013620074 -0.4804966 0.057252284 -0.10429041 -0.06751543 -0.073380254 0.21952985 -0.030157754 -0.22565602 -0.1682336 0.15024213 0.18689261 0.16749386 -0.31151617 -0.06413451 -0.0027363026 -0.15777065 0.1257281 0.2607689 -0.03842859 -0.16835879 0.122102745 0.14088075 0.01783945 0.14645539 -0.06763055 -0.19439888 0.19431256 0.0034297057 0.28309077 -0.4392714 0.28630123 -0.035863366 0.16925025 0.3849489 0.15033686 0.34584394 0.13371618 0.068377964 -0.08050724 -0.26003984 -0.0064667035 -0.14075202 0.0372468 -0.16894644 0.23554918 -0.07413138 0.021855576 0.1321881 0.2498295 0.24755248 0.1405952 0.45164475 0.13466044 0.15133116 0.017159216 0.47357976 0.29562455 0.028350381 -0.11491841 0.078206785 0.014349956
힘 -0.022057006 0.11658867 0.10847951 -0.018682877 0.13751636 -0.32164004 0.18017104 0.3830641 -0.107749216 -0.26646024 0.0051164925 -0.3722182 -0.024384866 0.09803209 0.14145128 -0.10317273 0.07610354 -0.14178827 -0.0708085 -0.4002063 0.051069774 0.2332984 0.103443936 -0.13272455 -0.044107705 -0.019751837 -0.24166913 -0.07785812 -0.09849101 0.025984446 0.2198084 0.06501274 0.11795626 -0.19911763 -0.06008091 0.34531507 -0.05123887 -0.09893211 -0.008533261 -0.36495447 0.052210573 -0.07096003 -0.05856254 -0.05965843 0.17306529 -0.018199073 -0.171666 -0.12860328 0.096243076 0.12722872 0.12374499 -0.23468632 -0.044665683 0.010433494 -0.107285924 0.096909896 0.18168916 -0.020413999 -0.12691109 0.10375832 0.10211403 0.010129155 0.111115016 -0.059705198 -0.1438003 0.14891984 0.0056769373 0.21334721 -0.3300085 0.20941706 -0.037578624 0.13691735 0.27722648 0.10439582 0.24439116 0.10064266 0.05459653 -0.057869427 -0.18997392 -0.015647776 -0.10978931 0.026030544 -0.13756457 0.19018757 -0.053050928 0.017943474 0.09814677 0.19273448 0.18763025 0.11069495 0.32274234 0.090592474 0.117134504 0.016125998 0.353879 0.21022862 0.02382887 -0.084333755 0.07563655 0.008192082
윤 -0.0072000255 0.11874173 0.12360171 -0.020579042 0.16114733 -0.36906224 0.22357273 0.4271549 -0.12529229 -0.28721565 0.007611528 -0.43071294 -0.04061355 0.11729602 0.16052073 -0.108187556 0.08155004 -0.15406059 -0.09125212 -0.45133194 0.058860015 0.27351096 0.11278443 -0.15170506 -0.051096417 -0.01877586 -0.26091 -0.09065588 -0.1143991 0.027166381 0.2629974 0.06184227 0.15178387 -0.22219831 -0.063560806 0.39533377 -0.04380923 -0.104033895 -0.011388042 -0.4165643 0.06747968 -0.10178827 -0.06745383 -0.05448921 0.18581255 -0.012093657 -0.20056695 -0.13505621 0.12394418 0.14455257 0.15238968 -0.27542764 -0.044843797 0.008872054 -0.140351 0.120367356 0.22610092 -0.018972503 -0.14693722 0.10139713 0.10297701 0.018758012 0.11668128 -0.0599602 -0.15626284 0.17906772 -0.00051996065 0.23670846 -0.3787643 0.2395962 -0.048200075 0.14037761 0.32619357 0.12810804 0.2875719 0.096159205 0.065946124 -0.056147166 -0.22106095 -0.0024830129 -0.127697 0.022269344 -0.15357341 0.2025709 -0.071555935 0.026577992 0.10902223 0.21691003 0.2183209 0.13000348 0.37236047 0.11747289 0.11830605 0.012433476 0.40008777 0.24258308 0.020210885 -0.10723066 0.086708225 0.015196242
위하 -0.019973941 0.1428117 0.15816584 -0.027603 0.17974892 -0.41420507 0.24785067 0.4898966 -0.13950397 -0.32733586 -0.00049393147 -0.48910135 -0.04101847 0.1310298 0.18864198 -0.13830328 0.08749942 -0.17034832 -0.102451555 -0.5101103 0.084720984 0.30281016 0.12823302 -0.16707166 -0.060899753 -0.03581267 -0.29460266 -0.09774482 -0.13895114 0.035074722 0.29087067 0.06746383 0.16349123 -0.2470925 -0.09299272 0.43782595 -0.04765412 -0.11438276 -0.008823208 -0.4613168 0.06423732 -0.11072675 -0.069011636 -0.061213486 0.21650864 -0.021991996 -0.20773257 -0.15970692 0.12870719 0.17989741 0.17409968 -0.31148875 -0.05097302 -0.00586308 -0.14849648 0.13288523 0.24215965 -0.038961668 -0.16195168 0.112493426 0.121480174 0.025110265 0.13897161 -0.08251704 -0.17171489 0.19988073 0.004030605 0.2779557 -0.43769455 0.26462805 -0.041129407 0.16830546 0.37432417 0.13271657 0.32939425 0.12902685 0.06513203 -0.065745495 -0.25188953 -0.011126672 -0.1374239 0.020574046 -0.17628443 0.23913498 -0.07339754 0.040706854 0.11274355 0.23125155 0.24709849 0.1438586 0.43185577 0.12852389 0.14576589 0.006776039 0.46528953 0.27072263 0.021114716 -0.118207105 0.09279304 0.0061603836
성 -0.01750169 0.16597563 0.17546627 -0.03141699 0.20392339 -0.49413115 0.28994873 0.5842554 -0.15731679 -0.392007 -0.005447603 -0.55935806 -0.049705718 0.15549178 0.2127561 -0.14757971 0.106381685 -0.20666791 -0.12610695 -0.60486656 0.08733898 0.36516553 0.15508573 -0.19638377 -0.058605913 -0.033657435 -0.36374393 -0.1127782 -0.16085167 0.045567814 0.32650608 0.09370169 0.188823 -0.29458943 -0.10020616 0.5119062 -0.06586596 -0.13853279 -0.009043722 -0.5469655 0.07268361 -0.13032138 -0.07140392 -0.074848786 0.2625503 -0.0214177 -0.26055402 -0.18465331 0.15441486 0.20807758 0.19279984 -0.3600136 -0.06644239 -0.0015801404 -0.18076566 0.14940529 0.29487935 -0.02930383 -0.18963675 0.15036887 0.1476019 0.009829247 0.15568548 -0.08527324 -0.20691429 0.23624264 0.004465148 0.32559514 -0.5112541 0.31289533 -0.042375334 0.20339485 0.44450456 0.1730442 0.38693905 0.14374603 0.08025834 -0.078851834 -0.2934235 -0.01527598 -0.16164973 0.04416904 -0.19608308 0.28398818 -0.07488519 0.03380917 0.1515806 0.2887149 0.2836265 0.16049282 0.51757765 0.15034197 0.15829042 0.013198152 0.5364977 0.33214492 0.030866517 -0.14087027 0.10463876 0.024004119
까지 -0.030777916 0.26639926 0.27922523 -0.03140481 0.336415 -0.7595897 0.4491026 0.9106219 -0.24789387 -0.6046749 -0.003212458 -0.8771475 -0.08533363 0.25151837 0.3437798 -0.24831057 0.1640161 -0.30848157 -0.17466594 -0.9334146 0.13386188 0.5649026 0.24318631 -0.3071283 -0.08716134 -0.06582614 -0.55944127 -0.19809973 -0.2449981 0.06931176 0.5173039 0.13373466 0.31533277 -0.4576023 -0.15203147 0.805268 -0.10317513 -0.21942969 -0.010311935 -0.8520987 0.12886299 -0.19567208 -0.12084135 -0.12077231 0.39492336 -0.037223123 -0.40261126 -0.29276088 0.25090623 0.31423154 0.31051412 -0.5511178 -0.115767695 0.0034021593 -0.26796186 0.2324747 0.45962608 -0.045641333 -0.27821368 0.21934488 0.23307413 0.036879625 0.24998555 -0.14541921 -0.3357816 0.34816387 -0.006968781 0.49525097 -0.79429376 0.48719314 -0.07233324 0.31005394 0.6856941 0.2606156 0.60712695 0.21399458 0.1437875 -0.13568953 -0.47934982 -0.022577524 -0.25364166 0.06155601 -0.30988032 0.42209435 -0.1259966 0.051418312 0.21767071 0.44981164 0.4513527 0.2489982 0.7941624 0.22593069 0.24744318 0.027806362 0.8481956 0.51626796 0.048544493 -0.20903042 0.16124818 0.013418929
정치 -0.018356511 0.18247896 0.19007291 -0.02767101 0.2283219 -0.5240957 0.31318307 0.6353093 -0.16219285 -0.42209253 -0.0014705271 -0.61874366 -0.061988108 0.17098728 0.23399815 -0.16064972 0.11453561 -0.22243454 -0.12149092 -0.64775795 0.09691134 0.39207497 0.1833102 -0.21275017 -0.07031741 -0.03722318 -0.3716098 -0.121060506 -0.17085928 0.049988963 0.37269577 0.08475064 0.22126082 -0.3125125 -0.1128159 0.55590385 -0.05965182 -0.15599455 -0.0063604037 -0.5918689 0.07500848 -0.12813313 -0.090085365 -0.08200458 0.27931127 -0.018318297 -0.26885238 -0.21675248 0.17779043 0.21046768 0.20953819 -0.37577373 -0.07982193 0.00698875 -0.19399913 0.154159 0.32447734 -0.035778143 -0.19001062 0.15908568 0.16402568 0.022533286 0.16393791 -0.086693354 -0.23553813 0.2497363 -0.010909535 0.34147048 -0.54096895 0.3367719 -0.06380883 0.20458245 0.4599281 0.18773966 0.40780047 0.15024512 0.08562867 -0.097386904 -0.32938653 -0.005846756 -0.16839117 0.039884288 -0.20662226 0.29971197 -0.07840946 0.04588389 0.15607244 0.3057194 0.2991791 0.16899662 0.5509932 0.14664115 0.17924304 0.008686296 0.5890942 0.35268563 0.03185827 -0.14662527 0.11598092 0.006642377
아니 -0.027790405 0.1664271 0.16399945 -0.026290756 0.20375775 -0.45757446 0.27935407 0.557012 -0.1386004 -0.38065237 0.006369779 -0.52743125 -0.05035107 0.15553094 0.1986707 -0.15048201 0.11013503 -0.18964 -0.10773861 -0.57122344 0.09178629 0.33250785 0.14763512 -0.18408017 -0.045187026 -0.040876754 -0.32997596 -0.115611486 -0.15649068 0.03371043 0.30888346 0.08826 0.1832634 -0.27993575 -0.09316701 0.4912343 -0.049638614 -0.14086048 -0.013684257 -0.51403826 0.07002863 -0.11623952 -0.06605163 -0.078947276 0.24946074 -0.025306199 -0.24077679 -0.17576334 0.15925787 0.19315097 0.18400873 -0.33277005 -0.070994616 0.0056602373 -0.16558988 0.1349695 0.2849594 -0.037179206 -0.17045568 0.12975805 0.14548054 0.022322327 0.157021 -0.09053202 -0.20858416 0.22069445 -0.0011173156 0.30113176 -0.4851638 0.2967072 -0.058108058 0.18629459 0.4088895 0.15757953 0.3682117 0.13608244 0.07648342 -0.080333486 -0.29238325 -0.011575238 -0.1503171 0.040759787 -0.19547044 0.2643218 -0.06914562 0.044593744 0.14119834 0.25881743 0.27274963 0.15953113 0.48242357 0.1391248 0.15451902 0.017505633 0.51269037 0.31963363 0.024889002 -0.13282396 0.103038065 0.0069143204
방역 -0.017204134 0.13577525 0.14247005 -0.02528534 0.17094378 -0.40645102 0.23552774 0.4664483 -0.12951793 -0.31494287 0.0012945352 -0.45724234 -0.038716175 0.12210113 0.18336365 -0.12947915 0.08376257 -0.15581772 -0.09414053 -0.48176527 0.07596072 0.2911683 0.13786012 -0.15103269 -0.049605276 -0.034135047 -0.2831501 -0.1062055 -0.118402444 0.03499856 0.27863485 0.075058125 0.1581792 -0.23410232 -0.08507649 0.42630616 -0.046814654 -0.107295625 -0.016367713 -0.4494584 0.070122086 -0.0970987 -0.06943503 -0.074085906 0.20026112 -0.019757746 -0.21561074 -0.15596105 0.13296877 0.15592849 0.1582856 -0.29671615 -0.060042247 -0.0010461096 -0.15184246 0.118840985 0.23117441 -0.03632258 -0.14697312 0.120078415 0.13197128 0.023360562 0.123366974 -0.07971423 -0.16555928 0.18939362 0.0035855102 0.25377518 -0.41461703 0.25175348 -0.05035172 0.16406125 0.35062525 0.14373513 0.30555326 0.12324898 0.06673681 -0.06148067 -0.25012922 -0.013670235 -0.123320304 0.017826429 -0.17068975 0.22919124 -0.07610999 0.03484727 0.11946355 0.22111687 0.23439817 0.13104284 0.419587 0.11964873 0.12913723 0.010636333 0.44242242 0.25904638 0.032581925 -0.10905771 0.077260576 0.0068923435
라는 -0.016278291 0.140764 0.1620022 -0.029068768 0.1973697 -0.44405013 0.24999717 0.52553725 -0.12638739 -0.34942088 -0.0013887185 -0.50455564 -0.052710976 0.14280407 0.18769039 -0.13643025 0.08904387 -0.18773814 -0.11228722 -0.5305783 0.084213234 0.3270813 0.14838465 -0.17038457 -0.04898305 -0.02874899 -0.32189056 -0.106881574 -0.14053917 0.04191083 0.29493335 0.07767194 0.18102415 -0.2651743 -0.09766477 0.46717626 -0.058605134 -0.12364909 -0.01824293 -0.47791922 0.06952253 -0.10826901 -0.07181406 -0.07235281 0.23279914 -0.03338184 -0.22484022 -0.17827222 0.15419742 0.18771027 0.16979551 -0.3234436 -0.069608755 0.01088342 -0.14699693 0.13709202 0.27286392 -0.035912935 -0.16095051 0.124239095 0.12683985 0.011756379 0.14256631 -0.08400551 -0.19639587 0.20365594 -0.0038442537 0.27534112 -0.44746417 0.28466567 -0.055413913 0.17395693 0.38436288 0.15623258 0.34358403 0.13431631 0.08444773 -0.08123581 -0.28022122 -0.0134428125 -0.13511306 0.028876834 -0.17924583 0.24847208 -0.08165601 0.036121298 0.11936201 0.26229125 0.24720371 0.15023744 0.4521856 0.12760304 0.14539836 0.015238908 0.4850632 0.29681626 0.025930228 -0.109905586 0.083944045 0.004437178
주 -0.027360275 0.15434884 0.15543132 -0.028222565 0.19031286 -0.44087493 0.2585436 0.52490324 -0.12917343 -0.351485 0.0028375748 -0.498135 -0.03319063 0.14223346 0.19009998 -0.14260198 0.08918958 -0.17540121 -0.10106236 -0.534435 0.08432834 0.3092806 0.13877946 -0.18423766 -0.044999886 -0.028832339 -0.3150732 -0.09849317 -0.13761371 0.025658477 0.2890528 0.07319326 0.1672939 -0.24878334 -0.082746156 0.4568626 -0.058351133 -0.12913245 -0.0037084557 -0.48559234 0.065979205 -0.115429744 -0.07233832 -0.08179917 0.22698474 -0.030294342 -0.217993 -0.17835201 0.137401 0.18035345 0.16496997 -0.31125793 -0.06577077 0.0018224114 -0.14657323 0.1361 0.25924656 -0.0234862 -0.16180784 0.13397756 0.14012377 0.007968261 0.14344001 -0.08652576 -0.19041869 0.20960237 -0.006629664 0.27496365 -0.4453736 0.2868775 -0.039470844 0.16560782 0.394045 0.15381138 0.3344914 0.12377321 0.077229135 -0.08700072 -0.26916352 0.003981913 -0.14535163 0.022451896 -0.18123588 0.2344742 -0.07049994 0.036939412 0.1269653 0.24533744 0.26240787 0.13115865 0.44347328 0.117586605 0.15603496 0.01223805 0.47077197 0.28215957 0.034417905 -0.11968579 0.0841121 0.015792953
겠 -0.021683259 0.121198796 0.123394646 -0.02121523 0.13606335 -0.32167712 0.18039362 0.38750097 -0.097388744 -0.25336772 -0.009462716 -0.37513876 -0.038835287 0.114773504 0.15246911 -0.10383968 0.06280982 -0.12699954 -0.07842149 -0.39221773 0.053159058 0.2339761 0.10406448 -0.1236828 -0.047043633 -0.02825573 -0.23575203 -0.08242826 -0.09789829 0.026582278 0.2202714 0.04834664 0.11969852 -0.19056298 -0.06555288 0.3293517 -0.033858925 -0.08241947 -0.0011724004 -0.36201817 0.050368488 -0.073784634 -0.059398547 -0.0613675 0.15771528 -0.0132292 -0.17673172 -0.12554647 0.11576406 0.13638261 0.11975969 -0.22971162 -0.041180853 -0.007222197 -0.10977976 0.10890993 0.20128812 -0.027321458 -0.11479644 0.09143565 0.09298507 0.014580187 0.10048162 -0.058885287 -0.14699163 0.14249213 -0.004090501 0.2110405 -0.33318576 0.21718366 -0.030397223 0.11791333 0.28000757 0.10698821 0.2512312 0.08615921 0.06714383 -0.051941283 -0.20712057 0.00026326135 -0.10900457 0.016146252 -0.13207678 0.19085057 -0.05909747 0.018789884 0.09194049 0.19215469 0.1938614 0.09796134 0.32576916 0.09455669 0.11233235 0.012845406 0.3574613 0.21574731 0.018844573 -0.08307254 0.06628863 0.015229828
우크라이나 -0.01824852 0.1590522 0.15397042 -0.018009314 0.1907583 -0.44482565 0.26879987 0.52614754 -0.13423453 -0.35413402 0.011024044 -0.50526124 -0.043410137 0.15141824 0.19872345 -0.13282235 0.096138865 -0.17737289 -0.11072675 -0.5420043 0.071914345 0.31706056 0.14373061 -0.17462404 -0.052675895 -0.031331245 -0.31110138 -0.114117436 -0.1319079 0.043043572 0.30950713 0.08033282 0.17526518 -0.2586828 -0.09768136 0.45321 -0.055342026 -0.12444563 -0.0057412316 -0.4926185 0.072135344 -0.11420463 -0.06512016 -0.07713421 0.22140612 -0.020052176 -0.22952361 -0.17466271 0.14027454 0.19068247 0.16545592 -0.3159884 -0.0686348 0.010503699 -0.1510877 0.13651073 0.260116 -0.033531748 -0.16978428 0.12717046 0.14082731 0.0047408296 0.14692202 -0.072747245 -0.18562661 0.2002251 0.0015061838 0.27336913 -0.45328447 0.29196113 -0.042274144 0.17017823 0.38699946 0.14035407 0.34176946 0.12923518 0.07128857 -0.073220134 -0.27502754 -0.001319599 -0.13841976 0.032999124 -0.1803854 0.2389569 -0.078913495 0.032264203 0.11622731 0.26152214 0.25916258 0.14057393 0.46128607 0.1252779 0.150096 0.015378976 0.49136063 0.29766095 0.022887744 -0.12328569 0.08194846 0.0173894
한 -0.01675602 0.1800117 0.19032906 -0.03671809 0.22660859 -0.5149191 0.29978752 0.60227424 -0.15213278 -0.41628402 0.0031765557 -0.59543526 -0.05050542 0.17612927 0.21186616 -0.15130582 0.10018119 -0.20038581 -0.12912448 -0.62641436 0.08659354 0.37429523 0.16528904 -0.20366552 -0.07198817 -0.028248867 -0.36376882 -0.13016313 -0.1656567 0.050006773 0.35167733 0.08181646 0.2076117 -0.30601725 -0.10015576 0.5405041 -0.06880038 -0.14118373 -0.0064255274 -0.5689326 0.08362709 -0.123112895 -0.09219841 -0.08826042 0.26906717 -0.024759773 -0.252903 -0.20134585 0.17590256 0.20295109 0.20770898 -0.38072813 -0.06969611 0.009121218 -0.18253301 0.16342594 0.29449245 -0.037691966 -0.1854583 0.144727 0.16413026 0.010522252 0.16479619 -0.08142068 -0.21429227 0.23526733 0.005338471 0.31802425 -0.5273786 0.3285618 -0.055300172 0.20744497 0.46134922 0.16770172 0.39537326 0.15537243 0.084918715 -0.09878334 -0.31393328 -0.015262264 -0.1663369 0.037752513 -0.21428084 0.28506356 -0.090327114 0.033958357 0.15041755 0.29625246 0.29362896 0.1747385 0.5256678 0.15651932 0.17458555 0.021023706 0.5681419 0.33611435 0.030623121 -0.14006035 0.10932141 0.0071845916
에게 -0.022455834 0.16989665 0.16840251 -0.020592373 0.20351756 -0.47293028 0.28015447 0.555024 -0.14021511 -0.37348452 -0.009388614 -0.55933464 -0.0448642 0.15794776 0.20380084 -0.14249067 0.09413249 -0.19870715 -0.10588529 -0.5811014 0.082608044 0.35448307 0.16497673 -0.19623435 -0.064909205 -0.037780367 -0.33652723 -0.12027304 -0.14769141 0.036993887 0.33111793 0.08394 0.19731036 -0.27096054 -0.10387253 0.5037473 -0.07113506 -0.14293437 -0.0065709488 -0.5257009 0.07943354 -0.12968369 -0.06962866 -0.08659868 0.23763092 -0.024174295 -0.25058243 -0.1854283 0.15129103 0.19194473 0.19599973 -0.34994423 -0.060430586 -0.0005538223 -0.17036715 0.15080535 0.2919897 -0.03562433 -0.1887611 0.13827172 0.15401569 0.02401488 0.14868243 -0.080711976 -0.1985653 0.21128139 -0.004898443 0.30807364 -0.49696922 0.30062073 -0.04464006 0.18478188 0.4194785 0.16277872 0.38092726 0.14384511 0.07972287 -0.087294824 -0.2843755 -0.006750805 -0.1617264 0.02408012 -0.20055795 0.27380252 -0.077631526 0.028000634 0.14438888 0.27153465 0.27650124 0.15063407 0.49521783 0.13953133 0.16140856 0.0111120185 0.51912546 0.3181878 0.02380393 -0.12875102 0.106457 0.015139715
점 -0.010317101 0.13455944 0.14005369 -0.019280743 0.17224994 -0.3757736 0.21658646 0.46154997 -0.12461374 -0.3076161 -0.008746941 -0.45332056 -0.042208787 0.13432755 0.16859077 -0.12151103 0.07625944 -0.14991862 -0.083273806 -0.45859894 0.0698385 0.26838696 0.13461575 -0.1553083 -0.04498097 -0.023310632 -0.2659391 -0.09493932 -0.12753268 0.030075666 0.26512086 0.067043245 0.15151924 -0.21693745 -0.07480087 0.3954598 -0.040373657 -0.11410523 -0.012782634 -0.41760036 0.05414801 -0.088573046 -0.06893923 -0.073345646 0.18723561 -0.017693259 -0.19199501 -0.1426837 0.12961502 0.16419008 0.15122266 -0.28728235 -0.044901434 -0.00644818 -0.12830478 0.11614 0.22825529 -0.029941188 -0.13389385 0.10576511 0.11962013 0.013665902 0.12559426 -0.07434124 -0.17584758 0.1675231 -0.007320632 0.24715051 -0.40116534 0.25631005 -0.036940634 0.14452185 0.33574283 0.12296803 0.2913859 0.10919979 0.06781717 -0.057589844 -0.23109986 -0.0071273325 -0.117227666 0.021002315 -0.16509877 0.21797752 -0.070004955 0.02338494 0.113015205 0.21196748 0.22044933 0.12726857 0.3962603 0.111296795 0.12738855 0.02288886 0.4223076 0.25346887 0.017615175 -0.10962891 0.076765485 0.0073973406
던 -0.028759494 0.14432399 0.14889759 -0.026905162 0.17991647 -0.42495945 0.25673926 0.5068384 -0.12377015 -0.33416176 0.0047482154 -0.48920244 -0.03749227 0.14076082 0.19367029 -0.1428468 0.09368639 -0.1695531 -0.09180056 -0.5224356 0.08761907 0.31228426 0.13468285 -0.16232419 -0.05592962 -0.024580743 -0.3163414 -0.1087625 -0.12976995 0.034206644 0.28386718 0.0749611 0.16135868 -0.2461345 -0.077271156 0.4420306 -0.049509905 -0.12158141 -0.0065958365 -0.46825296 0.05721756 -0.10483819 -0.07469788 -0.063009016 0.21229388 -0.013963217 -0.2195213 -0.15927134 0.14503314 0.18645883 0.16975416 -0.3090208 -0.058405433 -0.0007159366 -0.15490158 0.13380882 0.26205942 -0.023191825 -0.15622988 0.128624 0.12968074 0.016617905 0.13440773 -0.08166953 -0.1922834 0.20077457 -0.010102297 0.28262585 -0.4437356 0.27175575 -0.05243573 0.17657869 0.38393012 0.14543739 0.33023682 0.11693679 0.06941726 -0.065209486 -0.2700325 -0.0017865142 -0.13587634 0.0391412 -0.17027278 0.2410743 -0.065800145 0.03517636 0.11423178 0.23869304 0.24685815 0.13820568 0.44207117 0.12207165 0.14062612 0.01678004 0.4696542 0.2922583 0.035508215 -0.11194022 0.089100726 0.0018751286
명 -0.020002818 0.19978017 0.22111826 -0.031664092 0.26565492 -0.5910831 0.3609451 0.7109003 -0.1921337 -0.48562232 -0.0082808025 -0.6911376 -0.049886085 0.20798539 0.25984934 -0.1891964 0.12210527 -0.23640305 -0.1377422 -0.729056 0.12065319 0.42322588 0.18766068 -0.2306971 -0.06715164 -0.055344112 -0.4253104 -0.15218806 -0.18999931 0.052773032 0.40080345 0.114772364 0.23415837 -0.35878888 -0.113604024 0.63561887 -0.069539376 -0.16349931 -0.014645491 -0.6735681 0.0912946 -0.1518044 -0.09553432 -0.090689264 0.3159693 -0.032781377 -0.3164931 -0.22748213 0.20605455 0.2439618 0.24326032 -0.42958298 -0.08602021 0.0059522567 -0.21985605 0.1748904 0.3510721 -0.050262615 -0.23298557 0.18121439 0.17939629 0.028594181 0.19735613 -0.10911225 -0.2696409 0.27248904 -0.002220083 0.3958575 -0.62019926 0.39382166 -0.06693892 0.24870005 0.5312573 0.19633521 0.47124693 0.17235266 0.11502967 -0.11462428 -0.3661152 -0.0052117473 -0.18689945 0.039249044 -0.24638127 0.32944164 -0.09615821 0.037166085 0.18140502 0.35282972 0.35621724 0.20249523 0.61316925 0.18458122 0.19343258 0.02750293 0.65240395 0.40063295 0.034585133 -0.15908526 0.13204432 0.019050129
지만 -0.02311788 0.11693054 0.12189843 -0.02326908 0.14510664 -0.3257092 0.1977063 0.38458353 -0.09652851 -0.25499484 -0.0024552713 -0.38719282 -0.033236228 0.11104 0.13452435 -0.11196723 0.072167486 -0.13141075 -0.08294032 -0.40373194 0.06865566 0.24637453 0.0994602 -0.13919027 -0.04003536 -0.028415069 -0.23583877 -0.087011404 -0.11208425 0.02147356 0.22736354 0.061731637 0.122312844 -0.20210709 -0.072834924 0.344542 -0.0515498 -0.09130553 0.00029440553 -0.37101975 0.04738969 -0.072766066 -0.045790426 -0.054078296 0.16433695 -0.026940202 -0.17321093 -0.12885669 0.11540916 0.13294275 0.1390055 -0.24700502 -0.04172432 0.0067051505 -0.12179468 0.10728553 0.18869439 -0.020125186 -0.13156722 0.09479787 0.098993234 0.018076206 0.11089176 -0.06785952 -0.1453728 0.14515708 -0.0113268355 0.21298568 -0.32934177 0.2034661 -0.024465544 0.13365299 0.28419632 0.11071434 0.25867096 0.09996545 0.05861428 -0.047866218 -0.20561548 -0.015423733 -0.116106756 0.027676724 -0.13863984 0.17457843 -0.060216106 0.023950104 0.10327698 0.18458705 0.19404745 0.10573053 0.3466622 0.10054426 0.10244438 0.00063450413 0.35454348 0.2207867 0.025250336 -0.079831325 0.0714155 0.016690275
% -0.010680198 0.123591445 0.13633575 -0.015443007 0.15712717 -0.36809066 0.20518574 0.42314127 -0.120777875 -0.28019178 -0.009177147 -0.4305367 -0.03279198 0.12884526 0.16505572 -0.12045157 0.08482623 -0.14820252 -0.09126999 -0.44678155 0.064530924 0.25500062 0.12094328 -0.13845503 -0.046833098 -0.02488898 -0.25766933 -0.08222212 -0.123422146 0.03278498 0.2469497 0.06934502 0.14282115 -0.22204754 -0.07220442 0.36959785 -0.038972344 -0.110150665 -0.010253674 -0.39639214 0.04976646 -0.10041651 -0.06330839 -0.06833465 0.1935406 -0.027022405 -0.19248524 -0.15135181 0.12965003 0.14788932 0.13851745 -0.26331773 -0.051870465 0.009891793 -0.13093226 0.10472205 0.21138656 -0.034732647 -0.1257941 0.11574144 0.114360474 0.00610713 0.116484046 -0.0589015 -0.16510978 0.17689164 0.0027004166 0.2318756 -0.38106552 0.24236256 -0.03786593 0.14103864 0.32592395 0.11560921 0.27372956 0.11108979 0.06532849 -0.06142115 -0.21325912 -0.009828834 -0.12405354 0.015694184 -0.13901122 0.20138527 -0.0546461 0.028523108 0.09690919 0.21081926 0.22004934 0.11324662 0.3758806 0.105141565 0.12879044 0.009274854 0.39366868 0.23470125 0.018022887 -0.09382958 0.07268319 0.01099498
오 -0.0047615874 0.11533133 0.12223447 -0.011088989 0.14086555 -0.3201182 0.18781573 0.38339186 -0.106414795 -0.25275192 -0.0039519384 -0.3604615 -0.02619479 0.10062373 0.14105381 -0.105079755 0.05778629 -0.13018528 -0.07501164 -0.39512032 0.060505867 0.23230633 0.09647427 -0.13049525 -0.0407436 -0.01988721 -0.22459872 -0.07258213 -0.1002081 0.017482871 0.21759388 0.067348816 0.13752441 -0.18219784 -0.06133043 0.33889353 -0.04645075 -0.09425051 -0.009150543 -0.35702804 0.056904905 -0.07262825 -0.053413797 -0.061609413 0.15950918 -0.024473708 -0.17353407 -0.12301636 0.10735599 0.12729475 0.11943987 -0.23263139 -0.04378139 0.0013388532 -0.10586916 0.09610884 0.18078324 -0.016560255 -0.111391954 0.08760031 0.10629639 0.017087422 0.10115893 -0.058545906 -0.13283807 0.15573896 0.0051126224 0.19839457 -0.32792905 0.19904737 -0.043155454 0.12322844 0.28075784 0.100630224 0.25236413 0.08747286 0.05754038 -0.059085883 -0.19422832 0.0009038842 -0.0947587 0.02603765 -0.13408113 0.18501747 -0.049266953 0.024011979 0.102938585 0.17817074 0.19017021 0.09661629 0.33328485 0.10233605 0.09821215 0.013047416 0.3560487 0.20743604 0.011701783 -0.0893195 0.07036023 0.009771978
전 -0.010980861 0.14636941 0.16242096 -0.030926058 0.18533154 -0.43497956 0.25451836 0.5130371 -0.12555934 -0.3396942 0.0028969182 -0.5068821 -0.036111332 0.13851435 0.18542 -0.13907345 0.09171923 -0.1818551 -0.09637895 -0.5192381 0.07967766 0.31391507 0.13946187 -0.17965834 -0.057737965 -0.032784127 -0.32104287 -0.106448025 -0.134952 0.03142929 0.30098224 0.07862838 0.17349645 -0.25042742 -0.08547304 0.44655502 -0.052404176 -0.12517893 -0.0019915728 -0.48664895 0.06979379 -0.11225949 -0.07165783 -0.06512208 0.23061323 -0.018166076 -0.21809964 -0.160574 0.14681628 0.17806056 0.17016096 -0.3248401 -0.061710943 -0.0055226623 -0.14962767 0.1330019 0.2650435 -0.039508004 -0.1684857 0.13088892 0.1342353 0.011773383 0.14336595 -0.07634155 -0.1826426 0.198508 -0.0012335107 0.2768725 -0.4407361 0.2850468 -0.050911434 0.1626524 0.38109857 0.15388821 0.3305735 0.11553963 0.08304803 -0.083649315 -0.27179247 -0.0139942905 -0.1461752 0.037704427 -0.18137714 0.25362986 -0.06261619 0.024508223 0.13168928 0.24914631 0.2553134 0.14228731 0.4518259 0.12142452 0.15047072 0.018547995 0.48143598 0.2878606 0.019544782 -0.121002406 0.08736501 0.0065412354
