884 100
하 -0.11980525 0.533362 0.02908933 0.15112518 0.33197492 -0.7712858 -0.10824482 1.1721544 -0.438282 -0.16526297 -0.4786333 -0.67795503 0.22051917 0.5865583 0.20629069 -0.5841051 0.11166016 -0.3078728 -0.06643048 -0.85651076 0.4767008 0.33569816 0.43546957 -0.12614997 -0.30255356 0.114601046 -0.23083685 0.11611559 -0.44293398 0.33462128 0.50390923 -0.1425236 0.3302827 -0.56829184 -0.39126998 0.5483011 0.30740055 -0.3511571 -0.574712 -0.41526502 -0.011867713 -0.43880102 -0.34816265 0.19699648 0.3003138 -0.015318819 -0.508925 0.0034429615 0.2588538 0.20058298 0.36130401 -0.57191247 -0.26676723 -0.14549406 0.019970655 0.44108278 0.2946183 -0.12541807 -0.5064741 0.02384885 -0.08440862 -0.04472677 0.27564088 -0.036212925 -0.6718621 0.6209028 0.21884651 0.546675 -0.7229421 0.7886938 -0.2233701 0.2825359 0.6057507 -0.018247224 0.34830785 0.16996321 0.069630586 -0.21957828 -0.30610442 0.2575484 -0.35376972 -0.1820759 -0.55527496 0.537382 -0.14680125 -0.21272486 -0.023361264 0.35571855 0.44826218 0.120826416 0.77488536 0.2986202 0.19222173 -0.1112671 0.7780708 0.32867104 0.48534936 -0.15102753 0.093752004 -0.2124233
이 -0.13772401 0.5767823 0.025771864 0.14996712 0.3683689 -0.82135826 -0.12000573 1.2459049 -0.46159694 -0.17957672 -0.52207816 -0.73086 0.23515461 0.62144107 0.23349129 -0.60585874 0.121002115 -0.3190591 -0.06413525 -0.90511787 0.50136703 0.35131064 0.46315932 -0.14278957 -0.3217577 0.13219778 -0.2545669 0.1180414 -0.4626249 0.3711282 0.56256235 -0.15337564 0.3428288 -0.6055755 -0.41050422 0.5936458 0.32595876 -0.360012 -0.5994774 -0.42507112 0.013467652 -0.47909972 -0.3697883 0.2109082 0.31280863 -0.009897896 -0.529009 -0.0046000653 0.275706 0.20249198 0.40365094 -0.6366441 -0.27549738 -0.15238732 0.011776545 0.48962632 0.32281318 -0.11368329 -0.533826 0.024486566 -0.09627168 -0.042719875 0.2938712 -0.035709545 -0.70637035 0.6670951 0.24113642 0.56713307 -0.76617885 0.8442957 -0.25442412 0.27823886 0.65725905 -4.6188514e-05 0.36055067 0.17129084 0.051824924 -0.23607881 -0.3185546 0.28597733 -0.38615242 -0.19281413 -0.5931029 0.56567967 -0.14989685 -0.2318505 -0.03208074 0.375954 0.48680827 0.11357076 0.8307232 0.3186466 0.20697306 -0.12881729 0.82162595 0.34546643 0.5430224 -0.1610659 0.09098975 -0.22930856
. -0.11869689 0.5427708 0.014876861 0.13712566 0.348886 -0.7592283 -0.12022864 1.1741731 -0.44224152 -0.15428118 -0.5004925 -0.68703747 0.23740627 0.58623 0.22164975 -0.59230846 0.11401832 -0.2937608 -0.06930466 -0.86046463 0.46244583 0.3272916 0.42522347 -0.13978922 -0.29801005 0.11312137 -0.22126555 0.11704176 -0.44785 0.34770906 0.5232207 -0.15029803 0.3139725 -0.5721243 -0.40053374 0.5509065 0.29710886 -0.34187892 -0.5704693 -0.41296214 -0.009928316 -0.44541463 -0.34034574 0.21114312 0.304406 -0.011884457 -0.50040585 -0.0070486404 0.2507382 0.18759534 0.3737701 -0.58798355 -0.26899 -0.15360022 -0.00028640722 0.44051018 0.28798035 -0.12252512 -0.5108454 0.013422762 -0.074958354 -0.049483255 0.29096368 -0.025237396 -0.68239456 0.6371069 0.22583112 0.54966396 -0.7368374 0.79696107 -0.22599484 0.28056657 0.6169747 -0.00769532 0.3414324 0.18026403 0.07074109 -0.21465792 -0.30677167 0.27117893 -0.35086864 -0.19867598 -0.57880384 0.5333406 -0.14116567 -0.22338352 -0.036916483 0.35322917 0.46795925 0.11403948 0.7717951 0.30560085 0.20138587 -0.118219726 0.7830513 0.32893774 0.508292 -0.14860381 0.10485297 -0.22837774
다 -0.1278512 0.5268222 0.0174251 0.12873274 0.3281545 -0.7343515 -0.10042035 1.1124386 -0.4015306 -0.15773998 -0.4463827 -0.63619405 0.22279742 0.54270995 0.21110149 -0.55049646 0.11654373 -0.29810303 -0.06533065 -0.7958106 0.4483178 0.31411204 0.42319283 -0.10521666 -0.30816078 0.12070032 -0.2152054 0.10612208 -0.40579382 0.3219393 0.49328452 -0.13708957 0.29948032 -0.52985257 -0.36218622 0.53796566 0.29573447 -0.33199313 -0.56152946 -0.37658095 0.005477261 -0.41729927 -0.31037894 0.18659472 0.29193005 -0.009436676 -0.47116452 -0.011648506 0.23841292 0.17472693 0.36071754 -0.55425584 -0.26159948 -0.15027767 -0.0011060312 0.42515373 0.28187504 -0.09973854 -0.47387645 0.008177277 -0.076639555 -0.037424583 0.28286454 -0.023613075 -0.6288987 0.5840651 0.20622055 0.52035123 -0.6928346 0.73961717 -0.21463928 0.25257412 0.5755412 0.008583129 0.31882018 0.15043496 0.044967808 -0.19717821 -0.2960553 0.26167625 -0.3458351 -0.16849422 -0.520473 0.50529706 -0.13623986 -0.20892063 -0.017874165 0.35187516 0.4286993 0.09300885 0.7312822 0.28370827 0.17960139 -0.11150964 0.74702877 0.2997825 0.48380372 -0.14909953 0.08045461 -0.21519265
을 -0.14263067 0.6119247 0.019674934 0.15345019 0.38836637 -0.86397123 -0.12700233 1.3261902 -0.49455085 -0.17883241 -0.5637297 -0.7667581 0.24988668 0.66039234 0.23660572 -0.66279507 0.11749506 -0.34495956 -0.05935404 -0.97320634 0.53175396 0.37303984 0.4965339 -0.1345328 -0.35719028 0.13758922 -0.2650584 0.12905698 -0.5013284 0.38837114 0.5928082 -0.15616184 0.368096 -0.6494197 -0.43027243 0.62138265 0.33341575 -0.38761178 -0.65211564 -0.467065 0.005943565 -0.5085949 -0.39588153 0.23602259 0.34564728 -0.024882456 -0.56520194 -0.0062533733 0.29492065 0.205208 0.42206588 -0.66047275 -0.28665718 -0.17112558 0.009633387 0.5018422 0.3191053 -0.14043896 -0.5691624 0.008539488 -0.08656281 -0.05642417 0.32061037 -0.03189277 -0.76156276 0.70222247 0.25922382 0.62142277 -0.8281273 0.8992331 -0.26837292 0.31654894 0.6880989 -0.0043737553 0.3914593 0.197809 0.06052579 -0.24167319 -0.3388595 0.29775956 -0.40727773 -0.21484822 -0.6358951 0.6008033 -0.16837528 -0.25208724 -0.027179157 0.41320637 0.50553817 0.12128614 0.8847816 0.33398625 0.22326817 -0.13129905 0.8761173 0.3548114 0.5707037 -0.15940909 0.10828729 -0.2424807
ㄴ -0.13980924 0.5881063 0.02532534 0.1394732 0.36057404 -0.83760256 -0.121488914 1.2755917 -0.47896615 -0.18637423 -0.5437689 -0.744997 0.23892914 0.6225969 0.23218289 -0.6389764 0.10989353 -0.34287542 -0.06626414 -0.93145865 0.50072414 0.36633956 0.47768894 -0.12766716 -0.34519738 0.1294756 -0.25169945 0.10580648 -0.4710312 0.3845981 0.56887263 -0.16207822 0.3489569 -0.6236842 -0.42438164 0.6150575 0.3310473 -0.37250286 -0.62008417 -0.44894063 0.014514585 -0.4906584 -0.37704867 0.21656168 0.32229996 -0.019221624 -0.5496243 0.0021106813 0.2780422 0.20403051 0.4069653 -0.6513555 -0.2787369 -0.14775825 0.0010676411 0.4956459 0.3289143 -0.1296237 -0.55575085 0.007035439 -0.08009727 -0.048986997 0.31306648 -0.03941933 -0.7247148 0.67803735 0.23753886 0.58977675 -0.8002009 0.8470027 -0.25192997 0.30466405 0.6735534 -0.0026149927 0.3708666 0.19094735 0.049080648 -0.23776382 -0.33371016 0.3011128 -0.37382495 -0.208379 -0.61105424 0.571658 -0.15461335 -0.24365978 -0.043031216 0.40837702 0.4906032 0.12330477 0.8581957 0.33714637 0.1988994 -0.12362795 0.8521324 0.35470334 0.54563653 -0.17047815 0.107913464 -0.24627717
는 -0.11778058 0.5608773 0.022222683 0.14719822 0.35807762 -0.8047378 -0.11348883 1.2296389 -0.4588916 -0.17349012 -0.5149946 -0.71484584 0.23849238 0.61944526 0.22031671 -0.60868436 0.12186087 -0.31796232 -0.059931226 -0.9080806 0.4949614 0.35205677 0.4616175 -0.13107307 -0.3258042 0.13010396 -0.24726984 0.10653586 -0.45717072 0.35954988 0.5503507 -0.13647245 0.34140068 -0.5916165 -0.41794628 0.58771694 0.30585146 -0.373075 -0.6095061 -0.44070968 0.01124166 -0.47184807 -0.34534824 0.20156877 0.3171885 -0.007346984 -0.5373968 -0.01569821 0.2670214 0.1945993 0.3908532 -0.630648 -0.28562587 -0.15039495 0.0013253392 0.46651712 0.3054644 -0.1278231 -0.5359739 0.006103976 -0.085262515 -0.04874834 0.30185777 -0.02609257 -0.7086407 0.65861493 0.22210716 0.5630153 -0.77506566 0.8245626 -0.24676387 0.29481113 0.6408954 -0.0047560288 0.36701584 0.16616945 0.06373524 -0.22604403 -0.32618254 0.2930814 -0.36301666 -0.2027381 -0.60213053 0.56578296 -0.15122686 -0.23239093 -0.026265766 0.3792846 0.4728803 0.116563305 0.81756264 0.3157476 0.19931044 -0.11522013 0.81306994 0.3394783 0.5376543 -0.16435428 0.09801873 -0.22583559
의 -0.113475665 0.5754032 0.035359867 0.14930736 0.36160114 -0.81997234 -0.119828545 1.247344 -0.47199228 -0.1854825 -0.5309354 -0.7281293 0.2437948 0.61893684 0.23033552 -0.61633563 0.1210459 -0.32339296 -0.0721221 -0.930982 0.4997363 0.367026 0.46123865 -0.14481767 -0.33991283 0.13746479 -0.25833797 0.11669542 -0.472569 0.37904882 0.541179 -0.14225948 0.3472807 -0.61932814 -0.42072645 0.5997922 0.30501777 -0.36627603 -0.61669683 -0.44015563 0.01565036 -0.4783534 -0.3581129 0.21779361 0.3224765 -0.031441204 -0.5412001 -0.012270058 0.28372172 0.20476599 0.38447624 -0.63037145 -0.26865146 -0.16329828 0.0048402217 0.49039254 0.30443203 -0.11000499 -0.5368176 0.023216072 -0.072849 -0.046994045 0.29585323 -0.012786413 -0.71612555 0.66587186 0.2217443 0.58797246 -0.7803101 0.8424502 -0.2461487 0.28589442 0.6598945 -0.010190106 0.36018002 0.17659457 0.06522589 -0.24135716 -0.3216369 0.28569555 -0.3841786 -0.19533749 -0.62306285 0.57750463 -0.1481772 -0.2292469 -0.032162864 0.40961283 0.4944113 0.11872542 0.8385312 0.31716695 0.199592 -0.11437424 0.8232105 0.34392917 0.53306085 -0.16931768 0.10612151 -0.24539691
가 -0.14344808 0.61015487 0.029047534 0.15944967 0.38698938 -0.84963095 -0.1166661 1.294653 -0.49016377 -0.17866924 -0.5455696 -0.76356584 0.26300573 0.6408036 0.2504511 -0.6443018 0.11050198 -0.34259534 -0.07041973 -0.95197105 0.52208126 0.38394618 0.48576146 -0.14617422 -0.34068134 0.13720901 -0.26331127 0.109071285 -0.4814915 0.3733517 0.5810453 -0.16011344 0.36569345 -0.61896104 -0.43194205 0.6242154 0.32865134 -0.3752701 -0.63021404 -0.4680212 0.0013849593 -0.48975337 -0.37883294 0.22161907 0.32943773 -0.02060001 -0.5612421 0.0011671075 0.28065404 0.20454465 0.41206694 -0.6564968 -0.29098004 -0.16598772 0.015855838 0.5009268 0.32694885 -0.12667248 -0.5521286 0.008625578 -0.096948795 -0.051008638 0.31885695 -0.032931115 -0.75751287 0.6914671 0.23793247 0.6070262 -0.82211155 0.87959963 -0.26995713 0.30517137 0.69053876 0.00073740445 0.37093452 0.18149632 0.050795414 -0.2546443 -0.35179785 0.3008869 -0.3918608 -0.21418467 -0.6231905 0.5976414 -0.15081255 -0.23520622 -0.035457276 0.39831027 0.50407404 0.12953347 0.86415505 0.3355813 0.21510704 -0.12457349 0.87224334 0.36844155 0.5614906 -0.16034028 0.113196835 -0.2524639
에 -0.13075553 0.5598711 0.014446414 0.15096787 0.35343915 -0.81311774 -0.12577097 1.2313865 -0.45643878 -0.17485838 -0.5176004 -0.71574277 0.23605713 0.60884976 0.2216886 -0.59724134 0.11669332 -0.33446997 -0.054130983 -0.90337473 0.4935893 0.35838753 0.445925 -0.13518113 -0.31675005 0.12150561 -0.2546642 0.12140199 -0.4563035 0.35587314 0.5506451 -0.13975416 0.34829706 -0.58547854 -0.4196214 0.5931352 0.31624442 -0.36097664 -0.60343456 -0.429902 0.009413496 -0.46135166 -0.36232504 0.20412832 0.313261 -0.015337983 -0.53378284 0.0020085392 0.27443346 0.20720364 0.39263672 -0.6131304 -0.27889258 -0.14491506 0.013872993 0.46899858 0.30392596 -0.12140495 -0.52458966 0.013035401 -0.08706957 -0.03776755 0.30349857 -0.030326482 -0.70965934 0.6478668 0.22491227 0.55762416 -0.7659756 0.8246519 -0.24368614 0.29393968 0.6403237 -0.019264763 0.36084965 0.17064328 0.060323317 -0.23803188 -0.31613815 0.28847218 -0.36727348 -0.19955662 -0.59756005 0.57248515 -0.14780639 -0.23361762 -0.043652702 0.3867835 0.48532242 0.12431367 0.81341314 0.32596582 0.20637348 -0.10993233 0.8245029 0.33002788 0.5181481 -0.14982724 0.11187663 -0.22583522
를 -0.11931295 0.5716928 0.035105627 0.13903823 0.35418522 -0.82580423 -0.12561977 1.25288 -0.46669254 -0.1858397 -0.51796454 -0.7319473 0.25319806 0.6144067 0.2352968 -0.6135529 0.11390665 -0.33392555 -0.056743275 -0.92149097 0.49724197 0.35633305 0.46650144 -0.13938996 -0.3383323 0.13210337 -0.2518291 0.11140829 -0.45688987 0.36920354 0.54714334 -0.14625378 0.35635996 -0.59434277 -0.405534 0.59581035 0.31952724 -0.37103495 -0.6194777 -0.44029045 0.0020621787 -0.47500452 -0.37083116 0.22250685 0.31144786 -0.024652801 -0.54165584 -0.006501815 0.26769075 0.20225084 0.3883449 -0.6279321 -0.28782403 -0.15253742 0.013129144 0.4811887 0.30452183 -0.12629862 -0.52646786 0.019201614 -0.0965481 -0.048475303 0.30029097 -0.02761787 -0.72450644 0.6673698 0.22511128 0.5690047 -0.7722466 0.8371174 -0.2463859 0.30187532 0.6474411 0.0012310847 0.36877763 0.18906751 0.06470536 -0.24678174 -0.32939678 0.29669508 -0.36927974 -0.1873919 -0.5959625 0.5788018 -0.16455883 -0.2244668 -0.0400999 0.39070675 0.49124622 0.124450356 0.8390099 0.32215196 0.20316817 -0.11166149 0.81836075 0.34506956 0.54344046 -0.16278905 0.10559687 -0.24148342
고 -0.11004407 0.5650424 0.023873089 0.14976184 0.35162207 -0.79821557 -0.12237335 1.2078344 -0.45401537 -0.17156689 -0.5004499 -0.7001714 0.23536949 0.59553176 0.22896092 -0.6060828 0.10659546 -0.32110977 -0.06584529 -0.88877606 0.4761118 0.33385256 0.44350237 -0.13866553 -0.32988796 0.115273766 -0.24592572 0.120903485 -0.44214198 0.3510188 0.5249539 -0.15217958 0.3318671 -0.5769337 -0.39794442 0.57004 0.30675018 -0.35513988 -0.59833175 -0.4290455 -0.0078954855 -0.45647255 -0.34485012 0.21739823 0.304189 -0.019873774 -0.5053909 -0.0048785224 0.25999814 0.20022729 0.3840283 -0.6080807 -0.26166388 -0.14597487 0.00089410046 0.46291417 0.29957795 -0.109003924 -0.5187677 0.012753289 -0.07941395 -0.044236988 0.29080716 -0.028573735 -0.6957598 0.6450158 0.23341496 0.56642634 -0.75727314 0.81141824 -0.24246582 0.2919719 0.6296824 -0.0008495343 0.35217008 0.18084088 0.04812019 -0.2163122 -0.31782502 0.2728193 -0.36463892 -0.17936961 -0.58725137 0.5429129 -0.13660741 -0.2195911 -0.04036277 0.36351824 0.477547 0.12367466 0.8009319 0.30428374 0.18544306 -0.10991089 0.8006373 0.32062614 0.5037156 -0.15529956 0.09086958 -0.22601706
은 -0.12952714 0.5745042 0.03332384 0.1357789 0.369654 -0.8198277 -0.12573786 1.2664475 -0.4556058 -0.18343778 -0.54047304 -0.7380067 0.23530306 0.6200311 0.22565424 -0.6305642 0.11435648 -0.32680544 -0.055296797 -0.9222359 0.4990533 0.3637883 0.46259895 -0.1279982 -0.33279702 0.13747077 -0.26050535 0.122757725 -0.46829456 0.38031125 0.54589903 -0.1474854 0.34981155 -0.6092045 -0.42399907 0.5892643 0.31118685 -0.3776091 -0.61290133 -0.44189718 0.0021171812 -0.469283 -0.3666104 0.21361439 0.3097138 -0.03012596 -0.5319758 -0.010359898 0.26984164 0.2094775 0.40454414 -0.6411907 -0.2802093 -0.16437991 0.013929221 0.48234984 0.31282327 -0.11728505 -0.53230625 0.022850618 -0.09494638 -0.05118694 0.30705854 -0.02720449 -0.72619647 0.6667067 0.24435124 0.57884437 -0.79347855 0.8506932 -0.24470742 0.29853284 0.6634966 -0.014551846 0.36649662 0.1780012 0.06277675 -0.24670371 -0.33666873 0.2945227 -0.38640434 -0.19147138 -0.61119545 0.5874866 -0.15632913 -0.23270829 -0.028210787 0.39136866 0.4841577 0.12335407 0.84311014 0.32005128 0.21409126 -0.12915346 0.8354261 0.34657434 0.55052143 -0.15504889 0.10843001 -0.23028022
후보 -0.121830665 0.5224618 0.008367686 0.11705167 0.3139612 -0.7249773 -0.11633724 1.0838394 -0.41295955 -0.15964283 -0.47013533 -0.63198555 0.19802038 0.5351577 0.21555501 -0.52825195 0.109939635 -0.27474958 -0.05825545 -0.8125013 0.44158807 0.31898192 0.4102533 -0.11111879 -0.2779465 0.12353086 -0.23606682 0.08577037 -0.40684527 0.32630795 0.49105355 -0.119041525 0.3166452 -0.5367841 -0.36061332 0.52107877 0.26305765 -0.3070668 -0.5314388 -0.38755268 0.001433808 -0.42329845 -0.30761287 0.19146588 0.27143565 -0.029332073 -0.4730126 -0.008409114 0.25030205 0.17491333 0.34508255 -0.5500044 -0.24766172 -0.13281 0.0054091816 0.42262134 0.28145546 -0.10652638 -0.4724322 0.02630272 -0.06141718 -0.029407835 0.26883435 -0.009943431 -0.6188572 0.5749115 0.21017873 0.5120815 -0.67741716 0.74048597 -0.22273643 0.24546781 0.5660512 -7.282251e-05 0.32819158 0.1625517 0.045190535 -0.19899517 -0.27929708 0.2504367 -0.3288248 -0.17996256 -0.5268006 0.50979906 -0.12844951 -0.19513024 -0.019971082 0.3584446 0.4230773 0.09385222 0.7413963 0.29331592 0.18737169 -0.10453112 0.71912146 0.29529083 0.4817497 -0.14757381 0.08250765 -0.20102963
되 -0.114041604 0.5454301 0.021117773 0.1250942 0.3464149 -0.7647252 -0.10795307 1.162573 -0.4179694 -0.17082623 -0.4774879 -0.6831007 0.21906054 0.5647796 0.20888332 -0.56539685 0.11685535 -0.3101978 -0.053686325 -0.8455473 0.47464556 0.34011084 0.42666727 -0.12921388 -0.31284618 0.12586895 -0.2303466 0.10417399 -0.4230928 0.33648893 0.50508296 -0.1411523 0.32197312 -0.56762415 -0.391854 0.539226 0.30609858 -0.33256933 -0.570887 -0.39926443 0.008001219 -0.4404226 -0.33080757 0.20211026 0.30130455 -0.0077134036 -0.50348806 -0.004575281 0.2539531 0.19235179 0.37123016 -0.5775575 -0.2558048 -0.15471552 0.007886368 0.43807948 0.29918814 -0.10776874 -0.4992447 0.019141782 -0.08958928 -0.04874986 0.2815181 -0.020521363 -0.6585525 0.6226131 0.21411341 0.5321978 -0.72203285 0.7794534 -0.23687777 0.26240903 0.6153191 -0.0086702965 0.33443534 0.15790343 0.065871835 -0.21871942 -0.29993147 0.27321795 -0.35813376 -0.18434489 -0.5577498 0.5203949 -0.13550594 -0.21166897 -0.022184562 0.36740124 0.44826043 0.103315294 0.78157014 0.29891315 0.19768655 -0.10411318 0.7707461 0.31428188 0.49982825 -0.13833882 0.08660871 -0.20857872
았 -0.11802661 0.5170306 0.02246421 0.13751826 0.31271014 -0.72946984 -0.113340415 1.1052741 -0.41432202 -0.14605604 -0.47036952 -0.6520006 0.21237403 0.55277777 0.19611317 -0.5546451 0.095500894 -0.2860759 -0.05277551 -0.8069787 0.43919325 0.3251843 0.40029913 -0.12408269 -0.30551276 0.11140976 -0.22521971 0.10928399 -0.41172627 0.31433064 0.48209545 -0.13899028 0.30970246 -0.5244756 -0.37287506 0.54009295 0.28624022 -0.3344944 -0.55529475 -0.3800516 0.013379928 -0.42741892 -0.32888725 0.2001388 0.28640994 -0.0070359576 -0.48523578 -0.016156381 0.2449264 0.16698882 0.34416407 -0.5587512 -0.23579232 -0.12915598 0.0062267226 0.43387687 0.28762054 -0.10907062 -0.46492445 0.02086002 -0.07350509 -0.047124114 0.26022032 -0.025509758 -0.62641484 0.58336985 0.20598659 0.52451634 -0.6867096 0.753814 -0.22836228 0.25658062 0.5858205 -0.011370769 0.33339074 0.16997746 0.051971182 -0.21247178 -0.29063296 0.2512507 -0.34360728 -0.17388088 -0.54021573 0.513029 -0.14158238 -0.19986801 -0.037654363 0.3399661 0.43891266 0.11889673 0.734897 0.288734 0.17722142 -0.117896825 0.7256522 0.30928504 0.48199877 -0.12689446 0.099103935 -0.20126598
ㄹ -0.11362314 0.5006418 0.024103573 0.13008513 0.33251986 -0.7273226 -0.11056693 1.1166883 -0.41427875 -0.15183693 -0.46807608 -0.6590763 0.20557468 0.5665287 0.19025296 -0.54367375 0.092160344 -0.29675752 -0.05674959 -0.81993234 0.46161065 0.32669297 0.4166309 -0.11276092 -0.29677933 0.12552436 -0.21134056 0.08811011 -0.41461894 0.32235107 0.49432203 -0.14046673 0.30683836 -0.54361933 -0.36250222 0.53469145 0.28937712 -0.33150455 -0.5569931 -0.40542495 0.003080551 -0.4324989 -0.32729262 0.20069759 0.2930722 -0.009516608 -0.48466662 -0.013317763 0.25532874 0.18263146 0.3472168 -0.56485975 -0.24525115 -0.13260874 0.013986313 0.4306534 0.2717926 -0.12087758 -0.48883036 0.013822791 -0.0719733 -0.03828709 0.2688732 -0.017300766 -0.63569546 0.5961958 0.19713494 0.5216433 -0.68229926 0.75464165 -0.2098938 0.2683797 0.5826905 -0.0074314144 0.32747307 0.14991803 0.062426563 -0.2122579 -0.27867675 0.25194117 -0.33852282 -0.18727411 -0.54408747 0.49317926 -0.1417627 -0.20357491 -0.03874319 0.33920556 0.42770478 0.101622485 0.74596584 0.29037565 0.18994789 -0.1013207 0.7266107 0.31593564 0.46315742 -0.14165959 0.08034956 -0.2022073
있 -0.1037238 0.47806805 0.02417526 0.109883495 0.30545527 -0.6720945 -0.08701843 1.0136086 -0.3801434 -0.1462946 -0.430967 -0.59874547 0.2106638 0.49867013 0.19411796 -0.5139516 0.094442815 -0.26819956 -0.039130732 -0.7510254 0.41970193 0.28614166 0.36371812 -0.115715735 -0.2751873 0.10361529 -0.20635918 0.084356084 -0.376201 0.29278705 0.44580963 -0.11578411 0.2691365 -0.49248365 -0.32677773 0.49394765 0.24660785 -0.29016265 -0.49130654 -0.36193308 0.011468333 -0.39774737 -0.2858697 0.18121363 0.2610976 -0.021149417 -0.44044134 -0.008320148 0.22390184 0.16444828 0.3286385 -0.4948645 -0.21252926 -0.12712476 0.021370249 0.3900866 0.25864172 -0.09808874 -0.43489423 0.017578637 -0.075331345 -0.045197483 0.23276223 -0.020109208 -0.57197905 0.54222167 0.19022527 0.47365966 -0.6189631 0.67773724 -0.19857395 0.22575894 0.5355122 0.0037507906 0.3042477 0.15646635 0.057471026 -0.18324053 -0.2533977 0.24359336 -0.3130564 -0.15067616 -0.4850064 0.46049243 -0.111661114 -0.18084307 -0.016550222 0.31852928 0.4087808 0.09819054 0.6829467 0.26473507 0.17606825 -0.102699585 0.6774099 0.28904745 0.43153045 -0.12861054 0.08592575 -0.20054044
에서 -0.114018664 0.5583854 0.01750079 0.14199445 0.36448535 -0.81155 -0.12011241 1.2365878 -0.46083492 -0.17805105 -0.52714837 -0.7172025 0.24183238 0.6182042 0.23326257 -0.6078703 0.11177243 -0.31065437 -0.04868583 -0.8897666 0.49925134 0.3475315 0.44507873 -0.136703 -0.31834823 0.12651223 -0.25673 0.121084444 -0.44466442 0.36052284 0.5491393 -0.1451974 0.3356993 -0.5978072 -0.40678275 0.5796213 0.31279367 -0.35371032 -0.5901459 -0.44265166 0.0019557937 -0.4707704 -0.34613845 0.21860954 0.30482852 -0.01875104 -0.5327804 -0.002076491 0.27801552 0.19205959 0.3823349 -0.6291666 -0.27761585 -0.15451641 0.016131574 0.4862842 0.3037147 -0.1120489 -0.51584923 0.01708146 -0.08331349 -0.034136783 0.3014024 -0.018447414 -0.7116096 0.66111714 0.23460034 0.5776332 -0.7685208 0.8328782 -0.23821999 0.2819634 0.65112436 -0.0069824154 0.36531234 0.17402245 0.049882922 -0.22784477 -0.3318161 0.2814414 -0.37645712 -0.19506542 -0.59860927 0.56905395 -0.13526271 -0.22386292 -0.034058116 0.38793337 0.4752685 0.10966415 0.8289658 0.30671245 0.20873755 -0.10669652 0.81595504 0.34055087 0.53236973 -0.16045505 0.103615284 -0.23219953
아 -0.11251821 0.548924 0.028003052 0.14451002 0.33322892 -0.7670684 -0.10686485 1.17681 -0.43543625 -0.17193249 -0.50176376 -0.68825054 0.23935129 0.58902335 0.22043352 -0.5861504 0.11595024 -0.32094073 -0.0643464 -0.8698331 0.47131425 0.34621212 0.42847365 -0.12909752 -0.3247587 0.1263691 -0.2389293 0.09879936 -0.43606493 0.35837337 0.51915413 -0.14839396 0.33338505 -0.5739646 -0.40520442 0.5742334 0.2930353 -0.3569284 -0.58622456 -0.4220439 0.0046865176 -0.4384936 -0.33974615 0.2136161 0.30239385 -0.013546053 -0.5143572 -0.013633182 0.2643922 0.19241793 0.36411613 -0.6031876 -0.27709907 -0.15497187 0.013814809 0.46630004 0.29872882 -0.11275658 -0.50062793 0.01100601 -0.08568546 -0.0531684 0.28321433 -0.029758682 -0.6779561 0.63554275 0.21437237 0.54252857 -0.74533856 0.7957216 -0.2384275 0.28405824 0.62310797 -0.015011302 0.34338623 0.17222005 0.06241539 -0.22105236 -0.31572196 0.2699933 -0.36209548 -0.18945904 -0.57090527 0.5422649 -0.13514227 -0.21872483 -0.035722114 0.3627989 0.45897245 0.10638213 0.78944653 0.30553997 0.1844075 -0.102418564 0.77059805 0.31235242 0.49532548 -0.14076619 0.10340361 -0.21012157
도 -0.10545629 0.48706532 0.01825186 0.13143815 0.3075822 -0.6871818 -0.10464335 1.0517635 -0.38109145 -0.14642598 -0.43835056 -0.6120441 0.21031989 0.52606934 0.19503935 -0.5255861 0.09290578 -0.27284792 -0.05854998 -0.7676589 0.4207483 0.30554637 0.3776465 -0.104015745 -0.28086433 0.10359005 -0.20425943 0.09378281 -0.3981394 0.30320638 0.46577635 -0.13424043 0.2919918 -0.5050303 -0.35274085 0.50446343 0.26934978 -0.30050558 -0.51405436 -0.36773896 0.0048654443 -0.40136406 -0.31310976 0.18909188 0.26683897 -0.024188131 -0.45906493 -0.008935749 0.23493186 0.17432456 0.3387454 -0.5344249 -0.23443897 -0.13423806 0.0037297998 0.41123685 0.2667107 -0.10556632 -0.4600235 0.007229591 -0.071065836 -0.03129401 0.25761876 -0.031532887 -0.6111872 0.56530845 0.19471203 0.4822075 -0.6488263 0.70289123 -0.20436554 0.24531756 0.542216 -0.0060810056 0.3144363 0.16086046 0.05216722 -0.19309664 -0.2796556 0.24360831 -0.3214478 -0.16554996 -0.50948757 0.47710243 -0.13496587 -0.18429215 -0.025218574 0.32562977 0.40477434 0.110632956 0.6933309 0.2749224 0.17476311 -0.091643944 0.7013655 0.28667995 0.45214787 -0.13427779 0.07526242 -0.19969589
지 -0.09795667 0.4546901 0.03632697 0.1285394 0.26957867 -0.6264547 -0.10529556 0.9620347 -0.35546893 -0.1223022 -0.39755696 -0.55485886 0.20419066 0.48102874 0.16915093 -0.48948196 0.099413864 -0.2659918 -0.04962931 -0.69717777 0.3845021 0.2688039 0.35316285 -0.100078344 -0.25478104 0.10912024 -0.20005867 0.09921623 -0.34828532 0.28262287 0.43420464 -0.12377447 0.27448145 -0.4759811 -0.31212696 0.4456312 0.24289012 -0.2955534 -0.48043197 -0.34438765 -0.003967684 -0.36155602 -0.27457926 0.16748028 0.23425269 -0.019378167 -0.41204882 -0.009661564 0.1938878 0.15531082 0.3167577 -0.4728245 -0.23402649 -0.11665493 -0.0030105235 0.35776505 0.24232963 -0.09702906 -0.42507803 0.0020551977 -0.07420148 -0.023678375 0.21930061 -0.007026709 -0.54884064 0.51150686 0.19167192 0.4500674 -0.5995612 0.64887875 -0.18621688 0.23358089 0.4987458 -0.011499708 0.2852991 0.13290003 0.049187586 -0.17183019 -0.24265583 0.23465617 -0.301327 -0.157267 -0.45052937 0.43831813 -0.12758881 -0.17550784 -0.022715772 0.29708168 0.3648187 0.100258805 0.64810824 0.2384493 0.15542258 -0.096960366 0.6233027 0.25952888 0.4030839 -0.102434985 0.064354666 -0.17056666
일 -0.12013002 0.5426958 0.022685474 0.14156163 0.34031144 -0.7696365 -0.11811442 1.159348 -0.43174234 -0.1695784 -0.49988455 -0.6813233 0.23640862 0.58035755 0.22592592 -0.5668948 0.09714663 -0.29870394 -0.046398554 -0.8418891 0.4722991 0.34241354 0.41400015 -0.11358726 -0.2970908 0.13038251 -0.24213482 0.11566704 -0.4210919 0.3412258 0.5035818 -0.12759332 0.31155324 -0.5662574 -0.38130823 0.5613031 0.30415088 -0.34552386 -0.57517946 -0.39612737 0.008750375 -0.44210002 -0.34425673 0.19413652 0.28784052 -0.021495875 -0.49706805 -0.0016351909 0.25080302 0.1783609 0.3773511 -0.59264225 -0.26711363 -0.13659373 0.013536646 0.46034852 0.2846575 -0.11736235 -0.49661866 0.014268103 -0.09032555 -0.043857336 0.2780895 -0.020157726 -0.6551339 0.6177813 0.21154425 0.5327171 -0.7289233 0.7888149 -0.23922023 0.2733584 0.60777074 -0.01616278 0.32576516 0.17440818 0.04141667 -0.2227055 -0.3013885 0.28104296 -0.35558343 -0.18042178 -0.5489709 0.52340245 -0.14092222 -0.20438787 -0.027149271 0.36326745 0.4584463 0.11237442 0.77683187 0.29460973 0.18394153 -0.10551031 0.76887137 0.30830577 0.49933857 -0.14902839 0.09500282 -0.21039696
으로 -0.119180165 0.516497 0.02828254 0.123515345 0.32037997 -0.74828506 -0.12017091 1.1339062 -0.4183198 -0.1610921 -0.4854215 -0.66131 0.21894681 0.5674337 0.21787949 -0.5555971 0.113474004 -0.3103049 -0.04686542 -0.83188903 0.4657663 0.3301771 0.42114958 -0.13276581 -0.312766 0.12677518 -0.22998095 0.10771723 -0.4156339 0.3335008 0.513853 -0.13539648 0.30628848 -0.55699515 -0.38098818 0.53159624 0.29910827 -0.33205208 -0.5680628 -0.39157814 0.014943432 -0.42611986 -0.32280266 0.18312871 0.29030052 -0.024276419 -0.49396703 -0.0031633577 0.24973445 0.1849912 0.36353675 -0.5729959 -0.2496356 -0.13466476 0.005341152 0.4484392 0.2913519 -0.09890985 -0.48447105 0.01024352 -0.08257523 -0.042590175 0.27150193 -0.017077196 -0.6491276 0.60760367 0.2175139 0.51645 -0.7035276 0.77629167 -0.22902353 0.26760268 0.59040874 -0.013759628 0.34053227 0.15937944 0.060420778 -0.21465008 -0.30019835 0.26923713 -0.3453314 -0.18117912 -0.5490027 0.526705 -0.13891879 -0.20893952 -0.040275637 0.3669729 0.43301123 0.11712637 0.7647039 0.2841418 0.18144079 -0.11662422 0.74781185 0.3220343 0.5014364 -0.14258471 0.09320317 -0.20399536
었 -0.110270396 0.47299948 0.021143718 0.111854285 0.2874988 -0.6830516 -0.09055747 1.029032 -0.3855339 -0.15408535 -0.43226713 -0.59446794 0.19697589 0.50945014 0.18531445 -0.50005704 0.09624343 -0.2584272 -0.061715208 -0.7538878 0.40026084 0.29462394 0.36816487 -0.10558888 -0.27757686 0.10034424 -0.20131741 0.0837384 -0.3792681 0.29376638 0.4643219 -0.11122215 0.28762907 -0.48968244 -0.33644965 0.4846014 0.26986885 -0.3118247 -0.4937414 -0.35536045 0.00036078368 -0.39554912 -0.2858041 0.1701992 0.27034727 -0.021505054 -0.4317449 -0.0063284975 0.23365115 0.16054814 0.33120576 -0.50538784 -0.22478561 -0.12432327 0.014114067 0.40507302 0.2651653 -0.0887575 -0.43133274 0.023726877 -0.05858527 -0.03994268 0.24387215 -0.019649943 -0.5872641 0.5457453 0.1825553 0.4639734 -0.64328045 0.7030925 -0.2084772 0.22988379 0.5427997 -0.0052740076 0.30096555 0.14971192 0.052474555 -0.1875864 -0.26473173 0.2408397 -0.30109814 -0.16016908 -0.5022884 0.4788947 -0.1201558 -0.1859431 -0.031124566 0.3248775 0.40786535 0.105248824 0.6854397 0.25446865 0.17067207 -0.09778552 0.681511 0.27210677 0.4538227 -0.14050967 0.090471976 -0.20477271
, -0.119784474 0.6133032 0.02510854 0.14504443 0.37838978 -0.86232525 -0.13800514 1.3157163 -0.48160082 -0.17850535 -0.5669376 -0.75388944 0.2572883 0.6471549 0.23157306 -0.64371246 0.124954365 -0.3369077 -0.07098549 -0.96774936 0.51826984 0.3776255 0.4689809 -0.15078217 -0.3522735 0.13516729 -0.27267316 0.11566258 -0.48454162 0.39349237 0.57568836 -0.15371168 0.3559535 -0.64221984 -0.43794748 0.63010836 0.3372436 -0.38743022 -0.6368477 -0.4737837 0.00367543 -0.49996573 -0.3756488 0.21956362 0.32654554 -0.03085419 -0.56599104 -0.011055736 0.28436163 0.20351186 0.40932396 -0.6667938 -0.30084437 -0.1676831 0.015098128 0.5024929 0.32036936 -0.12643968 -0.57088697 0.014790211 -0.08107827 -0.05260476 0.31400022 -0.024129052 -0.74107087 0.69816595 0.2556915 0.5939527 -0.825457 0.87300366 -0.26989228 0.29625985 0.67854995 -0.01262937 0.38061184 0.18727906 0.04737224 -0.2470512 -0.34382334 0.31232008 -0.38328722 -0.19546482 -0.6384712 0.60337603 -0.16151759 -0.23770994 -0.030368557 0.420634 0.50430346 0.13216932 0.86906654 0.33465335 0.2247837 -0.12790602 0.86561733 0.349509 0.5507461 -0.15656906 0.101538464 -0.23999381
ㄴ다 -0.12108534 0.49274254 0.009812874 0.13537931 0.31996602 -0.69968283 -0.0919728 1.0702482 -0.40939912 -0.13917479 -0.45732975 -0.61328924 0.21624672 0.53345126 0.18849143 -0.5316271 0.10802204 -0.2935219 -0.0531615 -0.7925241 0.44247466 0.3086219 0.40963978 -0.1229233 -0.30063006 0.10204792 -0.22097221 0.10374727 -0.399169 0.32604805 0.47945446 -0.12313369 0.30219716 -0.5062457 -0.3599659 0.5218805 0.26013902 -0.31262404 -0.5325859 -0.37488437 0.013682001 -0.41281867 -0.31466442 0.18339773 0.27162316 -0.016672542 -0.4552873 -0.014300972 0.24706464 0.1746737 0.34325275 -0.53754133 -0.24323738 -0.13012645 0.0039243815 0.42366374 0.27134934 -0.11064225 -0.47082165 -0.00027224564 -0.07430655 -0.047451004 0.25813812 -0.031747274 -0.6213598 0.5708861 0.20781662 0.49180567 -0.6767534 0.72702354 -0.21414392 0.2408296 0.5566056 -0.006350274 0.30913007 0.13840473 0.05797316 -0.20009458 -0.28510424 0.25690517 -0.32217017 -0.1565286 -0.51962036 0.5007888 -0.13181302 -0.20540164 -0.03721043 0.35061085 0.41529626 0.10341161 0.72693485 0.26681188 0.17499532 -0.11350108 0.70094806 0.28267542 0.47044203 -0.13141394 0.09319248 -0.20087594
들 -0.10056155 0.4717851 0.015638152 0.11655271 0.30358294 -0.65697587 -0.090960495 0.994188 -0.36418366 -0.13706197 -0.41812792 -0.5936929 0.19849066 0.49977013 0.17926757 -0.5026443 0.098436125 -0.26855546 -0.055441644 -0.72342014 0.39467433 0.29596716 0.36780664 -0.102380864 -0.26947558 0.09979323 -0.2109112 0.09079299 -0.37766454 0.29191324 0.4490727 -0.1264942 0.26932985 -0.4903144 -0.34071717 0.46890903 0.25347632 -0.2847322 -0.4817432 -0.3587507 -0.007597946 -0.38329506 -0.2986969 0.16552947 0.24941342 -0.011362821 -0.4387946 -0.0022186367 0.22076984 0.16770475 0.31406555 -0.51609254 -0.21937497 -0.13176624 0.014517998 0.3879228 0.2599462 -0.09349671 -0.43107545 0.018515741 -0.07618553 -0.04581833 0.24447703 -0.024259211 -0.57980007 0.52975225 0.17413603 0.46337035 -0.62325174 0.6747136 -0.19797856 0.23774223 0.53180385 -0.014276421 0.2857234 0.13298635 0.034357406 -0.1936738 -0.2635003 0.22585693 -0.30535954 -0.16285622 -0.4788266 0.46072224 -0.10945036 -0.19242527 -0.03456081 0.31169572 0.401457 0.09669005 0.6698305 0.25799873 0.1688771 -0.10554807 0.66816014 0.2820569 0.43452317 -0.12642932 0.072439946 -0.19527493
적 -0.10254319 0.49651226 0.01183487 0.13167155 0.30639607 -0.7032844 -0.10146042 1.074038 -0.3957855 -0.14649159 -0.45993665 -0.6315274 0.22021352 0.54277617 0.18837374 -0.5268674 0.1101372 -0.2879295 -0.049197514 -0.7913418 0.4412376 0.30953854 0.40039122 -0.10779994 -0.279376 0.10409258 -0.21827042 0.10013464 -0.39949596 0.32130542 0.4872665 -0.12279434 0.31048137 -0.53414094 -0.36705285 0.51256615 0.28082857 -0.32048625 -0.53586996 -0.38524392 -0.008047371 -0.40126848 -0.31071433 0.17533886 0.27965754 -0.013137135 -0.47034985 -0.008747497 0.23731354 0.18496656 0.33143672 -0.54420835 -0.24776495 -0.13484755 0.013112026 0.41091308 0.26615554 -0.10189716 -0.47126466 0.023243945 -0.06862357 -0.049067136 0.25492847 -0.022004098 -0.6283569 0.56512374 0.19262685 0.4940983 -0.6649642 0.736298 -0.2122973 0.24414551 0.5750687 -0.0023625845 0.3165356 0.14517386 0.049701132 -0.20585325 -0.28964272 0.25403875 -0.3247939 -0.18026647 -0.5341248 0.50203794 -0.14038134 -0.20563756 -0.023523012 0.33724487 0.42051458 0.099506654 0.72039586 0.28368804 0.1732875 -0.10690392 0.7113176 0.29585698 0.45558995 -0.14966935 0.09667223 -0.195489
어 -0.11900009 0.5117032 0.020538844 0.12598753 0.3374358 -0.73874223 -0.11974749 1.1238613 -0.4279141 -0.15614872 -0.4811899 -0.65972686 0.225156 0.5671971 0.21310154 -0.5664584 0.10947495 -0.30738518 -0.061747067 -0.83272153 0.4499018 0.3237047 0.40871185 -0.118780576 -0.29145122 0.122517966 -0.22508709 0.114021026 -0.41678593 0.32922566 0.49100608 -0.12685777 0.3035763 -0.54889333 -0.368872 0.5347308 0.29115856 -0.34184396 -0.5485084 -0.3913747 -0.007031204 -0.43264288 -0.31930023 0.19689405 0.2884733 -0.016710803 -0.49721748 0.007874797 0.24517377 0.17622851 0.36007422 -0.56942403 -0.25878626 -0.13467516 0.008578894 0.43238777 0.2899898 -0.10081133 -0.47640052 0.014604199 -0.07738754 -0.04995434 0.27285504 -0.015256343 -0.64857537 0.59799623 0.20784457 0.52278996 -0.7124246 0.7691412 -0.22270337 0.27497718 0.5877682 -0.012961159 0.32274196 0.1575956 0.05550549 -0.21021271 -0.2944305 0.26703504 -0.34925297 -0.18115528 -0.55713415 0.520803 -0.13771695 -0.19608839 -0.035199236 0.35983095 0.44534385 0.111345254 0.75376844 0.29863706 0.1879454 -0.0967653 0.75048655 0.3177697 0.4892485 -0.15286441 0.08743734 -0.2104511
것 -0.082850404 0.376947 0.014789871 0.10656554 0.23192827 -0.53444123 -0.072394155 0.81684196 -0.296386 -0.10925805 -0.34341502 -0.48224068 0.1614871 0.39517745 0.14623432 -0.41508925 0.07696874 -0.22430135 -0.03234425 -0.5986164 0.33850658 0.22504988 0.29746515 -0.08551529 -0.21834774 0.08479005 -0.16716507 0.07325917 -0.3085523 0.23047525 0.36885852 -0.098534845 0.23298375 -0.40162495 -0.266881 0.37573504 0.2162413 -0.23311336 -0.4077032 -0.27634305 -0.0040017297 -0.31981543 -0.23266008 0.14337657 0.19966067 -0.0189933 -0.34089062 -0.0017582872 0.17918056 0.1340169 0.25598365 -0.40637738 -0.1821686 -0.09065326 0.00095329114 0.31716284 0.2112563 -0.08537 -0.36066678 0.020313459 -0.049534727 -0.035642777 0.20299704 -0.016574573 -0.47185966 0.43165237 0.1458604 0.3837074 -0.5041408 0.54239863 -0.16150156 0.18496385 0.43364093 -0.0048532137 0.24568026 0.11631802 0.03640763 -0.14416943 -0.20864399 0.18473564 -0.25301912 -0.13300465 -0.398945 0.37585673 -0.10982943 -0.156818 -0.018099964 0.25538728 0.32516852 0.07410318 0.5429346 0.21181133 0.13897905 -0.07665292 0.5485161 0.22859895 0.3427712 -0.10562569 0.057367526 -0.15965721
기 -0.112899646 0.48092428 0.032110266 0.12861155 0.3095747 -0.707772 -0.11457855 1.0557517 -0.3853746 -0.1523187 -0.4458268 -0.62784874 0.21959607 0.5345026 0.19680068 -0.5353381 0.09848741 -0.2874466 -0.045166474 -0.7755239 0.4297581 0.31167334 0.39800322 -0.124053694 -0.2736189 0.111190274 -0.219892 0.10688574 -0.39915234 0.322796 0.469314 -0.11768533 0.29972887 -0.52129287 -0.36128044 0.51861775 0.27325028 -0.3220331 -0.5262973 -0.37946263 0.0057544736 -0.41533667 -0.3021742 0.18495059 0.28165564 -0.008751762 -0.4645181 -0.0009155321 0.23364136 0.16343842 0.34727478 -0.5254907 -0.2287363 -0.13621022 -0.00036932353 0.41744965 0.25768948 -0.09445593 -0.45678496 0.018999534 -0.06622293 -0.03974264 0.253155 -0.02592281 -0.6003033 0.5587731 0.19871835 0.4905448 -0.66006285 0.72764546 -0.21719517 0.25516745 0.5539664 -0.0041632857 0.3234139 0.15732124 0.04652494 -0.2060553 -0.2711067 0.25907445 -0.3135047 -0.17273301 -0.52060086 0.48009512 -0.13515782 -0.19370018 -0.0390739 0.32771134 0.4254476 0.1141946 0.7227761 0.27589723 0.16583401 -0.11024402 0.7076508 0.28270075 0.44851342 -0.13202848 0.0842044 -0.21118921
로 -0.116764925 0.5479077 0.015738726 0.13603331 0.3528298 -0.7938399 -0.12592877 1.2131087 -0.43718424 -0.17676325 -0.5027609 -0.6961945 0.22670232 0.596096 0.22556831 -0.5910369 0.10541698 -0.3252762 -0.05349503 -0.8920668 0.4788957 0.34651822 0.44806987 -0.13746636 -0.31591988 0.122986294 -0.23846385 0.11704915 -0.4466767 0.36382884 0.5318951 -0.14957698 0.3456396 -0.58903617 -0.39712837 0.56997156 0.29982746 -0.36396453 -0.58563304 -0.42779598 0.0041418606 -0.46754074 -0.35602692 0.19965845 0.31498507 -0.028214818 -0.5145881 -0.0030124937 0.26539284 0.20363592 0.37688795 -0.6172529 -0.26855987 -0.14209305 0.020579534 0.46340132 0.30377916 -0.110750385 -0.52414256 0.022398787 -0.08939285 -0.04220784 0.29089537 -0.024271583 -0.6968268 0.64117926 0.23443025 0.566703 -0.76323277 0.81862736 -0.23546891 0.28092265 0.6428903 -0.013412042 0.34931606 0.16792141 0.051431023 -0.22953367 -0.32040426 0.27650115 -0.35489437 -0.19642912 -0.59248966 0.5619049 -0.13450539 -0.2162461 -0.03427535 0.3791607 0.46884233 0.1243447 0.7999618 0.30945322 0.20383498 -0.11639802 0.79889935 0.33701628 0.5283601 -0.15189956 0.10971079 -0.23124225
않 -0.07516517 0.373647 0.013130927 0.100442156 0.2327984 -0.5534554 -0.07653721 0.84093547 -0.31871104 -0.12923123 -0.35381293 -0.4710259 0.14724602 0.43166864 0.15253828 -0.41006353 0.075394966 -0.23193933 -0.03410665 -0.5991564 0.32434544 0.23940195 0.30953398 -0.08694019 -0.21244273 0.080227524 -0.15376657 0.07030467 -0.31209812 0.25486028 0.374848 -0.11469433 0.22561803 -0.41023207 -0.2810918 0.40655494 0.20126294 -0.23585771 -0.40061274 -0.2980984 -0.014718329 -0.3179237 -0.2442885 0.15195866 0.22842243 -0.005463564 -0.36116934 -0.0007069892 0.17106903 0.13253775 0.260823 -0.39812765 -0.19709636 -0.11369813 0.013366434 0.3251827 0.19785933 -0.08636499 -0.35917473 0.004682982 -0.06966205 -0.040578928 0.19197227 -0.009055703 -0.47262338 0.44541827 0.15284622 0.3790272 -0.51093674 0.5649821 -0.15481581 0.1950569 0.42048267 -0.006631 0.26066425 0.11269426 0.036957927 -0.16200013 -0.20340832 0.18911085 -0.2400745 -0.14410432 -0.39094466 0.36420026 -0.08707376 -0.15077986 -0.015745293 0.25221008 0.33849713 0.091356725 0.5427349 0.19908246 0.14637855 -0.084297314 0.5327767 0.23487987 0.34777388 -0.113106996 0.07943035 -0.157396
만 -0.1125143 0.50423783 0.014470563 0.12277366 0.31180233 -0.73220366 -0.12015281 1.1144314 -0.40088016 -0.15645853 -0.4675925 -0.6507501 0.22359307 0.55610764 0.20187232 -0.55546516 0.097169116 -0.28599018 -0.057626806 -0.80334127 0.4555934 0.32373232 0.3981964 -0.11385929 -0.29721496 0.106022544 -0.21307239 0.09256682 -0.4079156 0.32527873 0.47835755 -0.1314035 0.31222034 -0.5408298 -0.37553212 0.5297059 0.2767626 -0.33476818 -0.5385547 -0.39032483 0.01388425 -0.41794756 -0.31212038 0.17558551 0.28225353 -0.010166722 -0.4756496 -0.005463132 0.24201348 0.17308137 0.33934888 -0.56805325 -0.24585228 -0.14253853 0.024122968 0.42830086 0.28368878 -0.10171293 -0.46470934 0.0030888265 -0.0736272 -0.04479474 0.2635222 -0.02503318 -0.6389703 0.5950113 0.2055518 0.5104174 -0.6956676 0.74532545 -0.20880586 0.25433835 0.58769536 -0.008829338 0.32825682 0.16979605 0.04853293 -0.21371889 -0.30025116 0.26959226 -0.33316985 -0.16976604 -0.5370019 0.51553315 -0.12299752 -0.20014098 -0.026428157 0.3513767 0.42989963 0.11468035 0.7378175 0.28020838 0.18786858 -0.10895993 0.7259608 0.31442896 0.46617654 -0.14390391 0.08714325 -0.19740853
등 -0.12011132 0.577609 0.029960819 0.14510411 0.35760853 -0.8340986 -0.12668729 1.2591137 -0.4664559 -0.18275575 -0.5327063 -0.72791845 0.2458313 0.62747616 0.23202719 -0.6259119 0.10688806 -0.33372575 -0.056778044 -0.9174161 0.51345265 0.36953905 0.46688268 -0.14342572 -0.33783197 0.12450107 -0.24662484 0.123576246 -0.47249115 0.37333024 0.5620102 -0.1456061 0.35314232 -0.6187513 -0.41217086 0.5932373 0.315167 -0.38034156 -0.6248222 -0.45064795 -0.004960042 -0.47600985 -0.37193358 0.21224068 0.32703072 -0.015560344 -0.54378915 -0.0048772874 0.2876429 0.20214175 0.404572 -0.63234097 -0.29336935 -0.16765638 0.022845745 0.49274987 0.31328288 -0.113366455 -0.5493766 0.00895401 -0.09535662 -0.03873735 0.29666305 -0.037553556 -0.72970545 0.67307967 0.23357566 0.57709205 -0.7911669 0.8490021 -0.2566234 0.29389313 0.66866165 -0.0090869125 0.36487094 0.18485105 0.061305176 -0.25275958 -0.340574 0.30267832 -0.3879258 -0.1994632 -0.6241955 0.58927 -0.15620956 -0.2388917 -0.036820587 0.39656025 0.49962395 0.13092072 0.8451341 0.32754904 0.21544014 -0.117453 0.8310775 0.34732786 0.54457355 -0.15350828 0.100289345 -0.24675567
과 -0.11720642 0.5688994 0.015720095 0.13701454 0.34540012 -0.7894765 -0.109644644 1.2102457 -0.44283792 -0.16391012 -0.5099045 -0.71411294 0.23815066 0.59660774 0.22148156 -0.5923892 0.10762589 -0.30824974 -0.060349625 -0.8855143 0.483009 0.3413312 0.43228412 -0.12599994 -0.32803452 0.12823318 -0.24074075 0.10233533 -0.45206514 0.3498478 0.5245595 -0.14096352 0.34951833 -0.5958784 -0.41057074 0.5865459 0.31786993 -0.3491837 -0.60369295 -0.42334116 -0.0024908201 -0.45411724 -0.34632427 0.20368858 0.31566018 -0.027949227 -0.51827735 0.0013544038 0.27359015 0.20214 0.3811731 -0.61122173 -0.27636427 -0.15857367 0.015293051 0.4600151 0.30421665 -0.113540486 -0.5139001 0.008111753 -0.08420441 -0.049145997 0.28318393 -0.02971304 -0.6929052 0.63720393 0.22552322 0.5695769 -0.7597805 0.8163268 -0.23650514 0.28526297 0.63824975 0.0010803672 0.3623724 0.17844836 0.05874291 -0.23598272 -0.31134066 0.2887764 -0.37013084 -0.19704302 -0.5930341 0.5509143 -0.142954 -0.23186874 -0.036229473 0.3852175 0.4757771 0.1215835 0.8039269 0.31689876 0.20841438 -0.11074085 0.8146192 0.33593318 0.5287436 -0.14655678 0.09909918 -0.23029049
대선 -0.09421524 0.4519266 0.026802016 0.0992556 0.2863362 -0.64907134 -0.088579714 0.9873509 -0.36825782 -0.1480753 -0.42141742 -0.57639056 0.18460447 0.48565632 0.18522933 -0.479811 0.09016728 -0.24258408 -0.050366823 -0.73154926 0.38455582 0.2919812 0.36799344 -0.115223825 -0.25355726 0.11505303 -0.20878896 0.08086269 -0.37683395 0.29578722 0.4261701 -0.11127468 0.28568584 -0.49261618 -0.34055826 0.4772093 0.23471901 -0.2958366 -0.48770726 -0.3502194 0.0015371187 -0.3765447 -0.28361633 0.17869595 0.25672567 -0.027267668 -0.41312456 -0.017540991 0.2153608 0.16572988 0.30970496 -0.501566 -0.21631168 -0.121465996 -0.00088176085 0.37432495 0.23851863 -0.08581834 -0.4242851 0.0065825973 -0.055294964 -0.033265 0.23762286 -0.011434699 -0.57125384 0.5276676 0.17232315 0.4502652 -0.62470055 0.6718035 -0.20504679 0.23485094 0.52445567 -0.013448749 0.29308787 0.14433224 0.031555694 -0.18255126 -0.26569703 0.24342357 -0.2912183 -0.15362325 -0.49441835 0.4527908 -0.115865335 -0.17573981 -0.021004511 0.31353527 0.37276512 0.08323853 0.66123515 0.25395894 0.16501765 -0.09582893 0.66096467 0.2724565 0.43035382 -0.12855998 0.072178185 -0.19690277
수 -0.10415223 0.40020674 0.013624557 0.121048525 0.2647309 -0.5796649 -0.0900125 0.8915173 -0.33237258 -0.122026004 -0.37269056 -0.5247458 0.16266607 0.45477894 0.15283966 -0.46195665 0.06836353 -0.22512905 -0.0406112 -0.6461443 0.3778984 0.24339458 0.33702582 -0.090493545 -0.22976264 0.09013936 -0.16551137 0.07540655 -0.32382023 0.27171847 0.40000457 -0.100616775 0.25495496 -0.43313906 -0.28712365 0.42816257 0.22831748 -0.25533563 -0.4372605 -0.32692543 0.0040791263 -0.34590605 -0.2510867 0.14763707 0.22612609 -0.013695791 -0.37833536 -0.010740877 0.20714779 0.13982022 0.29759812 -0.44573972 -0.19125511 -0.116477795 0.0014259461 0.3520803 0.22049004 -0.08140325 -0.39682207 0.017378606 -0.06513735 -0.033583198 0.22254892 -0.024794327 -0.5245353 0.47297224 0.17318475 0.42315573 -0.56874186 0.6188953 -0.17520884 0.20501603 0.4698917 0.00079488615 0.2549514 0.13386391 0.050222456 -0.15443511 -0.22438896 0.21284951 -0.27711257 -0.15146762 -0.42086276 0.3993489 -0.11143471 -0.16736054 -0.014449048 0.26864967 0.35544875 0.08910376 0.59102064 0.22198083 0.13458128 -0.081556916 0.5851637 0.25634265 0.37996668 -0.12787034 0.06345945 -0.15992858
없 -0.08868971 0.38477835 0.0049850177 0.08634461 0.23409997 -0.537529 -0.08735194 0.8078191 -0.3164837 -0.11416892 -0.33351097 -0.48893455 0.15048227 0.41130072 0.1506074 -0.41795337 0.083368234 -0.22657119 -0.0343734 -0.58734673 0.34364426 0.24136706 0.3128404 -0.08395536 -0.22517806 0.094550475 -0.17384753 0.06491776 -0.2956192 0.22820707 0.35841367 -0.10359677 0.23001112 -0.3908896 -0.2646123 0.39650622 0.20458443 -0.23511803 -0.41175333 -0.29269856 -0.0068695825 -0.31505525 -0.23189096 0.14904888 0.20448728 -0.010028817 -0.34365734 -0.011195879 0.17877272 0.1314357 0.25883114 -0.39786327 -0.17052436 -0.08989297 0.020391414 0.30577567 0.20543806 -0.09120248 -0.36027724 0.0030720984 -0.055238456 -0.03019543 0.18727326 -0.008124132 -0.46875063 0.4378329 0.1483406 0.37781063 -0.5089251 0.56447864 -0.15892252 0.18207309 0.43564996 -0.001454239 0.23759304 0.12941436 0.037752725 -0.14208356 -0.21363482 0.1809351 -0.2589686 -0.13500686 -0.3922375 0.3697916 -0.09325997 -0.14203471 -0.02112833 0.258486 0.3179273 0.07901311 0.54691666 0.20908152 0.13001132 -0.08627806 0.54247206 0.23350927 0.33844835 -0.09594557 0.06265071 -0.15704311
선거 -0.12125638 0.51437587 0.015966669 0.116734095 0.32729286 -0.74496746 -0.1164802 1.1123657 -0.40342143 -0.15893471 -0.4830673 -0.647506 0.2103535 0.5547501 0.21228854 -0.56247306 0.09191886 -0.30268022 -0.04682816 -0.807537 0.454203 0.325581 0.41481316 -0.12587471 -0.28582084 0.123692624 -0.22021115 0.11217922 -0.4258636 0.33106098 0.5041018 -0.13298556 0.30410498 -0.5439454 -0.37769175 0.5310116 0.28374863 -0.32286543 -0.5496869 -0.38958946 -0.0018400465 -0.41633216 -0.3333047 0.18145548 0.27956575 -0.023112152 -0.48756352 -0.0031036383 0.24973707 0.18325502 0.3598691 -0.5674936 -0.24855743 -0.13831618 0.019723881 0.443615 0.27789518 -0.10562851 -0.4878541 0.009092663 -0.0848705 -0.040804476 0.2604663 -0.030126562 -0.64067274 0.59716403 0.20045464 0.51941353 -0.69367236 0.76243055 -0.22781886 0.2717555 0.59899235 -0.00890877 0.32626015 0.15060517 0.04474145 -0.2145588 -0.29006752 0.26300067 -0.34555134 -0.17079464 -0.55083305 0.5235075 -0.12838152 -0.21258643 -0.029182201 0.36015385 0.429277 0.100879334 0.7603464 0.28943938 0.19540845 -0.11727256 0.7406936 0.31648257 0.4823602 -0.14494504 0.08283598 -0.21873473
국민 -0.08552274 0.37552667 0.013856734 0.06891385 0.24006666 -0.51148015 -0.07758312 0.7735812 -0.2886109 -0.118723 -0.33072188 -0.45863292 0.15833941 0.39571556 0.14599456 -0.3923838 0.078386866 -0.19119443 -0.053538714 -0.5912834 0.30068016 0.23103751 0.27413318 -0.093497105 -0.1934104 0.0788891 -0.14998467 0.06480512 -0.3021084 0.2247662 0.33738813 -0.0816994 0.2112339 -0.39297903 -0.27178037 0.38815045 0.18212001 -0.21652739 -0.37996742 -0.2880164 0.0055737444 -0.29958826 -0.2126831 0.12459253 0.18414813 -0.029621037 -0.32636958 -0.015495029 0.17520244 0.13651732 0.24806035 -0.38962415 -0.17265595 -0.09734022 -0.0029904228 0.28717706 0.2076177 -0.07394593 -0.35074478 0.019099781 -0.031625133 -0.026171483 0.19267721 -0.013840398 -0.45334986 0.3928073 0.12918167 0.3457491 -0.49701166 0.5431084 -0.14374842 0.17137185 0.4116467 0.011022698 0.22718206 0.10131121 0.03509536 -0.14397831 -0.20722036 0.17630906 -0.22035176 -0.10818091 -0.40071702 0.3485106 -0.086840905 -0.1403579 -0.035461247 0.27199453 0.29114592 0.08007169 0.5369615 0.20455122 0.1355663 -0.07877951 0.49989548 0.21220341 0.33350798 -0.12050332 0.07461309 -0.16803989
게 -0.087669924 0.40967202 0.007835843 0.09811933 0.2697802 -0.5969469 -0.08196136 0.8996653 -0.32559717 -0.118443675 -0.36932853 -0.5173283 0.16673025 0.43884566 0.15871942 -0.448611 0.08726421 -0.23593318 -0.046757102 -0.6522603 0.35895398 0.2516915 0.33902568 -0.10788634 -0.23844467 0.08859846 -0.17320691 0.078076966 -0.33223024 0.25914073 0.40934315 -0.11476416 0.25228876 -0.43343028 -0.29095235 0.42374352 0.2249122 -0.27273238 -0.43832013 -0.32451478 0.0072138864 -0.34484068 -0.25340286 0.14928113 0.23055586 -0.012508165 -0.39733163 0.004230019 0.19718412 0.15268151 0.2878575 -0.4488192 -0.20042674 -0.103949346 -0.00205777 0.35758477 0.2353046 -0.088375136 -0.3845045 0.014310553 -0.059099052 -0.037299227 0.22063997 -0.020191878 -0.51312834 0.48972625 0.1609201 0.41742924 -0.570329 0.60694575 -0.18853801 0.21473731 0.46969464 -0.0054698936 0.27185506 0.12038523 0.04476791 -0.17163345 -0.23928213 0.20276073 -0.2810245 -0.13454111 -0.44275638 0.41681537 -0.1133473 -0.1684445 -0.021496383 0.2725329 0.34654492 0.079235986 0.5904074 0.22679053 0.14357935 -0.087524354 0.5960697 0.24140428 0.38256302 -0.11731673 0.066632055 -0.1754816
“ -0.10483859 0.4648741 0.008253295 0.108077675 0.2993806 -0.6774458 -0.10404166 1.0261617 -0.37022492 -0.15232821 -0.42429298 -0.60381407 0.19868137 0.51128405 0.18567172 -0.4935983 0.094808236 -0.2596222 -0.045028057 -0.7546425 0.40033478 0.2863636 0.3728335 -0.11733866 -0.2703966 0.098804064 -0.20709957 0.09036153 -0.37241873 0.28927407 0.44568607 -0.11411911 0.29393533 -0.49558568 -0.3398243 0.47828963 0.2583941 -0.31119093 -0.50727546 -0.35720655 0.0029125705 -0.38076684 -0.305719 0.17602003 0.26090837 -0.022475531 -0.4393655 0.00028394087 0.21739037 0.16488674 0.32706368 -0.51423585 -0.22355466 -0.122572206 0.01572086 0.3969153 0.26292187 -0.10478763 -0.42992407 0.017004855 -0.07462777 -0.04065255 0.2516375 -0.016512176 -0.59567726 0.5413038 0.18799067 0.47351965 -0.62642854 0.6783281 -0.19385718 0.22660004 0.5429211 0.005516565 0.29319435 0.13430074 0.052575666 -0.20224299 -0.27745533 0.23732756 -0.31585577 -0.14997399 -0.48508123 0.4703007 -0.1146385 -0.17685767 -0.022963649 0.3233576 0.4020299 0.10402939 0.68771183 0.27097535 0.16147062 -0.086948484 0.6869084 0.29061687 0.4277759 -0.13515577 0.08215755 -0.18789758
” -0.10362443 0.43443856 0.023717405 0.12361045 0.26780066 -0.61558336 -0.0847488 0.937519 -0.34617528 -0.14324354 -0.39661148 -0.5451548 0.1892484 0.45537218 0.16792166 -0.459647 0.08996276 -0.25282192 -0.040853955 -0.68459386 0.36657602 0.27919644 0.33607158 -0.1057841 -0.23745507 0.10035644 -0.19665127 0.08652201 -0.35587463 0.2669296 0.40739194 -0.10521221 0.25135037 -0.4490204 -0.32021746 0.45333615 0.23546322 -0.28629994 -0.45673925 -0.34058982 0.0034356525 -0.36066198 -0.28245443 0.15101875 0.24755442 -0.018838655 -0.4021447 -0.01830992 0.21037775 0.1499512 0.29420066 -0.4784063 -0.22041264 -0.1216906 0.0040482595 0.36079735 0.23041375 -0.103849545 -0.39849797 0.012781883 -0.05660329 -0.030959044 0.23714046 -0.025564563 -0.55124164 0.5030479 0.16531542 0.44398588 -0.576359 0.63549477 -0.17940634 0.22816645 0.49727136 0.0025264067 0.2872655 0.13475385 0.035645023 -0.18886535 -0.24636453 0.21965751 -0.27429888 -0.15931399 -0.4588357 0.44351205 -0.1187377 -0.18550129 -0.022487527 0.2868755 0.36286312 0.08142042 0.6283812 0.2534865 0.16010627 -0.08133124 0.63481545 0.26484603 0.39729515 -0.11315926 0.06527415 -0.18286346
투표 -0.09124371 0.47644037 0.0115731945 0.10167474 0.30545306 -0.6647239 -0.10752517 1.0089225 -0.36143544 -0.13269989 -0.42690906 -0.5691671 0.20857304 0.50776565 0.20039149 -0.5045357 0.087144494 -0.26661602 -0.039524768 -0.7142762 0.41249478 0.29435772 0.3772822 -0.097605646 -0.26494184 0.09259338 -0.19957407 0.1090413 -0.3779056 0.29603788 0.44609362 -0.12801427 0.28711584 -0.4824352 -0.32919693 0.4890905 0.26036364 -0.29385373 -0.5055753 -0.33480993 -0.012661325 -0.36744693 -0.2865671 0.17195342 0.24289697 4.157072e-05 -0.43357685 0.007749689 0.21352951 0.15524782 0.31488314 -0.5128339 -0.23605613 -0.13768221 0.02014422 0.3915305 0.24682923 -0.08828254 -0.42985928 0.00081897416 -0.06714584 -0.04425514 0.23617432 -0.010118838 -0.5736114 0.54015493 0.19279124 0.45743302 -0.63096255 0.6907397 -0.19718501 0.234346 0.5268652 -0.019211868 0.29334107 0.14162706 0.048615396 -0.19840844 -0.26564947 0.24011463 -0.30863893 -0.16572267 -0.4944509 0.4580554 -0.117523775 -0.17739184 -0.028143497 0.3086915 0.3896055 0.09206757 0.6751647 0.25074133 0.15717773 -0.10310994 0.6467283 0.2592631 0.43340424 -0.12077573 0.06881964 -0.20350471
와 -0.11011762 0.49912518 0.011040637 0.12473663 0.31660232 -0.6947245 -0.113250524 1.071252 -0.4020807 -0.14253753 -0.45889124 -0.6255457 0.2110836 0.527979 0.20276174 -0.53078455 0.10233307 -0.28735867 -0.04781922 -0.7862858 0.42043704 0.30848932 0.38821757 -0.11780237 -0.28483936 0.1013597 -0.22317411 0.086876854 -0.40687105 0.30984557 0.47812453 -0.12662417 0.29031742 -0.5254794 -0.35350817 0.5059325 0.26627484 -0.31777534 -0.51349324 -0.3866225 -0.004792805 -0.39724115 -0.31606063 0.18505515 0.27142438 -0.009233815 -0.4552724 -0.0032029413 0.23668197 0.1741017 0.33814174 -0.54220027 -0.23336774 -0.12835911 0.019989109 0.41038874 0.26579848 -0.094501466 -0.4668156 0.012705414 -0.07765091 -0.034698755 0.24525805 -0.019146042 -0.6038014 0.56344885 0.18922901 0.48450848 -0.6639869 0.71532834 -0.20703901 0.2452369 0.5682281 -0.0071725603 0.30378917 0.14753693 0.04794334 -0.20838779 -0.2747024 0.24617162 -0.3263918 -0.16589427 -0.52673465 0.48202085 -0.13281754 -0.19582757 -0.029674733 0.34035566 0.42181346 0.109575726 0.72037625 0.27530006 0.1712434 -0.09074717 0.70662427 0.29848906 0.4570049 -0.131478 0.09412211 -0.21100478
정부 -0.10201765 0.44468057 0.01960378 0.10240697 0.284164 -0.62970227 -0.09481367 0.9565847 -0.3635019 -0.12618937 -0.41518396 -0.56676984 0.19390014 0.46756265 0.17259927 -0.47765717 0.08524824 -0.26035914 -0.0438587 -0.7012395 0.39034876 0.27568185 0.3600459 -0.11466996 -0.24768655 0.09429525 -0.19082747 0.08102972 -0.35830367 0.27603638 0.41881797 -0.10381741 0.26883915 -0.46338853 -0.32652885 0.46342424 0.23578006 -0.28604624 -0.47653702 -0.34742856 0.0044816905 -0.36773345 -0.2757639 0.16951336 0.23879768 -0.016294817 -0.4165667 -0.014022166 0.19982497 0.15638463 0.30863553 -0.48488727 -0.22019242 -0.11663995 0.009207467 0.36103305 0.24729238 -0.082919754 -0.4217563 0.011634381 -0.058198314 -0.03976216 0.22984958 -0.027248912 -0.54330736 0.51658225 0.18194348 0.4396372 -0.60121965 0.6441825 -0.20244743 0.2329273 0.50356835 -0.005882205 0.2873306 0.12911758 0.049945634 -0.19182613 -0.25658402 0.23049255 -0.29260027 -0.15633775 -0.47244358 0.4356898 -0.11755105 -0.18168545 -0.01604538 0.30940828 0.37236163 0.09289774 0.63443035 0.2551036 0.15394445 -0.08579039 0.64643776 0.27099138 0.41120362 -0.11705151 0.085968055 -0.1846341
자 -0.10282207 0.47504914 0.02797173 0.110564455 0.29650548 -0.6710598 -0.11500499 0.9966805 -0.37956235 -0.13729855 -0.4313156 -0.5835376 0.21116059 0.51508296 0.19771172 -0.49583235 0.08796272 -0.26009563 -0.051190734 -0.74678695 0.4149609 0.27611127 0.37025192 -0.1113409 -0.276661 0.1034419 -0.2099112 0.11010673 -0.38274887 0.28370014 0.452668 -0.112532906 0.28389755 -0.48045415 -0.33806303 0.47199777 0.25938755 -0.28327563 -0.4969846 -0.3561141 0.0033308764 -0.36986408 -0.30217412 0.16590413 0.25391302 -0.0110591445 -0.42494616 0.00826121 0.20454893 0.17130388 0.31437254 -0.51177967 -0.23908193 -0.13429315 0.02477875 0.39396232 0.23900816 -0.09018703 -0.43812338 -0.0021145768 -0.062987715 -0.033709496 0.23839796 -0.007227293 -0.5641319 0.52605444 0.19199939 0.46563026 -0.62320167 0.6902414 -0.21178849 0.23200212 0.53080744 0.0018574325 0.28730616 0.15830657 0.036481258 -0.2052178 -0.27435187 0.22592618 -0.28494805 -0.16583046 -0.49246314 0.47256982 -0.12728755 -0.1773291 -0.02255494 0.30182552 0.3914578 0.09461577 0.68118894 0.25117534 0.15356387 -0.08031691 0.6553373 0.2880943 0.4189212 -0.11880967 0.07629163 -0.19814116
아야 -0.0792351 0.3494387 0.010211891 0.09288836 0.21769857 -0.50611484 -0.075173914 0.7772124 -0.28071353 -0.11037065 -0.32832265 -0.44223088 0.14145727 0.3891064 0.14738806 -0.38498974 0.06667635 -0.2156611 -0.051645827 -0.5527201 0.3144462 0.2214738 0.2995683 -0.09602182 -0.20405234 0.07969606 -0.16626658 0.059833456 -0.27796453 0.22254975 0.33151037 -0.084864244 0.2041883 -0.37564296 -0.25637352 0.36124164 0.18502483 -0.23150755 -0.3962323 -0.26975593 -0.0031522585 -0.2929144 -0.21949159 0.13147776 0.20669009 0.002383626 -0.33352235 -0.007951774 0.17247732 0.1354815 0.25538594 -0.3903275 -0.1783251 -0.10166472 0.0045107948 0.29087427 0.18974471 -0.08920947 -0.33276993 0.012446252 -0.051853437 -0.033267926 0.19714603 -0.025967289 -0.42831945 0.41354147 0.145812 0.36185503 -0.47688088 0.52249527 -0.15118559 0.16710442 0.39665535 -0.0059250416 0.21526723 0.11051821 0.043072667 -0.1472492 -0.19073859 0.17820504 -0.23261099 -0.11159317 -0.38180447 0.3402285 -0.085968986 -0.15263934 -0.010748166 0.24843565 0.29007715 0.08112019 0.5188976 0.19023663 0.114591904 -0.089188375 0.5149181 0.21977752 0.32895982 -0.09262766 0.05146091 -0.15252219
( -0.09843364 0.48669094 -0.00036115412 0.12200151 0.29440808 -0.71665287 -0.09790575 1.0831977 -0.4042826 -0.13641265 -0.44693592 -0.61450994 0.20438534 0.5412358 0.1845928 -0.5309249 0.09943941 -0.2932685 -0.070669696 -0.78011924 0.44111252 0.30770427 0.38161895 -0.1111533 -0.2845468 0.09824426 -0.2066641 0.093821205 -0.38930163 0.32407665 0.48266178 -0.10952579 0.31238958 -0.5315154 -0.3564061 0.5090005 0.27168474 -0.3042029 -0.515064 -0.3937149 0.017551938 -0.4072295 -0.30999056 0.18790592 0.26092988 -0.021247981 -0.45866737 0.012099812 0.23869981 0.1682442 0.31827933 -0.5536028 -0.22445765 -0.15166667 0.030469844 0.4146968 0.26587522 -0.08311413 -0.44555894 0.024993505 -0.056313705 -0.055162776 0.26707202 -0.039370943 -0.6282302 0.5512469 0.20735882 0.5025887 -0.6813283 0.7176394 -0.21806331 0.23991567 0.5595085 -9.637321e-05 0.31060702 0.14742263 0.038096216 -0.21325517 -0.28795704 0.2552482 -0.3012388 -0.15159698 -0.5338732 0.48338744 -0.13860804 -0.20701876 -0.022188578 0.3288113 0.41461834 0.117443986 0.7231667 0.2793888 0.19309518 -0.0897988 0.7084442 0.2798408 0.46172234 -0.124117784 0.0989759 -0.20722672
힘 -0.04958488 0.3498776 0.0225311 0.06556066 0.22025314 -0.48150253 -0.085467234 0.7419804 -0.29478088 -0.12370666 -0.30886754 -0.4174358 0.13095874 0.37285247 0.14294155 -0.35362625 0.057474583 -0.17112468 -0.055670623 -0.5562903 0.29918823 0.19950034 0.28191644 -0.086604215 -0.19658676 0.07065035 -0.16746554 0.048390135 -0.25837094 0.2290149 0.3003909 -0.09346228 0.21323092 -0.37943333 -0.23099115 0.36673525 0.15968849 -0.19704905 -0.339218 -0.26750743 0.0064800726 -0.2932519 -0.19610451 0.13981956 0.18617474 -0.032568075 -0.307676 -0.014160596 0.15621333 0.129258 0.23073447 -0.3637423 -0.16772485 -0.08429113 -0.00031918482 0.28070897 0.19385539 -0.056282774 -0.30234212 0.007939948 -0.03734357 -0.014155654 0.17196834 0.004074442 -0.43905416 0.4017943 0.1373592 0.35275176 -0.44920945 0.510049 -0.15606314 0.15275222 0.38518524 -0.0003958654 0.20755744 0.09104369 0.015069235 -0.12573273 -0.17281517 0.18491144 -0.23174956 -0.11629935 -0.38312304 0.34959617 -0.07993561 -0.12041888 -0.028015286 0.23774585 0.2887896 0.07397777 0.48684537 0.18013471 0.1258909 -0.085844435 0.4980459 0.21294737 0.30749428 -0.1114311 0.04611919 -0.15310636
) -0.08217487 0.4458437 -0.0009497966 0.120400265 0.25956705 -0.62156546 -0.08781369 0.9566723 -0.36485246 -0.12316368 -0.42333463 -0.5634904 0.20517755 0.46049672 0.16142656 -0.47904605 0.09201429 -0.24529311 -0.056167472 -0.70469046 0.39692867 0.29207796 0.3623411 -0.101691745 -0.24881399 0.099966414 -0.18841648 0.09660582 -0.34843978 0.28654128 0.41383064 -0.12083986 0.2804697 -0.47201398 -0.31510553 0.45105404 0.23456572 -0.29064503 -0.460969 -0.34703106 -0.012640212 -0.3650251 -0.27040076 0.17040291 0.23508148 -0.00644478 -0.42266583 -0.008198536 0.19366133 0.141485 0.3102118 -0.50191355 -0.22575921 -0.14001602 0.029349646 0.36240095 0.24092151 -0.09691422 -0.41651386 0.01001884 -0.06708869 -0.05081388 0.21838129 -0.017298376 -0.56498533 0.50517327 0.17656961 0.45328888 -0.6011324 0.65170544 -0.1999898 0.20899257 0.50972795 -0.006253887 0.2633675 0.13545933 0.05107021 -0.2013021 -0.2594936 0.22555834 -0.28429565 -0.13311571 -0.4675005 0.4268557 -0.12274451 -0.19081141 -0.035843257 0.290986 0.3593297 0.09170826 0.63947904 0.23956282 0.16571274 -0.0825539 0.64813584 0.25148812 0.41911358 -0.110367104 0.07345611 -0.1886425
화 -0.100229576 0.42421988 0.029693346 0.12729152 0.28949723 -0.6379512 -0.08417492 0.9590185 -0.34639573 -0.14980465 -0.40288147 -0.56499875 0.16833192 0.47617292 0.19379535 -0.45797437 0.07525453 -0.24640922 -0.050857395 -0.68307847 0.36441392 0.28939328 0.33666703 -0.11568432 -0.24796036 0.096071094 -0.20931445 0.08527978 -0.35644558 0.26910022 0.43057457 -0.104687445 0.28002912 -0.4478894 -0.3281404 0.46240452 0.25207236 -0.26989418 -0.45802227 -0.34189573 0.0113386605 -0.36181417 -0.27549234 0.15186213 0.24281299 -0.005086244 -0.42531008 0.009195399 0.2163434 0.15386623 0.29583934 -0.48091438 -0.20258851 -0.10715297 -0.0016354215 0.38169456 0.23378077 -0.10592781 -0.3955475 0.020759935 -0.060973313 -0.021811374 0.21339743 -0.032554254 -0.54940706 0.4983344 0.17636171 0.4389301 -0.6078446 0.6475335 -0.18778177 0.21920642 0.508398 -0.0040738466 0.2916813 0.13095017 0.05794674 -0.18281792 -0.24425387 0.2173207 -0.27722433 -0.14460486 -0.46222436 0.451123 -0.12955524 -0.15768243 -0.025028396 0.29495513 0.36299697 0.07455217 0.63663936 0.24704264 0.16712826 -0.073408216 0.6137862 0.27702615 0.3956969 -0.11455417 0.088486835 -0.18685392
’ -0.11260793 0.4596801 0.02399547 0.119283736 0.28418112 -0.6653436 -0.0940798 1.0280641 -0.3729305 -0.1415749 -0.4510638 -0.5932152 0.20778836 0.4951988 0.18263066 -0.5057831 0.09049603 -0.2740697 -0.057153404 -0.75331986 0.4166252 0.294971 0.37426287 -0.10650397 -0.27852884 0.09267027 -0.19291607 0.079927556 -0.38512206 0.29693407 0.43959326 -0.11355044 0.2995059 -0.5008257 -0.3335587 0.4893386 0.25070432 -0.30757132 -0.5043065 -0.35363266 0.017072482 -0.38094607 -0.30579793 0.16528621 0.2688463 -0.011265874 -0.4354574 -0.007029871 0.2403213 0.1535075 0.33863214 -0.52953094 -0.23290463 -0.118440874 -0.0019248385 0.40074646 0.24642567 -0.104302734 -0.4358939 0.012166448 -0.077483155 -0.02583658 0.23185632 -0.022684373 -0.5783483 0.5428083 0.18201716 0.47638273 -0.64637035 0.6922299 -0.20049998 0.2556672 0.5485967 -0.016056167 0.31549385 0.13681786 0.058294762 -0.20720698 -0.28199977 0.23881397 -0.3163941 -0.1659336 -0.50006646 0.47273993 -0.13809693 -0.19412836 -0.041178893 0.32338545 0.40553442 0.098436825 0.699377 0.25812796 0.18646169 -0.08685936 0.6900839 0.2826009 0.43810523 -0.1283385 0.075338185 -0.17753588
다는 -0.099413835 0.43983993 0.020773325 0.11531245 0.27230927 -0.626588 -0.08993089 0.9382361 -0.35992327 -0.13586268 -0.39661202 -0.55315393 0.18629473 0.46891826 0.17823964 -0.47144502 0.080038734 -0.24359334 -0.040687796 -0.6790593 0.38176918 0.2601423 0.35336024 -0.10761157 -0.25744915 0.10687257 -0.19020982 0.07434899 -0.3516409 0.28005126 0.4100569 -0.105653465 0.2592671 -0.44769096 -0.31027368 0.43648294 0.2360066 -0.26746526 -0.4601677 -0.33881822 0.010453505 -0.34975502 -0.26331082 0.16020006 0.23057431 -0.016293619 -0.39774555 -0.012134514 0.21658197 0.14119697 0.28953865 -0.47607335 -0.20298687 -0.124727696 0.016216094 0.34943306 0.23772012 -0.08875464 -0.40386322 0.02228386 -0.059095353 -0.034557726 0.23145722 -0.01483417 -0.53296006 0.50776726 0.17309374 0.42526805 -0.58797896 0.6310706 -0.19362727 0.21698321 0.49887136 -0.010552168 0.27857307 0.13890278 0.043103643 -0.17457959 -0.23702885 0.20931181 -0.2785082 -0.1398555 -0.4557792 0.4179329 -0.12181508 -0.18140425 -0.021172265 0.29621258 0.37271258 0.088503204 0.62475413 0.24395803 0.14262222 -0.09895195 0.62497884 0.24986982 0.39563593 -0.122852676 0.08101379 -0.17900774
윤 -0.047378846 0.27964976 0.0046461523 0.06467202 0.17694248 -0.40258813 -0.04844191 0.6163063 -0.22092512 -0.09673517 -0.26322776 -0.35602388 0.11607848 0.2942099 0.12160656 -0.2903547 0.051638845 -0.1514037 -0.026305191 -0.44356608 0.24952307 0.17231797 0.21476431 -0.068308935 -0.17008176 0.074951045 -0.13373965 0.04735173 -0.23083134 0.17925884 0.27342913 -0.08022227 0.167642 -0.29349968 -0.20083581 0.29480007 0.15008193 -0.18087853 -0.30783948 -0.20732321 -0.0089102425 -0.22819687 -0.17886928 0.09579104 0.16132247 -0.011381832 -0.27189818 -0.0176533 0.13417292 0.08958515 0.1966079 -0.3020723 -0.12874047 -0.08404389 0.014256424 0.2230386 0.15879269 -0.06035294 -0.26019466 0.012125336 -0.040908955 -0.026886662 0.14541823 -0.019719006 -0.35029763 0.3161929 0.116250455 0.27088684 -0.38440657 0.39961407 -0.13285974 0.13756463 0.30914962 -0.009946134 0.1806718 0.083420664 0.030961722 -0.10366102 -0.17378134 0.14831133 -0.1928122 -0.08694078 -0.2854728 0.28785518 -0.082534105 -0.10813595 -0.023420662 0.1880915 0.23099272 0.04687628 0.41364637 0.16339178 0.09601808 -0.063896954 0.4075907 0.16411507 0.25367272 -0.083419904 0.046461288 -0.109114185
위하 -0.09376892 0.40686777 0.025681157 0.09645994 0.2522541 -0.57412803 -0.08368305 0.8703828 -0.32533458 -0.13282768 -0.35952377 -0.5172071 0.15631275 0.43154526 0.16329399 -0.43219984 0.079497896 -0.22701132 -0.040737104 -0.62851524 0.34449816 0.24305485 0.31122422 -0.08406306 -0.22744131 0.08282784 -0.1675691 0.08880076 -0.3138017 0.24947546 0.37754178 -0.10547523 0.23499218 -0.41737053 -0.28448933 0.40427533 0.23203383 -0.2659693 -0.4180672 -0.31242147 0.005311452 -0.3344507 -0.24814773 0.15334445 0.21911514 -0.019285036 -0.3833022 0.0014247928 0.19518605 0.14914723 0.26851246 -0.44823062 -0.18829533 -0.11231299 0.013693571 0.34337386 0.21375169 -0.080409296 -0.37675872 0.00401603 -0.066864856 -0.030662937 0.19809595 -0.021892678 -0.5037495 0.46621522 0.16410795 0.4081275 -0.5372564 0.5818007 -0.17742819 0.21418788 0.4637003 -0.017202795 0.26208583 0.13235268 0.052057203 -0.17350772 -0.23172571 0.20370096 -0.2593931 -0.14006147 -0.42656663 0.4060205 -0.09774495 -0.1588908 -0.0326563 0.26916003 0.3312792 0.08759034 0.58096194 0.22000098 0.13241616 -0.083672136 0.5831754 0.24986704 0.3777599 -0.114555225 0.08127123 -0.16279034
며 -0.08523154 0.41059074 0.007642411 0.108422555 0.26249164 -0.56800014 -0.08202461 0.87267333 -0.32468382 -0.13153568 -0.3653813 -0.5079627 0.16239238 0.43323123 0.16576427 -0.43696722 0.08362387 -0.21941385 -0.055274755 -0.63325745 0.33598468 0.24049331 0.3278739 -0.102740414 -0.2332896 0.08110965 -0.18539846 0.07003393 -0.32345566 0.2555678 0.37288538 -0.11135089 0.23898816 -0.42213747 -0.29803985 0.4107182 0.22530493 -0.25490844 -0.42046314 -0.30162355 0.0020252792 -0.32769528 -0.2424045 0.1506511 0.22451273 -0.011884423 -0.38639107 -0.00034917763 0.1978084 0.13960959 0.28457654 -0.4447529 -0.18925387 -0.1171476 -0.0031962062 0.33803686 0.22403955 -0.076345295 -0.3830466 0.015884621 -0.054046217 -0.027995704 0.20933999 -0.0125697525 -0.49115488 0.45035297 0.1510466 0.4108669 -0.54272693 0.5759413 -0.1781836 0.20301448 0.46567175 -0.0044347513 0.25408667 0.11510497 0.031112405 -0.163642 -0.22919439 0.19408242 -0.26117843 -0.14646523 -0.4243214 0.4028605 -0.10517919 -0.1507124 -0.01720785 0.27029908 0.34458798 0.09115588 0.5895008 0.23606336 0.14829867 -0.07827078 0.58504444 0.2365738 0.36286643 -0.10122725 0.07278848 -0.16768062
‘ -0.09030914 0.39586934 0.030753141 0.10543297 0.25737172 -0.5647233 -0.07357349 0.8704186 -0.33100727 -0.12976624 -0.38266483 -0.52498287 0.17307757 0.42170078 0.17119753 -0.43714863 0.07067363 -0.2424671 -0.04626878 -0.65870225 0.35396048 0.26117516 0.31735876 -0.08250899 -0.23668 0.0792698 -0.18087026 0.07546447 -0.3361893 0.24409486 0.3777918 -0.10112574 0.2557306 -0.43796146 -0.29879746 0.41980898 0.21652405 -0.2563966 -0.43391714 -0.30434018 0.014989554 -0.34463146 -0.24791534 0.15564649 0.22483443 -0.003303652 -0.38329437 -0.011430161 0.18552986 0.15525182 0.26594758 -0.44711012 -0.19736159 -0.116070054 0.021924656 0.32784325 0.20640953 -0.06776333 -0.38572517 0.022734798 -0.070509724 -0.021956181 0.20575662 -0.022584865 -0.5155769 0.45789868 0.17497736 0.41713727 -0.548993 0.60522515 -0.17024413 0.21568307 0.4690112 -0.023188308 0.27291632 0.11267319 0.037985045 -0.16839236 -0.22597757 0.19507644 -0.2624159 -0.13097733 -0.4408287 0.4207473 -0.11214952 -0.14810705 -0.0374126 0.28670803 0.35563892 0.07243073 0.59163594 0.21430491 0.16248813 -0.06711298 0.57506144 0.24498762 0.3752164 -0.12224212 0.07467968 -0.17559302
지만 -0.09346444 0.4257496 0.023637712 0.11870266 0.27084392 -0.62412846 -0.10406097 0.9447478 -0.34491685 -0.12180309 -0.39349356 -0.5517653 0.18794481 0.47669435 0.18191782 -0.45878646 0.07635509 -0.25805828 -0.038783997 -0.6935673 0.3817865 0.27800786 0.34391573 -0.09341647 -0.26044038 0.10553032 -0.1815402 0.089773096 -0.35733658 0.2839893 0.42346725 -0.11314329 0.26404724 -0.44708502 -0.31382754 0.45107412 0.23742563 -0.28069374 -0.46357942 -0.33740947 -1.9225465e-05 -0.3643795 -0.26990822 0.16920906 0.24505486 -0.00681894 -0.41037637 0.0013235135 0.20072268 0.1462255 0.30772445 -0.4669945 -0.21573745 -0.1233467 0.015877422 0.36540723 0.2410197 -0.09964295 -0.40691337 0.009500587 -0.064269416 -0.03326074 0.21885131 -0.016733514 -0.54108816 0.5071941 0.17314099 0.44463795 -0.5847592 0.6387502 -0.19527142 0.21061756 0.49118316 -0.007824695 0.28491074 0.14035556 0.037314843 -0.17005394 -0.24551679 0.20784716 -0.27693027 -0.15134211 -0.46372414 0.4365589 -0.1064045 -0.16454451 -0.02590054 0.30057845 0.3716181 0.08445994 0.6359305 0.23858215 0.14411682 -0.079486445 0.61639184 0.26773572 0.39249784 -0.10915798 0.068402156 -0.17057592
% -0.09377984 0.48162958 0.013282247 0.110154375 0.2847811 -0.6701247 -0.09481562 1.0206759 -0.36818263 -0.13236257 -0.44886717 -0.5928958 0.19444162 0.50220394 0.18734229 -0.51351285 0.08730826 -0.280207 -0.057051852 -0.75444365 0.42423818 0.30646187 0.37559524 -0.11345536 -0.2668447 0.10391562 -0.21267678 0.08808837 -0.37638775 0.31160787 0.45389363 -0.10707694 0.29249993 -0.49422857 -0.3328989 0.49974072 0.27087662 -0.29374206 -0.5110766 -0.35559306 -0.0072849006 -0.3975351 -0.30677724 0.17658685 0.25802666 -0.022355638 -0.43480662 0.008108942 0.22835793 0.17140053 0.31693092 -0.52763414 -0.22356594 -0.1348605 0.004795726 0.4009626 0.25186515 -0.102185786 -0.43652734 0.019623088 -0.0620542 -0.04105778 0.25304922 -0.020250436 -0.580227 0.53852504 0.19764733 0.4796884 -0.6531051 0.69811183 -0.20457926 0.24340382 0.5357083 -0.011592005 0.28794098 0.14748928 0.041575056 -0.20392671 -0.26842624 0.24848618 -0.29805753 -0.16749191 -0.5038993 0.4667995 -0.118106686 -0.19923116 -0.020581344 0.32413176 0.3933419 0.110511646 0.6937254 0.2629716 0.1775573 -0.105875775 0.66712856 0.2730227 0.45317858 -0.12443124 0.09077315 -0.19997978
정치 -0.06702759 0.3232137 0.014034718 0.078199 0.20896725 -0.47032362 -0.063530795 0.7086897 -0.26408654 -0.10592965 -0.30504328 -0.41682613 0.12815021 0.3515614 0.12413205 -0.34881192 0.053538304 -0.1890879 -0.03657364 -0.52298355 0.28420004 0.21322575 0.26392484 -0.074916385 -0.19211175 0.07115622 -0.13976598 0.06478171 -0.25190163 0.20509881 0.31561992 -0.07631615 0.19926299 -0.33223423 -0.24057983 0.32988372 0.18467188 -0.19732665 -0.34104997 -0.25131902 0.011877666 -0.26319715 -0.20374882 0.13039622 0.18337166 -0.0064468947 -0.30168065 -0.014640276 0.15196064 0.11800564 0.21647988 -0.3471077 -0.148351 -0.095371485 -0.00071957544 0.2657071 0.17584096 -0.06878514 -0.30491072 0.006515034 -0.044546578 -0.014697316 0.16134357 -0.025874326 -0.39640427 0.36443147 0.1379547 0.32761702 -0.4452556 0.46436208 -0.1508268 0.16692653 0.36930946 -0.0020564105 0.20771575 0.101506054 0.03608916 -0.13448918 -0.19303437 0.16303194 -0.20839788 -0.11333017 -0.34381202 0.32010373 -0.077894226 -0.13118385 -0.010203719 0.21672373 0.26071313 0.06175088 0.4649617 0.1816153 0.12163906 -0.06477579 0.47559014 0.19654435 0.3073239 -0.08914215 0.05584052 -0.1252889
단일 -0.070442796 0.3490763 0.002694949 0.0727076 0.21054803 -0.4844668 -0.07483941 0.7313192 -0.2817853 -0.11816814 -0.29566243 -0.43387148 0.1361017 0.36053997 0.13422383 -0.37194574 0.064644136 -0.19363528 -0.021364812 -0.5511772 0.28423432 0.20856045 0.27501416 -0.08952565 -0.20237355 0.06336897 -0.1405266 0.051763993 -0.27955976 0.2147987 0.32801434 -0.09955416 0.22055522 -0.36075237 -0.24561822 0.33576366 0.17727362 -0.21063295 -0.3537626 -0.25171384 0.012063678 -0.29291868 -0.2157031 0.120489076 0.18428761 -0.0061237365 -0.31567907 -0.015985906 0.16872877 0.12776908 0.22138801 -0.3655366 -0.17162378 -0.076470755 0.014289545 0.28276718 0.1803552 -0.08513798 -0.29963246 0.00726362 -0.034992773 -0.019045072 0.16280083 -0.018151753 -0.41599393 0.38399577 0.15160444 0.32943806 -0.47005424 0.5021199 -0.1554986 0.15924954 0.38381794 0.0037236537 0.20736554 0.09377133 0.023405908 -0.13630374 -0.19766569 0.18403229 -0.22101317 -0.11461972 -0.3615356 0.3501118 -0.090014316 -0.14697017 -0.032948356 0.2318992 0.29517496 0.07619207 0.48387462 0.17685868 0.10652225 -0.06293162 0.4705623 0.20737377 0.3214067 -0.09371865 0.043901835 -0.13086642
안 -0.064942256 0.28234705 0.0024783197 0.08362808 0.18737344 -0.42763728 -0.059969228 0.6442767 -0.24698009 -0.09984353 -0.27044055 -0.38245317 0.12296944 0.31813976 0.12818274 -0.3126774 0.05910208 -0.16017233 -0.0363393 -0.4596503 0.25611517 0.18284023 0.22417513 -0.07055036 -0.16143493 0.06764955 -0.13892357 0.052275673 -0.24440102 0.19166224 0.27637544 -0.068952 0.17467812 -0.31532106 -0.22157523 0.30593002 0.15249406 -0.194493 -0.32096332 -0.2278706 -0.003168091 -0.24207804 -0.17753343 0.10749382 0.15719643 -0.007048387 -0.26969233 -0.01021854 0.13552554 0.10921337 0.20917082 -0.32861498 -0.13314375 -0.09049711 -0.0013003259 0.23942094 0.16101736 -0.06433531 -0.26847097 0.016418196 -0.037373897 -0.027130643 0.14754477 -0.025030183 -0.36639553 0.34908223 0.11075436 0.2981835 -0.3945526 0.42574233 -0.13653448 0.14118241 0.32796887 -0.01102203 0.19327734 0.08232227 0.027378652 -0.114972375 -0.16829273 0.14084165 -0.19798388 -0.094602324 -0.30726433 0.2919893 -0.07991993 -0.11538256 -0.014682321 0.19653574 0.25361177 0.051304027 0.43402848 0.15376806 0.10277024 -0.05267829 0.4195071 0.18493687 0.28299817 -0.08976793 0.05077278 -0.12782681
방역 -0.111246586 0.45622048 0.02669419 0.12526627 0.28307238 -0.6563409 -0.1048509 0.9942208 -0.36550176 -0.14875314 -0.41920155 -0.590211 0.19606261 0.49707606 0.17762077 -0.4926051 0.08774306 -0.2739062 -0.0500599 -0.7209796 0.390513 0.2793106 0.3631373 -0.09955059 -0.2632285 0.11476249 -0.20595524 0.10038319 -0.374526 0.28432444 0.42905742 -0.11598125 0.2723164 -0.47146308 -0.33069158 0.47487426 0.25921586 -0.30452296 -0.48971128 -0.35768512 -0.0063491743 -0.37272063 -0.28634974 0.16763407 0.2511306 -0.023489928 -0.4322651 -0.0014973283 0.22723073 0.16735905 0.31005067 -0.49851653 -0.2241738 -0.12805267 0.0047036847 0.37719852 0.2516784 -0.1023076 -0.4360209 0.007922523 -0.060969792 -0.0354625 0.24169524 -0.015108483 -0.57616645 0.5209242 0.19399619 0.46473998 -0.61345804 0.67991775 -0.1886798 0.23038714 0.52361846 -0.00096975616 0.29931912 0.15475945 0.03786535 -0.19528176 -0.25391516 0.23190443 -0.2976144 -0.149408 -0.47420686 0.4470831 -0.12294865 -0.19169301 -0.020576779 0.31246665 0.3855312 0.10064761 0.6714629 0.26406267 0.17060442 -0.09058717 0.6597975 0.28460956 0.42794347 -0.1262644 0.07198374 -0.18288222
겠 -0.10298136 0.426986 0.010452518 0.10486356 0.26486024 -0.59980726 -0.09835972 0.9101725 -0.34406886 -0.1371505 -0.3799562 -0.53121066 0.185185 0.44318524 0.1680873 -0.4508836 0.08950427 -0.2503566 -0.039267167 -0.67272425 0.35471383 0.25985318 0.32907835 -0.10243363 -0.24881779 0.09729668 -0.19191092 0.08316057 -0.33305126 0.264028 0.400403 -0.09975285 0.24085121 -0.4470151 -0.29583022 0.4433452 0.22211546 -0.2778944 -0.44743076 -0.32923678 0.004608064 -0.3354792 -0.27136824 0.14910182 0.2420767 -0.014743304 -0.3954373 -0.006616952 0.19192806 0.14105031 0.2845413 -0.45318764 -0.19921088 -0.10273528 0.015055528 0.34947443 0.21587189 -0.08553408 -0.39719534 0.022197362 -0.057223227 -0.034791805 0.22296603 -0.022887709 -0.5237594 0.4812553 0.17944342 0.42670694 -0.56306434 0.6163222 -0.18451561 0.22136791 0.46871263 -0.009273436 0.26196396 0.14159454 0.04001194 -0.17375469 -0.22819476 0.19882171 -0.2781257 -0.13921507 -0.44705328 0.42506084 -0.109775 -0.17238232 -0.018973913 0.2928699 0.3570759 0.09710896 0.5982238 0.23072922 0.16127484 -0.08136474 0.60170424 0.24556322 0.39390892 -0.111066975 0.084968895 -0.16950761
성 -0.06835509 0.34022075 0.0064492393 0.08740694 0.2227065 -0.49620175 -0.06707355 0.7425457 -0.28960997 -0.09752041 -0.3087647 -0.4436602 0.14141992 0.37121525 0.13748126 -0.3624049 0.069611266 -0.20127599 -0.041761905 -0.55221564 0.29240033 0.22308497 0.26663518 -0.085569 -0.20658119 0.0879281 -0.14337404 0.06749576 -0.27524552 0.21706796 0.34380528 -0.09377327 0.21578835 -0.36804992 -0.23719683 0.36850166 0.19898735 -0.22259742 -0.37230548 -0.27535516 0.012755488 -0.29587126 -0.22613876 0.1333725 0.190704 -0.0011157421 -0.33254957 0.006238418 0.16859268 0.11098844 0.24392308 -0.38328812 -0.16239975 -0.0842012 -0.0040103225 0.29721615 0.19385311 -0.06548149 -0.33141646 0.0031378472 -0.062494636 -0.021330431 0.17703651 -0.0122678485 -0.4263068 0.40881503 0.14262846 0.34552798 -0.4666029 0.5119854 -0.16043824 0.1689553 0.39314982 0.0016622057 0.21936491 0.09621642 0.03586298 -0.13378188 -0.18789056 0.17994663 -0.23232986 -0.12412416 -0.365715 0.3365989 -0.10085369 -0.13899238 -0.018944507 0.24101968 0.2975151 0.0834192 0.49303153 0.20380567 0.119793974 -0.07059909 0.49226677 0.20387876 0.3201125 -0.105100036 0.07119149 -0.13518909
확진 -0.091970645 0.39802024 0.026871003 0.08346848 0.2568814 -0.5625845 -0.080535054 0.85362023 -0.33084032 -0.11103103 -0.3664772 -0.5091255 0.17286973 0.41613376 0.16925313 -0.43583918 0.073430605 -0.22490454 -0.044643328 -0.6299911 0.3551699 0.2498795 0.29785347 -0.08979697 -0.24023692 0.08406763 -0.16356276 0.09069852 -0.32795095 0.2537729 0.38499364 -0.11298659 0.23079748 -0.41671085 -0.2973835 0.41080543 0.22934413 -0.25092843 -0.41378346 -0.30377418 -0.003132305 -0.33165225 -0.2509017 0.15496969 0.22365521 -0.013771037 -0.35607803 0.007039423 0.17389223 0.14805959 0.28302866 -0.4444577 -0.17966054 -0.116781555 0.00863109 0.34048977 0.20546433 -0.09083962 -0.3750769 -0.0031836403 -0.070284106 -0.019147731 0.20486979 -0.031809993 -0.47843924 0.464875 0.17398497 0.40858048 -0.54595184 0.57592934 -0.16716465 0.20707431 0.4591554 -0.017894097 0.25048116 0.14168498 0.023907742 -0.15399258 -0.22169462 0.19214053 -0.25776634 -0.1474063 -0.42224723 0.3989876 -0.10246601 -0.14072919 -0.037081048 0.25750768 0.3435987 0.09647192 0.5762138 0.22763957 0.14834279 -0.090142414 0.57647616 0.22957802 0.3653222 -0.11762886 0.080065854 -0.16442353
명 -0.085764036 0.4125515 0.011211093 0.09363462 0.25031877 -0.59340984 -0.09048235 0.89537835 -0.33148423 -0.11986512 -0.38904583 -0.50873065 0.17570415 0.4331231 0.16108492 -0.43456885 0.08028812 -0.24196792 -0.052663036 -0.65998036 0.35678267 0.26834902 0.3160522 -0.096420474 -0.23682588 0.09482993 -0.18650872 0.093921065 -0.33300865 0.27226028 0.38286874 -0.097513266 0.24092704 -0.4389051 -0.30268106 0.42122376 0.22941919 -0.2658561 -0.43101272 -0.3187368 -0.000532807 -0.3449496 -0.25250128 0.15449888 0.23620188 -0.00855719 -0.39102063 0.011059867 0.18587774 0.14540471 0.2783064 -0.45866865 -0.19628838 -0.11849692 0.0076554837 0.34840947 0.22474462 -0.074125126 -0.39125708 0.016141143 -0.06432028 -0.043917373 0.20520116 -0.01896528 -0.5042315 0.48298565 0.1801219 0.42031044 -0.56693804 0.5993919 -0.17026165 0.21459034 0.48080578 0.00018238465 0.2564127 0.13367163 0.027531903 -0.16710088 -0.22844116 0.20432757 -0.26362118 -0.13019145 -0.43293232 0.42159718 -0.09759902 -0.16535294 -0.014144721 0.2867243 0.34599727 0.08882398 0.6116382 0.23727132 0.14117509 -0.08858327 0.58973676 0.2482945 0.38844565 -0.123827755 0.077699125 -0.15757172
대하 -0.07460435 0.3576266 0.017988605 0.09482221 0.23189075 -0.4998844 -0.079903536 0.77217674 -0.29092348 -0.10123271 -0.32747158 -0.4366077 0.13604811 0.3745834 0.15099016 -0.38457105 0.06705566 -0.19593446 -0.027539883 -0.5607776 0.2979803 0.2308404 0.2699835 -0.079035655 -0.19712345 0.07140265 -0.15875944 0.05855154 -0.28463766 0.23182984 0.33018824 -0.09364725 0.22384763 -0.37638637 -0.25314334 0.3668657 0.19352739 -0.233863 -0.36517608 -0.274045 0.009797325 -0.29373273 -0.21940593 0.13430141 0.19602925 -0.009105075 -0.33523664 0.007440824 0.16507536 0.11979901 0.24571179 -0.37818307 -0.17743713 -0.097092085 0.012891144 0.291553 0.19248942 -0.062009808 -0.32052112 0.00052239775 -0.05579898 -0.018606046 0.1814851 -0.028598946 -0.4414925 0.39754528 0.14497554 0.35399535 -0.4817235 0.5116523 -0.14438204 0.1856988 0.40510815 -0.003924295 0.23111516 0.10645437 0.043415166 -0.14782213 -0.2113841 0.16697101 -0.22999291 -0.11334224 -0.36957732 0.3420853 -0.089805916 -0.14351103 -0.027441114 0.24854827 0.3020938 0.0758948 0.5152924 0.19817065 0.114506654 -0.06656549 0.5160025 0.21607809 0.33053777 -0.10215341 0.067000024 -0.15183547
대 -0.086995006 0.42009068 0.01561935 0.10054148 0.26251084 -0.58966315 -0.08825469 0.90899915 -0.32757583 -0.12311275 -0.3883307 -0.5309489 0.1662982 0.44081873 0.16953568 -0.43704265 0.081188925 -0.24197523 -0.039474234 -0.6613689 0.36127856 0.26893973 0.33689004 -0.09676961 -0.24624321 0.09583675 -0.16733737 0.09152908 -0.3349486 0.27294394 0.40611055 -0.11538154 0.25862414 -0.43545198 -0.30437973 0.43255758 0.2380604 -0.27516973 -0.43081465 -0.3231045 -0.0052094394 -0.33513597 -0.26628605 0.15726385 0.23530427 -0.0026735163 -0.38129443 -0.009596199 0.20091434 0.13271523 0.2836312 -0.44565713 -0.20614114 -0.10840265 0.0040245745 0.3400264 0.23249403 -0.08110084 -0.37723404 0.013267259 -0.060983878 -0.029326709 0.20318508 -0.01378538 -0.5202689 0.48085892 0.16221982 0.41602668 -0.55794543 0.60438883 -0.18794696 0.20376843 0.46221715 0.0023611947 0.2556889 0.13086529 0.029951388 -0.17875528 -0.24218787 0.21406803 -0.26179937 -0.13869318 -0.42617062 0.4153779 -0.09643462 -0.15574874 -0.024180386 0.2834932 0.3419999 0.085282944 0.60759383 0.22142075 0.15253697 -0.092750706 0.6055467 0.24564068 0.3881555 -0.12030598 0.081325546 -0.17529544
두 -0.079474166 0.34265283 0.010557769 0.08136016 0.2168339 -0.47158265 -0.06347981 0.7332237 -0.26237813 -0.11189423 -0.30175763 -0.4143521 0.13734348 0.35975164 0.13039598 -0.3615522 0.07469851 -0.18976317 -0.032156475 -0.5379032 0.29680395 0.20533474 0.25983503 -0.07582463 -0.1838137 0.068570144 -0.14227657 0.062852606 -0.27773684 0.20846225 0.31094593 -0.07957171 0.19748145 -0.35510197 -0.23987027 0.34917238 0.19300234 -0.22425969 -0.35404697 -0.25527585 -0.002118333 -0.27569696 -0.20075041 0.12181701 0.19364429 -0.010953884 -0.3123268 0.0038887688 0.1660879 0.11702325 0.22705933 -0.35691535 -0.16353318 -0.08635575 0.006796212 0.27148545 0.18731448 -0.07416721 -0.30585894 0.0026175675 -0.04636643 -0.02153694 0.17767297 -0.024846843 -0.42062917 0.39057055 0.13707188 0.33548743 -0.45653933 0.48541299 -0.15478282 0.16892998 0.37404117 -0.0044677695 0.21506962 0.106300175 0.025982074 -0.13604265 -0.19736162 0.16452996 -0.21543714 -0.105206564 -0.35685948 0.33329356 -0.077935405 -0.1224424 -0.013713506 0.21864495 0.2860174 0.07786372 0.4868013 0.189545 0.11763622 -0.064254254 0.4828827 0.20764843 0.3064512 -0.10195085 0.066432156 -0.14295702
까지 -0.10209226 0.45645937 0.016368233 0.109527014 0.28790104 -0.6585578 -0.09711642 0.98289794 -0.3698989 -0.13476516 -0.4174767 -0.5709862 0.19268386 0.4777904 0.19139972 -0.49070972 0.08610837 -0.25329164 -0.046776198 -0.71719867 0.39843565 0.2869628 0.36767825 -0.09713181 -0.26251343 0.09884686 -0.19393714 0.08110841 -0.35636458 0.29274058 0.44211227 -0.11245953 0.27248016 -0.475228 -0.3325985 0.47798252 0.25633958 -0.28797132 -0.48753503 -0.3579614 0.011580449 -0.37131163 -0.2916837 0.15701006 0.24663106 -0.014650496 -0.43511927 -0.0017313777 0.22039115 0.1475278 0.31201008 -0.50511545 -0.22276486 -0.124623805 -0.00053737283 0.3794669 0.23980531 -0.101995274 -0.4215783 0.0155550735 -0.05903441 -0.027358217 0.22762771 -0.033410158 -0.5577505 0.5282265 0.1916308 0.4511088 -0.6208094 0.65998244 -0.20656253 0.23541695 0.5147856 0.0018169364 0.2802718 0.15192804 0.04019325 -0.17933281 -0.2638858 0.2230316 -0.28859657 -0.16544071 -0.48647454 0.45818004 -0.12887438 -0.17481795 -0.023532698 0.30143234 0.3874875 0.096512794 0.6685246 0.25630125 0.1576923 -0.0952999 0.6593666 0.26540837 0.4338691 -0.12999526 0.076472044 -0.18898006
한 -0.088787906 0.40854496 0.020220693 0.09985022 0.2733309 -0.60089546 -0.09921688 0.9092223 -0.32458743 -0.122652024 -0.38651818 -0.5231259 0.16766226 0.44501376 0.16188248 -0.44633642 0.07517681 -0.24797253 -0.050825085 -0.65467376 0.36575946 0.2709811 0.33349925 -0.09176684 -0.23569018 0.09846504 -0.18599321 0.08531829 -0.33528593 0.2724203 0.39267814 -0.107837655 0.25485173 -0.44311824 -0.31118998 0.43586 0.23063098 -0.26736224 -0.44921812 -0.31032506 0.0031463956 -0.34085673 -0.26332814 0.15482996 0.23519173 -0.022784054 -0.38765258 -0.0070568253 0.20820764 0.15026623 0.2802681 -0.45877042 -0.20834604 -0.10412896 0.018508352 0.3542796 0.23626986 -0.09040017 -0.3856495 0.004861609 -0.071130574 -0.03793176 0.21322629 -0.027190644 -0.5227556 0.48020956 0.16862485 0.40924218 -0.5564715 0.6114393 -0.18960448 0.21022435 0.4662556 0.0007223794 0.2629562 0.13846855 0.046618894 -0.17776155 -0.24664617 0.20527981 -0.26172352 -0.14441687 -0.43998292 0.41448352 -0.117402926 -0.16130094 -0.034742367 0.29269356 0.3438163 0.096238144 0.6027879 0.22997999 0.14605625 -0.08467055 0.60144895 0.2505178 0.38764346 -0.10696705 0.06724482 -0.17796129
크 -0.09587086 0.3890228 0.010846157 0.087427385 0.2457045 -0.552479 -0.07761248 0.8348682 -0.2965648 -0.115830384 -0.34731495 -0.4755436 0.1758432 0.40306652 0.15277684 -0.41371858 0.07211925 -0.21552859 -0.03736984 -0.6064777 0.33925986 0.2282006 0.29446986 -0.10084371 -0.21112475 0.090727895 -0.16401124 0.087955676 -0.3042 0.22799136 0.3536172 -0.102708854 0.21663187 -0.3895011 -0.26775044 0.3935002 0.20979026 -0.25314194 -0.39467776 -0.2991633 -0.002205851 -0.3198933 -0.23972131 0.12814285 0.21595529 -0.022874009 -0.34572485 -0.010078874 0.1711016 0.1310089 0.2498909 -0.40847903 -0.18695062 -0.10336536 0.018435696 0.31990924 0.20368713 -0.067509316 -0.35395092 0.014343817 -0.046400726 -0.041682184 0.20047638 -0.032307226 -0.4731696 0.44834533 0.15149385 0.37471604 -0.5107357 0.56384826 -0.15712468 0.18348348 0.44245458 0.0033102527 0.23377426 0.1217783 0.03705023 -0.1655653 -0.2195864 0.20141692 -0.24977422 -0.14138563 -0.40435275 0.36581215 -0.0965645 -0.144713 -0.021133766 0.25121623 0.33492658 0.06857677 0.54221284 0.1997757 0.14819455 -0.0792939 0.5385783 0.2164727 0.36507854 -0.108414575 0.06075617 -0.15023565
1 -0.08650139 0.3745461 0.019331386 0.08422507 0.22281098 -0.5157378 -0.08912001 0.7879013 -0.282986 -0.101032674 -0.34492618 -0.45495838 0.14761172 0.39262238 0.15339229 -0.38863045 0.06190352 -0.20205018 -0.03762853 -0.5685808 0.30806303 0.22702052 0.28323084 -0.07704622 -0.21749577 0.076249406 -0.1576463 0.07033087 -0.2824057 0.23155704 0.34264436 -0.100027785 0.20807406 -0.3753541 -0.2621795 0.36426806 0.20733532 -0.22469947 -0.3747149 -0.27906242 0.0018400977 -0.288036 -0.23492639 0.12489715 0.18819752 -0.0071643665 -0.34752476 0.001359366 0.17881933 0.12503193 0.23709291 -0.38865796 -0.16963178 -0.10762994 0.0150601845 0.31397986 0.203074 -0.07729911 -0.32975778 0.0041331416 -0.060556687 -0.026073871 0.17874724 -0.01976193 -0.45469666 0.40539593 0.14572647 0.3613665 -0.49034554 0.5348949 -0.15321139 0.17138171 0.40138268 -0.008375007 0.22327313 0.10826858 0.041491963 -0.14793995 -0.2149 0.19147761 -0.23382439 -0.1291599 -0.38004333 0.36774984 -0.09847422 -0.14739591 -0.024306206 0.25127164 0.3071402 0.06909567 0.5149803 0.2000782 0.13301115 -0.071804695 0.52220654 0.21242176 0.3365024 -0.095341675 0.06481782 -0.1414067
우크라이나 -0.06729606 0.32253972 0.008800352 0.08175398 0.2005625 -0.45322305 -0.05685815 0.68472207 -0.24586982 -0.09547748 -0.27785257 -0.3910175 0.13170496 0.34080952 0.12971185 -0.3292166 0.06480849 -0.17879964 -0.03663091 -0.50284183 0.26366547 0.19482633 0.24588417 -0.07090841 -0.1813113 0.0698284 -0.1295245 0.057417016 -0.24459735 0.20754875 0.3063741 -0.079521246 0.18653703 -0.32701984 -0.23472537 0.3156081 0.17473789 -0.20163551 -0.32833096 -0.24531864 0.007308036 -0.2612044 -0.19010606 0.113046184 0.16850992 -0.006962965 -0.2923139 -0.005056043 0.14494157 0.117809325 0.20388225 -0.33788303 -0.15573083 -0.075386465 0.011403359 0.26364744 0.1666265 -0.06597478 -0.29859486 0.0050577014 -0.040365886 -0.036606044 0.16553923 -0.012251944 -0.38040435 0.3552149 0.13316385 0.30375051 -0.4221385 0.4669772 -0.13083676 0.1527248 0.35238016 -0.013100497 0.19777623 0.102657415 0.023819434 -0.12366311 -0.18283069 0.16414079 -0.19740413 -0.10347603 -0.331345 0.30155143 -0.08701413 -0.1237048 -0.03062533 0.22339854 0.26830786 0.065921955 0.46307698 0.16815592 0.11402486 -0.063530006 0.45707393 0.19064344 0.28837204 -0.08969856 0.047224324 -0.121411815
· -0.09579607 0.47223407 0.024594067 0.10408846 0.2999825 -0.66777253 -0.09836927 1.0033753 -0.36413378 -0.14873232 -0.42525026 -0.5916557 0.19783215 0.50249803 0.17429061 -0.48584983 0.08122966 -0.25768098 -0.0587689 -0.74235195 0.39579678 0.29794535 0.3637829 -0.106527075 -0.27662313 0.112830445 -0.19787283 0.087417915 -0.37493777 0.30486655 0.445827 -0.12587598 0.28413385 -0.4939445 -0.3328748 0.48617932 0.25182825 -0.29616362 -0.4823371 -0.36105213 0.0069665015 -0.3758564 -0.3016809 0.16784306 0.26303327 -0.013578025 -0.42240903 -0.0038177343 0.22826156 0.15172224 0.3210905 -0.51943725 -0.22113983 -0.11921743 0.009724722 0.39520648 0.24081603 -0.09451156 -0.4264562 0.006429986 -0.060844522 -0.04599484 0.23626693 -0.013829495 -0.5672396 0.53156537 0.19931377 0.45391682 -0.63158447 0.67998344 -0.20439526 0.23934072 0.53540605 -0.0116008995 0.28944656 0.15554775 0.0377793 -0.20395485 -0.26530516 0.22678623 -0.29889408 -0.15499483 -0.4975184 0.4606826 -0.12568846 -0.18695204 -0.02559128 0.31898546 0.38673574 0.107961714 0.67293465 0.26583672 0.17240356 -0.08837897 0.67688566 0.2710478 0.432297 -0.13145675 0.08800405 -0.19568424
2 -0.09213377 0.4174293 0.0112452945 0.10430964 0.2544239 -0.5802127 -0.08842203 0.8740251 -0.31580418 -0.11459148 -0.38684735 -0.52107316 0.17601219 0.4364094 0.15789309 -0.42665923 0.07051116 -0.23557293 -0.03556462 -0.6458665 0.34906137 0.26503646 0.3292035 -0.10028169 -0.24207227 0.08933114 -0.16694869 0.078841396 -0.32096758 0.25989565 0.3931719 -0.10407637 0.25220856 -0.41616437 -0.30340034 0.42668185 0.2171064 -0.2705247 -0.42322662 -0.31060353 0.008223833 -0.34431055 -0.24784096 0.14087337 0.2165691 -0.011711403 -0.38422367 0.0020203236 0.18750583 0.13369271 0.28399634 -0.45038527 -0.18938348 -0.11506719 0.009599946 0.34634882 0.22814526 -0.08434268 -0.3885674 0.008656368 -0.052176256 -0.025989458 0.20280749 -0.017395414 -0.49623635 0.4578335 0.1657218 0.40853286 -0.55883145 0.5888541 -0.17126048 0.19948384 0.4586544 -0.003908815 0.26414797 0.13576113 0.03217353 -0.17330438 -0.22282138 0.20763138 -0.26656577 -0.14603522 -0.43373615 0.41154787 -0.10312252 -0.16919799 -0.01834713 0.2741144 0.3418703 0.081060044 0.59452754 0.22656563 0.14941378 -0.08674127 0.58161247 0.24044812 0.37622508 -0.114122234 0.0817432 -0.16329321
면 -0.08465083 0.41366202 0.01771097 0.10225367 0.26780587 -0.57815665 -0.095973335 0.8957235 -0.3336661 -0.12615837 -0.38700512 -0.5264839 0.17048998 0.44576412 0.16570964 -0.43816462 0.074927524 -0.22974487 -0.035060346 -0.6410892 0.35525447 0.24755743 0.33342794 -0.09747792 -0.23366858 0.096847095 -0.168378 0.080045775 -0.33439434 0.2602196 0.39517042 -0.10366264 0.2448525 -0.41924223 -0.29341587 0.41729268 0.23505111 -0.27037197 -0.43878803 -0.30701002 -0.0037971926 -0.3295578 -0.26404354 0.14186151 0.21677707 -0.010249991 -0.37642685 0.0049956003 0.19886942 0.14745378 0.28003156 -0.45642412 -0.18856244 -0.117595606 0.015755497 0.34294906 0.22018522 -0.08758926 -0.37273058 0.0038039717 -0.058106218 -0.032754492 0.21324973 -0.026944658 -0.5164748 0.46186367 0.16187467 0.4081559 -0.560109 0.6070464 -0.17465815 0.19971481 0.45993847 -0.012583916 0.2495733 0.12695631 0.03894333 -0.16058639 -0.22852674 0.2054852 -0.25548533 -0.14544702 -0.43998453 0.40787375 -0.11284041 -0.16583617 -0.022933176 0.26974246 0.34358293 0.08755222 0.5947463 0.22669935 0.14568755 -0.07324963 0.58919305 0.24040915 0.37603104 -0.12021717 0.07085012 -0.17009749
서울 -0.107711874 0.43759555 0.0120722195 0.09923397 0.27254498 -0.62045205 -0.08681735 0.9442687 -0.3374835 -0.12691803 -0.39637077 -0.54546106 0.1889899 0.4645069 0.18501152 -0.4724707 0.08532086 -0.24081041 -0.03536166 -0.69223726 0.38532302 0.27658215 0.33576465 -0.09126432 -0.25301203 0.10667475 -0.19874348 0.081766866 -0.34118354 0.2773489 0.4057599 -0.10992331 0.25148454 -0.44975904 -0.3039195 0.44593376 0.24466597 -0.28028283 -0.4521471 -0.32973468 -0.0070872004 -0.35433865 -0.27908158 0.16867976 0.23005779 -0.008115089 -0.4043794 0.006297985 0.21192305 0.16025926 0.29691482 -0.47566807 -0.20680402 -0.11755002 0.006450543 0.37040022 0.24430771 -0.079943255 -0.400304 0.017641434 -0.06561921 -0.031467397 0.21730682 -0.029543161 -0.5477215 0.5019288 0.16641924 0.4423649 -0.59488654 0.63291496 -0.19551861 0.22688 0.50013083 -0.004087597 0.26993802 0.13080016 0.03140832 -0.17016795 -0.25745186 0.22758324 -0.27672306 -0.13808401 -0.45380065 0.4347287 -0.105023056 -0.16477527 -0.03690189 0.29147983 0.36594692 0.090016715 0.6328565 0.2382084 0.15328787 -0.08501311 0.6283262 0.26757023 0.41457662 -0.12316843 0.07987124 -0.18958719
사전 -0.06125455 0.29572046 0.015096192 0.07289252 0.20304751 -0.41412705 -0.051115453 0.6452722 -0.24515226 -0.09730731 -0.28431875 -0.3715486 0.13626495 0.3282983 0.11835719 -0.31884 0.04639495 -0.1585864 -0.02316408 -0.4665009 0.27166906 0.17507327 0.22597755 -0.053788997 -0.16248344 0.054992113 -0.117004834 0.05477755 -0.23623352 0.19327208 0.2688366 -0.06736968 0.16818595 -0.31773087 -0.20258528 0.31686375 0.17297637 -0.183531 -0.31296742 -0.23505284 -0.0006693145 -0.24782324 -0.18746038 0.12352307 0.17256795 -0.006761737 -0.28453508 0.011916884 0.1521476 0.0970916 0.20642069 -0.31321162 -0.14412545 -0.07311385 -0.0021335403 0.23764607 0.15095414 -0.07505959 -0.2855409 0.014742542 -0.052018415 -0.013630157 0.15403903 -0.018147856 -0.38170874 0.3358827 0.12399839 0.31018677 -0.40562892 0.4457085 -0.13145848 0.16690953 0.33704123 -0.01660796 0.19056794 0.09499779 0.035346415 -0.13375582 -0.1653832 0.15579309 -0.18275072 -0.10681274 -0.31308588 0.28001705 -0.07098548 -0.1252269 -0.011127424 0.2105719 0.2553514 0.069460884 0.42123345 0.17532961 0.09919574 -0.051383086 0.41721684 0.17257026 0.27773425 -0.08103965 0.060184594 -0.12039041
검찰 -0.07883684 0.31559765 0.018479366 0.07196142 0.20208883 -0.44472715 -0.061562017 0.67234033 -0.2440683 -0.08951417 -0.2888673 -0.40345713 0.1298425 0.33656242 0.11634162 -0.34179524 0.062821425 -0.17832275 -0.038510624 -0.4996687 0.27954277 0.2036025 0.23965208 -0.079928026 -0.1806085 0.06721549 -0.13612202 0.054152418 -0.2573423 0.19293511 0.30217484 -0.07502219 0.1793321 -0.33449444 -0.23071456 0.32426736 0.16252133 -0.19970654 -0.32280403 -0.24689011 -0.0019445269 -0.24644835 -0.18754157 0.11563044 0.16696467 -0.019629685 -0.29558283 -0.0031720586 0.15660974 0.10744782 0.22407982 -0.34688458 -0.14305073 -0.07730243 0.0006281752 0.26929998 0.16190836 -0.060986772 -0.29947415 0.007962223 -0.049410086 -0.017375577 0.16470909 -0.02565736 -0.38815862 0.351471 0.11785035 0.3132443 -0.41144964 0.44669297 -0.124995075 0.16139223 0.345094 -0.0050253877 0.20109886 0.1034382 0.03311555 -0.11693502 -0.18174364 0.14670111 -0.21236816 -0.10122187 -0.3324161 0.29881784 -0.08836582 -0.12274905 -0.0103643155 0.20857026 0.26665488 0.064072736 0.46078685 0.17914172 0.10387044 -0.07331298 0.44253284 0.18792145 0.29413787 -0.07866862 0.06033086 -0.1177678
다고 -0.0791025 0.37311307 0.019919675 0.09701861 0.23590615 -0.5383708 -0.08835095 0.79994017 -0.3062819 -0.10155827 -0.3498462 -0.4801839 0.16074945 0.40907735 0.15698896 -0.40386364 0.08012677 -0.2124233 -0.04449046 -0.5945861 0.32167473 0.22226827 0.2965278 -0.07922107 -0.21823575 0.08649156 -0.15639453 0.08167277 -0.30748498 0.23823938 0.35406208 -0.09015221 0.22093056 -0.39678463 -0.26813722 0.37447923 0.21543744 -0.2466275 -0.3976555 -0.27652627 -0.0053883046 -0.3162909 -0.23854364 0.12850672 0.21313658 -0.01992286 -0.35229048 -0.012388859 0.18805817 0.12556395 0.24983156 -0.40331125 -0.18001515 -0.092513844 0.0050026216 0.3028958 0.1949366 -0.08922859 -0.3366395 0.020643309 -0.05296626 -0.03787113 0.19195905 -0.012943799 -0.46769795 0.4380534 0.15820634 0.37162325 -0.51049906 0.55530596 -0.16023764 0.18459515 0.4254339 -0.0129055455 0.22658566 0.12424586 0.037981346 -0.1487114 -0.20028593 0.18350136 -0.24816209 -0.13846482 -0.38159055 0.36505687 -0.0914615 -0.14528139 -0.03070294 0.2527937 0.32539487 0.07254652 0.5392235 0.20593217 0.13947387 -0.080296256 0.52993405 0.21252322 0.34252888 -0.09928293 0.06315881 -0.1506773
에게 -0.062238436 0.34495464 0.020642923 0.08914268 0.21741156 -0.4839241 -0.07355416 0.7382956 -0.27883586 -0.10109477 -0.31674773 -0.41896203 0.14814328 0.3575692 0.13812175 -0.36711353 0.055672992 -0.1928419 -0.037429884 -0.54645884 0.29520386 0.21321632 0.2581559 -0.08177922 -0.19672742 0.0801732 -0.14206943 0.07285513 -0.2698513 0.20885634 0.3219213 -0.07578885 0.2135249 -0.3510931 -0.24292533 0.35400397 0.18008178 -0.22244598 -0.35711423 -0.26551968 0.009156831 -0.2708876 -0.21238375 0.11515304 0.18063426 -0.021263652 -0.3255236 -0.00070982246 0.16441269 0.11239207 0.22309808 -0.3724339 -0.16207215 -0.09259923 0.016042825 0.2829244 0.17424269 -0.06253393 -0.3069247 0.0038470794 -0.041019928 -0.021778634 0.17116013 -0.018181516 -0.41614535 0.39764228 0.14654557 0.33184424 -0.45863622 0.4895913 -0.15645172 0.16683476 0.38253117 -0.011660568 0.2170908 0.100713626 0.032637812 -0.14214127 -0.19073689 0.17775412 -0.20955224 -0.110417664 -0.3628596 0.3442991 -0.08269586 -0.13234077 -0.011926434 0.22611047 0.29137385 0.06418022 0.49514952 0.19819291 0.112366945 -0.06759317 0.4912472 0.1965151 0.30690175 -0.09872308 0.06367571 -0.13656253
러시아 -0.060824927 0.31689867 0.017574638 0.07051048 0.19949183 -0.45590454 -0.06646172 0.69049865 -0.24416241 -0.089012064 -0.2877726 -0.4078546 0.14289431 0.33450985 0.122720994 -0.34290376 0.061424978 -0.18601556 -0.026192024 -0.49490693 0.27568078 0.19935931 0.24797332 -0.08043021 -0.18846089 0.070233904 -0.14534563 0.06426649 -0.2512033 0.19800748 0.30711886 -0.079525426 0.1902026 -0.32547638 -0.22729094 0.31983343 0.17934713 -0.20784056 -0.32745332 -0.25077996 0.0050256625 -0.263942 -0.19916719 0.124467485 0.18392222 -0.004897762 -0.28935692 0.0075217765 0.15411758 0.10751112 0.21412455 -0.35614324 -0.15313672 -0.0948693 0.011825853 0.26468068 0.17998274 -0.072220124 -0.30253315 0.012709228 -0.045331158 -0.03171411 0.16729867 -0.017188098 -0.38905266 0.36157197 0.13265269 0.3155273 -0.42267832 0.46961308 -0.14182559 0.14967726 0.35739148 0.004384331 0.19214092 0.09144882 0.037102755 -0.13889654 -0.18664731 0.1535615 -0.20991342 -0.09855903 -0.3395776 0.3235796 -0.071425244 -0.13438404 -0.0133838765 0.21602991 0.2727668 0.0691046 0.4652056 0.16971132 0.11987938 -0.05997652 0.4638396 0.1878748 0.28921804 -0.09220833 0.05436804 -0.13506445
