359 100
하 0.049980275 0.34508994 0.019231042 0.11233816 0.27301866 -0.8917749 0.12062519 0.9108535 -0.46005917 -0.36975926 -0.030854894 -0.53988016 -0.26874125 0.20076929 0.2399532 -0.25556183 0.12098264 -0.2200751 -0.28723145 -1.1002164 0.18335865 0.29000825 0.20899609 -0.16896698 -0.11749252 0.08306424 -0.24882051 -0.1256522 -0.3181452 0.09775588 0.36168024 -0.3047689 0.45088193 -0.53708607 -0.51049423 0.6287081 0.40719956 -0.11102205 -0.19696796 -0.8490039 0.15839471 -0.45610744 -0.11075424 -0.0547929 0.5627866 -0.047312833 -0.38656092 -0.1569395 0.5743502 0.19495864 0.103022635 -0.2578234 -0.08436224 0.06423333 -0.21385564 0.19888669 0.049840856 -0.24746071 -0.56867015 0.15113698 0.08874055 -0.10976668 0.41181874 -0.13002463 -0.5916981 0.61738807 0.17926478 0.59503525 -0.6532745 0.74825644 -0.26387784 0.39759156 0.4779147 -0.047802407 0.7043383 0.21094893 -0.13255717 0.22696404 -0.39860526 0.1289302 -0.2631375 -0.14073211 -0.5902044 0.44794476 -0.1451851 0.15765631 0.21041696 0.5580117 0.699492 0.2088996 0.5275253 0.24927516 0.058212344 0.021305514 0.6563636 0.47580573 -0.30398715 -0.50380033 0.048704043 0.009309708
. 0.039449014 0.33391044 0.019272598 0.10357306 0.2787533 -0.85679823 0.10974433 0.8722853 -0.43975845 -0.35830212 -0.036503248 -0.5257107 -0.2615595 0.19425803 0.23898259 -0.2356949 0.12116829 -0.20451804 -0.27091712 -1.0471183 0.1700736 0.26911172 0.20246252 -0.17231715 -0.11169401 0.08630136 -0.2440841 -0.12198968 -0.2998367 0.10518488 0.3656792 -0.29710415 0.4243238 -0.5155852 -0.4828889 0.60745764 0.38989854 -0.09517783 -0.17864619 -0.8017382 0.16929053 -0.45003027 -0.10692441 -0.04715371 0.5357609 -0.03717333 -0.35883388 -0.16085285 0.5470612 0.18060693 0.11469997 -0.26176047 -0.07701202 0.06398326 -0.21454012 0.20326927 0.053106196 -0.22508425 -0.54214305 0.14361493 0.07691106 -0.101821296 0.39428526 -0.12162974 -0.56248313 0.5963437 0.18133385 0.55877596 -0.61715025 0.7224004 -0.2619859 0.36522785 0.46530604 -0.030137835 0.67177755 0.19439112 -0.14173189 0.21497251 -0.37511206 0.12914455 -0.261581 -0.13408758 -0.5658596 0.41772202 -0.13159218 0.14737277 0.19653955 0.5299592 0.6757618 0.18949808 0.5058199 0.23783734 0.054418918 0.011667149 0.61819094 0.45557272 -0.27748114 -0.48012084 0.036064867 0.008144651
이 0.04471437 0.2996263 0.0058586593 0.087361835 0.24977756 -0.75419843 0.09463368 0.7788209 -0.3995345 -0.3085718 -0.037667375 -0.46739468 -0.21919951 0.16744114 0.21826014 -0.22540401 0.10712888 -0.18032454 -0.24792138 -0.9424813 0.14333092 0.24011047 0.16998027 -0.15334809 -0.09860415 0.07064343 -0.20490332 -0.10804721 -0.27421087 0.09252916 0.3239129 -0.2697836 0.37321052 -0.46019587 -0.4468585 0.54009426 0.3419558 -0.0874424 -0.16845305 -0.72875243 0.13822998 -0.3948206 -0.08772735 -0.035113577 0.48818338 -0.036944214 -0.32563546 -0.1465878 0.48569432 0.15878242 0.09685222 -0.22855471 -0.07654818 0.04508907 -0.20106338 0.16734295 0.036475047 -0.21231033 -0.49310955 0.11756132 0.081923254 -0.09769744 0.36624163 -0.10346647 -0.5150895 0.5390669 0.16272514 0.5121912 -0.5671327 0.6455724 -0.2274374 0.34086305 0.41657442 -0.03069142 0.60089666 0.18988298 -0.1107679 0.19987006 -0.34401098 0.11943139 -0.22355133 -0.13348226 -0.52085656 0.3790053 -0.11859002 0.12693827 0.17234452 0.4763986 0.6112565 0.17357518 0.44812354 0.22111501 0.05658254 0.012861426 0.5644771 0.41002998 -0.24805404 -0.4276161 0.050105065 -0.0042031817
다 0.042566895 0.35024804 0.0139141055 0.097604424 0.2838575 -0.87811345 0.11593525 0.8969152 -0.44240087 -0.36834475 -0.028304838 -0.5263409 -0.2568415 0.18372995 0.25020048 -0.25410187 0.12599346 -0.22378632 -0.28283358 -1.0684425 0.17416129 0.27872315 0.20848794 -0.1554859 -0.1322915 0.087741226 -0.23887813 -0.12664293 -0.30398786 0.10220541 0.36638463 -0.3033678 0.42857838 -0.526817 -0.49829495 0.6315035 0.40097243 -0.11164047 -0.20537741 -0.8249232 0.16877271 -0.44916078 -0.09217424 -0.049933065 0.563125 -0.04388648 -0.37125513 -0.16806269 0.55797887 0.18139589 0.115009025 -0.259244 -0.09115692 0.050704412 -0.22794235 0.1975115 0.045952626 -0.2280827 -0.55309904 0.13466373 0.09024875 -0.10216521 0.41814438 -0.12130492 -0.5792466 0.6019354 0.17681067 0.58835655 -0.64646 0.72524303 -0.26128757 0.3803475 0.4719316 -0.027207196 0.6902932 0.20364775 -0.14438164 0.23238818 -0.39816338 0.14011386 -0.26219705 -0.1359496 -0.5849505 0.43770027 -0.13903967 0.1504742 0.21356924 0.56072944 0.6890777 0.18979737 0.51107854 0.24473605 0.052237004 0.017345356 0.64800906 0.46096963 -0.28405145 -0.4983553 0.044460487 -0.00299419
는 0.035974417 0.2934364 0.0058139972 0.084977046 0.24399696 -0.74493057 0.09750138 0.7671737 -0.39067557 -0.30325675 -0.03947963 -0.4527853 -0.23266004 0.1664153 0.203386 -0.22063309 0.09752675 -0.18182506 -0.22970791 -0.9295894 0.14899005 0.2326147 0.17850837 -0.13411543 -0.108450234 0.07434408 -0.21077952 -0.10662445 -0.2720874 0.08793785 0.3206731 -0.25541034 0.37542748 -0.46004334 -0.42249453 0.5276031 0.3342879 -0.08617386 -0.16776927 -0.7163571 0.14397183 -0.39806625 -0.09511799 -0.031500135 0.48297462 -0.046950325 -0.31860232 -0.14171442 0.48807135 0.15037896 0.09860098 -0.21807201 -0.05817976 0.04875194 -0.19104184 0.16437463 0.028398553 -0.2135829 -0.48021552 0.113334276 0.081531614 -0.09867003 0.35534644 -0.10304667 -0.5046938 0.5210633 0.16264774 0.508452 -0.5564279 0.64038813 -0.23461956 0.33656433 0.40329394 -0.029046891 0.5981673 0.18646845 -0.121631086 0.20264995 -0.3293992 0.108256124 -0.23016885 -0.12948428 -0.5023545 0.3705884 -0.12432812 0.12322023 0.18246068 0.4799666 0.58680034 0.16716036 0.44956556 0.20694174 0.050933477 0.013854234 0.55155295 0.3912247 -0.24420576 -0.41648087 0.041584518 0.0058445125
을 0.037718754 0.32178652 0.012680765 0.08626757 0.25260597 -0.82236207 0.108592905 0.8404174 -0.428743 -0.34631446 -0.041202996 -0.50270426 -0.25270596 0.16996104 0.22520106 -0.24492681 0.103836425 -0.21064362 -0.25974947 -1.0121785 0.15324187 0.26310697 0.1951734 -0.1488457 -0.12268165 0.077695034 -0.22784096 -0.13135788 -0.28639308 0.10174096 0.34925708 -0.29167786 0.40531373 -0.50078017 -0.47132573 0.59355336 0.37495154 -0.09344491 -0.17816517 -0.787373 0.1651673 -0.43479815 -0.101191856 -0.047804084 0.52083915 -0.04739172 -0.35227746 -0.14751942 0.5266107 0.16998318 0.10701909 -0.25137275 -0.06720061 0.0659756 -0.21616355 0.188977 0.051144235 -0.23152035 -0.5312509 0.122740574 0.0913879 -0.10163616 0.39537796 -0.121182874 -0.543431 0.57339746 0.168328 0.5491636 -0.6107722 0.68179435 -0.24729177 0.3668487 0.45215616 -0.029010622 0.64967924 0.20334157 -0.14012739 0.2144935 -0.36693642 0.1325711 -0.2358192 -0.14009126 -0.54680043 0.39972767 -0.12944421 0.13520342 0.18578735 0.5314616 0.6500199 0.19067465 0.49764577 0.24016318 0.04230093 0.016097639 0.6111677 0.44238973 -0.27571523 -0.47033748 0.04764565 -0.003509672
ㄴ 0.052938785 0.29153815 0.011236931 0.08901969 0.24257629 -0.7609579 0.103275664 0.7754 -0.39487946 -0.3153228 -0.027619725 -0.46124783 -0.2291293 0.17653203 0.20634851 -0.21847355 0.11113483 -0.18248351 -0.23599392 -0.946267 0.15086569 0.24259697 0.18304239 -0.14407685 -0.10494882 0.077254795 -0.21550348 -0.117834754 -0.2670414 0.08746436 0.32632205 -0.25279328 0.37930137 -0.4537739 -0.44231215 0.54260623 0.33398002 -0.09957098 -0.17462757 -0.73445684 0.15151317 -0.40141714 -0.07717906 -0.04856589 0.48626584 -0.029993284 -0.33367914 -0.15313512 0.48326185 0.15665907 0.09599707 -0.23525056 -0.077565834 0.055720646 -0.20074894 0.1637537 0.034798276 -0.21587586 -0.49209037 0.11220656 0.07670264 -0.09822591 0.3636921 -0.102689676 -0.50977474 0.53476566 0.14995413 0.5006514 -0.56683254 0.6351892 -0.23361363 0.34048945 0.40830716 -0.027065774 0.6107844 0.17340998 -0.11595411 0.2017161 -0.3445487 0.12573801 -0.21812123 -0.1312031 -0.51891553 0.38131627 -0.12016813 0.12724516 0.18748249 0.47813758 0.596253 0.17366105 0.44912285 0.21447448 0.041910134 0.017090375 0.5543579 0.40395185 -0.2448998 -0.43362498 0.039200462 0.009253883
에 0.050759636 0.29111677 0.02081962 0.097745635 0.23847169 -0.76045555 0.10215197 0.77164453 -0.39780614 -0.321526 -0.033907507 -0.46425694 -0.22223504 0.16424803 0.21040653 -0.21685025 0.106204264 -0.19093026 -0.24497782 -0.94501877 0.1498544 0.2512485 0.17417164 -0.1548053 -0.11382315 0.08091004 -0.21760438 -0.1070456 -0.27407715 0.095542654 0.31142655 -0.25762695 0.37806815 -0.46210974 -0.43998933 0.53988755 0.33677545 -0.09263547 -0.1765135 -0.7239706 0.15383597 -0.39923373 -0.08805855 -0.03906896 0.4922617 -0.046028856 -0.33286557 -0.14547405 0.4970222 0.16019347 0.087770894 -0.22700159 -0.058641385 0.04528863 -0.19772913 0.1834701 0.029558994 -0.2027303 -0.4848701 0.12860836 0.0855388 -0.09654062 0.35383415 -0.09682449 -0.50534034 0.5338325 0.14505841 0.5162 -0.5611938 0.6333665 -0.22916105 0.3334549 0.4166435 -0.034785606 0.5976475 0.18347643 -0.11260181 0.18986948 -0.33862478 0.11110621 -0.23036702 -0.124187484 -0.52064073 0.3816347 -0.11789148 0.13129963 0.1811898 0.49267226 0.61229867 0.17151321 0.45365104 0.2113563 0.037665978 0.026264884 0.5542159 0.40273732 -0.253819 -0.43172637 0.0461563 -0.0025524076
가 0.03070736 0.29511055 0.015025908 0.09487985 0.24077803 -0.7302268 0.10418795 0.7438728 -0.38449162 -0.29839385 -0.028197112 -0.45267868 -0.20935304 0.15764159 0.2126459 -0.21009083 0.09192033 -0.186038 -0.23800677 -0.90575397 0.14587617 0.24601223 0.17655048 -0.14715905 -0.099139996 0.07317425 -0.20771441 -0.118460536 -0.2567781 0.0767574 0.31377968 -0.25796503 0.3721613 -0.42989248 -0.4215382 0.5270864 0.32846543 -0.080210514 -0.15874392 -0.70999587 0.13662073 -0.37781677 -0.08487073 -0.042544637 0.4650974 -0.039391566 -0.31310064 -0.13328001 0.46615586 0.14919962 0.09254701 -0.21733026 -0.066345 0.047827836 -0.17998692 0.16591457 0.039766748 -0.19961238 -0.46209785 0.11077972 0.067385934 -0.09473916 0.35401157 -0.103755906 -0.49907497 0.50912845 0.1445129 0.49467438 -0.5488729 0.61970425 -0.23232849 0.32395893 0.40302634 -0.023993865 0.5736118 0.168134 -0.12355869 0.17982824 -0.33836326 0.11195964 -0.21761477 -0.12605986 -0.48608392 0.36705124 -0.10861636 0.13049416 0.17048274 0.45874512 0.58083963 0.17218287 0.4317207 0.20862387 0.048526876 0.016085638 0.5474445 0.3987745 -0.2414524 -0.4051597 0.046374176 -0.0038809918
의 0.038244933 0.2897601 0.0038368166 0.096721016 0.24105966 -0.76931745 0.09378508 0.7820244 -0.39455482 -0.31820104 -0.030948954 -0.46636215 -0.22915225 0.16721183 0.20794718 -0.21017678 0.105594344 -0.20080875 -0.23290253 -0.94334984 0.15090907 0.25061607 0.16863054 -0.14711174 -0.09835023 0.070295826 -0.22166282 -0.10523944 -0.26970157 0.083607726 0.3279966 -0.25702488 0.3848044 -0.44785103 -0.4449108 0.5475961 0.3430817 -0.087011546 -0.1674504 -0.7238178 0.14972572 -0.39082578 -0.09051307 -0.046535563 0.48312467 -0.037225876 -0.3293367 -0.13785498 0.49251652 0.1672662 0.099519245 -0.21754248 -0.070229374 0.060194466 -0.18851587 0.16476403 0.035034608 -0.20933262 -0.48102012 0.121172726 0.074973255 -0.08481512 0.36745128 -0.10738162 -0.513441 0.5253467 0.1503848 0.4973107 -0.5600933 0.6362073 -0.2297665 0.3394587 0.40876776 -0.04176312 0.6056733 0.17384532 -0.11899846 0.19153868 -0.33472145 0.11972923 -0.22159913 -0.12666658 -0.51386446 0.38716853 -0.11766507 0.12688652 0.16936156 0.4848903 0.61022604 0.17860648 0.4447399 0.2234107 0.051044855 0.026536275 0.56710124 0.39742586 -0.26152036 -0.42189485 0.050010264 0.005354094
후보 0.047355775 0.26441592 0.02095953 0.06941218 0.21007138 -0.6938951 0.0839544 0.704451 -0.35738423 -0.2926709 -0.020333448 -0.42156506 -0.19799677 0.14470798 0.19405796 -0.19153449 0.09290892 -0.1739603 -0.21170463 -0.85423523 0.13312322 0.21828161 0.16359662 -0.13398755 -0.103987515 0.07169989 -0.19350365 -0.10649445 -0.23442902 0.0841522 0.2826481 -0.23462746 0.35255542 -0.40293697 -0.38672924 0.4933173 0.31098124 -0.08380914 -0.15984678 -0.6553698 0.12952454 -0.35918778 -0.08492366 -0.029096918 0.4283573 -0.045113984 -0.2970216 -0.13063863 0.4325482 0.14577436 0.080625124 -0.20433769 -0.06953471 0.050269574 -0.17002155 0.1562233 0.028760174 -0.18812014 -0.42874628 0.11342585 0.05976909 -0.087740265 0.32259974 -0.09281877 -0.4656218 0.48101658 0.13020213 0.4464584 -0.49902743 0.57160395 -0.2053234 0.30976647 0.36567983 -0.019443562 0.5442278 0.1732244 -0.10139498 0.1667016 -0.30911294 0.11389131 -0.19549589 -0.10188561 -0.45288628 0.34885293 -0.1182789 0.123565994 0.15459695 0.43870738 0.5477933 0.16082609 0.4140941 0.19387658 0.04096288 0.021618769 0.49391058 0.3637713 -0.21791932 -0.3894022 0.040412888 -0.0056666248
고 0.046131812 0.25867882 0.011516994 0.0806535 0.20666394 -0.6490446 0.08069736 0.66145253 -0.33482242 -0.26901948 -0.02315699 -0.38855305 -0.19363004 0.13769229 0.18398944 -0.19131646 0.08318082 -0.16722758 -0.20601988 -0.79927486 0.12236065 0.19867486 0.1478038 -0.13173586 -0.09979055 0.054021116 -0.18756261 -0.08840887 -0.22140408 0.07406706 0.266054 -0.22849424 0.3221631 -0.38378173 -0.36902627 0.4581802 0.29016143 -0.07709183 -0.15057737 -0.6182633 0.11338372 -0.33588824 -0.071369685 -0.028358882 0.4056043 -0.035650004 -0.2653673 -0.120830484 0.40981546 0.14337581 0.08386791 -0.19598384 -0.051326957 0.05018669 -0.16918595 0.14687413 0.033255856 -0.16976538 -0.4114667 0.0999248 0.067460254 -0.07878938 0.30274498 -0.09191389 -0.43410328 0.4537616 0.13814758 0.43516183 -0.4816627 0.5431391 -0.19918624 0.29210892 0.35090813 -0.023370262 0.5114516 0.15981211 -0.108236805 0.17240748 -0.2907635 0.09598964 -0.1922069 -0.09496977 -0.4390485 0.31827235 -0.09357128 0.11275281 0.14188655 0.40063313 0.51875055 0.15388308 0.3869108 0.17725997 0.029409757 0.018336195 0.4774195 0.3355092 -0.22204068 -0.36333966 0.029822769 -0.0006724916
은 0.037637293 0.26468834 0.020466615 0.071258985 0.22687049 -0.6896956 0.08743046 0.71748906 -0.34790945 -0.2929912 -0.036013 -0.43077728 -0.21609567 0.14943425 0.1872085 -0.20796135 0.09401908 -0.17163844 -0.21163353 -0.85928565 0.13269342 0.22498311 0.15899685 -0.124761686 -0.09737179 0.0750382 -0.20402172 -0.09525308 -0.24599288 0.08962867 0.28357166 -0.23642474 0.34759003 -0.41659057 -0.40457153 0.48489693 0.3051034 -0.09205905 -0.15272291 -0.6638225 0.1306124 -0.35507813 -0.08161188 -0.039604507 0.4333549 -0.047608953 -0.28895593 -0.13677236 0.44073182 0.15093002 0.09503863 -0.21261857 -0.061777648 0.043498643 -0.17348598 0.15398778 0.032069854 -0.18654767 -0.43507987 0.11788589 0.06052623 -0.09147176 0.33513558 -0.09414192 -0.46859023 0.4839453 0.15054065 0.4609787 -0.5206566 0.58587897 -0.20572253 0.3116838 0.37992823 -0.034801066 0.54964966 0.1650177 -0.10543694 0.17119347 -0.3197169 0.10865402 -0.21365389 -0.10725991 -0.4678521 0.3563468 -0.11414994 0.12104215 0.1701845 0.43803108 0.5466136 0.16092476 0.41628325 0.19380282 0.048528906 0.009181444 0.5127046 0.37013236 -0.22257034 -0.38469964 0.044771012 0.009854272
를 0.023268862 0.23768057 0.0017915807 0.06598754 0.18294169 -0.5923234 0.066286236 0.5911083 -0.30718747 -0.24416529 -0.031406436 -0.35160628 -0.18486108 0.12342244 0.17290331 -0.16238604 0.08587717 -0.1420603 -0.18366933 -0.72875446 0.12213852 0.1916561 0.14142513 -0.1059399 -0.0744095 0.06538457 -0.17545775 -0.094278246 -0.20531844 0.07452939 0.2533464 -0.1959431 0.30100995 -0.35771185 -0.33041266 0.41414204 0.25468367 -0.061689734 -0.12883015 -0.5633308 0.10910412 -0.31015748 -0.06092842 -0.02830312 0.37111792 -0.038016707 -0.25520355 -0.1103438 0.38346532 0.11966045 0.07484784 -0.17323025 -0.060347408 0.04317332 -0.14952046 0.13659146 0.03419299 -0.16149274 -0.3779498 0.101057306 0.06433004 -0.06498744 0.28108227 -0.072761804 -0.38438103 0.40669766 0.1283697 0.3959618 -0.42664552 0.49310413 -0.1815756 0.25340235 0.3091546 -0.021734161 0.47489202 0.14925376 -0.09558307 0.1567023 -0.26004732 0.08758557 -0.17123796 -0.10115213 -0.3871078 0.29832047 -0.088596016 0.10753247 0.14481847 0.38071144 0.4655868 0.12788378 0.3575504 0.17299221 0.036757644 0.013093136 0.42310503 0.30730274 -0.18625401 -0.33237106 0.025262734 0.011217884
되 0.04584929 0.266563 0.011624645 0.06821673 0.22009526 -0.6670072 0.09036379 0.6805487 -0.33159187 -0.28469157 -0.01882698 -0.4127928 -0.20555733 0.13688636 0.17765835 -0.18233004 0.09825477 -0.16900031 -0.2047322 -0.82039803 0.13858995 0.21894868 0.15100297 -0.13096176 -0.100006 0.06954506 -0.18484342 -0.10160885 -0.22477968 0.07298052 0.26823327 -0.23006049 0.33128628 -0.40454614 -0.38515642 0.4632564 0.3069261 -0.071859576 -0.14671712 -0.6258037 0.13386098 -0.34596935 -0.06923876 -0.032503176 0.42638496 -0.028094608 -0.2889963 -0.1264621 0.42600572 0.1431996 0.0872057 -0.1919285 -0.055067662 0.038439333 -0.16956162 0.14404958 0.044031538 -0.17526057 -0.42264697 0.110052295 0.05909754 -0.08764141 0.31445375 -0.0844809 -0.43803662 0.46723068 0.13339803 0.4370604 -0.48787373 0.5542712 -0.2071576 0.28338316 0.36512968 -0.029279595 0.5230118 0.14886467 -0.09535482 0.17038466 -0.29560837 0.10623661 -0.20303087 -0.10613034 -0.44305024 0.32200518 -0.0984286 0.11881094 0.16171932 0.42646334 0.5223275 0.14475238 0.40177938 0.18884422 0.045801524 0.02288528 0.48745298 0.34643736 -0.220351 -0.3644511 0.030278698 0.012089045
았 0.027735202 0.2456579 0.012520264 0.08064008 0.19288489 -0.62610716 0.073261335 0.63640904 -0.324572 -0.24771953 -0.032375164 -0.38684064 -0.19057103 0.14284271 0.1658149 -0.18376608 0.07527585 -0.1482741 -0.19092372 -0.76204544 0.120900005 0.207056 0.13520582 -0.121707 -0.09270113 0.059312448 -0.17863297 -0.08351148 -0.21865307 0.062727086 0.25501782 -0.22048435 0.3140113 -0.36337298 -0.36336204 0.45280156 0.29018304 -0.081708886 -0.14726095 -0.58496714 0.12663478 -0.32978183 -0.07733679 -0.026671695 0.3991877 -0.024782998 -0.2756874 -0.12627529 0.40203798 0.12117509 0.07401049 -0.18764265 -0.04598458 0.052836727 -0.15917253 0.14915259 0.039444715 -0.17208356 -0.38802063 0.1074468 0.06569622 -0.08105842 0.28797337 -0.09010518 -0.4081554 0.4264657 0.12399912 0.42387983 -0.45431057 0.53123575 -0.19807796 0.27297294 0.34288114 -0.03141023 0.501924 0.15854555 -0.09898819 0.15822524 -0.28020778 0.0916357 -0.1928612 -0.10202044 -0.4222817 0.31529903 -0.1048601 0.11592378 0.13702208 0.38784605 0.5042376 0.15189767 0.36660767 0.17949086 0.03205287 0.005967116 0.4498508 0.3387374 -0.20184459 -0.34045526 0.040972907 0.008791453
었 0.033498928 0.2127428 0.014479096 0.06656346 0.18954086 -0.5713893 0.07032252 0.59279895 -0.29339525 -0.23685405 -0.02887621 -0.35846713 -0.18032777 0.13484454 0.14972949 -0.15565485 0.06720635 -0.14285421 -0.18188156 -0.7149272 0.121529885 0.19178411 0.13362442 -0.10432828 -0.08012611 0.06605041 -0.15412566 -0.09565954 -0.20585708 0.06521044 0.24215898 -0.20143011 0.28795084 -0.35205898 -0.32591042 0.41278222 0.2634627 -0.072164096 -0.13588314 -0.5572407 0.108192936 -0.30695862 -0.07282357 -0.02480078 0.37131914 -0.029416198 -0.25381282 -0.11374703 0.37613598 0.12448194 0.06722634 -0.17699821 -0.050923437 0.044349935 -0.14269164 0.13415036 0.023266962 -0.16623648 -0.37318492 0.09199062 0.062990956 -0.065822 0.27125347 -0.07402879 -0.38257864 0.40256047 0.10713122 0.3895505 -0.41504228 0.48790473 -0.1672953 0.26079342 0.3110544 -0.026619833 0.45539808 0.127791 -0.08149346 0.14116831 -0.24876887 0.08525545 -0.16864213 -0.10263176 -0.394632 0.2773659 -0.09837343 0.100931816 0.12557036 0.3596847 0.449437 0.1271778 0.34843147 0.1663544 0.044378314 0.02096397 0.41348398 0.3132438 -0.20017709 -0.32428515 0.023488237 0.0065216823
, 0.039345015 0.27006552 0.013281468 0.07283249 0.22463034 -0.6851605 0.094572544 0.6954055 -0.35452527 -0.28438345 -0.035226237 -0.41979212 -0.19344516 0.14627583 0.19639778 -0.20590517 0.09271946 -0.17097346 -0.20539036 -0.84501314 0.14153005 0.21363978 0.14826876 -0.13594665 -0.09820282 0.062091596 -0.19453378 -0.10893759 -0.23773867 0.077953786 0.2822674 -0.22915886 0.33107 -0.40951666 -0.3839401 0.49131957 0.2938565 -0.0739909 -0.14454652 -0.65166515 0.1381853 -0.36279318 -0.07020918 -0.032574452 0.43210346 -0.040202733 -0.29463866 -0.13081804 0.4365856 0.14370567 0.093897514 -0.19083112 -0.051478483 0.04389312 -0.16033198 0.1547764 0.038788028 -0.18280308 -0.4329496 0.11295499 0.06277113 -0.088979006 0.3114985 -0.092260815 -0.44579092 0.4711223 0.13905247 0.45564482 -0.49085927 0.5627575 -0.20346642 0.2900335 0.37072024 -0.019673258 0.54522026 0.16764535 -0.09920183 0.18027991 -0.2972259 0.11387291 -0.20540404 -0.101058386 -0.4512163 0.3368431 -0.09755322 0.12456046 0.16601515 0.4333569 0.54875827 0.15644853 0.4128701 0.19488133 0.048355173 0.013802148 0.5028051 0.36866146 -0.22744203 -0.38248843 0.040733628 -0.0053081284
있 0.045642212 0.23438783 0.002779449 0.07507042 0.20730475 -0.6345612 0.083644025 0.65041786 -0.330296 -0.26606438 -0.032515574 -0.38622823 -0.18660559 0.14803198 0.18031946 -0.17957002 0.08665514 -0.1488743 -0.1882083 -0.7675017 0.1295931 0.19421956 0.14026865 -0.12624377 -0.08142177 0.05905648 -0.18523942 -0.08616712 -0.21209075 0.06984185 0.27287772 -0.21586059 0.30982205 -0.37709615 -0.36026847 0.44327953 0.2846139 -0.06968046 -0.13205037 -0.6095715 0.116229184 -0.33317822 -0.06370248 -0.028085856 0.39435858 -0.030026969 -0.27481723 -0.11816396 0.41207337 0.1290082 0.07416544 -0.19419974 -0.05936029 0.04390118 -0.15435827 0.1533266 0.02967401 -0.16921908 -0.3903514 0.10161382 0.06473037 -0.067371 0.3042635 -0.07893389 -0.42484996 0.44705844 0.13475646 0.42667934 -0.4650942 0.53143734 -0.1843593 0.272157 0.34707057 -0.023969928 0.5071165 0.14632356 -0.10286797 0.16736741 -0.2911923 0.08934587 -0.19210137 -0.103053145 -0.4244507 0.31994128 -0.0883316 0.10911022 0.14698489 0.40116048 0.49568644 0.13562915 0.3810814 0.17306301 0.04266541 0.024279822 0.46285686 0.3372879 -0.20432352 -0.3556045 0.038180836 0.0023611195
ㄹ 0.038029194 0.22404768 0.009783908 0.070598304 0.16914238 -0.5544716 0.081332594 0.56778693 -0.28694847 -0.23633692 -0.023347469 -0.3381456 -0.1595093 0.12308886 0.15810281 -0.16015705 0.08315031 -0.14607793 -0.18320812 -0.6939074 0.10898859 0.18533538 0.11992683 -0.11050716 -0.08706933 0.05989216 -0.16009025 -0.09268441 -0.19242857 0.07420651 0.23164 -0.19778118 0.2829312 -0.33700222 -0.3316736 0.40766937 0.24418509 -0.07206594 -0.1273313 -0.541413 0.10701876 -0.28201094 -0.05891808 -0.02304714 0.35519287 -0.028803136 -0.24221882 -0.113897234 0.36304244 0.11988622 0.061117645 -0.1713212 -0.060659077 0.03357753 -0.13690886 0.13771266 0.03236454 -0.14937693 -0.34920058 0.08833505 0.05666338 -0.07779478 0.2627066 -0.08026498 -0.37361276 0.39711985 0.10753357 0.3692072 -0.41997102 0.46810216 -0.17396696 0.24889717 0.30723366 -0.028916016 0.43891582 0.13469535 -0.08373789 0.14891231 -0.25446594 0.08266208 -0.17160363 -0.091813885 -0.37470302 0.28139773 -0.0804106 0.0952544 0.12933704 0.35071075 0.44324136 0.12044105 0.3330968 0.15918079 0.02545821 0.021945447 0.40136194 0.2878538 -0.1950176 -0.3075002 0.03583897 0.011180715
도 0.039229948 0.25790647 0.0072191004 0.08578402 0.21331626 -0.6551123 0.08347671 0.67291427 -0.33288372 -0.2734032 -0.025285613 -0.4023757 -0.19109751 0.14778478 0.1852245 -0.1955062 0.0833686 -0.16112058 -0.21337515 -0.81080586 0.12971218 0.2155447 0.14220302 -0.11661403 -0.09378399 0.05890273 -0.18109111 -0.100200206 -0.23915185 0.07134874 0.2758723 -0.23528269 0.32935688 -0.39241475 -0.38150942 0.47168627 0.2990112 -0.06903116 -0.14550771 -0.62739575 0.12823692 -0.34578305 -0.08387048 -0.028306294 0.41728303 -0.04492298 -0.2885021 -0.12795852 0.42737642 0.14309809 0.08989948 -0.20196827 -0.05888952 0.04342438 -0.1715099 0.15733445 0.038149238 -0.18187599 -0.4284905 0.0997363 0.06721304 -0.07282322 0.31667772 -0.09980245 -0.44974983 0.4649709 0.13178496 0.43527314 -0.47975498 0.5485676 -0.19557111 0.28958628 0.35048705 -0.028173119 0.52804214 0.16699278 -0.10279386 0.17446996 -0.3006011 0.102593936 -0.2001618 -0.10610417 -0.44431922 0.32488242 -0.11019361 0.12471668 0.15490471 0.41640183 0.5184415 0.15861903 0.38554925 0.18928564 0.040167313 0.024078017 0.48985967 0.34720126 -0.2162478 -0.3716585 0.02669491 -0.0012313193
· 0.036724128 0.23909053 0.01954323 0.07936845 0.18189672 -0.59369576 0.071002476 0.6106795 -0.30845228 -0.24100801 -0.020272516 -0.35970902 -0.17035718 0.13121055 0.16015372 -0.17850837 0.0866292 -0.15529943 -0.19151089 -0.73520166 0.11671878 0.18676318 0.13352293 -0.11258212 -0.082849525 0.06593934 -0.17339163 -0.08637415 -0.20374028 0.071950525 0.25698262 -0.21199675 0.30613807 -0.3690061 -0.34013173 0.41782978 0.26606378 -0.08050038 -0.13598673 -0.5780901 0.10966696 -0.31121668 -0.06633088 -0.033661712 0.37366048 -0.038303208 -0.2555352 -0.11747303 0.37528634 0.12501155 0.083196074 -0.17161942 -0.06593688 0.045445573 -0.15764162 0.12463444 0.030297255 -0.16345169 -0.39061427 0.089010485 0.058371738 -0.0663066 0.27487925 -0.07494075 -0.4017549 0.41963127 0.13262357 0.4047411 -0.44533226 0.5086272 -0.17900257 0.27025783 0.32510892 -0.030045278 0.47794244 0.13673621 -0.09359285 0.15930344 -0.26327807 0.10429596 -0.18575083 -0.10321176 -0.3971434 0.3002702 -0.10135331 0.105720095 0.14218122 0.37914404 0.47097003 0.14266677 0.3659761 0.16165309 0.03716522 0.01112947 0.43223274 0.31792936 -0.20613192 -0.3279434 0.026140885 0.0066077514
아 0.04158475 0.28734356 0.013551864 0.09510896 0.23360799 -0.73431444 0.092572905 0.7449567 -0.37851813 -0.3091188 -0.037445787 -0.4506201 -0.21111237 0.16385265 0.20948662 -0.20316368 0.09101336 -0.17965202 -0.21988489 -0.89554024 0.14724758 0.24066746 0.15703517 -0.12985736 -0.09475901 0.07935892 -0.21280053 -0.1027086 -0.2485458 0.08256835 0.29817104 -0.24432544 0.3573056 -0.44173524 -0.41511276 0.5276625 0.3366049 -0.09189623 -0.17160201 -0.686739 0.14510366 -0.38390285 -0.09118898 -0.045517217 0.4596917 -0.041696638 -0.31176704 -0.13767977 0.4648295 0.14630091 0.10159031 -0.22061296 -0.07316152 0.05891222 -0.18111002 0.17506197 0.032009546 -0.20513819 -0.46488938 0.1156533 0.06493869 -0.09145363 0.34542572 -0.09413118 -0.4792349 0.50883186 0.14344463 0.48326403 -0.5397977 0.61860496 -0.22873797 0.32114038 0.39293846 -0.03651161 0.57012355 0.17906013 -0.124862604 0.18673551 -0.32400548 0.121907555 -0.2210713 -0.11483269 -0.480898 0.35585284 -0.11752826 0.13364579 0.17485729 0.46489212 0.5871252 0.16685714 0.43533927 0.20384125 0.03595554 0.020857874 0.53460485 0.3783299 -0.24329321 -0.41013813 0.040327143 0.011223324
것 0.025168354 0.184129 0.01569276 0.049778745 0.14698562 -0.4893686 0.053555466 0.49776006 -0.24907589 -0.203801 -0.0281165 -0.29738858 -0.14724296 0.1107008 0.14338002 -0.13418816 0.07356254 -0.13079529 -0.14313053 -0.6034091 0.10587573 0.15966369 0.11421155 -0.103541546 -0.07748903 0.056307524 -0.14003071 -0.06904942 -0.16506414 0.056084123 0.21312238 -0.16821949 0.23379594 -0.29983407 -0.281069 0.33833268 0.22695546 -0.0545381 -0.116628684 -0.4566752 0.10120396 -0.24778603 -0.048158888 -0.036741823 0.3107365 -0.034834515 -0.21329324 -0.09098318 0.3131919 0.10411788 0.06432915 -0.14222327 -0.03880585 0.04221016 -0.12853149 0.11973532 0.031024227 -0.122976996 -0.3065947 0.07450426 0.045826007 -0.060809176 0.22720091 -0.05789554 -0.3243363 0.34217742 0.10258956 0.31596527 -0.35094723 0.41912413 -0.15010941 0.2166549 0.25715494 -0.026697226 0.39491394 0.11256159 -0.0698727 0.12662944 -0.2210766 0.07844219 -0.14835039 -0.08108352 -0.3267111 0.248193 -0.07804423 0.086456776 0.10468783 0.3196464 0.37828454 0.11845486 0.29388028 0.13019149 0.024386343 0.0038725275 0.35062724 0.26644087 -0.15306388 -0.27203268 0.027240118 0.011368936
ㄴ다 0.02880913 0.23425104 0.013058038 0.06433315 0.1830466 -0.61411405 0.08656771 0.62245214 -0.3165505 -0.25741348 -0.025443232 -0.36564144 -0.18150549 0.13402936 0.1633876 -0.17031625 0.0823136 -0.14246692 -0.20083235 -0.7504818 0.111174755 0.19351102 0.13049118 -0.11067055 -0.09096962 0.052970678 -0.16491759 -0.09771993 -0.21007295 0.06191712 0.26294267 -0.19885428 0.30573353 -0.35834274 -0.3445102 0.4258604 0.28420985 -0.083231084 -0.12640752 -0.57696474 0.11122772 -0.3202829 -0.058825724 -0.03898962 0.39485627 -0.0377462 -0.2520622 -0.11436381 0.3984307 0.12446342 0.0829741 -0.17102449 -0.051766753 0.044965766 -0.14792751 0.14791405 0.0401076 -0.15545897 -0.38052565 0.106696 0.07195342 -0.07441614 0.28478384 -0.082221866 -0.40541294 0.42225552 0.11389147 0.39551803 -0.44947022 0.52002156 -0.18933563 0.26037413 0.3344397 -0.0252911 0.48308712 0.14875293 -0.09287876 0.16195738 -0.27096003 0.09535715 -0.1690125 -0.095503524 -0.41383058 0.3097439 -0.09040934 0.1110275 0.13663702 0.38897508 0.4898642 0.14677802 0.36216876 0.1623787 0.036856577 0.015022576 0.44926867 0.3134654 -0.19218023 -0.34791175 0.039439462 -0.008893461
“ 0.039286245 0.2035041 0.010323057 0.055420335 0.1605702 -0.5055368 0.058617923 0.521816 -0.25772 -0.20563486 -0.029154934 -0.29922643 -0.15068205 0.11057828 0.1302321 -0.14109534 0.07485926 -0.1187973 -0.1645038 -0.63121086 0.09470988 0.16193181 0.10618537 -0.105611034 -0.072869 0.05021608 -0.15180336 -0.07953025 -0.17691547 0.06540026 0.21224348 -0.17352694 0.24536447 -0.3098031 -0.29040226 0.3679061 0.23233561 -0.06279718 -0.111224875 -0.49177116 0.09517464 -0.26809826 -0.05170038 -0.029551553 0.3158132 -0.036436744 -0.21797061 -0.102347754 0.32228246 0.10215006 0.061543055 -0.15303035 -0.053833567 0.034147967 -0.12598197 0.111760296 0.016915964 -0.14170912 -0.33160093 0.08048517 0.056698296 -0.0655327 0.24012488 -0.06502363 -0.32870412 0.3574559 0.11284187 0.32634416 -0.38022354 0.41845208 -0.16163851 0.21398792 0.26555902 -0.024815587 0.4022489 0.11764728 -0.08866107 0.13478537 -0.22607662 0.084279254 -0.14175864 -0.0737021 -0.3417479 0.25590187 -0.08452702 0.09099332 0.12265079 0.33046415 0.39793742 0.11899946 0.29524514 0.14047165 0.03929562 0.009032992 0.3678176 0.2596905 -0.17781277 -0.27458465 0.021702766 0.0070449957
” 0.01968484 0.18491758 0.0005314261 0.06357959 0.15961409 -0.47583485 0.07064744 0.48884445 -0.25714067 -0.18944226 -0.026490625 -0.2843796 -0.13751242 0.10427392 0.124657534 -0.1390932 0.07152246 -0.1264087 -0.14950874 -0.5999569 0.10434064 0.15157679 0.11903417 -0.097670026 -0.07675348 0.03792312 -0.1393817 -0.067146495 -0.16959539 0.06533044 0.20315418 -0.16024752 0.24316366 -0.27897692 -0.2779885 0.3511441 0.20647259 -0.05459851 -0.107832976 -0.45841634 0.099033855 -0.2532244 -0.058001056 -0.026756393 0.3032204 -0.03008495 -0.19991164 -0.096792296 0.31634566 0.100762695 0.06346229 -0.139626 -0.04419456 0.035664737 -0.124177925 0.11570444 0.023712361 -0.13545345 -0.315407 0.06520426 0.04829372 -0.06600103 0.22437587 -0.071599774 -0.3296787 0.33482265 0.10480718 0.3169307 -0.36041173 0.4073989 -0.14660026 0.20595878 0.25829557 -0.020953888 0.3776256 0.10656815 -0.068450704 0.12786262 -0.21835403 0.083379254 -0.1422495 -0.070218645 -0.32442942 0.2471783 -0.07640369 0.07808702 0.107169114 0.3149676 0.38146523 0.11136027 0.29490986 0.12951012 0.028315766 0.0030204633 0.34401056 0.24667174 -0.15640974 -0.2658969 0.031582233 0.0051623024
일 0.03628153 0.24331094 0.0069700656 0.074872285 0.20396164 -0.61140716 0.084615916 0.61673886 -0.30824566 -0.24749772 -0.02124294 -0.3825124 -0.18221429 0.13661551 0.16304293 -0.18263035 0.087501645 -0.16082802 -0.19756801 -0.7448341 0.11399177 0.2064742 0.13959639 -0.113235906 -0.08847555 0.053384356 -0.18148632 -0.09148873 -0.21997444 0.06721087 0.26350236 -0.2169375 0.29919887 -0.37095997 -0.3566078 0.4264894 0.27317408 -0.06424442 -0.12799504 -0.5897578 0.10800049 -0.32083207 -0.079580806 -0.038612783 0.38263434 -0.028876806 -0.26891363 -0.1136225 0.39449146 0.13345018 0.075805016 -0.19133946 -0.04948366 0.03739733 -0.14883006 0.14167663 0.04069673 -0.16412082 -0.39120278 0.1056064 0.054891698 -0.08274201 0.29137805 -0.08749359 -0.41293836 0.42348036 0.114025064 0.40747628 -0.4514871 0.5114064 -0.18400139 0.2727426 0.33757895 -0.03405395 0.47944567 0.13593996 -0.10577222 0.15239105 -0.27627754 0.0863338 -0.18576738 -0.10048396 -0.40463552 0.3068791 -0.08696812 0.09918374 0.13658091 0.3871331 0.49385068 0.14044592 0.36550024 0.17419362 0.040502373 0.006267322 0.45175272 0.3301955 -0.19723456 -0.33811426 0.025226362 -0.0026888016
지 0.04016924 0.20862734 -0.0012331002 0.06677575 0.16526975 -0.53122723 0.074962206 0.5430444 -0.27353448 -0.2168493 -0.027108591 -0.32926515 -0.15108451 0.12786298 0.13843074 -0.14626276 0.08284996 -0.13771638 -0.16604576 -0.6653483 0.11535188 0.1741409 0.12847312 -0.09294301 -0.070321426 0.045060765 -0.15251483 -0.07911423 -0.1862651 0.06491039 0.23489894 -0.17987207 0.2792058 -0.33150375 -0.31535858 0.38485393 0.24570209 -0.06528715 -0.1269346 -0.51730007 0.093602 -0.26981297 -0.0575293 -0.03845049 0.34457877 -0.024251811 -0.23729853 -0.1075401 0.34609172 0.122087754 0.058014687 -0.15995584 -0.056195553 0.036581732 -0.13224325 0.11742697 0.024298185 -0.14596187 -0.3500452 0.093340404 0.058882017 -0.075376906 0.250718 -0.07053957 -0.3668078 0.36729088 0.10115492 0.35053244 -0.38638252 0.45991334 -0.16055803 0.22686788 0.29692772 -0.018551162 0.4265314 0.118518814 -0.08757738 0.13874763 -0.24919225 0.08738725 -0.15885928 -0.094607316 -0.370747 0.27395603 -0.092271395 0.08852578 0.1313594 0.3413719 0.42338645 0.11774941 0.31919056 0.15740003 0.026703117 0.007213386 0.38802776 0.2808053 -0.18746226 -0.31246036 0.03703776 0.011208467
만 0.023586309 0.19085896 0.0056921714 0.056964457 0.17478916 -0.5133371 0.060282312 0.52356434 -0.27633813 -0.21104373 -0.02719959 -0.31745037 -0.14784588 0.121024236 0.14746115 -0.15655069 0.076062046 -0.14045143 -0.16947162 -0.6445894 0.1000214 0.1667844 0.1128642 -0.09683842 -0.06243458 0.056302 -0.14537744 -0.06766659 -0.18095057 0.056849997 0.20833768 -0.17012174 0.24826472 -0.31102702 -0.28811964 0.36489192 0.23355775 -0.06987588 -0.10935406 -0.48619628 0.08829688 -0.27183303 -0.052000258 -0.02584787 0.3292382 -0.026101692 -0.2312315 -0.08573201 0.32897335 0.10337394 0.0691216 -0.15225878 -0.05227965 0.041698877 -0.13236876 0.1117416 0.033709053 -0.13415182 -0.32113713 0.08475355 0.05201547 -0.071662135 0.24809515 -0.061793707 -0.34557664 0.35634205 0.10059023 0.3444125 -0.38806054 0.44051433 -0.15504925 0.23573564 0.27354383 -0.027961347 0.402074 0.115047865 -0.078544274 0.13661717 -0.23102121 0.08378037 -0.16240686 -0.08459173 -0.3564599 0.26054507 -0.08369393 0.10010858 0.11673683 0.33584565 0.4148092 0.11990079 0.30765224 0.15427485 0.03366456 0.022512984 0.381539 0.28020287 -0.16547473 -0.29736012 0.023180233 0.0024885465
에서 0.034705993 0.2385342 0.011198065 0.07861138 0.18960814 -0.6073316 0.08483303 0.62257546 -0.30861434 -0.24734944 -0.027540335 -0.37883264 -0.17920972 0.12427809 0.16530587 -0.18422602 0.080762595 -0.1605998 -0.18323234 -0.75349903 0.13018891 0.1861346 0.13355564 -0.11485405 -0.08794942 0.060848277 -0.17474501 -0.09149214 -0.21900502 0.060636826 0.260309 -0.20836937 0.30987814 -0.3714188 -0.34537727 0.4222627 0.2809931 -0.066642486 -0.14064065 -0.57236433 0.10990186 -0.32492223 -0.06784986 -0.03007066 0.37822407 -0.041045915 -0.2513975 -0.11253943 0.39124396 0.13018088 0.072913274 -0.17859654 -0.05305914 0.052725423 -0.15817195 0.14199568 0.037037704 -0.17164351 -0.39712858 0.10636473 0.068595834 -0.07888231 0.2911362 -0.083406046 -0.41045818 0.4213406 0.11835061 0.41037077 -0.44456542 0.50249517 -0.18520106 0.2647616 0.33532283 -0.027083108 0.48912594 0.146092 -0.10026847 0.16396973 -0.26944652 0.09090161 -0.18431261 -0.101382114 -0.414022 0.30656913 -0.10405698 0.10119524 0.1441249 0.38588572 0.48890272 0.13566174 0.36190528 0.17416814 0.042993736 0.016149247 0.45463124 0.32727006 -0.20935549 -0.3428747 0.024714626 -0.003797268
들 0.02535248 0.17916727 0.017142667 0.05907341 0.15456769 -0.4928707 0.054079138 0.48635677 -0.24170248 -0.20365338 -0.016671302 -0.3012737 -0.13604552 0.110500894 0.13555743 -0.14375766 0.06671746 -0.12419135 -0.14481363 -0.5948595 0.09685184 0.16021754 0.114335515 -0.10078634 -0.058538448 0.049181085 -0.14283931 -0.063589826 -0.1725995 0.06477916 0.20273776 -0.15991642 0.24622765 -0.29594645 -0.28346816 0.35536498 0.2209128 -0.064184375 -0.10756051 -0.46706074 0.09376962 -0.2614574 -0.04790035 -0.026199857 0.3165954 -0.02106677 -0.21337812 -0.08739083 0.31198654 0.092358895 0.07011461 -0.13537185 -0.033820216 0.030241901 -0.13164103 0.11652058 0.016502377 -0.123934135 -0.3080157 0.083496615 0.05590305 -0.059352867 0.22681916 -0.066935815 -0.31477574 0.33118877 0.09804566 0.3214146 -0.3532886 0.41583666 -0.15317398 0.2170824 0.25911456 -0.01778614 0.39427394 0.11947839 -0.08242558 0.122466646 -0.21086818 0.08547491 -0.13757263 -0.08243591 -0.32983536 0.23662595 -0.080257684 0.088820465 0.1065404 0.30225354 0.39464015 0.12069195 0.29812112 0.13934992 0.020772336 0.0043916167 0.35772565 0.24953142 -0.16960455 -0.2717488 0.023507748 -0.0074158823
과 0.03912019 0.214383 0.001898573 0.06525331 0.18444094 -0.5749378 0.06864718 0.5918119 -0.2860316 -0.2447918 -0.015336018 -0.34202367 -0.17897409 0.12376956 0.16336448 -0.15769883 0.07267945 -0.15121156 -0.17489722 -0.71562064 0.107281275 0.18364002 0.13602857 -0.115424 -0.07538264 0.056133013 -0.15824085 -0.07901753 -0.20025456 0.07399113 0.24027403 -0.20519033 0.2958813 -0.34819034 -0.32454893 0.40400547 0.25074217 -0.07520119 -0.12259689 -0.5485636 0.110236116 -0.30792874 -0.070364796 -0.03780149 0.37302622 -0.03948566 -0.24144332 -0.10835111 0.36847246 0.12915717 0.06889893 -0.17605937 -0.05076025 0.047773913 -0.13520093 0.1265051 0.032207523 -0.15066041 -0.37127808 0.09864744 0.05210982 -0.06815019 0.27402434 -0.07497663 -0.3873033 0.40049508 0.12437413 0.39003038 -0.43148234 0.4880139 -0.1703644 0.2497691 0.31962433 -0.028389953 0.45313781 0.12951279 -0.09464621 0.1476126 -0.26067048 0.08394028 -0.16193233 -0.098482616 -0.39282572 0.29365063 -0.080300376 0.104742475 0.1330285 0.36559537 0.45460445 0.13780642 0.33542645 0.16283347 0.03910908 0.011975289 0.42042488 0.30854127 -0.18086879 -0.32028204 0.041478515 -0.0044262633
‘ 0.03937734 0.225834 0.0044469004 0.06905779 0.18374301 -0.59851533 0.07918181 0.6124455 -0.3115997 -0.25437328 -0.02905431 -0.3531434 -0.1883204 0.14004321 0.16349186 -0.1667665 0.07642541 -0.15359098 -0.18232428 -0.72214967 0.10864294 0.19033247 0.13669857 -0.10842558 -0.075408995 0.054680485 -0.15828617 -0.09543662 -0.2100541 0.07835805 0.25266284 -0.21174365 0.29451653 -0.36390242 -0.3417157 0.42734197 0.25825864 -0.06533382 -0.12566914 -0.57029563 0.10260474 -0.31125873 -0.0704808 -0.028905047 0.38593102 -0.029233271 -0.2569522 -0.10886748 0.37181652 0.122404136 0.07318069 -0.16528647 -0.05930321 0.03334187 -0.14656761 0.13613592 0.02249393 -0.16758385 -0.3794137 0.09080996 0.05019582 -0.0771433 0.27484408 -0.07501394 -0.3939037 0.4131507 0.12102441 0.3903162 -0.43288994 0.49938643 -0.17467123 0.2581382 0.31020796 -0.024216454 0.48014832 0.1358104 -0.09807239 0.1491185 -0.25678727 0.091328666 -0.1643535 -0.10586232 -0.38884944 0.28471076 -0.08253724 0.10544536 0.14151073 0.3702594 0.47710046 0.14097077 0.3469294 0.15762934 0.044206683 0.008753547 0.4228954 0.3181642 -0.202127 -0.34057808 0.041862216 0.0013244341
’ 0.031512298 0.21719389 0.004011632 0.061035622 0.17473556 -0.5751147 0.06446304 0.58981556 -0.28660348 -0.23865594 -0.02203032 -0.35347337 -0.16267 0.1337927 0.15843886 -0.16997439 0.07231984 -0.13731517 -0.18110569 -0.69723797 0.1217666 0.18830284 0.124535896 -0.101836465 -0.08230973 0.049910627 -0.15238245 -0.09556613 -0.20121598 0.06533432 0.22950208 -0.19609037 0.29061702 -0.3471883 -0.3348046 0.4118656 0.25180784 -0.07641277 -0.12682334 -0.54417133 0.11582351 -0.29573596 -0.05641182 -0.04197116 0.36595982 -0.023623174 -0.24363068 -0.110354945 0.36550516 0.118135944 0.063115224 -0.17551354 -0.051524248 0.03708374 -0.13323769 0.12740137 0.0350729 -0.15268806 -0.35473657 0.08069904 0.061133783 -0.071712226 0.26920846 -0.07848616 -0.3862754 0.4042078 0.113363095 0.38038874 -0.42528453 0.48341313 -0.16398565 0.24806497 0.31396502 -0.024340816 0.46039698 0.14624475 -0.091242306 0.14463684 -0.2650503 0.099700704 -0.16929606 -0.09181114 -0.38477984 0.29216298 -0.08025831 0.100430295 0.1361443 0.3689982 0.4531572 0.1364233 0.33870625 0.15814677 0.040138666 0.010031868 0.41246724 0.31156623 -0.19938684 -0.32386708 0.027295431 0.008381517
으로 0.038475066 0.20112818 0.0145869395 0.062231574 0.16208433 -0.5362509 0.06605232 0.539717 -0.27610427 -0.22664623 -0.017584953 -0.3157241 -0.16130593 0.12038975 0.1479932 -0.15514699 0.06356056 -0.13250908 -0.1640161 -0.65098596 0.11226859 0.17519718 0.12591091 -0.10964479 -0.0763089 0.04636649 -0.14354889 -0.07172238 -0.19208011 0.062817946 0.22789827 -0.18157132 0.26727405 -0.32703778 -0.29692975 0.37260997 0.23374055 -0.06965672 -0.12468232 -0.51352096 0.092071265 -0.2776389 -0.063865505 -0.03199333 0.34537262 -0.02520309 -0.22696848 -0.101674944 0.35335603 0.11229206 0.07283465 -0.14897197 -0.058309097 0.027746635 -0.12467274 0.12462676 0.024794385 -0.1401818 -0.3457444 0.07874704 0.04543947 -0.05841973 0.24878561 -0.081518665 -0.36217332 0.37722373 0.10635851 0.34956178 -0.3946487 0.4475658 -0.16590552 0.23253803 0.29285562 -0.0210913 0.4198846 0.12951323 -0.07966528 0.12827356 -0.24674626 0.08969939 -0.16651732 -0.08632942 -0.3688273 0.27452222 -0.087990426 0.08731735 0.12268659 0.33810574 0.43162557 0.1310646 0.31666413 0.15373541 0.037312623 0.013411175 0.384463 0.28308985 -0.17567258 -0.29175055 0.025481677 -0.008522517
적 0.032875694 0.19113034 0.00046263364 0.053556804 0.14358556 -0.46016243 0.06969743 0.47475252 -0.23431608 -0.1865661 -0.015746543 -0.2919632 -0.13617484 0.10062233 0.1266621 -0.12848932 0.06124135 -0.107286856 -0.14710738 -0.57412165 0.090308055 0.14224032 0.096096754 -0.08400615 -0.0723967 0.048694037 -0.12799299 -0.0763917 -0.16733287 0.048304714 0.18617508 -0.15981732 0.24309917 -0.2862815 -0.27259806 0.34045073 0.21817328 -0.0462702 -0.11456383 -0.44023296 0.08199148 -0.23576154 -0.046634573 -0.028705172 0.30393997 -0.033201326 -0.19528945 -0.08389518 0.3056506 0.10392986 0.05597475 -0.13410741 -0.04934455 0.025738984 -0.11468075 0.09604467 0.02303212 -0.12556995 -0.29003647 0.06756005 0.04492499 -0.061997954 0.21392336 -0.064921804 -0.30705068 0.3195598 0.093407325 0.31892797 -0.3442252 0.38882944 -0.13491052 0.20559499 0.25216606 -0.009919311 0.37811753 0.113980934 -0.07076387 0.1176648 -0.20113972 0.07860944 -0.14306329 -0.08161153 -0.31464544 0.22408655 -0.06968322 0.072299525 0.10758102 0.29983956 0.3727903 0.10947524 0.26809385 0.13491754 0.033906233 0.01460458 0.34865552 0.24919039 -0.14895064 -0.25355396 0.024329752 0.0015177422
윤 0.023337899 0.12909876 0.012580736 0.035266124 0.10828755 -0.35488123 0.053408805 0.3613321 -0.18170197 -0.14877872 -0.016925914 -0.21572173 -0.11175941 0.07222222 0.0977537 -0.09602378 0.04909032 -0.07952884 -0.10918478 -0.4367413 0.06170523 0.119717725 0.08695513 -0.072939105 -0.0450182 0.045228783 -0.105847694 -0.05691704 -0.13305652 0.04516223 0.14359733 -0.11874848 0.18588501 -0.22077273 -0.21120718 0.25342932 0.14956121 -0.05177532 -0.08935613 -0.3375118 0.0668188 -0.18327476 -0.041106977 -0.009035359 0.23227005 -0.025655726 -0.1430741 -0.076400734 0.22468387 0.0762834 0.044417966 -0.10895772 -0.03230833 0.025218831 -0.1003036 0.073868245 0.008667456 -0.093167834 -0.22607507 0.047970552 0.04141245 -0.043103497 0.16805571 -0.04326 -0.23925716 0.25392193 0.06423076 0.231224 -0.26762873 0.29735446 -0.11565072 0.1648912 0.19598424 -0.022313738 0.28686476 0.090964966 -0.06282171 0.09509551 -0.16652948 0.06601392 -0.09930066 -0.058536045 -0.24669445 0.17406426 -0.055637036 0.061313085 0.0928016 0.22087327 0.2687803 0.0717909 0.2075809 0.10110205 0.02160008 0.0062352293 0.26577002 0.18772721 -0.111451186 -0.19381478 0.010896362 0.0005457676
기 0.021540716 0.19896542 0.0049211583 0.06856487 0.16869304 -0.51990867 0.06534594 0.5339921 -0.2685238 -0.21620959 -0.023694871 -0.32467052 -0.16404329 0.1203211 0.138839 -0.16157989 0.061346218 -0.12370005 -0.16227387 -0.64453924 0.115100145 0.16339354 0.124384634 -0.098504916 -0.06737627 0.048029266 -0.13927482 -0.08478893 -0.17871079 0.068181835 0.22027047 -0.17589286 0.27049002 -0.31536973 -0.2961467 0.37943882 0.2364189 -0.056463685 -0.11241965 -0.5086554 0.10158655 -0.2762545 -0.05463194 -0.035421293 0.33287674 -0.02886373 -0.22300854 -0.1053809 0.34775776 0.10722051 0.073369645 -0.15396783 -0.040821843 0.032438982 -0.1363633 0.12393955 0.02323987 -0.13770528 -0.34398133 0.08728342 0.052956436 -0.066020496 0.25157252 -0.07543003 -0.35729122 0.35799664 0.1103259 0.35818833 -0.3948706 0.45496738 -0.15731563 0.22660364 0.2852256 -0.018825218 0.411588 0.12879 -0.07859856 0.14217295 -0.23159465 0.08633146 -0.15899977 -0.092156895 -0.3477278 0.25628012 -0.08451143 0.090234466 0.12923546 0.32960603 0.42388946 0.12356518 0.31082487 0.14117356 0.02374172 0.016534334 0.37755463 0.28712913 -0.17915769 -0.30634624 0.023772143 0.009233844
로 0.029624883 0.21963602 -0.0008505918 0.05549033 0.16982473 -0.54709923 0.06332628 0.5498574 -0.29152492 -0.22693583 -0.016528629 -0.34252554 -0.16882578 0.121714905 0.15550742 -0.16656455 0.081221856 -0.14597954 -0.16839345 -0.66620535 0.11431813 0.18282183 0.13265446 -0.10186589 -0.08390539 0.05936939 -0.16272734 -0.08734739 -0.1867119 0.05455909 0.22307315 -0.19222201 0.2773047 -0.32314998 -0.31241634 0.39536503 0.24397904 -0.061695762 -0.12875216 -0.52577984 0.09567725 -0.28571168 -0.058132548 -0.025637599 0.3442865 -0.02714538 -0.22693282 -0.10834727 0.34819 0.114581674 0.06419113 -0.15376818 -0.04203463 0.047658138 -0.12842624 0.11699831 0.026964545 -0.15656859 -0.35472605 0.079209626 0.059015643 -0.06765103 0.2508711 -0.067516826 -0.3652436 0.381638 0.10751832 0.36198077 -0.4061535 0.46942094 -0.16429482 0.23592788 0.30166414 -0.023307154 0.4313077 0.13791248 -0.09069437 0.14812247 -0.25004116 0.07875757 -0.16652532 -0.09320348 -0.3701819 0.27183095 -0.08065591 0.10226821 0.12505737 0.35152644 0.43311572 0.12623405 0.32427165 0.15179157 0.029125942 0.00946852 0.4013122 0.29318026 -0.19203036 -0.3011863 0.028477399 -0.0015305146
수 0.026880581 0.20968418 0.0038646974 0.053362995 0.17353119 -0.5568937 0.06520488 0.55104905 -0.27186447 -0.22796443 -0.03202826 -0.32751206 -0.17307702 0.117597945 0.1553389 -0.16470355 0.06394933 -0.14459532 -0.16505885 -0.66560197 0.112596855 0.17811312 0.12948889 -0.10908586 -0.06689479 0.06044912 -0.1497738 -0.072232485 -0.2004572 0.06511006 0.23864405 -0.18908621 0.26648384 -0.33135617 -0.31695706 0.3876927 0.24432334 -0.05839419 -0.12233363 -0.5193107 0.0997406 -0.27702403 -0.06896342 -0.039876036 0.3440854 -0.036648538 -0.23943223 -0.10205293 0.35470176 0.11687118 0.07449922 -0.16390818 -0.04751103 0.03978673 -0.13032438 0.13444579 0.026426485 -0.14752974 -0.3566453 0.08318849 0.048391785 -0.06729624 0.2524784 -0.08024885 -0.36383525 0.383327 0.10322637 0.36662042 -0.39874503 0.46571738 -0.17035833 0.2511126 0.30627677 -0.023898711 0.4348657 0.120612204 -0.09241747 0.14039901 -0.2413417 0.0851027 -0.17095372 -0.0827281 -0.37587252 0.28200662 -0.0803527 0.08931028 0.1296334 0.35665613 0.42835015 0.11863607 0.33528277 0.15672746 0.042631093 0.0017444991 0.39940643 0.2976497 -0.18375854 -0.31026676 0.022042109 -0.0039636227
어 0.018587371 0.17577934 0.005541049 0.04032245 0.14445998 -0.43112415 0.053592782 0.43601325 -0.21689774 -0.18206404 -0.018941056 -0.26311624 -0.11967053 0.100862294 0.11938108 -0.12870075 0.0601218 -0.105864294 -0.14047189 -0.5330853 0.08147641 0.1405039 0.089302965 -0.08634228 -0.052028414 0.03848667 -0.11202051 -0.064047925 -0.15499777 0.044834755 0.17860833 -0.14228056 0.20783201 -0.26259834 -0.25274825 0.3121944 0.19031367 -0.04779963 -0.09705148 -0.41660014 0.079939 -0.22242136 -0.044906683 -0.032097157 0.26520488 -0.02964276 -0.18150151 -0.08456684 0.27574116 0.09386202 0.058631603 -0.124513395 -0.042248204 0.03114431 -0.112786144 0.091396175 0.030888213 -0.120177306 -0.28290677 0.07185301 0.051919628 -0.05288877 0.20270897 -0.062201932 -0.2894718 0.2889366 0.0795265 0.2747941 -0.32125118 0.36869287 -0.121659145 0.1859682 0.23130363 -0.010370682 0.34044674 0.0969702 -0.06519904 0.11223183 -0.19607534 0.06262643 -0.11609518 -0.062020447 -0.296637 0.20792538 -0.065576814 0.07653041 0.09149357 0.28213218 0.33357334 0.10287281 0.26428017 0.12204497 0.030092098 0.0071715065 0.3026863 0.22786404 -0.14364432 -0.25074515 0.030484008 -0.005414074
대선 0.037541013 0.21667035 -0.00089527975 0.056761764 0.18795763 -0.5746749 0.07841219 0.5784016 -0.28272405 -0.2277641 -0.01425891 -0.3380624 -0.17841531 0.11466434 0.15244304 -0.16372266 0.08088497 -0.13867518 -0.17999494 -0.69475394 0.108371146 0.17658782 0.13460441 -0.118808605 -0.07856598 0.050745547 -0.15245424 -0.088831306 -0.1969923 0.05976643 0.24812385 -0.20062006 0.2873488 -0.3373091 -0.31727993 0.39848134 0.2507269 -0.07436592 -0.11995896 -0.54775196 0.11308775 -0.2977635 -0.05768075 -0.037239257 0.36058035 -0.030043142 -0.25215098 -0.098443694 0.36239088 0.12621172 0.07185248 -0.16319552 -0.04893577 0.04855945 -0.15130562 0.13838066 0.03869692 -0.15265225 -0.3579176 0.095517814 0.06203726 -0.07259956 0.27040958 -0.077686764 -0.37437657 0.40396407 0.107747704 0.3782205 -0.4272861 0.47642332 -0.18268442 0.25228858 0.30626422 -0.025028503 0.45718902 0.12666698 -0.089075536 0.14361666 -0.25887015 0.080931604 -0.17504677 -0.08431323 -0.3898508 0.2881469 -0.09252282 0.09813 0.13490489 0.3523828 0.4454448 0.1214641 0.3284775 0.15599313 0.031575534 0.014704203 0.4159752 0.2945128 -0.19209023 -0.32208726 0.024196092 -0.004805146
자 0.02379791 0.17934492 -0.0016838852 0.048386317 0.15788175 -0.48912153 0.05775071 0.49787307 -0.24072652 -0.20632377 -0.013977358 -0.30247808 -0.14335246 0.11260529 0.13016923 -0.12927812 0.06458048 -0.115851745 -0.14375094 -0.60226506 0.08809544 0.14740677 0.10835655 -0.10097661 -0.067626745 0.0380586 -0.13542722 -0.07153805 -0.16208293 0.046212498 0.19912368 -0.15892214 0.25006837 -0.29088 -0.27573168 0.33681706 0.2176176 -0.06600901 -0.115307 -0.45948753 0.091401406 -0.24469861 -0.065459 -0.0250706 0.3082952 -0.030392107 -0.20540102 -0.084081426 0.30148038 0.10039809 0.06627893 -0.14105974 -0.040246643 0.043965302 -0.114987746 0.1138336 0.033223208 -0.13948672 -0.2989467 0.081250995 0.04165841 -0.06371358 0.23358141 -0.06076471 -0.3322178 0.3357061 0.0972118 0.32176858 -0.3470473 0.39731604 -0.13706863 0.2020109 0.26730916 -0.009480864 0.37650993 0.10511661 -0.07045486 0.11378873 -0.22531095 0.07448721 -0.15024689 -0.06805185 -0.31529948 0.2409749 -0.066602215 0.09571951 0.11694325 0.3104196 0.38812134 0.11756167 0.29117054 0.14294359 0.020948319 0.02112594 0.3624295 0.26559964 -0.16891614 -0.27381432 0.026716067 0.0054062298
정부 0.022953901 0.21345507 0.0139033105 0.07325197 0.17111722 -0.54541683 0.07718015 0.55640095 -0.27979234 -0.23599757 -0.022517925 -0.32884952 -0.15883473 0.10977508 0.14614566 -0.15492629 0.074845865 -0.14205952 -0.16673881 -0.66972584 0.10065481 0.1859918 0.11788828 -0.107541524 -0.06678659 0.054493614 -0.15946211 -0.08014087 -0.19578366 0.056098957 0.22122757 -0.18237643 0.26350027 -0.3245461 -0.31909823 0.3954172 0.24179125 -0.07213746 -0.11581817 -0.53175783 0.10474734 -0.28720197 -0.06960358 -0.038017068 0.3552993 -0.033491872 -0.2292735 -0.11295433 0.35304108 0.112864144 0.06401489 -0.16495615 -0.058780987 0.034847677 -0.14052029 0.12292459 0.02343572 -0.15746151 -0.34403312 0.0867748 0.061744552 -0.063980974 0.26530498 -0.07928161 -0.3742155 0.38147414 0.10224929 0.37067696 -0.39529818 0.46131092 -0.15914573 0.24854665 0.30138856 -0.017579054 0.44192338 0.13141586 -0.09510029 0.13130873 -0.24772243 0.084824376 -0.15293507 -0.09797523 -0.37071487 0.28246215 -0.08794749 0.086554855 0.12927137 0.3416012 0.42812693 0.11830788 0.32597065 0.16230522 0.0378621 0.021139188 0.40966618 0.29454413 -0.18661149 -0.30024654 0.020622833 -0.0034300848
게 0.032754257 0.18076687 0.0019245921 0.04348606 0.14952429 -0.44775942 0.05213308 0.45932057 -0.22347324 -0.18009992 -0.021137057 -0.26138842 -0.124466196 0.10441958 0.1319707 -0.13372533 0.059797067 -0.11235006 -0.13313581 -0.5368092 0.09346308 0.14723119 0.10787064 -0.078793705 -0.061782304 0.03511846 -0.12714674 -0.05676613 -0.16006406 0.052496422 0.1903513 -0.15889095 0.23008348 -0.2645816 -0.2519613 0.3244606 0.20148107 -0.052329723 -0.10803393 -0.41400212 0.07430905 -0.22295617 -0.045183204 -0.024475789 0.2735995 -0.014167333 -0.19098468 -0.07821064 0.28176534 0.08813749 0.056853235 -0.13998382 -0.04685571 0.021755554 -0.106129855 0.10246729 0.021124238 -0.11583167 -0.2859039 0.06289671 0.04754801 -0.060780477 0.20794071 -0.052265234 -0.2963617 0.3141137 0.09508387 0.2916493 -0.33155704 0.38275385 -0.13354678 0.19423974 0.24142864 -0.023434276 0.3550599 0.10313796 -0.066653125 0.1089337 -0.19970691 0.07398659 -0.13854432 -0.07462731 -0.30680963 0.22289675 -0.06737953 0.0808096 0.10348266 0.28230256 0.3543302 0.100945815 0.2702347 0.122327894 0.02160596 0.0050489325 0.3147768 0.22785047 -0.14591412 -0.24558432 0.018318128 -0.0080992635
명 0.02520272 0.22906913 -0.0011470779 0.07323621 0.19154684 -0.570414 0.06696385 0.59264505 -0.30391446 -0.22904982 -0.029245751 -0.35391688 -0.16547647 0.12530187 0.16550867 -0.17178996 0.08223389 -0.15622385 -0.17576481 -0.7124881 0.10855201 0.18624456 0.12889455 -0.112128444 -0.08247202 0.04616574 -0.16978224 -0.09283587 -0.2119731 0.06070177 0.25004247 -0.20006353 0.27935869 -0.35220826 -0.32672778 0.40743455 0.25778016 -0.074421436 -0.122093655 -0.56021476 0.10115362 -0.29259124 -0.073997535 -0.02961942 0.36814496 -0.019977791 -0.24217892 -0.1052593 0.3726393 0.123402596 0.076263934 -0.17461169 -0.047892414 0.046831965 -0.13637193 0.13162407 0.027706644 -0.15005532 -0.37751913 0.09306076 0.050838955 -0.06644447 0.26271176 -0.076778024 -0.37634084 0.3991265 0.10704735 0.37702656 -0.42205486 0.48051915 -0.16800079 0.2522986 0.32167345 -0.025731469 0.44980302 0.13071606 -0.09022547 0.14216119 -0.25324878 0.08651129 -0.17735839 -0.09227141 -0.39429647 0.27954504 -0.096000254 0.10058174 0.13468356 0.37129042 0.46716315 0.13948324 0.3497451 0.16354248 0.029523158 0.024949452 0.42291677 0.3124906 -0.19208094 -0.3183977 0.037631024 -0.006936127
없 0.023210648 0.17338766 0.009269524 0.041754894 0.14702639 -0.4422793 0.057125 0.4504515 -0.23628983 -0.17705853 -0.028067116 -0.2787312 -0.12918873 0.08873648 0.11985263 -0.1299587 0.05765172 -0.11822823 -0.13498074 -0.5465745 0.09174885 0.14198145 0.10864652 -0.09508664 -0.055796627 0.038600303 -0.12407153 -0.07303346 -0.15884793 0.045483068 0.18360998 -0.14247027 0.22469439 -0.26565275 -0.26187 0.32253397 0.19174758 -0.0554437 -0.10553835 -0.43217415 0.08625229 -0.23499286 -0.04793923 -0.02064029 0.27640352 -0.025597747 -0.19377783 -0.093518466 0.27625108 0.09474567 0.06043354 -0.13237067 -0.045686632 0.035391465 -0.11034665 0.09286054 0.03008022 -0.11351708 -0.29223385 0.07004794 0.05139703 -0.057316337 0.2090652 -0.065895565 -0.29076692 0.31688535 0.09306556 0.2910183 -0.32952392 0.37027663 -0.14612335 0.20417449 0.24070998 -0.01961435 0.3604437 0.09672768 -0.06445789 0.106611304 -0.20552152 0.07446726 -0.13488449 -0.075889856 -0.30578545 0.21803702 -0.07227572 0.07316043 0.1128551 0.2928224 0.35223556 0.101293825 0.25926 0.13410452 0.021914877 0.016458582 0.3351417 0.24223813 -0.14873916 -0.24463163 0.030776396 -0.002500587
화 0.02805951 0.19764817 0.013954524 0.057125147 0.1584215 -0.4979447 0.052624337 0.49559137 -0.2594013 -0.20390733 -0.025114782 -0.30010873 -0.13990423 0.11793348 0.14493886 -0.1385277 0.061985597 -0.11980374 -0.15649083 -0.6142675 0.1046492 0.14885849 0.11670308 -0.098265074 -0.074913494 0.046837583 -0.14638779 -0.0642066 -0.180521 0.047198515 0.21124694 -0.16267793 0.2507438 -0.29165545 -0.28549203 0.3440021 0.22248213 -0.04993958 -0.115616694 -0.47184086 0.09555713 -0.2495141 -0.063298896 -0.032108195 0.3090788 -0.026096692 -0.20433232 -0.0860621 0.3059783 0.11166712 0.059087466 -0.14823493 -0.054375764 0.028095584 -0.11332582 0.11473569 0.016124222 -0.13106367 -0.32091704 0.06870782 0.0532444 -0.05795007 0.232271 -0.059042107 -0.32224303 0.3358819 0.10321113 0.33013704 -0.3582076 0.42272913 -0.15689655 0.21403228 0.2670326 -0.013599197 0.38888332 0.1263201 -0.081621766 0.115170844 -0.22808677 0.07251801 -0.13468096 -0.086226605 -0.33580646 0.25432026 -0.08600217 0.08701369 0.120386735 0.3036227 0.3888415 0.11014437 0.29800513 0.13395303 0.023298306 0.022899609 0.3548032 0.2693835 -0.1724743 -0.2681951 0.023013089 -0.006906582
와 0.027422389 0.19167443 0.0063383956 0.057780385 0.15315261 -0.5037514 0.06020419 0.51816624 -0.25223556 -0.20747565 -0.02692114 -0.29954234 -0.15843709 0.11158737 0.14269038 -0.14595656 0.06199988 -0.13336398 -0.16462132 -0.6097396 0.10244089 0.16022427 0.12334121 -0.10486339 -0.06939929 0.048174012 -0.14892484 -0.08392602 -0.16882794 0.054435175 0.20113687 -0.16357075 0.2436239 -0.30233034 -0.28520223 0.35228637 0.2164153 -0.06358115 -0.11911948 -0.4761642 0.09060826 -0.26071092 -0.05422228 -0.03030589 0.32619047 -0.018944109 -0.21457106 -0.09411591 0.3216161 0.11155365 0.071783 -0.15001254 -0.046007268 0.032246184 -0.12472863 0.10805912 0.022983925 -0.1451116 -0.31835657 0.082200155 0.05380948 -0.064710476 0.24098541 -0.07627244 -0.32361197 0.34753677 0.10430155 0.3371146 -0.36737725 0.42287806 -0.1507662 0.20983124 0.26696774 -0.024177209 0.38680184 0.1226047 -0.074385084 0.12634815 -0.21656261 0.076577075 -0.14720394 -0.07566037 -0.34538755 0.24283175 -0.07075611 0.08153365 0.12471813 0.32276508 0.38969257 0.123206824 0.3035954 0.13443798 0.022189626 0.0041282764 0.36948648 0.27255344 -0.16931711 -0.27964827 0.01905772 -0.0038031407
방역 0.032451194 0.17250635 -0.0021333536 0.05609164 0.13948546 -0.4750433 0.06555997 0.4849106 -0.24855691 -0.1854512 -0.01021553 -0.28004423 -0.14433113 0.11189264 0.12094941 -0.13821906 0.06492953 -0.12468794 -0.15771624 -0.573326 0.10118326 0.1454563 0.10184694 -0.08513056 -0.064369306 0.037329063 -0.12439737 -0.07290644 -0.16059232 0.05709381 0.20436685 -0.15094331 0.2412621 -0.28985623 -0.26645905 0.33306313 0.2111451 -0.047555808 -0.09948821 -0.45651513 0.098442115 -0.24464162 -0.05302607 -0.020363899 0.29196838 -0.02573475 -0.19925125 -0.0806655 0.3044001 0.09557841 0.051705454 -0.14264749 -0.033669803 0.023240179 -0.10844059 0.10648418 0.022378104 -0.117668055 -0.28966805 0.08359815 0.056149814 -0.067409 0.22684671 -0.07400753 -0.3200852 0.31621924 0.097960904 0.31922352 -0.3516732 0.3911369 -0.14509314 0.20069678 0.25258163 -0.015153112 0.37430736 0.10730444 -0.07808091 0.11716413 -0.21282847 0.07774713 -0.12919879 -0.067917615 -0.32273462 0.227147 -0.08344751 0.07638162 0.11283795 0.29200485 0.37328207 0.116135575 0.2816697 0.13392946 0.037349574 0.017266717 0.34058985 0.24178055 -0.15631379 -0.2557704 0.03354284 -0.0018701267
투표 0.03485795 0.17321375 0.011701816 0.04506167 0.14648254 -0.43731079 0.04536497 0.4506274 -0.23490995 -0.18805394 -0.01584534 -0.25650975 -0.13332213 0.10340195 0.12743856 -0.12198827 0.05169142 -0.10407743 -0.14599393 -0.5444848 0.09191056 0.13193263 0.105940655 -0.08799267 -0.06103136 0.034606896 -0.12944019 -0.06787432 -0.1441031 0.055097215 0.17341538 -0.15843575 0.22159691 -0.27032864 -0.24399126 0.31659436 0.18812303 -0.042799454 -0.087828875 -0.4194762 0.084857546 -0.23420699 -0.0424532 -0.016745677 0.28226098 -0.03214223 -0.18179184 -0.08471607 0.2796728 0.0969537 0.05680864 -0.12519847 -0.04597309 0.037566468 -0.11367568 0.10015461 0.02886894 -0.11471289 -0.27141467 0.0660702 0.048086572 -0.0470574 0.20420484 -0.05367824 -0.30110586 0.31300074 0.09277388 0.29664823 -0.31709602 0.37290835 -0.13637875 0.1866743 0.23461984 -0.017091798 0.34310022 0.09454606 -0.07686166 0.12217953 -0.18695278 0.07427156 -0.13353707 -0.070586324 -0.3038075 0.22489448 -0.06680896 0.08598294 0.09521305 0.27486134 0.3512664 0.10382889 0.25218114 0.11633679 0.028460313 0.00090871926 0.32705033 0.23865518 -0.150498 -0.251921 0.015334251 -0.0012988516
며 0.035324827 0.19418903 -2.846949e-06 0.06779881 0.15112242 -0.4954208 0.07110149 0.5112397 -0.26679987 -0.2001687 -0.030236607 -0.3102111 -0.13997401 0.10076837 0.13121633 -0.14966854 0.0709945 -0.12317159 -0.16294424 -0.62009215 0.108338065 0.17148422 0.12387658 -0.09543868 -0.06624944 0.05046719 -0.13971697 -0.06916857 -0.17398801 0.057606936 0.20551798 -0.1782858 0.2581588 -0.30585897 -0.28383884 0.3561183 0.22172034 -0.06554232 -0.108625494 -0.48371258 0.08680875 -0.26379415 -0.05268694 -0.021273142 0.31667504 -0.019077893 -0.2218354 -0.0988462 0.31321886 0.09935253 0.07143867 -0.15813628 -0.05350393 0.024964726 -0.11728873 0.11221528 0.025801748 -0.14269912 -0.32192966 0.08102579 0.047596432 -0.06910708 0.22831307 -0.06672004 -0.34355488 0.34935474 0.09950261 0.34247205 -0.36869746 0.428287 -0.15989399 0.21222161 0.27746636 -0.021227652 0.3907784 0.11684285 -0.0699886 0.11860552 -0.22826116 0.0793532 -0.1491037 -0.07148937 -0.3390057 0.24293824 -0.08632582 0.07851831 0.10878372 0.31116167 0.39127752 0.11292832 0.29749742 0.1360645 0.032883152 0.016336001 0.37537423 0.26174918 -0.16157128 -0.2737907 0.023082953 -0.005797341
겠 0.025305256 0.1906706 0.014973866 0.06851768 0.17032303 -0.51742476 0.07006879 0.5234156 -0.25605226 -0.21822356 -0.022345016 -0.31634063 -0.16150452 0.11349391 0.15135977 -0.13941091 0.06006467 -0.124444716 -0.16329001 -0.61561483 0.0918618 0.17423043 0.10876348 -0.104602166 -0.069585465 0.049162008 -0.15245518 -0.07679271 -0.17834257 0.052120984 0.21772142 -0.17092827 0.2627343 -0.29647574 -0.29835153 0.36754212 0.23478027 -0.054923363 -0.10741137 -0.49027574 0.10067246 -0.26383594 -0.057118848 -0.034826476 0.32387367 -0.021820059 -0.22746094 -0.08607796 0.3284763 0.106618166 0.06002508 -0.15033574 -0.039372683 0.04046911 -0.13332915 0.12482695 0.025177812 -0.14646308 -0.31447965 0.08663719 0.055407245 -0.054643538 0.23062573 -0.076021716 -0.34065223 0.3489937 0.10167623 0.33744842 -0.38214058 0.42968282 -0.15279604 0.22248147 0.28015885 -0.020346854 0.4090814 0.11937933 -0.07194445 0.12863259 -0.22481115 0.075170554 -0.14335267 -0.07925162 -0.34099686 0.26292217 -0.086996 0.09976862 0.118138336 0.32016847 0.3987624 0.10726267 0.29994625 0.14631939 0.03756485 0.021554776 0.3624421 0.27998787 -0.17858908 -0.28089315 0.03529401 -0.0013228001
확진 0.018415088 0.18133834 0.007765368 0.057414725 0.1479976 -0.48715088 0.0646834 0.5057405 -0.24926054 -0.19945651 -0.03195781 -0.29343316 -0.14134142 0.09944737 0.13393657 -0.14200158 0.06501799 -0.12510708 -0.16129282 -0.6051976 0.10184849 0.15778676 0.11292017 -0.09251814 -0.071995735 0.038571347 -0.12815699 -0.0824999 -0.17542377 0.05523379 0.1971639 -0.16711624 0.2534221 -0.2962816 -0.27275234 0.34975132 0.21447971 -0.060937915 -0.108728185 -0.46276495 0.10049244 -0.24938904 -0.06352339 -0.03493238 0.31935894 -0.023438377 -0.2033182 -0.091263935 0.3239309 0.092896976 0.074405044 -0.15501145 -0.04601681 0.042075828 -0.13373384 0.11747787 0.0174156 -0.14128873 -0.31082252 0.08087001 0.04597967 -0.051680498 0.22443984 -0.06792517 -0.31928486 0.3435348 0.09252577 0.33167395 -0.3672291 0.41419065 -0.14622352 0.22394672 0.2745267 -0.026295006 0.39817068 0.11069836 -0.069773205 0.11674643 -0.22923492 0.07543004 -0.15434904 -0.0830998 -0.3307995 0.24545331 -0.087186664 0.0798086 0.10479634 0.31183964 0.3959381 0.112754665 0.3031747 0.13503899 0.0391369 0.019152949 0.3700797 0.26154926 -0.16260992 -0.2738344 0.016811645 0.010711782
토론 0.027503585 0.20840211 0.010508096 0.062577374 0.16196746 -0.52535033 0.0673478 0.52832973 -0.27455753 -0.21668835 -0.024368118 -0.3189416 -0.15009251 0.11495542 0.1467883 -0.1552702 0.06186291 -0.1251971 -0.15500201 -0.6277122 0.10649717 0.15845656 0.12588555 -0.10511935 -0.08065574 0.05946897 -0.1470367 -0.086658694 -0.18376195 0.06604989 0.21365906 -0.17166352 0.25775933 -0.30448282 -0.29467282 0.3572034 0.22738229 -0.0532876 -0.11447662 -0.49838212 0.104894996 -0.2606584 -0.05168559 -0.027705094 0.31792837 -0.031253576 -0.21496524 -0.10413479 0.34000763 0.09868089 0.05689261 -0.15786177 -0.04075832 0.02719535 -0.1217732 0.107054055 0.029653497 -0.13670172 -0.3291612 0.09199759 0.058086514 -0.06231927 0.24656859 -0.0652543 -0.3410621 0.36774066 0.104010426 0.3343834 -0.38413873 0.4321521 -0.16434272 0.22430888 0.28717208 -0.026313221 0.41394654 0.12664402 -0.08285583 0.13298802 -0.22521529 0.07388646 -0.14737484 -0.074358195 -0.34994254 0.2487438 -0.09092467 0.08002706 0.12406621 0.332355 0.4151067 0.11573698 0.307584 0.14896935 0.021478206 0.001945054 0.38111407 0.2652876 -0.17371471 -0.29363698 0.0341122 -0.001934333
등 0.039883886 0.19585505 0.0026645537 0.054822087 0.1600173 -0.50600046 0.07206282 0.52009386 -0.2532077 -0.21440154 -0.02719516 -0.30437082 -0.14999095 0.103724584 0.1461988 -0.13802357 0.06263823 -0.123395965 -0.15216382 -0.61387783 0.107373 0.15901671 0.10684927 -0.09687093 -0.07918815 0.059663896 -0.14857458 -0.07642606 -0.17877904 0.060899273 0.21437675 -0.1805896 0.2451011 -0.299635 -0.28370428 0.36146736 0.22295251 -0.06069276 -0.11941234 -0.47383863 0.086909704 -0.2568766 -0.060363535 -0.03507072 0.32636818 -0.02647815 -0.22424959 -0.10434813 0.32191116 0.096165225 0.06649004 -0.14439198 -0.042365164 0.028649686 -0.11792543 0.10349637 0.032993045 -0.13695335 -0.3212951 0.08397544 0.049160775 -0.065859534 0.23300746 -0.075232066 -0.33490655 0.34251964 0.1064999 0.32413572 -0.37369964 0.41167903 -0.16242024 0.21889149 0.26250184 -0.027179247 0.3999529 0.117187105 -0.07665803 0.13719241 -0.23385035 0.08480643 -0.15471373 -0.074611925 -0.33009118 0.25826588 -0.0859453 0.091241874 0.108634084 0.3170307 0.39186716 0.10534257 0.30243838 0.14538617 0.027000042 0.0043106205 0.36959076 0.2617512 -0.17565505 -0.28573042 0.025780868 0.010003594
안 0.015213021 0.15986586 0.0139763355 0.04110556 0.12375662 -0.39549693 0.052703675 0.40034547 -0.20559295 -0.17231537 -0.010434644 -0.24915145 -0.12723228 0.087553576 0.11243254 -0.11325434 0.052717492 -0.09468551 -0.12139946 -0.47638556 0.07451865 0.11935074 0.08067018 -0.06681298 -0.053374887 0.032686632 -0.10517624 -0.050957896 -0.13035399 0.03860589 0.15865773 -0.13625611 0.18979433 -0.23172925 -0.21930042 0.27478966 0.18381032 -0.05508959 -0.08163872 -0.38020682 0.0778764 -0.20837156 -0.041986786 -0.013231474 0.24778797 -0.027102057 -0.17721112 -0.06975661 0.2569584 0.089830734 0.046253122 -0.12588964 -0.029018443 0.023410276 -0.095592484 0.09738124 0.015257613 -0.10600236 -0.2546117 0.055955302 0.033949256 -0.047552306 0.17740712 -0.05730357 -0.26567253 0.28040305 0.08153792 0.26809627 -0.28509185 0.32722127 -0.12460642 0.18368182 0.21951179 -0.025742974 0.31769958 0.10236267 -0.052685283 0.09303009 -0.17854978 0.06347891 -0.11371458 -0.06564018 -0.26916733 0.20233226 -0.055333354 0.068223335 0.08641604 0.24494106 0.30626297 0.094943136 0.23435031 0.10878144 0.015685806 0.008455467 0.29402232 0.21596952 -0.12712073 -0.22336219 0.03022662 0.0018355835
크 0.031024827 0.2136592 0.0011649063 0.0695151 0.18096493 -0.5272655 0.071646914 0.5478588 -0.27603424 -0.22913001 -0.021626657 -0.3241353 -0.16652167 0.11957876 0.15326688 -0.16170487 0.07512849 -0.12521446 -0.17729254 -0.6515024 0.09550492 0.16211827 0.12845962 -0.11080318 -0.07452354 0.043735202 -0.15799388 -0.08680825 -0.18680167 0.0624742 0.21383418 -0.18998824 0.2619361 -0.3214435 -0.3124599 0.3731952 0.24429098 -0.06165918 -0.11005433 -0.50411135 0.09853872 -0.27527222 -0.04992194 -0.02822382 0.34083676 -0.026986867 -0.23868309 -0.093038715 0.34750867 0.11198 0.077252075 -0.16410674 -0.044018473 0.029486263 -0.14422488 0.12473699 0.032269627 -0.13742788 -0.34921435 0.09016747 0.0581027 -0.06072876 0.24912804 -0.06705185 -0.34604222 0.36005968 0.09713091 0.36182293 -0.39194807 0.43744695 -0.16650654 0.2349785 0.29654148 -0.02513188 0.41947576 0.11856323 -0.09231772 0.13746344 -0.23892398 0.07471821 -0.15412171 -0.0962474 -0.36101815 0.26921028 -0.08144141 0.102629825 0.13021168 0.33633497 0.42826247 0.12904707 0.32596406 0.16042897 0.036648136 0.018802386 0.3967791 0.28088403 -0.18248495 -0.29027787 0.031003932 -0.0040599443
) 0.02937784 0.19890423 0.01723907 0.065047674 0.17143337 -0.519279 0.07698106 0.5315083 -0.2767078 -0.22070783 -0.02708888 -0.3306174 -0.15728803 0.10641078 0.15599635 -0.15434915 0.06346494 -0.14057036 -0.16844136 -0.6570857 0.10471584 0.17566243 0.116525315 -0.09302221 -0.07556584 0.04427431 -0.15101013 -0.0815906 -0.19207957 0.05031159 0.21568808 -0.18227363 0.26798138 -0.32172653 -0.30747187 0.3753147 0.2346517 -0.05951499 -0.118646674 -0.49750435 0.10822296 -0.28135604 -0.05581351 -0.023385737 0.333605 -0.019862453 -0.2302854 -0.103778504 0.32853672 0.12052526 0.055335358 -0.15881054 -0.04760766 0.030638374 -0.121229835 0.1131472 0.018584436 -0.13191275 -0.3440049 0.095725276 0.049705062 -0.059322134 0.24675675 -0.07682989 -0.35852507 0.35776842 0.113576874 0.35663503 -0.38674927 0.44909665 -0.15632018 0.23340754 0.28799066 -0.03276302 0.42618924 0.11678579 -0.08725079 0.13580593 -0.23065218 0.07264374 -0.15188774 -0.077769995 -0.3638625 0.2727005 -0.087436214 0.10272205 0.11506117 0.3402738 0.42784703 0.10949356 0.3130127 0.13979568 0.040755924 0.023505976 0.37858632 0.28047767 -0.17694734 -0.30354297 0.029817842 -0.009715009
( 0.031216387 0.18342814 0.012295331 0.06555893 0.15435319 -0.49713507 0.0536213 0.50797933 -0.25018317 -0.1934262 -0.018177997 -0.30329123 -0.14270464 0.11643196 0.14607675 -0.13396585 0.055866487 -0.13265602 -0.14625429 -0.61381716 0.1010631 0.16764551 0.10785357 -0.087654084 -0.077480644 0.055094585 -0.13254605 -0.070406154 -0.18204337 0.06607628 0.21460102 -0.17093357 0.25011176 -0.28683954 -0.28475133 0.3569754 0.21620879 -0.06058846 -0.110309325 -0.47519687 0.09262303 -0.2642943 -0.052834645 -0.018219342 0.31797504 -0.019030487 -0.21618494 -0.08761185 0.3084372 0.09794063 0.072186306 -0.13889237 -0.049199358 0.027591841 -0.11523358 0.115300186 0.0321362 -0.14081715 -0.3152799 0.078365445 0.05003699 -0.05828741 0.22472413 -0.063716374 -0.33191037 0.35073683 0.09877115 0.33769992 -0.36340225 0.41973513 -0.15841159 0.2056799 0.26634064 -0.024052342 0.4006693 0.121738456 -0.084827155 0.13392447 -0.22027287 0.06678141 -0.1380982 -0.08135715 -0.34198752 0.25534046 -0.06918604 0.09551195 0.11443917 0.32141858 0.39697823 0.10389249 0.30302954 0.13526535 0.020198826 0.021234449 0.35486987 0.2706671 -0.17240864 -0.26690555 0.0211736 0.004815602
다고 0.033528175 0.16791514 0.00481102 0.044129543 0.12454238 -0.41628638 0.061793055 0.42418462 -0.21019381 -0.16724008 -0.027177913 -0.25393823 -0.1325906 0.087812535 0.11774937 -0.12769555 0.05202187 -0.11274856 -0.14004724 -0.5246865 0.09395607 0.14407864 0.095246196 -0.0827157 -0.052139927 0.04254378 -0.12771948 -0.070135884 -0.1461549 0.05624828 0.17822188 -0.13420105 0.21617877 -0.25133228 -0.23206668 0.3098083 0.19764741 -0.040771697 -0.1030335 -0.3981555 0.07236347 -0.22699831 -0.056899995 -0.020799916 0.26653945 -0.02918094 -0.17483139 -0.07071993 0.27511966 0.096389264 0.048812978 -0.13140133 -0.03355409 0.026850704 -0.11286659 0.10079088 0.018193463 -0.119311616 -0.26556665 0.074491814 0.04924914 -0.051897462 0.20669332 -0.055236578 -0.27377123 0.2911082 0.0879544 0.2860793 -0.31954107 0.3597655 -0.12630019 0.19081403 0.22655608 -0.021269541 0.32670888 0.097298175 -0.06939383 0.10267177 -0.18757592 0.0738777 -0.11967926 -0.07588412 -0.28994587 0.20702331 -0.062270686 0.0649767 0.10340143 0.26987216 0.3307337 0.104867026 0.25831097 0.11918363 0.031082815 0.0005959946 0.29869273 0.21998042 -0.13032445 -0.23308104 0.028124794 -0.006109009
수사 0.026924629 0.1492286 0.0050588637 0.0408356 0.12731397 -0.39206338 0.054211646 0.39579907 -0.19905247 -0.16191547 -0.024280174 -0.23898217 -0.1196811 0.08692345 0.10103533 -0.11076603 0.04197652 -0.099496424 -0.1204067 -0.4792433 0.078662686 0.13368714 0.09181805 -0.07117051 -0.058124132 0.03623685 -0.10481131 -0.05546364 -0.12519807 0.0434896 0.16690294 -0.1252014 0.19457518 -0.22142878 -0.22482115 0.2679068 0.17886561 -0.037385695 -0.0817649 -0.369972 0.07978956 -0.19632828 -0.043152217 -0.012023449 0.24766514 -0.015809435 -0.16430698 -0.081001386 0.24213028 0.082545 0.042508762 -0.10645307 -0.027171534 0.017468639 -0.10150903 0.080572955 0.018475277 -0.1060816 -0.24623781 0.058992494 0.042781506 -0.037637617 0.174777 -0.060992897 -0.2513252 0.25957388 0.084870204 0.25687376 -0.2897097 0.31382513 -0.12618083 0.16978344 0.21009858 -0.013590287 0.30342957 0.092219874 -0.057602324 0.09665549 -0.18045577 0.05890599 -0.107982084 -0.065415375 -0.2604805 0.18848255 -0.051914703 0.06441336 0.0990982 0.23928924 0.29321796 0.080306366 0.22336702 0.10908895 0.028172353 0.011653746 0.28884143 0.20394278 -0.121677786 -0.21526836 0.018962596 0.007525812
성 0.025090262 0.16235979 -0.002268693 0.03664128 0.12526464 -0.3970248 0.047897715 0.4018361 -0.20825678 -0.17198646 -0.008510339 -0.24298695 -0.12237589 0.08543627 0.108556576 -0.12266691 0.050450865 -0.09999376 -0.114806 -0.49353868 0.07250936 0.12464762 0.093107805 -0.08108906 -0.06090755 0.030513467 -0.105410166 -0.0677257 -0.14160174 0.046470135 0.1669526 -0.1456362 0.20589116 -0.23898134 -0.22605722 0.27195078 0.16889063 -0.04339431 -0.08339725 -0.3741431 0.08122987 -0.21264619 -0.045902558 -0.02431655 0.24932711 -0.016686702 -0.1678329 -0.082308285 0.25693482 0.089061014 0.043735664 -0.1136695 -0.04038887 0.03619231 -0.09536702 0.09179739 0.019202193 -0.1164562 -0.2432428 0.0601721 0.0473301 -0.044458337 0.17642179 -0.055472072 -0.2603023 0.2717794 0.09073458 0.25718564 -0.29829726 0.33602104 -0.12378881 0.16667658 0.21547343 -0.010584673 0.30799767 0.0890621 -0.06994319 0.10274436 -0.1816471 0.070352554 -0.115804546 -0.06265102 -0.26880473 0.20431973 -0.061966613 0.060267184 0.084806345 0.25116625 0.32062384 0.09317588 0.22936071 0.10474553 0.014018791 0.012714067 0.27888307 0.2130734 -0.12942854 -0.22295277 0.010816211 0.0077849147
국민 0.028108193 0.18317042 -0.00030309826 0.06837748 0.16204348 -0.51027995 0.0627719 0.5156749 -0.26726255 -0.21347362 -0.022644384 -0.31498736 -0.14941797 0.11125446 0.14831546 -0.1426618 0.068275936 -0.1208386 -0.16065973 -0.60848784 0.099354535 0.16196448 0.10316244 -0.09531091 -0.061996136 0.05043393 -0.15051687 -0.07798809 -0.18240538 0.06447639 0.20272505 -0.16569811 0.24456364 -0.30633074 -0.2951593 0.36083725 0.21470585 -0.06577673 -0.11858677 -0.48317918 0.091755316 -0.25995448 -0.05103632 -0.029338134 0.31126472 -0.024306128 -0.2089563 -0.09917283 0.31600004 0.11117148 0.07004339 -0.15545629 -0.036262102 0.024321282 -0.13340794 0.10855955 0.027344149 -0.13597772 -0.315538 0.0881059 0.054617956 -0.064470775 0.22886775 -0.07852366 -0.3351861 0.35848626 0.09319902 0.33724844 -0.36369568 0.4163861 -0.1602031 0.21353327 0.26521218 -0.029176619 0.4033174 0.109377876 -0.08289805 0.13314101 -0.22437125 0.06975641 -0.15269515 -0.077307165 -0.33367956 0.24811625 -0.07846657 0.090369925 0.11807571 0.31436718 0.4030892 0.10560315 0.30471417 0.13093463 0.02835332 0.020529617 0.36268646 0.27338937 -0.16095749 -0.28818873 0.025923526 -0.0034901185
두 0.017031008 0.17545967 0.014136728 0.06302618 0.13965748 -0.4577815 0.05201415 0.46523854 -0.2319796 -0.19868708 -0.017257959 -0.28663087 -0.13576598 0.105191946 0.121054314 -0.13064726 0.058424227 -0.12305261 -0.14448503 -0.55574536 0.0816853 0.1402182 0.10226554 -0.078775115 -0.062143933 0.054463457 -0.13626155 -0.05866302 -0.16589232 0.045518175 0.18257558 -0.15302096 0.22459848 -0.26483065 -0.2618066 0.32621655 0.2106949 -0.063470244 -0.1035826 -0.43990365 0.07815054 -0.23350295 -0.04986911 -0.027848627 0.2871167 -0.032197215 -0.19831905 -0.083547525 0.30016005 0.10331882 0.054331228 -0.13049424 -0.043458596 0.026551485 -0.1181095 0.09735736 0.025955614 -0.13188356 -0.29822373 0.0674767 0.05332341 -0.05391336 0.21999077 -0.054652233 -0.3109077 0.3108053 0.10098329 0.30896753 -0.32951248 0.39254242 -0.12995145 0.19721824 0.24701168 -0.01386626 0.37012255 0.11933437 -0.08046448 0.111527815 -0.19939534 0.07256584 -0.13422059 -0.06653121 -0.30015984 0.21968974 -0.0747684 0.070646614 0.11320255 0.29207653 0.35931078 0.106402345 0.27882686 0.13731715 0.033621114 0.015118939 0.33452553 0.25089043 -0.15051296 -0.2548902 0.0151817445 0.0041572168
코로나 0.020334039 0.21395525 0.001334387 0.059986673 0.16961801 -0.5308203 0.05959463 0.54604286 -0.27977672 -0.22922395 -0.018173601 -0.32472432 -0.15011197 0.10788292 0.14668149 -0.15412723 0.077659436 -0.1452479 -0.16083536 -0.66225386 0.0963183 0.17119129 0.118208855 -0.10634083 -0.07963206 0.05540882 -0.15924864 -0.078997456 -0.1818207 0.060980793 0.22127503 -0.1730532 0.25403368 -0.3285362 -0.29947662 0.38714287 0.22885977 -0.07344556 -0.11932448 -0.5170583 0.102803946 -0.26525342 -0.067363165 -0.036275387 0.34804678 -0.028947067 -0.23035051 -0.10301378 0.33089295 0.10528926 0.06310839 -0.1573882 -0.048372313 0.046362024 -0.12640655 0.12028988 0.016545165 -0.14158288 -0.34578398 0.09586182 0.05777414 -0.06540361 0.25620648 -0.07811123 -0.35811946 0.3676837 0.11567384 0.3600823 -0.38870883 0.44874 -0.1645123 0.2435021 0.27976346 -0.025056623 0.4143791 0.13451284 -0.087801605 0.1322383 -0.23147535 0.07277816 -0.15915474 -0.08259745 -0.36301327 0.27385166 -0.08117142 0.08732867 0.12842883 0.3452245 0.42204973 0.12862232 0.30891234 0.1467859 0.04355795 0.019596638 0.39115745 0.27732658 -0.16999225 -0.2952927 0.037775308 0.00049609726
대하 0.033524744 0.16764884 -0.00021333402 0.05114618 0.14587785 -0.44971853 0.06274381 0.44746554 -0.23984867 -0.17747672 -0.013154261 -0.2763194 -0.13785735 0.09497016 0.12383893 -0.119540386 0.060193386 -0.11433611 -0.1437039 -0.5528757 0.07935759 0.15101221 0.09215704 -0.08832252 -0.069783054 0.052937817 -0.11979657 -0.0672936 -0.15389276 0.04941527 0.19697389 -0.15676974 0.22803943 -0.27156675 -0.2477317 0.32803518 0.20725198 -0.054526243 -0.10164096 -0.4367425 0.09451208 -0.24177629 -0.05748156 -0.01919595 0.28191707 -0.016141206 -0.19997597 -0.0746389 0.28957087 0.085537426 0.06074528 -0.13726848 -0.03418519 0.0374396 -0.12176038 0.10775847 0.027343392 -0.114984944 -0.29320878 0.064365 0.03622948 -0.05003472 0.20650633 -0.05718851 -0.29407838 0.31903133 0.09419536 0.29750672 -0.32746816 0.38014066 -0.14553498 0.18986861 0.24105369 -0.014121127 0.35445532 0.096728995 -0.071631655 0.12291875 -0.19472404 0.07358763 -0.13665962 -0.07675729 -0.30384958 0.21683072 -0.079224065 0.078044385 0.10676224 0.28958303 0.35892183 0.11089386 0.25926247 0.13609362 0.023791779 0.012370673 0.32279974 0.2341806 -0.15077232 -0.25905177 0.03352758 0.0060201245
에게 0.024718283 0.18597315 0.015337346 0.050210223 0.15495901 -0.47381666 0.06354424 0.4817871 -0.25422272 -0.1895484 -0.022069333 -0.29749084 -0.14076294 0.09770009 0.13883083 -0.14295165 0.061872475 -0.118732415 -0.1525209 -0.58746094 0.10114983 0.15436247 0.09845861 -0.091154635 -0.07574704 0.043215036 -0.12855692 -0.067145 -0.17267619 0.056363583 0.20444748 -0.16995317 0.23390858 -0.28641674 -0.28110218 0.33984873 0.21914431 -0.054780822 -0.10294784 -0.45386887 0.08977923 -0.25349352 -0.05451003 -0.020218 0.30410638 -0.02422225 -0.19586073 -0.08599422 0.2964708 0.10669598 0.07014191 -0.14964667 -0.035226986 0.025218224 -0.12045386 0.11259427 0.017568594 -0.13720492 -0.3100598 0.06619296 0.041541383 -0.048585158 0.22605634 -0.074836425 -0.30767575 0.3367576 0.10461146 0.32566476 -0.35814172 0.39655948 -0.14249541 0.21075393 0.2613259 -0.02838966 0.38096562 0.123167254 -0.08418661 0.12977715 -0.20955828 0.07052515 -0.14104232 -0.08584846 -0.32697275 0.24229634 -0.07773352 0.09314348 0.10270612 0.29364392 0.38270622 0.1164923 0.2859731 0.14152855 0.035310574 0.0059572826 0.35580128 0.24545859 -0.16075963 -0.27240735 0.031921674 -0.0029126138
선거 0.030841082 0.18743554 0.005853619 0.050882332 0.14987606 -0.48970923 0.062004883 0.49656832 -0.25328612 -0.19871657 -0.027210115 -0.28517285 -0.1464509 0.09944959 0.13296202 -0.1319324 0.06346206 -0.12677808 -0.16044277 -0.6039656 0.09310826 0.16420697 0.10289797 -0.09157331 -0.06788877 0.050577093 -0.14473757 -0.063926116 -0.17343304 0.061640136 0.19327535 -0.16152044 0.23358205 -0.29413116 -0.27996793 0.3417789 0.21737328 -0.05815674 -0.10301774 -0.4660504 0.0883483 -0.25941128 -0.046985175 -0.022472179 0.31844807 -0.019717433 -0.21283308 -0.0828234 0.30521217 0.10475073 0.058072556 -0.14362092 -0.039827354 0.03148556 -0.12597276 0.10914031 0.025568143 -0.12553911 -0.31571308 0.08281348 0.045374993 -0.068329975 0.22275297 -0.0654049 -0.31528434 0.34533247 0.10802727 0.33012754 -0.36015344 0.4064354 -0.13913867 0.21936487 0.26882318 -0.013736382 0.38642374 0.117560916 -0.085570015 0.13224815 -0.2087246 0.06859529 -0.14258064 -0.07012623 -0.3231485 0.24913584 -0.06758643 0.08378094 0.12163939 0.3145721 0.38431403 0.11100858 0.29846483 0.14278696 0.022971215 0.0083085485 0.35195854 0.26140282 -0.16080484 -0.28169793 0.028135573 0.011176962
단일 0.026735347 0.1707599 0.008784287 0.059568096 0.1469776 -0.42564952 0.052423235 0.4416351 -0.22925156 -0.16987129 -0.02248875 -0.25115645 -0.14010186 0.09104376 0.12895975 -0.1278204 0.054095525 -0.10229875 -0.12428766 -0.5289083 0.07827257 0.14940359 0.08710899 -0.08051748 -0.053553402 0.032956135 -0.12727863 -0.07378552 -0.15159847 0.05471571 0.17027757 -0.15013655 0.22327036 -0.26277414 -0.24238956 0.3093394 0.18898757 -0.05695352 -0.086799555 -0.41278556 0.09093443 -0.2275026 -0.045680556 -0.017098192 0.2734301 -0.01932314 -0.19081667 -0.070585325 0.27460948 0.08623986 0.05971235 -0.11588416 -0.04382562 0.030768182 -0.10386919 0.09448603 0.022136366 -0.107294604 -0.2661125 0.062030416 0.039786242 -0.04260501 0.20154566 -0.0706484 -0.2890197 0.29196784 0.08806062 0.28821823 -0.32025242 0.35641554 -0.12150181 0.19470768 0.23489657 -0.016177174 0.35010394 0.09649791 -0.060345843 0.108839266 -0.20031884 0.056260195 -0.12927505 -0.0618752 -0.28682613 0.2041037 -0.06549427 0.07067363 0.095595434 0.28136033 0.34724733 0.099137984 0.25732175 0.12341878 0.016261749 0.014941306 0.3221704 0.23305951 -0.14050667 -0.24507357 0.02586047 -0.0065795197
19 0.030927055 0.18745998 0.0056638503 0.05426526 0.15439609 -0.4713481 0.062605485 0.4953882 -0.23998237 -0.19480503 -0.023486692 -0.29602185 -0.15175949 0.10097311 0.13614027 -0.12881635 0.06424464 -0.12491127 -0.14562197 -0.58872855 0.09301902 0.1626228 0.11733583 -0.09145954 -0.0729656 0.049737934 -0.12164094 -0.061222058 -0.16886531 0.062806025 0.20936206 -0.17336988 0.24715346 -0.2854392 -0.27821147 0.34153554 0.2225297 -0.0653193 -0.09805682 -0.4606341 0.08097704 -0.24067366 -0.060498517 -0.02114464 0.31066868 -0.0140664745 -0.1956133 -0.09942692 0.30763277 0.08921425 0.060832795 -0.1301032 -0.049244683 0.039091524 -0.12573463 0.099529855 0.03404222 -0.12566395 -0.2942577 0.079667054 0.049120277 -0.053481895 0.21349412 -0.059089746 -0.32214615 0.33543316 0.08945443 0.3174788 -0.34484512 0.39603716 -0.15285572 0.20157531 0.24630503 -0.00884145 0.37076014 0.11082607 -0.08552658 0.11609375 -0.21957186 0.07669971 -0.13384183 -0.072415054 -0.30763006 0.23901525 -0.06258128 0.09197039 0.11241938 0.3038483 0.36848918 0.106273785 0.29008383 0.12485933 0.032243285 0.0033458234 0.35926297 0.2518334 -0.15523839 -0.27188596 0.032835472 -0.006759542
말 0.016382365 0.16858266 0.0035231248 0.04841424 0.13818033 -0.412265 0.060492188 0.4324377 -0.20871173 -0.18138255 -0.013040038 -0.24502744 -0.12804951 0.092899606 0.111159496 -0.122418836 0.065106094 -0.10420976 -0.12757939 -0.51879114 0.08865438 0.13112837 0.08929279 -0.07778615 -0.047771845 0.03423773 -0.113550805 -0.06308129 -0.15374066 0.043031946 0.16499953 -0.13661012 0.20573674 -0.2540087 -0.2385832 0.30185997 0.1973807 -0.060130596 -0.092787154 -0.3993875 0.07631601 -0.21727854 -0.039257027 -0.025135761 0.2736341 -0.02180515 -0.18114053 -0.07137373 0.2741763 0.08798349 0.052047618 -0.11693675 -0.04098721 0.033243474 -0.10447291 0.08939353 0.027461741 -0.11784386 -0.26363486 0.060206763 0.044856012 -0.046502266 0.20063187 -0.06614034 -0.28410935 0.29651383 0.087567106 0.27830413 -0.31205466 0.349242 -0.13653475 0.18377404 0.2203601 -0.01712566 0.3348286 0.1017205 -0.07276259 0.10739521 -0.19355261 0.061232746 -0.12074006 -0.05913184 -0.2873698 0.20984375 -0.05747149 0.08364723 0.102510415 0.25651708 0.33459094 0.10392932 0.25222948 0.120696574 0.024719635 0.013986723 0.30872196 0.23052216 -0.14268143 -0.24217227 0.029900867 -0.005051645
검찰 0.022391416 0.1581179 0.0051879804 0.042293683 0.12944764 -0.4136176 0.052511483 0.40657398 -0.21326938 -0.16264196 -0.016429726 -0.24165657 -0.12062857 0.078889824 0.122092664 -0.11968839 0.051462993 -0.09380116 -0.12635452 -0.4932266 0.081809975 0.13343371 0.09867049 -0.066972256 -0.056867246 0.03659521 -0.10886644 -0.069514096 -0.13290197 0.05003407 0.17412616 -0.1353769 0.20066391 -0.24116825 -0.23664291 0.29660845 0.18645504 -0.04473257 -0.09537717 -0.394794 0.08449368 -0.20744888 -0.05007081 -0.031370472 0.2523186 -0.01969436 -0.18271835 -0.076291926 0.26164123 0.07469813 0.051011495 -0.12613209 -0.040325355 0.025857488 -0.11210969 0.088132575 0.013383756 -0.117377676 -0.25593457 0.06643926 0.05006896 -0.04109646 0.18236695 -0.06506034 -0.261064 0.28568512 0.08919763 0.2655086 -0.30257854 0.33509448 -0.13147779 0.18266682 0.21478826 -0.0081298435 0.31435385 0.10570113 -0.068301596 0.11238652 -0.18742813 0.056019172 -0.11107537 -0.07667537 -0.28015482 0.20607728 -0.0725511 0.07564738 0.098560736 0.24995294 0.32260558 0.093433134 0.24935324 0.11663756 0.019453736 0.0073287277 0.30169976 0.2080845 -0.12511668 -0.23048924 0.016641703 -0.0022605937
않 0.022978123 0.1256096 0.009048581 0.03583403 0.12192208 -0.35402378 0.03628038 0.35883188 -0.16991377 -0.14147753 -0.017960023 -0.20850219 -0.113705084 0.07233976 0.09197533 -0.097919695 0.040046506 -0.09484877 -0.116738774 -0.42430675 0.07144514 0.12128354 0.08171741 -0.061567467 -0.043926142 0.038368214 -0.103227265 -0.050213613 -0.12175047 0.04566371 0.13905123 -0.12112002 0.1783168 -0.2138886 -0.20922841 0.25367635 0.15601994 -0.0405355 -0.08343853 -0.32418236 0.06724138 -0.18009005 -0.039187007 -0.018551344 0.22675379 -0.02791331 -0.14767005 -0.07108976 0.2340409 0.077999875 0.038184594 -0.10521332 -0.036928456 0.0343887 -0.07822732 0.08278997 0.028163778 -0.099738024 -0.21988918 0.05084772 0.026838101 -0.04754381 0.16327104 -0.05357357 -0.2370028 0.24323043 0.07064079 0.22245122 -0.24930105 0.2942792 -0.11539521 0.15196835 0.18072827 -0.0076101334 0.27563342 0.09017826 -0.049874805 0.08602572 -0.16537504 0.047908496 -0.09328208 -0.058191285 -0.23475882 0.17388573 -0.06307214 0.06623406 0.07172336 0.23120567 0.2685652 0.08791505 0.20486541 0.09614549 0.018975899 0.0088805305 0.25748006 0.18747213 -0.11731547 -0.18840049 0.012599668 -0.0063831555
년 0.014953945 0.15915383 0.0034548896 0.041252982 0.13042492 -0.39855278 0.053264614 0.40838945 -0.19467261 -0.16478416 -0.014539375 -0.23339108 -0.106334865 0.08270335 0.10966111 -0.117114894 0.04868148 -0.09795116 -0.12067011 -0.4874309 0.08202617 0.12145793 0.084552445 -0.0836039 -0.04669502 0.04228513 -0.111880295 -0.049583744 -0.13581428 0.03491553 0.15553507 -0.13906062 0.18834749 -0.22662236 -0.2198085 0.28035423 0.17552336 -0.054386243 -0.080072284 -0.3792067 0.07125174 -0.2096281 -0.04680468 -0.031401776 0.25222126 -0.028220356 -0.16059566 -0.08113403 0.2454886 0.08191694 0.040659875 -0.11046083 -0.039868087 0.027705407 -0.09022752 0.09226318 0.01905109 -0.09835973 -0.2503061 0.06838159 0.046141334 -0.056408547 0.18633407 -0.06361306 -0.26267672 0.2804875 0.07703575 0.25547755 -0.28489143 0.3362811 -0.11285291 0.16493814 0.21924926 -0.009453192 0.30452177 0.09213612 -0.063166924 0.09111151 -0.17843057 0.07124059 -0.117369644 -0.071824476 -0.26813266 0.18527076 -0.058499586 0.074884824 0.091016844 0.2447575 0.3202543 0.079847395 0.22809753 0.10048922 0.03378349 0.007984319 0.2807245 0.1996503 -0.12250266 -0.22289664 0.015795723 0.0046238
힘 0.014412559 0.16150516 0.012819053 0.042264517 0.122518025 -0.39295545 0.038537968 0.40517423 -0.19786529 -0.15574494 -0.026586222 -0.23948255 -0.12544714 0.09151261 0.12008053 -0.11455943 0.043986607 -0.093804635 -0.12340512 -0.48197123 0.07100326 0.12672415 0.08623715 -0.067165084 -0.06277908 0.03403458 -0.11320531 -0.06136795 -0.13205464 0.045988396 0.16161233 -0.14361681 0.18639338 -0.23302928 -0.22680242 0.2704028 0.18323459 -0.03943521 -0.08066402 -0.37886626 0.076085486 -0.19806784 -0.05236666 -0.029577201 0.24077356 -0.015937762 -0.17844163 -0.071686074 0.26127598 0.0849815 0.03982509 -0.106876366 -0.028194826 0.018452795 -0.09311978 0.098847866 0.026618449 -0.11113897 -0.24329074 0.059159465 0.031739008 -0.044161588 0.17946717 -0.057061713 -0.26853278 0.26534286 0.07755929 0.26398432 -0.28807637 0.3387435 -0.11617217 0.16182387 0.20375307 -0.018791411 0.30900833 0.08660837 -0.052884612 0.10543135 -0.18407708 0.06635556 -0.117484495 -0.07124446 -0.26464513 0.2044096 -0.06688568 0.0648864 0.088985756 0.25424534 0.3176194 0.081525326 0.22457092 0.11031028 0.027573012 0.014158881 0.29093897 0.20920905 -0.13179252 -0.21666713 0.02018813 0.006070186
습니다 0.018273702 0.124428466 -0.00032101342 0.036981408 0.09737361 -0.30238006 0.047783077 0.30691025 -0.14704467 -0.12357805 -0.003065588 -0.17588349 -0.09009604 0.06863548 0.08725338 -0.077137336 0.041014038 -0.072902426 -0.09579178 -0.36904642 0.04903633 0.09289834 0.065144494 -0.054106243 -0.04139648 0.029781315 -0.07728815 -0.05007955 -0.097265474 0.041279387 0.1309427 -0.10019857 0.14685974 -0.17534849 -0.1779323 0.20375077 0.13441607 -0.034908336 -0.061034754 -0.287959 0.060880996 -0.15744606 -0.027169328 -0.019887425 0.18373151 -0.01362964 -0.12722276 -0.058202144 0.18646057 0.06947504 0.027761633 -0.08301311 -0.030008467 0.030574908 -0.0701377 0.07043398 0.012507766 -0.081499726 -0.19412357 0.044764504 0.0365583 -0.045807946 0.14266945 -0.03694694 -0.18960865 0.20199792 0.06588905 0.18687475 -0.21762612 0.25644842 -0.08571048 0.124840684 0.1568957 -0.02060759 0.23488374 0.0752514 -0.054681987 0.0814483 -0.1370544 0.051481534 -0.08117182 -0.04570808 -0.1999435 0.13829121 -0.051112086 0.05159455 0.058057316 0.19731268 0.2379215 0.066697456 0.18447582 0.08003305 0.01908633 0.0075075664 0.22437032 0.1595755 -0.10081586 -0.1701672 0.0079559935 0.0060560154
아야 0.027056403 0.15313567 0.012186413 0.033670165 0.12878785 -0.38259417 0.04821824 0.38101795 -0.18508583 -0.16327132 -0.013378847 -0.23393312 -0.11183073 0.08958383 0.09484018 -0.09742338 0.04033422 -0.08679189 -0.12610349 -0.46703744 0.065654255 0.12624086 0.08265771 -0.0710989 -0.06134261 0.046755522 -0.10265601 -0.060041245 -0.13442886 0.051473457 0.16044475 -0.13808358 0.19016634 -0.22908431 -0.21287288 0.27405742 0.16644478 -0.04405054 -0.07627374 -0.36264047 0.07436738 -0.19078201 -0.051254217 -0.02471447 0.24469298 -0.017459655 -0.15071741 -0.071522936 0.24874942 0.07009046 0.05188367 -0.11959747 -0.030494677 0.034816906 -0.096182846 0.093771756 0.009328406 -0.10165511 -0.23445997 0.054778107 0.046010155 -0.05379432 0.17465805 -0.042201962 -0.2409457 0.26026362 0.08686494 0.23822768 -0.2789353 0.31728598 -0.11654833 0.1699261 0.21049 -0.020679502 0.29383546 0.09844838 -0.06626555 0.087037764 -0.16794537 0.049618006 -0.109541714 -0.058665566 -0.25929987 0.18584527 -0.06307396 0.06298988 0.088442326 0.24135801 0.29410213 0.09369869 0.22263189 0.11304379 0.025319837 0.01300433 0.2832817 0.19390553 -0.124249205 -0.21411881 0.024864925 -0.0063235885
못하 0.015022836 0.12612566 0.0016766118 0.03845828 0.097636804 -0.3016373 0.038141333 0.30032492 -0.14671382 -0.11899355 -0.023278136 -0.19144943 -0.088851325 0.06733668 0.081246175 -0.078452334 0.03159677 -0.07899085 -0.08816434 -0.37405962 0.054791514 0.10710603 0.0761453 -0.06141818 -0.049486913 0.028714266 -0.076767534 -0.047566853 -0.10118535 0.03312248 0.13088045 -0.10608632 0.15783527 -0.17276345 -0.18239896 0.22240709 0.1292605 -0.04523629 -0.062026944 -0.2872242 0.0629133 -0.1676755 -0.025948148 -0.025278836 0.18572359 -0.015325047 -0.13477513 -0.05465205 0.1897831 0.0573586 0.04453078 -0.09171226 -0.020855675 0.018401423 -0.07686964 0.073387444 0.023001036 -0.08459037 -0.2036594 0.045513228 0.037781224 -0.030822609 0.13582169 -0.038299307 -0.1920712 0.20242053 0.06208531 0.20154357 -0.22868153 0.25008643 -0.08642989 0.12858264 0.15880953 -0.010209687 0.24983418 0.07967006 -0.05282059 0.074895285 -0.12628394 0.04731697 -0.09466117 -0.05819949 -0.20950818 0.15604295 -0.04542834 0.04623833 0.07662543 0.19090879 0.23968346 0.06485409 0.18349853 0.08578633 0.020946411 0.0025946016 0.21802968 0.16083467 -0.105368055 -0.1715226 0.025250372 0.0031353792
다는 0.0284559 0.15765215 0.007737084 0.04599316 0.13467067 -0.38994983 0.043005586 0.40997168 -0.2081698 -0.16350052 -0.026482126 -0.24971601 -0.12166994 0.09141057 0.11110976 -0.11438694 0.046990708 -0.09311444 -0.11542995 -0.47822794 0.077479705 0.11842911 0.09862278 -0.07704059 -0.05302029 0.043836065 -0.1011066 -0.06014871 -0.1431633 0.044978548 0.16813079 -0.13554208 0.19541971 -0.22620061 -0.22439991 0.27591336 0.1865718 -0.054072898 -0.090629935 -0.37127468 0.0691154 -0.1989252 -0.051132474 -0.03126559 0.2410782 -0.018140037 -0.16310248 -0.06695592 0.25607625 0.08743692 0.04946233 -0.12452082 -0.02533886 0.020119144 -0.09259575 0.08891195 0.019140294 -0.11002904 -0.2436401 0.055926986 0.04208922 -0.048047163 0.1861842 -0.060869515 -0.27123567 0.2651745 0.07625874 0.26228094 -0.2969641 0.34058413 -0.11752502 0.16578628 0.2086603 -0.022505902 0.30331674 0.09441621 -0.063423075 0.1099645 -0.17257005 0.060622863 -0.1068357 -0.070929095 -0.2745221 0.19854668 -0.067474216 0.06514997 0.09410032 0.24278814 0.3102418 0.09242706 0.23592427 0.1097664 0.02285466 0.018346451 0.2916848 0.2069297 -0.13610284 -0.22889356 0.019549688 -0.0028704652
% 0.016044777 0.17576593 0.0018686831 0.048654545 0.14295682 -0.4561371 0.06588103 0.46776354 -0.22443773 -0.18210532 -0.015098383 -0.27471057 -0.13137323 0.099262714 0.1353171 -0.13793272 0.062080573 -0.11101631 -0.13277505 -0.56458694 0.09912973 0.15182161 0.09730321 -0.07798074 -0.06742144 0.051617414 -0.13651222 -0.07215733 -0.1540922 0.05126949 0.18232796 -0.15705258 0.21842855 -0.26610318 -0.2519071 0.32153362 0.2102534 -0.05763238 -0.096190244 -0.4317025 0.07746897 -0.23548561 -0.057429723 -0.017297667 0.28277582 -0.014693581 -0.19465922 -0.078165025 0.29673925 0.10562745 0.057559617 -0.13292862 -0.03845947 0.02933004 -0.11621563 0.10794074 0.033159044 -0.11514966 -0.2870223 0.07836209 0.045407586 -0.05366419 0.20919558 -0.06988805 -0.3108749 0.31961486 0.08525409 0.3108271 -0.34079382 0.38167623 -0.1457887 0.20578247 0.2520828 -0.018191522 0.35885435 0.102871716 -0.07834182 0.12590274 -0.21255 0.07543155 -0.12924832 -0.063397154 -0.3039167 0.22949502 -0.06687069 0.08507792 0.09553249 0.28414762 0.36086175 0.103474155 0.2744311 0.12553898 0.025685187 0.0152044585 0.3357298 0.2505408 -0.14134096 -0.2543604 0.026094642 -0.009597858
전 0.025196755 0.13397068 0.009029814 0.042450067 0.122330084 -0.34905088 0.05478963 0.3632889 -0.18775861 -0.15250818 -0.023775509 -0.21382092 -0.09782553 0.0853094 0.096393846 -0.101442024 0.04061368 -0.08271296 -0.105015725 -0.43585843 0.079605855 0.105736695 0.071292326 -0.05828705 -0.04389876 0.025636958 -0.09217035 -0.05726773 -0.12368114 0.044183083 0.13880482 -0.1151753 0.17137137 -0.21776633 -0.1972605 0.25969756 0.16697876 -0.038618337 -0.07674357 -0.34725308 0.06608276 -0.1857663 -0.037728496 -0.012381568 0.23315747 -0.019553563 -0.15786508 -0.058971323 0.2365901 0.06819726 0.048441578 -0.0977044 -0.0321249 0.028367827 -0.095722966 0.071125634 0.011437954 -0.104358196 -0.2350242 0.061364647 0.0298723 -0.037052855 0.16848485 -0.051492944 -0.24613307 0.24162294 0.0753085 0.24582632 -0.2639791 0.30518845 -0.11182893 0.1653961 0.19028641 -0.022026373 0.28492686 0.084597744 -0.048969552 0.08285638 -0.1574675 0.05930593 -0.0960395 -0.059555683 -0.24247013 0.16853148 -0.050474416 0.055342898 0.08887946 0.23373722 0.288089 0.08845189 0.20540704 0.109245844 0.014237527 0.017394379 0.25583646 0.1893347 -0.11872846 -0.19884561 0.027034268 0.0024039217
라고 0.006335906 0.11129739 0.0086209625 0.025859512 0.093035065 -0.2736097 0.040311854 0.27538064 -0.13371204 -0.10639806 -0.015270017 -0.17484027 -0.08171431 0.06278639 0.06719522 -0.08584019 0.037389446 -0.06688626 -0.08978819 -0.34111455 0.06291179 0.09774352 0.05327902 -0.05994438 -0.037025787 0.022651736 -0.07700166 -0.046234418 -0.10375097 0.026289633 0.11656607 -0.08932681 0.12714973 -0.17140037 -0.16296193 0.19690892 0.11425308 -0.032247826 -0.05128941 -0.2687909 0.048655733 -0.13235396 -0.023962582 -0.015868513 0.16847979 -0.023543468 -0.12195292 -0.050013803 0.18288496 0.054809302 0.04363492 -0.088584326 -0.01912641 0.02450186 -0.07295445 0.07073855 0.006777688 -0.07076456 -0.18351659 0.0425583 0.025979536 -0.027582966 0.13208632 -0.04756426 -0.18386254 0.18319064 0.04802396 0.18213566 -0.19229876 0.22324546 -0.074111745 0.12245275 0.13988058 -0.012432066 0.21920262 0.071684286 -0.04346149 0.07959157 -0.12688649 0.03389424 -0.0886943 -0.03926849 -0.18831393 0.12674421 -0.048920114 0.048803966 0.07150093 0.16989093 0.21967682 0.061939403 0.17271474 0.08136448 0.0087327305 -0.0030128777 0.1948605 0.14721774 -0.08587021 -0.14489718 0.01843669 0.009208952
의혹 0.021890257 0.11934841 0.009534332 0.038400758 0.09897826 -0.31322533 0.030909436 0.3056621 -0.16430303 -0.11624442 -0.022462748 -0.1954572 -0.08860566 0.07565389 0.0910516 -0.09225048 0.0474462 -0.07613305 -0.09958714 -0.3817024 0.058310367 0.09043405 0.070378944 -0.050498948 -0.04590371 0.0330919 -0.08035689 -0.038247954 -0.11398653 0.03808199 0.12593473 -0.10046979 0.15025336 -0.19116189 -0.17486711 0.20734724 0.14566442 -0.04477222 -0.06852953 -0.28481442 0.05223112 -0.16801238 -0.039150868 -0.025157433 0.201191 -0.023803918 -0.13639234 -0.06675082 0.20581324 0.060530968 0.03288117 -0.088663094 -0.027294012 0.029414326 -0.07926177 0.062296055 0.010221038 -0.09262235 -0.18520902 0.05800769 0.033540685 -0.045200676 0.1410496 -0.03740147 -0.2092304 0.22097144 0.06957471 0.20115735 -0.2319255 0.26642022 -0.09298879 0.13005722 0.16784409 -0.020059507 0.2336697 0.07965889 -0.04798243 0.0819979 -0.12745264 0.0440033 -0.09480724 -0.059719574 -0.19785681 0.14774492 -0.041467905 0.055968385 0.06398521 0.19588283 0.2519148 0.06532313 0.18272893 0.08435934 0.025157351 0.0039586206 0.21927379 0.15413798 -0.105073765 -0.1690146 0.015266445 0.0026031157
주 0.028939078 0.14173086 0.01180926 0.047222607 0.11586039 -0.34835643 0.04423931 0.358465 -0.18526016 -0.14001454 -0.019586356 -0.20289616 -0.096687935 0.071075454 0.098356284 -0.10391696 0.036530696 -0.08738773 -0.10781261 -0.43352914 0.069943964 0.11319392 0.0691897 -0.068066984 -0.049904298 0.038305502 -0.09124017 -0.045112494 -0.120160915 0.03167605 0.14538063 -0.10888758 0.18172929 -0.20091006 -0.19633633 0.25150692 0.15138571 -0.046603773 -0.07689655 -0.33589584 0.07198919 -0.17267415 -0.04078526 -0.028907197 0.21575812 -0.02547027 -0.1566335 -0.06255974 0.22532019 0.06694927 0.03634534 -0.1021815 -0.030186838 0.024652345 -0.078730404 0.077404894 0.00739704 -0.08830114 -0.21310219 0.04886572 0.043233726 -0.03744851 0.16066691 -0.049676403 -0.22498634 0.24788034 0.07922195 0.2237559 -0.25433233 0.28595567 -0.11493075 0.14779826 0.18416497 -0.021026636 0.2775525 0.07915884 -0.05537431 0.08686541 -0.15366498 0.060141727 -0.09132242 -0.05233787 -0.23777992 0.17845994 -0.049064968 0.06238135 0.089834854 0.21577261 0.28108084 0.07177721 0.21076648 0.10718205 0.012797581 0.0113343345 0.2588732 0.17835815 -0.12245939 -0.19835867 0.023035765 0.0020550874
