760 100
하 -0.12963267 0.20332406 -0.02054969 0.12570877 0.09932874 -0.7504025 0.11026674 1.0439438 -0.22107317 -0.28632346 -0.17636478 -0.5142849 0.00044626385 0.26845348 0.20433725 -0.15106547 0.28504702 -0.2361177 -0.2482721 -1.0058988 0.29601252 0.25630522 0.41707894 -0.34960282 -0.13162097 -0.26465037 -0.7157201 -0.26744938 -0.32443774 0.18930262 0.39752373 -0.0798686 0.36489123 -0.6101985 -0.26324284 0.5431665 0.0191853 -0.25129265 -0.38735855 -0.67234415 0.12664022 -0.42147502 -0.38739985 -0.015751032 0.10779111 -0.19706705 -0.31185386 0.010871794 0.20367673 0.3637423 0.23497906 -0.44320506 -0.19602376 -0.15404287 -0.16828321 0.31534424 0.33688736 -0.16900809 -0.3430037 -0.106835045 -0.04828205 -0.06287543 0.06593921 0.11192758 -0.5212948 0.5961701 0.27157 0.49497044 -0.63701165 0.25033405 -0.0051497114 0.18970846 0.49074244 0.30208632 0.52794844 -0.14778568 0.12478093 0.028465742 -0.5400977 0.14103313 -0.3642586 -0.030332973 -0.48446235 0.6520416 -0.2506588 -0.12437925 0.16577776 0.5454935 0.5870129 0.1129624 0.92121667 0.23909847 -0.25470454 0.21410616 0.9499356 0.64314896 0.06848992 -0.37845644 0.20456944 -0.38686055
이 -0.14851812 0.22044216 -0.019810742 0.12958205 0.12714033 -0.80391484 0.11120489 1.1177143 -0.23536113 -0.30804592 -0.19818245 -0.5595382 0.004311235 0.2896144 0.23057237 -0.15310746 0.30896252 -0.24826202 -0.2612012 -1.0675082 0.3094708 0.2579978 0.44615895 -0.3909879 -0.14463598 -0.2802296 -0.7716746 -0.28680128 -0.34247145 0.21155126 0.44991368 -0.09357201 0.37885168 -0.65238386 -0.2762554 0.58812183 0.019856982 -0.25710827 -0.40831453 -0.70705444 0.1573284 -0.46929944 -0.4139075 -0.01227253 0.1111303 -0.20347321 -0.31987146 0.0025088163 0.21046123 0.38112745 0.27208942 -0.49496397 -0.20663872 -0.15778215 -0.1949136 0.3543836 0.3661817 -0.16829026 -0.36902112 -0.12090578 -0.06246263 -0.061690103 0.072833516 0.124651805 -0.5583862 0.6461494 0.3037542 0.51842743 -0.675074 0.27592072 -0.016829351 0.18852115 0.5375431 0.34423122 0.56245357 -0.16754831 0.1163699 0.029819544 -0.5738766 0.15777713 -0.40212464 -0.033606578 -0.52523845 0.68699163 -0.26039076 -0.13594703 0.1638818 0.58131933 0.6407915 0.10960627 0.99074095 0.25839555 -0.27739677 0.22177638 1.004279 0.69177765 0.09260946 -0.40185338 0.21130776 -0.41976604
. -0.13019307 0.20994264 -0.03659384 0.1169763 0.122112304 -0.7529657 0.099590465 1.0640808 -0.23032677 -0.2822331 -0.19630723 -0.5318618 0.019570097 0.2705829 0.22366881 -0.15950954 0.29391128 -0.22818534 -0.2524374 -1.0222383 0.28805465 0.24981046 0.41011307 -0.3719608 -0.13167189 -0.27592576 -0.7168592 -0.27492183 -0.33366522 0.2034577 0.42273214 -0.0931546 0.3521886 -0.62489486 -0.28008726 0.5546934 0.0109258965 -0.24488987 -0.39408916 -0.68613577 0.1315804 -0.43456945 -0.38807386 -0.0054587 0.11606373 -0.19563915 -0.30566823 0.00032584104 0.19302222 0.35924166 0.24843502 -0.46191993 -0.20482989 -0.16513285 -0.18933184 0.31933337 0.33475715 -0.17641248 -0.35498616 -0.12250983 -0.04357909 -0.06648889 0.08176744 0.12485622 -0.54333156 0.619338 0.28429124 0.50368434 -0.6514978 0.25712502 -0.005774761 0.19105911 0.50885016 0.3224877 0.5270815 -0.14282104 0.13249226 0.03096315 -0.55453515 0.15444653 -0.36650613 -0.046773616 -0.5056062 0.6548495 -0.24518058 -0.13512932 0.14769681 0.54883075 0.6126321 0.10761768 0.93177086 0.25146756 -0.25372693 0.21174857 0.9662627 0.6603509 0.084579274 -0.37810656 0.2176122 -0.40926954
다 -0.13024577 0.2015226 -0.023751114 0.10580453 0.11388456 -0.7166924 0.10020827 0.9952857 -0.19980188 -0.27648583 -0.1646986 -0.48514587 0.013477596 0.24491867 0.2135236 -0.1431507 0.2794565 -0.23391429 -0.2357225 -0.9405513 0.27893478 0.2342772 0.4000414 -0.32189032 -0.14887846 -0.24706234 -0.6737323 -0.25592202 -0.30075604 0.18183225 0.39211267 -0.08260772 0.32933375 -0.5731797 -0.24280992 0.5309301 0.022232288 -0.24366133 -0.38392666 -0.6244965 0.13337654 -0.40019342 -0.3507126 -0.014795686 0.109139554 -0.18501852 -0.28738308 -0.0038211124 0.18207361 0.33293796 0.23730832 -0.4258055 -0.19275546 -0.15614274 -0.17651947 0.30601537 0.3198618 -0.14374037 -0.31454763 -0.11968812 -0.045980632 -0.05195219 0.07663362 0.11365197 -0.4923657 0.55948323 0.25738123 0.47322172 -0.6052793 0.22656931 -0.0036855629 0.1673651 0.466783 0.30927637 0.4940395 -0.14532237 0.102912486 0.03994598 -0.52083117 0.14801146 -0.35551128 -0.023673378 -0.4619645 0.61684203 -0.23610827 -0.1210658 0.15711647 0.5284164 0.56261355 0.08953085 0.8668579 0.2268555 -0.24859193 0.20256801 0.9024644 0.6048164 0.081166334 -0.3626989 0.19087154 -0.37889454
을 -0.14877555 0.21963914 -0.033118144 0.12448695 0.12517753 -0.8067091 0.11167784 1.1299313 -0.24151367 -0.2977942 -0.20894587 -0.5554904 0.0026171866 0.2895563 0.2242102 -0.16647774 0.3007999 -0.2561572 -0.255043 -1.0931809 0.31326282 0.2641053 0.45515057 -0.3752873 -0.1542927 -0.28567952 -0.7780356 -0.2902336 -0.35595268 0.2111919 0.45329598 -0.085524805 0.38864455 -0.66576487 -0.27662814 0.58653975 0.008093471 -0.2649526 -0.4257279 -0.7277951 0.15068291 -0.4727053 -0.42036545 -0.0057910183 0.123360634 -0.22425325 -0.32935852 0.0027937773 0.2176186 0.37623125 0.27201754 -0.48259953 -0.20094165 -0.1713517 -0.1948052 0.3395548 0.35212785 -0.18845199 -0.37373447 -0.1352899 -0.04739081 -0.07432097 0.080958635 0.13283537 -0.5768563 0.6457923 0.30764815 0.5412627 -0.6966846 0.28160393 -0.021726076 0.20427643 0.53251314 0.3457331 0.57474595 -0.15796426 0.1253319 0.039353687 -0.5790724 0.15438098 -0.40436542 -0.04605806 -0.53556037 0.7012508 -0.27414054 -0.14307944 0.17388579 0.60098183 0.63364655 0.111224115 1.0008987 0.2589407 -0.27678585 0.22780374 1.0236946 0.68536925 0.0924543 -0.39525068 0.22328052 -0.42702374
ㄴ -0.15671302 0.22832447 -0.026452752 0.12101053 0.113868564 -0.83773774 0.11817585 1.1629484 -0.25104973 -0.32259318 -0.2129671 -0.5780184 0.004539445 0.28679848 0.23435952 -0.17455645 0.30725768 -0.27439547 -0.27060866 -1.1172659 0.3109242 0.27800724 0.4685339 -0.39372638 -0.1634281 -0.30056232 -0.8005933 -0.31573686 -0.353463 0.2232743 0.46374652 -0.098255634 0.392474 -0.68186826 -0.29443347 0.6173743 0.017917495 -0.2713461 -0.4325734 -0.75255173 0.16420749 -0.48620984 -0.42829987 -0.017344031 0.11791895 -0.22812597 -0.33978745 0.011193062 0.21763232 0.3934363 0.2766923 -0.50843215 -0.20823422 -0.16007854 -0.21136607 0.359325 0.38280612 -0.19268951 -0.38955057 -0.14012152 -0.04508941 -0.070635036 0.08918408 0.12676091 -0.5839975 0.6670813 0.30561158 0.5475088 -0.7176684 0.26760942 -0.012887245 0.21047702 0.5609401 0.3605313 0.58614093 -0.16101776 0.120407924 0.03508303 -0.60299176 0.17398061 -0.39738613 -0.044838063 -0.5461792 0.7140527 -0.27518693 -0.14782436 0.16408247 0.6281986 0.6621234 0.1240828 1.0384974 0.28041843 -0.30311787 0.23545353 1.0616945 0.7227594 0.08737562 -0.42292842 0.23495585 -0.45110264
는 -0.1294342 0.21084896 -0.026958896 0.12398086 0.117979504 -0.79968673 0.113247916 1.1107643 -0.23663497 -0.30243257 -0.1918577 -0.5502045 0.0106687825 0.2930112 0.22012374 -0.15938035 0.31036457 -0.24885076 -0.25603917 -1.077897 0.30880636 0.26311007 0.44869807 -0.38151318 -0.1495774 -0.2788416 -0.76715916 -0.29973137 -0.34067124 0.20463602 0.4459272 -0.07755672 0.37891728 -0.6416137 -0.28654468 0.58460325 0.00255048 -0.2740798 -0.42433262 -0.7267763 0.15468709 -0.46499366 -0.39489332 -0.020675637 0.11737331 -0.20327847 -0.33444223 -0.007975008 0.2050629 0.3756255 0.2616497 -0.48979595 -0.21434714 -0.15825585 -0.19922312 0.33289343 0.35227084 -0.1838016 -0.37418717 -0.13507688 -0.05149341 -0.07113685 0.082468465 0.13191608 -0.564563 0.64398545 0.2854292 0.51609164 -0.6871464 0.26268625 -0.01630927 0.20147674 0.5256342 0.34160566 0.5681884 -0.16708004 0.12956649 0.03475921 -0.57891434 0.1687766 -0.3830235 -0.041988693 -0.53667396 0.6943546 -0.26388994 -0.13957356 0.17218445 0.58606285 0.6291991 0.11615362 0.9818141 0.25924492 -0.2826259 0.22746567 1.0028286 0.6863962 0.09445277 -0.40248618 0.21869543 -0.4186903
의 -0.12994985 0.20830527 -0.011048969 0.1296013 0.112258755 -0.79524666 0.11094249 1.097746 -0.23863363 -0.30666274 -0.20249578 -0.54893154 0.016569603 0.2787801 0.22423866 -0.15795192 0.3004075 -0.26013407 -0.26577875 -1.0777261 0.30272952 0.27071002 0.4404463 -0.3943587 -0.15904668 -0.27376753 -0.77209765 -0.2806559 -0.35061345 0.21589933 0.43158275 -0.08064438 0.38015285 -0.65090734 -0.28720033 0.58293974 0.0023751487 -0.26850054 -0.42978832 -0.7092416 0.15798537 -0.46337107 -0.4019432 -0.010042156 0.12284045 -0.22053577 -0.33444104 -0.00048279116 0.21677597 0.37728617 0.2518575 -0.48194847 -0.19316873 -0.16934662 -0.19920388 0.35123056 0.33904636 -0.16804804 -0.36786112 -0.119299255 -0.04529582 -0.07082241 0.068895355 0.13900809 -0.5571072 0.6416533 0.28873283 0.53247386 -0.68167144 0.26167977 -0.010904304 0.19742686 0.5331447 0.3335199 0.55996245 -0.15754765 0.13128626 0.025026085 -0.5709494 0.1515446 -0.39664042 -0.035752352 -0.5446979 0.698652 -0.26215824 -0.13548219 0.17181714 0.60344917 0.64349717 0.11254531 0.9896155 0.2556178 -0.28781703 0.23142135 0.99927723 0.6832846 0.08614813 -0.40104854 0.22743082 -0.4276482
에 -0.15248728 0.22869702 -0.019659927 0.13547735 0.12807989 -0.8144013 0.11993201 1.1261219 -0.24642135 -0.30324733 -0.1970561 -0.5666844 0.022135051 0.28485456 0.240938 -0.1602679 0.2979833 -0.2643687 -0.2690354 -1.0936588 0.31583014 0.2820996 0.46021768 -0.39665103 -0.15142097 -0.28551224 -0.7847856 -0.3102085 -0.34552434 0.20286103 0.45393723 -0.09207733 0.3953266 -0.6455663 -0.28478506 0.59841025 0.0077058305 -0.26255536 -0.42338958 -0.7390038 0.14975943 -0.46382862 -0.41022015 -0.015954632 0.11407613 -0.22125359 -0.33163223 0.008186979 0.20916556 0.38202986 0.2687421 -0.48923162 -0.2118166 -0.17038882 -0.19236296 0.34929103 0.36541593 -0.17599636 -0.36714765 -0.13665983 -0.05790469 -0.071764275 0.08700535 0.13092922 -0.58398515 0.6465952 0.2947947 0.538744 -0.7038997 0.27556995 -0.025751997 0.1995461 0.54446447 0.35289377 0.5643674 -0.17058949 0.11895587 0.023704974 -0.59888375 0.16531134 -0.39591008 -0.04371695 -0.5322158 0.7081215 -0.26320976 -0.13246004 0.16695231 0.59683645 0.6466036 0.12154651 0.99880576 0.26659116 -0.2832648 0.23235837 1.0373311 0.7078113 0.09087344 -0.39732367 0.23112893 -0.4386718
를 -0.14564173 0.21084829 -0.03306405 0.13416183 0.117931046 -0.8164159 0.10658562 1.1290393 -0.2402446 -0.30818424 -0.2016762 -0.5627102 0.008295639 0.28706834 0.22564384 -0.15342999 0.30635482 -0.27259302 -0.25261995 -1.088015 0.31238985 0.2774975 0.44119796 -0.3867841 -0.1438097 -0.28919205 -0.78470314 -0.28674343 -0.34766147 0.20471501 0.45351088 -0.08305353 0.3909144 -0.6431114 -0.29327926 0.5954556 0.012150874 -0.26422518 -0.42183515 -0.7206705 0.15304932 -0.45649365 -0.41165423 -0.019171199 0.116365634 -0.2146032 -0.3321825 0.007967578 0.21720494 0.39134988 0.26790714 -0.4782255 -0.21080887 -0.15764461 -0.18927447 0.33801913 0.3568273 -0.18197046 -0.3649568 -0.12943694 -0.05464059 -0.058867745 0.084983975 0.12843052 -0.57462806 0.63804966 0.29051334 0.51919764 -0.6863889 0.26686376 -0.013438351 0.20193344 0.5295227 0.32893017 0.5707541 -0.1692743 0.1314141 0.025770135 -0.57763046 0.16584252 -0.3906656 -0.04051049 -0.5374785 0.7107734 -0.26574826 -0.14067654 0.1570211 0.60094947 0.65023607 0.12364724 0.989838 0.27086368 -0.27775925 0.23986906 1.0299159 0.6867905 0.07572663 -0.39396492 0.23292896 -0.42538366
가 -0.13793188 0.22517398 -0.016266424 0.11936998 0.11739749 -0.8463185 0.10853244 1.1674241 -0.24752119 -0.32518432 -0.19959587 -0.58074 0.021603888 0.29115292 0.24304642 -0.16051945 0.31600714 -0.2739768 -0.2678609 -1.126609 0.31986728 0.27515665 0.4698404 -0.40455702 -0.16780351 -0.29162657 -0.8056216 -0.31257772 -0.35017455 0.22064036 0.45645154 -0.088236 0.40821102 -0.6662957 -0.28608316 0.61673754 0.010567116 -0.2814405 -0.44789666 -0.7519336 0.15155576 -0.4800837 -0.42844033 -0.0062314947 0.10969832 -0.23127395 -0.34345704 0.0016574805 0.21131095 0.39928308 0.27062857 -0.5044192 -0.22438836 -0.16757418 -0.20023592 0.36059442 0.36487192 -0.18445893 -0.3770721 -0.13104111 -0.063716985 -0.071065806 0.07978943 0.13890529 -0.5996996 0.671353 0.30011734 0.5392313 -0.7104973 0.278527 -0.01218427 0.21211372 0.5497812 0.36186805 0.5901073 -0.15694448 0.13500477 0.022513643 -0.6093357 0.17865397 -0.40249643 -0.028531384 -0.54910713 0.73553014 -0.28608406 -0.13390434 0.16604975 0.6256551 0.67459697 0.12526731 1.0418109 0.27135962 -0.29514024 0.24636419 1.0468565 0.71943504 0.100855835 -0.4210724 0.23463872 -0.4540334
은 -0.12654519 0.21861897 -0.023311036 0.12425612 0.1186097 -0.7851866 0.10303343 1.0872236 -0.23166887 -0.29670084 -0.18869121 -0.5329937 0.009503999 0.27148104 0.2273307 -0.16062903 0.28956264 -0.2572638 -0.25387406 -1.0480385 0.29331717 0.24940263 0.42824236 -0.38253674 -0.1576403 -0.28374228 -0.7526671 -0.27672887 -0.3274839 0.19995813 0.4250876 -0.09259069 0.37029395 -0.6257053 -0.27376974 0.56858623 0.011424123 -0.25737032 -0.4159669 -0.70204824 0.13617465 -0.44794595 -0.39138117 -0.0056716716 0.10768528 -0.20865919 -0.3084925 0.0029327695 0.20076619 0.3756639 0.25954604 -0.47297734 -0.19355242 -0.15176561 -0.19558297 0.3345449 0.34794295 -0.16400795 -0.35812753 -0.12524523 -0.049946796 -0.063801266 0.074652396 0.12434401 -0.5514238 0.6276093 0.29330984 0.51550025 -0.6701297 0.26233646 -0.017705545 0.20034398 0.516838 0.3333176 0.54840267 -0.15072717 0.112224974 0.03842758 -0.5644846 0.15309785 -0.3808465 -0.025519038 -0.52375597 0.67119384 -0.24728283 -0.12880251 0.15201993 0.56851315 0.6267135 0.11797761 0.9605619 0.24903943 -0.2798458 0.2252883 0.9819502 0.6600254 0.07591343 -0.38839737 0.20987856 -0.41283873
고 -0.11710863 0.17682134 -0.011543654 0.09396129 0.10515882 -0.670732 0.09102833 0.948959 -0.18672748 -0.259784 -0.17453212 -0.47559813 -0.00013115717 0.23554611 0.1829542 -0.14299117 0.25432274 -0.21417251 -0.20944573 -0.90685844 0.25528607 0.22661783 0.37177935 -0.31255934 -0.12649341 -0.22998384 -0.6547436 -0.23931518 -0.29073346 0.18332803 0.3620046 -0.069962166 0.32306182 -0.546836 -0.24411201 0.4822572 0.0005584823 -0.23414029 -0.35089618 -0.60511696 0.12061271 -0.3798348 -0.34186795 -0.011985987 0.08904002 -0.18912378 -0.26649597 -0.005411062 0.169252 0.32674706 0.22871584 -0.41214812 -0.17226727 -0.14484435 -0.15954436 0.28190368 0.29564154 -0.14600994 -0.2987248 -0.10020149 -0.05433665 -0.06377774 0.07141114 0.111760385 -0.48047364 0.5381495 0.2566725 0.44121516 -0.586373 0.2271274 -0.0056095896 0.16990925 0.45139563 0.27696514 0.47291222 -0.13584556 0.11114203 0.016242556 -0.496863 0.13846086 -0.33760193 -0.023218732 -0.447776 0.59442806 -0.22743309 -0.113510974 0.14692813 0.49424985 0.5311256 0.09842678 0.83400226 0.21527301 -0.22816196 0.18462084 0.85362387 0.5788765 0.07919031 -0.32792678 0.1925766 -0.3481618
되 -0.1531685 0.23222402 -0.03398819 0.12340187 0.11639327 -0.8252988 0.102167316 1.1274198 -0.24394254 -0.30960447 -0.20944296 -0.55775356 0.0011759164 0.28346553 0.24328414 -0.1554296 0.31436384 -0.2588817 -0.26644468 -1.1022029 0.32214797 0.27636588 0.4587028 -0.38279957 -0.14719902 -0.2811038 -0.7964862 -0.3089609 -0.3474545 0.21939814 0.45757318 -0.08108047 0.399551 -0.66634053 -0.2817188 0.59436804 0.0011008754 -0.26132575 -0.4302605 -0.73809296 0.14994852 -0.47318107 -0.40789688 -0.010939794 0.11249104 -0.22795437 -0.33713937 0.0022496423 0.22042468 0.38464692 0.26861867 -0.49324134 -0.22109418 -0.16402403 -0.19762367 0.35556775 0.3684079 -0.18011273 -0.38082245 -0.12027418 -0.047234364 -0.059249338 0.08312663 0.14195147 -0.5697988 0.65183544 0.31076574 0.54049146 -0.6903879 0.27229354 -0.017459566 0.19462107 0.5311685 0.34835553 0.5871746 -0.15438917 0.12573582 0.03656502 -0.5861306 0.16128545 -0.395612 -0.042620324 -0.534678 0.7174736 -0.26685125 -0.12983605 0.17640254 0.6173747 0.6525808 0.11082608 1.0226003 0.27329773 -0.28471878 0.23233789 1.0226811 0.6977834 0.09832651 -0.40928152 0.21781966 -0.42370278
았 -0.10959579 0.1968077 -0.022077652 0.09809598 0.113118425 -0.69397897 0.10358762 0.96400785 -0.1903332 -0.27197653 -0.16176277 -0.48717892 -0.0010387799 0.23489653 0.18806541 -0.13023986 0.2704596 -0.22305216 -0.21628731 -0.9222336 0.27362254 0.23730007 0.3769759 -0.3304845 -0.13619106 -0.23770176 -0.65784717 -0.25312215 -0.2839473 0.17407574 0.36891523 -0.08021533 0.32595822 -0.5629696 -0.24809548 0.4936011 0.021258552 -0.21834114 -0.3576102 -0.610513 0.13500054 -0.3965802 -0.34017754 -0.0042145583 0.10676194 -0.17384641 -0.28730577 -0.0025528802 0.18114886 0.33069327 0.23301034 -0.40800345 -0.17347556 -0.15265808 -0.17006597 0.287589 0.31958702 -0.14403948 -0.3116353 -0.10696209 -0.05571589 -0.06347489 0.06717136 0.11780642 -0.4777708 0.554848 0.24897282 0.446099 -0.586303 0.22791402 -0.020572282 0.15885378 0.4616739 0.28557765 0.47989047 -0.14863634 0.12028823 0.02846978 -0.49686778 0.14217335 -0.34589654 -0.02891951 -0.45022464 0.5833259 -0.22008021 -0.1138782 0.14688843 0.5087439 0.5408274 0.08981205 0.8527092 0.22411099 -0.23347218 0.2033046 0.8692732 0.5823225 0.07560144 -0.3313774 0.18327713 -0.35168633
후보 -0.13301778 0.19732696 -0.013271153 0.116207734 0.099888615 -0.7196779 0.09244459 0.99230427 -0.2153343 -0.2589735 -0.1875981 -0.5042051 0.0019620452 0.25753823 0.19076303 -0.15101084 0.25402498 -0.22786438 -0.2297786 -0.9516061 0.26399696 0.24352093 0.38708988 -0.34772626 -0.14113386 -0.25079048 -0.6885891 -0.2468483 -0.30751503 0.1740438 0.38547626 -0.08163472 0.34592322 -0.5657361 -0.2645562 0.5331263 0.018001338 -0.24827744 -0.39249447 -0.62484807 0.14532074 -0.41802964 -0.36731642 -0.0028645995 0.10784033 -0.18371633 -0.30380815 -0.007908272 0.18588366 0.32655776 0.2324745 -0.43518028 -0.16900691 -0.13557307 -0.18034887 0.3120465 0.321527 -0.15818284 -0.31982824 -0.10609476 -0.044354483 -0.06713952 0.061532885 0.110551655 -0.4904672 0.5621162 0.2639495 0.48236752 -0.60916334 0.24819303 -0.024163693 0.17982857 0.48021817 0.29514155 0.51618814 -0.13152923 0.10755907 0.026656916 -0.51345193 0.13728783 -0.36113793 -0.03351021 -0.48733237 0.6287392 -0.24737844 -0.11338871 0.14288905 0.5233782 0.5779842 0.11236632 0.8831937 0.23904933 -0.2573443 0.19277123 0.894478 0.6233738 0.086683646 -0.3444515 0.20911922 -0.3703317
ㄹ -0.10960662 0.16174544 -0.020636536 0.09758085 0.10568567 -0.6429432 0.084269226 0.90570396 -0.18318477 -0.24253893 -0.16251503 -0.4563429 -0.001059205 0.23970939 0.17127138 -0.11723702 0.23439138 -0.20357493 -0.20985527 -0.87471247 0.26171857 0.22375262 0.35648295 -0.29862526 -0.122671 -0.21726474 -0.60657483 -0.24999516 -0.27969977 0.16392842 0.35839325 -0.07904081 0.30762136 -0.530005 -0.22177754 0.47315162 0.015157265 -0.21473312 -0.34580705 -0.5914073 0.11794024 -0.37916043 -0.33303782 -0.0034096225 0.10191282 -0.16696957 -0.27424338 -0.0071993405 0.17799476 0.3107543 0.20584789 -0.39585033 -0.16692606 -0.12819932 -0.14957808 0.27993295 0.28497735 -0.1517265 -0.30224702 -0.10145203 -0.03531379 -0.046733446 0.066567846 0.10941653 -0.4551643 0.5222299 0.22110282 0.42864385 -0.54111886 0.22032565 -0.0015251337 0.1657706 0.42489538 0.2711355 0.4525297 -0.14100534 0.111866556 0.015313035 -0.45854536 0.12379678 -0.31735098 -0.037729014 -0.4330632 0.54527766 -0.21831596 -0.10713705 0.12398557 0.46587235 0.5041046 0.087031856 0.79760414 0.21449834 -0.21188499 0.19285603 0.8040139 0.55779177 0.058481447 -0.32591307 0.16436172 -0.3330906
도 -0.1270516 0.20838001 -0.02298521 0.10726799 0.12027488 -0.75234216 0.11091795 1.0393589 -0.22010231 -0.28547567 -0.18811 -0.52159005 0.018493678 0.26240236 0.21885064 -0.15726905 0.2825241 -0.24035616 -0.23133507 -1.0037585 0.29599303 0.24352801 0.4040835 -0.35860544 -0.14650933 -0.26699102 -0.7156853 -0.2827581 -0.31524464 0.19125082 0.40761322 -0.07871367 0.3452796 -0.6039984 -0.2556416 0.5515016 0.00135796 -0.23912811 -0.38346657 -0.6721504 0.14578068 -0.435698 -0.36853886 -0.007625025 0.1080857 -0.20229411 -0.30810264 -0.0013834985 0.19762008 0.3538024 0.25258225 -0.4371359 -0.18407096 -0.15682727 -0.1680732 0.31970868 0.33934516 -0.16070603 -0.3393845 -0.11405733 -0.053340383 -0.06681208 0.064120464 0.122042656 -0.517977 0.59510463 0.27095243 0.48994973 -0.62490904 0.24028197 -0.011206741 0.17285013 0.4958702 0.32368952 0.5304607 -0.14385684 0.1250701 0.035224356 -0.5333036 0.16032963 -0.36956468 -0.024223903 -0.48542675 0.64089113 -0.23504338 -0.117868245 0.16122578 0.5512951 0.6018069 0.107826166 0.92402077 0.24399208 -0.2520921 0.20946327 0.94302976 0.6439643 0.0776982 -0.37177485 0.20793904 -0.40037236
었 -0.117090635 0.19001846 -0.03009581 0.11746511 0.120786704 -0.75017625 0.10612471 1.0421002 -0.22106625 -0.28964296 -0.18788399 -0.5141267 0.012210141 0.2727263 0.21725771 -0.14773835 0.2833626 -0.22848457 -0.2289322 -0.9830631 0.29198045 0.23720375 0.40073913 -0.36016664 -0.13471194 -0.2649776 -0.7204196 -0.2625334 -0.3067226 0.18730655 0.41673222 -0.08084444 0.34575605 -0.59652376 -0.25938308 0.53868085 0.014544483 -0.23890342 -0.38084286 -0.6731966 0.13754 -0.43207234 -0.3660666 -0.004064346 0.10024679 -0.1929369 -0.30838373 0.0035248415 0.2048344 0.347603 0.23798376 -0.4528866 -0.19556019 -0.1509593 -0.17797406 0.3304762 0.32678154 -0.15748313 -0.32781008 -0.114757374 -0.047886766 -0.047966115 0.079889 0.1257936 -0.52620286 0.60035646 0.27976632 0.49276736 -0.6318569 0.25132707 -0.006441978 0.17699414 0.4977108 0.3142885 0.52937496 -0.15111502 0.11234139 0.037843272 -0.5465427 0.14311002 -0.36967424 -0.03356346 -0.49318442 0.6488003 -0.23343362 -0.12265972 0.15332937 0.5506264 0.58594567 0.09597764 0.92015576 0.23515044 -0.25339448 0.22399656 0.9337092 0.6365703 0.08729321 -0.37286118 0.20867841 -0.38980547
ㄴ다 -0.11668647 0.19729333 -0.019254936 0.11667743 0.09380737 -0.6994601 0.108326524 0.9762653 -0.20480175 -0.27298054 -0.17233023 -0.4847695 0.017163064 0.24968635 0.2004657 -0.13868155 0.27509135 -0.23739612 -0.23289634 -0.9488771 0.27008888 0.24328572 0.38195202 -0.33810753 -0.14350924 -0.24235214 -0.6810186 -0.26940677 -0.29461983 0.19209257 0.383623 -0.08247163 0.34001526 -0.5669226 -0.2577312 0.52574927 1.7019916e-06 -0.24113062 -0.37311795 -0.6395308 0.13147992 -0.39361885 -0.35152274 -0.0026686317 0.10060191 -0.18594663 -0.29431507 -0.0094332 0.18998206 0.3377862 0.22290379 -0.4273252 -0.19264632 -0.15070379 -0.16609676 0.311443 0.31836575 -0.15127102 -0.31324923 -0.114369325 -0.047795527 -0.06774234 0.06464298 0.11139823 -0.4935406 0.5655072 0.24839614 0.45566905 -0.6060098 0.23282416 -0.016681407 0.17340359 0.46848884 0.29070118 0.4902471 -0.14210421 0.117737815 0.031163532 -0.51282024 0.14015888 -0.3509719 -0.031595614 -0.46412873 0.6129415 -0.22378097 -0.12091278 0.14531317 0.5157815 0.5593161 0.093938515 0.8682988 0.22810319 -0.25332412 0.21290305 0.87940145 0.593089 0.06434187 -0.34119278 0.1991989 -0.3616228
있 -0.11003821 0.1749518 -0.025025224 0.10741224 0.10342545 -0.6478202 0.08635271 0.90511656 -0.1783194 -0.24506341 -0.15700403 -0.4497929 0.012823877 0.23498915 0.18559054 -0.13344096 0.23792139 -0.2035997 -0.21672358 -0.8695908 0.2529855 0.21890965 0.34799924 -0.30067164 -0.124819614 -0.23407845 -0.6150776 -0.24113517 -0.28528836 0.16306753 0.35793474 -0.08079716 0.3086999 -0.5226006 -0.22976588 0.47604674 0.012909249 -0.20243993 -0.33951125 -0.5843022 0.122742034 -0.3754017 -0.33887273 -0.0025856143 0.09171712 -0.18319994 -0.27442583 -0.0015367309 0.17506613 0.3138246 0.22113155 -0.39656535 -0.16750647 -0.13483049 -0.16175893 0.28781608 0.29602972 -0.14518443 -0.30656728 -0.10720365 -0.04188751 -0.044619758 0.06975922 0.0974326 -0.46800452 0.5285162 0.23548302 0.42113853 -0.5483895 0.21416217 -0.005906048 0.15877213 0.42045605 0.27352583 0.4640271 -0.12228059 0.10448417 0.029720213 -0.47676444 0.1294549 -0.32716683 -0.028375411 -0.43269765 0.5576715 -0.22148335 -0.09721203 0.13790943 0.4776046 0.5115346 0.10034975 0.7937792 0.21544114 -0.22443864 0.19519792 0.8227331 0.55255264 0.073922515 -0.32711998 0.16612223 -0.34380904
, -0.12845473 0.2062874 -0.006689447 0.12476224 0.10302898 -0.74140996 0.09303012 1.0347259 -0.21762872 -0.27429298 -0.18345425 -0.5100127 0.022158429 0.26297644 0.20419951 -0.15563025 0.28056994 -0.24870999 -0.24290165 -0.99271816 0.28127122 0.24090716 0.40755415 -0.35774148 -0.1379095 -0.25655642 -0.7245571 -0.26723793 -0.3099439 0.1952575 0.4137193 -0.083198674 0.3666458 -0.6090279 -0.25963455 0.53686315 0.0051424406 -0.26202103 -0.39752713 -0.6728124 0.13512595 -0.4287306 -0.3720412 -0.015812693 0.09646951 -0.21020874 -0.30586243 -0.00032609433 0.18498394 0.35197198 0.25101158 -0.44171908 -0.20137122 -0.14571719 -0.18802716 0.30993366 0.3276872 -0.16537398 -0.34981966 -0.12593935 -0.05167077 -0.05459984 0.060434353 0.1291689 -0.52637357 0.5920155 0.29041198 0.493907 -0.6424063 0.25664303 -0.011879497 0.1917302 0.494135 0.30791754 0.52819914 -0.1545383 0.11841452 0.032741655 -0.5311415 0.16302267 -0.37003025 -0.03993963 -0.49400866 0.6541898 -0.25635836 -0.12161475 0.15392108 0.55474657 0.5901022 0.113991305 0.9322167 0.23526698 -0.26454732 0.21086764 0.9315044 0.6396915 0.0747651 -0.35878763 0.20308387 -0.3933952
것 -0.08990457 0.14503825 -0.014681976 0.09096952 0.07864077 -0.5284136 0.068416774 0.7257063 -0.15533637 -0.20504552 -0.13602886 -0.36526525 0.012410318 0.18906534 0.15782948 -0.09780463 0.19055995 -0.16345203 -0.15895642 -0.6955019 0.20406963 0.1820878 0.27790302 -0.23596732 -0.09201652 -0.17690673 -0.510758 -0.18577243 -0.21577916 0.13484497 0.2805858 -0.052251674 0.24288848 -0.42809874 -0.18018594 0.3903379 0.016434787 -0.17812735 -0.2828677 -0.45873806 0.102712326 -0.3019152 -0.27159196 -0.015918773 0.071274996 -0.14394364 -0.21165492 -0.00042070248 0.13389179 0.23923784 0.1796019 -0.3188506 -0.14433248 -0.098957025 -0.12112471 0.23205195 0.22864819 -0.1227293 -0.23570165 -0.08426936 -0.043921847 -0.044585377 0.052439827 0.09211866 -0.3584735 0.41951877 0.18345942 0.3371423 -0.447386 0.17883553 -0.015538077 0.12948653 0.3437791 0.21531868 0.35969695 -0.09953077 0.07318159 0.018943295 -0.37579298 0.11399498 -0.26275292 -0.020515464 -0.33399045 0.44510928 -0.17470315 -0.08278841 0.11269513 0.3890903 0.42273954 0.07474499 0.64640003 0.16788055 -0.18973686 0.15295905 0.6598696 0.4362195 0.05367656 -0.25891998 0.1420233 -0.26438242
에서 -0.13627344 0.2008329 -0.014327249 0.10914658 0.106040314 -0.771127 0.094215326 1.0664842 -0.22115718 -0.29065502 -0.19691071 -0.5290464 0.010113284 0.27464867 0.22515294 -0.14525646 0.29401758 -0.25591657 -0.23598191 -1.024408 0.30338085 0.25572672 0.4241431 -0.37692985 -0.15606202 -0.26272997 -0.73516464 -0.27823272 -0.3181882 0.1972994 0.43170178 -0.08435396 0.35579613 -0.6227756 -0.270407 0.54940355 0.017227419 -0.25162244 -0.41198444 -0.67827994 0.15101747 -0.4322368 -0.3784953 -0.023672594 0.108150795 -0.21360806 -0.3151631 0.00487369 0.1997977 0.36330378 0.25686356 -0.4571574 -0.19271718 -0.14637682 -0.19305687 0.3380826 0.34703577 -0.15839396 -0.34499604 -0.12552446 -0.054562118 -0.0620348 0.06935425 0.13440067 -0.5382628 0.6124167 0.2867818 0.49048272 -0.6445728 0.26571426 -0.016308263 0.18862045 0.49963224 0.31644654 0.54812676 -0.15542851 0.126065 0.030178534 -0.5559523 0.16114882 -0.37689638 -0.03716125 -0.5074864 0.67043996 -0.25508577 -0.1251559 0.14616045 0.5774711 0.6025814 0.1182512 0.9489868 0.24184363 -0.27509102 0.21094841 0.9586729 0.66580665 0.09298152 -0.37869784 0.2136439 -0.39713234
아 -0.1288587 0.1907213 -0.018846285 0.10300849 0.09301652 -0.71721464 0.10684235 0.98717374 -0.21181431 -0.27351326 -0.17436482 -0.48515785 0.009309474 0.24986969 0.19501661 -0.13647163 0.26544175 -0.21958 -0.23721014 -0.9496255 0.26330146 0.23624186 0.38174465 -0.33155596 -0.1396141 -0.25689694 -0.6723896 -0.27003962 -0.29983526 0.1758547 0.39865783 -0.06638319 0.33877456 -0.56461316 -0.24383414 0.5085801 0.01813646 -0.2461498 -0.36157593 -0.6314 0.12513898 -0.40784287 -0.34650677 -0.017764488 0.10996524 -0.19566706 -0.2788496 0.0009757266 0.19313683 0.33306178 0.23997286 -0.4150538 -0.18036161 -0.14341725 -0.16488254 0.31127834 0.3229157 -0.14680488 -0.31665307 -0.10489982 -0.037296657 -0.059399247 0.064851075 0.115664154 -0.49749228 0.5615431 0.24919496 0.45191154 -0.6040263 0.24569081 -0.01820495 0.16493812 0.4717272 0.29825568 0.49803618 -0.13844867 0.11468211 0.031639557 -0.50958425 0.14658365 -0.33389744 -0.028823534 -0.472968 0.61873186 -0.2280175 -0.114587955 0.1398154 0.52435124 0.56811965 0.10954568 0.87021303 0.21928279 -0.24585766 0.20201239 0.8928433 0.5952689 0.08501629 -0.3558809 0.20051408 -0.3859354
어 -0.10703516 0.1896775 -0.019396635 0.10028825 0.10057339 -0.67167026 0.08378176 0.9390794 -0.194232 -0.24785279 -0.17570455 -0.4542621 0.010210646 0.23544973 0.18052444 -0.13000658 0.25975674 -0.20921934 -0.22154017 -0.9050236 0.25229985 0.22144626 0.35905054 -0.32926103 -0.12829159 -0.23499231 -0.654644 -0.25027204 -0.2869812 0.18035205 0.37095785 -0.072083935 0.31076115 -0.5498406 -0.23627646 0.4979585 0.01414078 -0.22452302 -0.3497709 -0.611969 0.12164129 -0.38987097 -0.33315802 -0.013200659 0.09111474 -0.18973212 -0.27470332 -0.0054657073 0.17408362 0.31308025 0.21951623 -0.40563795 -0.18153189 -0.13614763 -0.1599311 0.2826163 0.28891924 -0.15080325 -0.31774926 -0.10665406 -0.038627233 -0.058764912 0.066142745 0.11441803 -0.4625085 0.5408379 0.25541458 0.42780894 -0.5793274 0.21675973 -0.019523803 0.1559898 0.43622392 0.2794074 0.47362813 -0.13743669 0.093833655 0.03038521 -0.48319918 0.14137326 -0.32075077 -0.022721691 -0.44646087 0.5844258 -0.22559306 -0.10952249 0.14249125 0.50740194 0.5321294 0.09962109 0.8224168 0.21489 -0.22556067 0.18814862 0.84113574 0.5652522 0.061736353 -0.3236583 0.17914318 -0.3497535
으로 -0.1305735 0.19037439 -0.02995341 0.11905062 0.11493746 -0.7123674 0.104894616 0.9955362 -0.21960078 -0.26025409 -0.18226935 -0.48695412 0.01740504 0.25188965 0.19588755 -0.14433298 0.27476618 -0.23962875 -0.22929925 -0.96591467 0.28569174 0.23495562 0.40414745 -0.34779677 -0.14549498 -0.26147705 -0.69245476 -0.25873274 -0.30547452 0.19567394 0.3975958 -0.07264739 0.34454793 -0.57028407 -0.25390577 0.53181016 -0.00068883534 -0.2359413 -0.3774618 -0.6426025 0.13868025 -0.41524372 -0.36349198 -0.01280138 0.10010779 -0.19532071 -0.2861781 -0.003985944 0.19557859 0.3400302 0.23785006 -0.42725536 -0.18603815 -0.14369045 -0.17654563 0.31272763 0.31875774 -0.16174446 -0.33745277 -0.123997614 -0.045842 -0.0642423 0.06689958 0.11159424 -0.5153222 0.571122 0.27092856 0.46641245 -0.61749965 0.24350174 -0.014546186 0.169626 0.47306493 0.30221862 0.50094134 -0.15449767 0.11923594 0.031232698 -0.52129346 0.15412046 -0.34858498 -0.026178017 -0.47834772 0.6309127 -0.23697762 -0.123629995 0.14098401 0.54187006 0.5718999 0.10355272 0.89441496 0.22609447 -0.25232744 0.19730957 0.8956993 0.6066366 0.08107852 -0.3543736 0.20338748 -0.3777333
지 -0.10796153 0.18090886 -0.026919454 0.10230087 0.11009908 -0.63631976 0.09146437 0.87825984 -0.17566648 -0.23090452 -0.15201315 -0.44893852 0.004738957 0.22889382 0.1766831 -0.13573869 0.24889159 -0.212798 -0.21148893 -0.8418765 0.23791853 0.22353293 0.3511841 -0.29500234 -0.12512085 -0.2324317 -0.6205893 -0.23758917 -0.27712166 0.15935707 0.36256853 -0.08249547 0.2934414 -0.52382994 -0.2297942 0.45291257 0.008136587 -0.19587424 -0.32174876 -0.57837456 0.10581756 -0.3687402 -0.33397633 -0.017844826 0.08326993 -0.16419253 -0.26800874 0.0023526668 0.16923873 0.3080914 0.20971574 -0.39375946 -0.15973318 -0.13673826 -0.14194031 0.2758293 0.2957217 -0.13652165 -0.29204276 -0.09216411 -0.05184691 -0.06338593 0.06520126 0.10122541 -0.45201474 0.50923157 0.21886022 0.41522378 -0.5412106 0.20758563 -0.010688372 0.16052131 0.42914215 0.26004392 0.439467 -0.14080904 0.08646119 0.02067404 -0.46320346 0.11736566 -0.3181268 -0.030874114 -0.4110449 0.5504151 -0.19501574 -0.115961745 0.12351755 0.46978536 0.52074784 0.09125918 0.78599036 0.20575458 -0.21476623 0.17054512 0.80636406 0.5512744 0.07443596 -0.30978855 0.16098161 -0.3418167
들 -0.10154392 0.17110637 -0.02719207 0.10354928 0.08651351 -0.62739617 0.08969543 0.8739999 -0.18200427 -0.23380856 -0.16147545 -0.43927106 0.01781548 0.2335767 0.16895734 -0.11799412 0.24692361 -0.20834233 -0.20025563 -0.85200053 0.24978615 0.2086774 0.35402006 -0.293166 -0.11415868 -0.22926027 -0.6115547 -0.22915094 -0.26875478 0.16785114 0.35721767 -0.062051747 0.3137331 -0.522021 -0.23012571 0.4655507 0.012206689 -0.21461576 -0.34029463 -0.5723927 0.10760798 -0.35490608 -0.31686485 -0.018724421 0.09324555 -0.16857985 -0.2634916 -0.0037412588 0.1664361 0.30926538 0.19707535 -0.38152048 -0.1709985 -0.12849477 -0.15025783 0.2654663 0.27639616 -0.13932131 -0.2983758 -0.09224991 -0.036126565 -0.06324822 0.057761304 0.10761586 -0.45445108 0.4980466 0.22513045 0.40932456 -0.5311008 0.22017634 -0.008501825 0.14755096 0.4267953 0.2721183 0.44704717 -0.13503285 0.09493178 0.02252356 -0.4652356 0.13096684 -0.30760238 -0.036423817 -0.42958575 0.55688524 -0.2170433 -0.11203546 0.13551755 0.47041005 0.5027048 0.08606077 0.78174233 0.2121718 -0.22885732 0.17554143 0.7926507 0.5402126 0.059929077 -0.3250302 0.18444185 -0.32829142
‘ -0.12635066 0.17656545 -0.019550925 0.10705425 0.1209198 -0.70083934 0.087331235 0.9724553 -0.21902204 -0.26105395 -0.18068446 -0.4877062 0.01770713 0.25597605 0.20533185 -0.14976709 0.27132356 -0.240452 -0.23480737 -0.95390886 0.26529562 0.23307504 0.38118553 -0.33429977 -0.12070674 -0.24101658 -0.67928255 -0.2436854 -0.30064002 0.17958373 0.3799776 -0.06679434 0.32562885 -0.5696187 -0.23994718 0.5116416 0.012232693 -0.24306628 -0.36546394 -0.6195716 0.12238742 -0.41088688 -0.347195 -0.008558579 0.09923126 -0.1903005 -0.29820758 0.015964905 0.1836505 0.32570994 0.23400684 -0.4200629 -0.18699962 -0.13312106 -0.17642301 0.29472548 0.3185196 -0.14699972 -0.313476 -0.11137644 -0.046803076 -0.065358765 0.07232556 0.122844465 -0.4985118 0.5562775 0.25905865 0.46134314 -0.60821253 0.24011622 -0.013226892 0.1867825 0.457645 0.29171664 0.48904455 -0.14931896 0.11198273 0.033155624 -0.5067359 0.14604539 -0.3548434 -0.036851406 -0.47957462 0.6175539 -0.23647082 -0.10376896 0.13930641 0.53336805 0.5671142 0.102498636 0.86970764 0.24203417 -0.24389145 0.21215987 0.8897033 0.6132723 0.083720535 -0.35533825 0.18841448 -0.37108782
’ -0.099325515 0.15468982 -0.0115813045 0.095786385 0.0810057 -0.5733248 0.084023036 0.7965045 -0.16284798 -0.21063302 -0.14474228 -0.40484914 0.014713132 0.19027962 0.15804431 -0.12574331 0.21461193 -0.19436666 -0.17699909 -0.7692118 0.23111789 0.17840011 0.30729246 -0.27120116 -0.11259738 -0.20171483 -0.5542015 -0.2076992 -0.2515731 0.13502274 0.32266623 -0.058426633 0.28042594 -0.4706175 -0.19864145 0.40848094 0.017023666 -0.18411776 -0.31018126 -0.50057024 0.09925035 -0.3399198 -0.28728095 -0.007002728 0.07007694 -0.16571844 -0.22150303 0.0063902587 0.15118888 0.2742628 0.18169136 -0.34016675 -0.1455609 -0.10433307 -0.14766729 0.2475045 0.259214 -0.13555205 -0.27424133 -0.07838696 -0.030416865 -0.052777715 0.061522387 0.09366069 -0.4081786 0.45365077 0.20841785 0.38128725 -0.4851881 0.1843866 -0.0099655995 0.1387427 0.3887369 0.2424597 0.4135752 -0.10959717 0.08296592 0.032315556 -0.4120915 0.11178159 -0.28745204 -0.03301268 -0.3905523 0.5027414 -0.2032458 -0.09995496 0.11927467 0.42840838 0.46590587 0.07830102 0.71088123 0.1901409 -0.19479047 0.16547854 0.7330225 0.49755594 0.053299654 -0.28591904 0.1494983 -0.3111318
과 -0.1385222 0.20059568 -0.011706997 0.12403706 0.11504762 -0.7933823 0.09610364 1.0802431 -0.22107421 -0.2978772 -0.19232711 -0.5469557 0.022895282 0.2813743 0.22279756 -0.1615452 0.29274312 -0.25845474 -0.24653398 -1.0481598 0.30284208 0.26543242 0.43633565 -0.38434026 -0.13873188 -0.27590904 -0.7619289 -0.2767551 -0.33830413 0.2128528 0.43065995 -0.07506203 0.38055944 -0.63905317 -0.28206146 0.5845696 0.010244266 -0.26972333 -0.414464 -0.7068148 0.14720711 -0.46089038 -0.38853714 -0.013605871 0.1199439 -0.20870392 -0.32572606 0.007690014 0.20460697 0.36163566 0.26521775 -0.46281338 -0.19309594 -0.16278444 -0.1987396 0.34183493 0.33924747 -0.16435048 -0.36058098 -0.117857814 -0.044746526 -0.06464296 0.07059584 0.12813927 -0.54516757 0.6176156 0.29018596 0.51231205 -0.66545534 0.27124417 -0.020274336 0.19778426 0.5165014 0.33473036 0.5643973 -0.15322417 0.11784138 0.025630884 -0.55981976 0.16920172 -0.37660965 -0.040756848 -0.5279354 0.67948353 -0.26467255 -0.12602593 0.15358527 0.5784899 0.6348261 0.122536115 0.9793666 0.25680414 -0.28413945 0.21550524 0.99030554 0.6641223 0.07649498 -0.3873176 0.21646546 -0.42707807
등 -0.11678744 0.17870224 -0.02815139 0.10699589 0.106327355 -0.7060407 0.08775447 0.9822189 -0.19659504 -0.27222225 -0.16390459 -0.47649816 0.005540379 0.24586952 0.20326713 -0.1325098 0.25795954 -0.23614195 -0.22146636 -0.94900364 0.26211122 0.23209608 0.39192805 -0.3435849 -0.12769473 -0.24765977 -0.67408353 -0.24961326 -0.29871562 0.1890908 0.38554373 -0.08230774 0.3468388 -0.5702822 -0.24169084 0.50966823 -0.00076097104 -0.24194862 -0.3646207 -0.63175344 0.13125846 -0.41499364 -0.35939535 -0.019343121 0.106406026 -0.19995068 -0.28310093 0.003729022 0.18304044 0.34104064 0.22633798 -0.4289079 -0.18036194 -0.13333656 -0.16125606 0.29738513 0.31462717 -0.14869352 -0.32924256 -0.10343604 -0.05050083 -0.056250695 0.0714134 0.11918156 -0.502164 0.560437 0.2693812 0.46817186 -0.6095726 0.24186273 -0.009904696 0.17091396 0.473594 0.29250163 0.49413925 -0.148229 0.10603902 0.026685052 -0.50940675 0.1364162 -0.33394563 -0.037886124 -0.4758455 0.6203865 -0.22257717 -0.110798016 0.14172201 0.52395904 0.5593641 0.108173124 0.86093366 0.22813252 -0.24232972 0.19876054 0.8852376 0.6065233 0.086949244 -0.3459853 0.20621087 -0.38152844
로 -0.124773 0.19992398 -0.02760046 0.11772239 0.107009634 -0.7589594 0.106510065 1.0536196 -0.2254997 -0.29295048 -0.19097786 -0.51197076 0.000148849 0.27614057 0.2110952 -0.147288 0.27893114 -0.24875097 -0.23834081 -0.99795794 0.28240308 0.24990007 0.4154968 -0.35565573 -0.13449967 -0.26910013 -0.7133841 -0.2820794 -0.32262918 0.20516172 0.4192969 -0.089099415 0.3582451 -0.616345 -0.266973 0.5556226 0.0006580112 -0.24528886 -0.38901013 -0.67944086 0.12772773 -0.43376374 -0.38239846 -0.0092807785 0.11714035 -0.1992686 -0.30850753 0.0056921425 0.18978633 0.35559255 0.24633673 -0.44326425 -0.20087144 -0.16114882 -0.1784849 0.3255854 0.32645652 -0.17214663 -0.3471248 -0.12304097 -0.058886047 -0.066646904 0.06672009 0.12846419 -0.5287183 0.59998155 0.2771306 0.48875093 -0.6388726 0.2531948 -0.008953296 0.18269086 0.48932222 0.31684884 0.5395531 -0.15649593 0.11220367 0.024633905 -0.53544563 0.1529981 -0.3559543 -0.042411722 -0.48980165 0.64301217 -0.2376563 -0.12345397 0.1569784 0.5508783 0.6075926 0.114490286 0.922338 0.2333273 -0.25601983 0.20888135 0.93775713 0.64792436 0.075642884 -0.38021395 0.21847208 -0.40022185
수 -0.09472273 0.14160614 -0.028411726 0.07500945 0.07729392 -0.55373746 0.058906883 0.76921254 -0.14845385 -0.2069864 -0.1303335 -0.38418713 0.016001578 0.20201853 0.15636459 -0.11516918 0.20452219 -0.16414645 -0.17917524 -0.7235189 0.22698314 0.18477544 0.29091054 -0.24978738 -0.10605039 -0.19925581 -0.5082926 -0.21478647 -0.23379257 0.13961591 0.29055074 -0.06154186 0.26279455 -0.44660327 -0.19808856 0.40444255 0.0048350603 -0.18753551 -0.28105804 -0.49285582 0.10790451 -0.31109175 -0.26323318 -0.023382137 0.0836687 -0.13649657 -0.21842153 -0.0028641946 0.14356416 0.2575753 0.16788355 -0.3364265 -0.14051715 -0.11399891 -0.11660761 0.23349577 0.25151125 -0.116170496 -0.23782718 -0.09569578 -0.029443948 -0.044889133 0.055546686 0.08983718 -0.39032868 0.4492659 0.19132696 0.35504782 -0.46908015 0.18530218 0.0032827787 0.12980436 0.3674888 0.2307366 0.39054608 -0.09614554 0.084650815 0.01576101 -0.40530658 0.12414198 -0.26778096 -0.021853907 -0.36005107 0.48015526 -0.16601856 -0.089447565 0.11550944 0.4068915 0.43639177 0.08558238 0.66854227 0.16859756 -0.17991255 0.14754982 0.6777692 0.47456145 0.04646755 -0.27515668 0.14168411 -0.27928174
만 -0.110219724 0.1813141 -0.0151458625 0.1086452 0.09704598 -0.7067162 0.093948185 0.9723843 -0.20578802 -0.2719016 -0.16571733 -0.47224453 0.010555812 0.25209776 0.20092845 -0.13886768 0.25467357 -0.22355355 -0.22187999 -0.9297683 0.2802468 0.23744653 0.3906397 -0.34431285 -0.13434148 -0.25504142 -0.66726315 -0.25123602 -0.3030211 0.18403274 0.39233077 -0.073162846 0.33442196 -0.5718392 -0.23184378 0.5057498 0.0028168473 -0.2417076 -0.37676823 -0.6335847 0.11769863 -0.40201223 -0.35958236 -0.013839623 0.10339582 -0.1844268 -0.28188142 0.0014851048 0.19596644 0.33627105 0.23768497 -0.40916425 -0.19361454 -0.15465927 -0.16272098 0.3077452 0.3115152 -0.14843556 -0.32682395 -0.119794 -0.055423427 -0.045954686 0.062674664 0.10452687 -0.50313413 0.5646411 0.25466985 0.45394698 -0.59945816 0.23442672 -0.017175257 0.16843154 0.47017002 0.298411 0.48867762 -0.13901296 0.11636603 0.019151438 -0.5182669 0.15385541 -0.3531044 -0.030405527 -0.47682217 0.62098706 -0.23955524 -0.12286368 0.13836537 0.51960045 0.5684519 0.1091442 0.86697716 0.23146783 -0.24085596 0.20301577 0.87777513 0.6024295 0.07975183 -0.3410306 0.19057919 -0.38545847
적 -0.12143738 0.2071481 -0.029034019 0.11179872 0.10216554 -0.72346514 0.10795584 1.0086555 -0.20712145 -0.26788285 -0.17593996 -0.5092519 0.013294342 0.25505558 0.2043735 -0.1397787 0.26966855 -0.2245151 -0.23478073 -0.9723536 0.2776468 0.23355849 0.39001185 -0.3422093 -0.14468424 -0.2527338 -0.69609493 -0.2746175 -0.31300026 0.18192175 0.39126086 -0.07649756 0.35738236 -0.59428716 -0.26091278 0.54010165 0.01883495 -0.23232548 -0.39296284 -0.6488136 0.12769891 -0.41144443 -0.3599814 -0.017035326 0.11018526 -0.20438465 -0.2922574 0.007631409 0.19626445 0.34952858 0.23536298 -0.4344953 -0.19483224 -0.15363082 -0.17255849 0.3023762 0.32321572 -0.1584027 -0.32653493 -0.12209945 -0.049283292 -0.06549615 0.06445861 0.11775846 -0.5066703 0.5740889 0.26554877 0.4849955 -0.6215936 0.24062595 -0.007366545 0.18008193 0.48183888 0.3167957 0.5212977 -0.1413226 0.11392738 0.024910541 -0.51649183 0.15237993 -0.35909986 -0.04084982 -0.4849244 0.62326413 -0.23564425 -0.13037531 0.14752975 0.5441879 0.5825737 0.10775545 0.88878965 0.24055266 -0.2492993 0.21094964 0.92425096 0.6253427 0.08564036 -0.352361 0.2014599 -0.3875241
“ -0.1049016 0.16045217 -0.010087935 0.09009235 0.08904668 -0.62278664 0.09357748 0.8625669 -0.18319651 -0.23703803 -0.15743294 -0.4297437 0.0026259662 0.21425883 0.17589605 -0.11858508 0.23187177 -0.19308539 -0.19717044 -0.8298939 0.22828709 0.21167494 0.3476479 -0.30055007 -0.11315821 -0.2068304 -0.60073596 -0.22862943 -0.27263868 0.1637865 0.33723086 -0.062391333 0.3060238 -0.5071823 -0.22763678 0.45551187 0.00028507906 -0.21822616 -0.33525425 -0.5529575 0.11313216 -0.3536579 -0.3138499 -0.00041569222 0.09623402 -0.17328219 -0.24224517 -0.006777524 0.16018239 0.29428232 0.20354082 -0.37563258 -0.1572297 -0.12495165 -0.16165766 0.26093212 0.26509777 -0.13095368 -0.2830675 -0.107032605 -0.034999523 -0.0504899 0.0592751 0.10545148 -0.43792486 0.4999375 0.21959573 0.40124542 -0.53676933 0.20815815 -0.021268861 0.16180815 0.4151517 0.25093776 0.44262943 -0.11454659 0.08593121 0.030069418 -0.45534468 0.13668324 -0.29629046 -0.02817301 -0.41985327 0.5367654 -0.20621634 -0.10098293 0.13696623 0.45472294 0.48486096 0.07982145 0.7622027 0.20255296 -0.21884729 0.17509383 0.78761125 0.5309618 0.07422236 -0.30268046 0.1658915 -0.32966483
” -0.10497579 0.1460267 -0.021192018 0.09307726 0.08223683 -0.5463956 0.075572826 0.7672053 -0.16038565 -0.2075592 -0.14123297 -0.38987374 -0.00035793404 0.19947493 0.14950295 -0.12257618 0.19866374 -0.16802269 -0.17337732 -0.7337244 0.22583738 0.17623538 0.30996424 -0.26059827 -0.09695481 -0.19943102 -0.5180641 -0.20738052 -0.2311899 0.15206258 0.30681247 -0.05413793 0.27165568 -0.44950423 -0.18842143 0.41038585 0.008434688 -0.17646798 -0.28648388 -0.5004462 0.100817315 -0.3181857 -0.2763526 -0.013741292 0.07803156 -0.14739767 -0.21982734 -0.006466577 0.15413067 0.25860462 0.19154069 -0.32850024 -0.13434257 -0.121051736 -0.1387978 0.23962888 0.24175069 -0.11705935 -0.2604414 -0.0853101 -0.036981843 -0.046657808 0.053850133 0.08621333 -0.39272305 0.4337408 0.20715415 0.37145904 -0.47950628 0.19607687 -0.00525914 0.12966654 0.36565176 0.23645434 0.3813 -0.1053098 0.09320715 0.029758625 -0.3931957 0.11865689 -0.27423543 -0.035366844 -0.35633698 0.470905 -0.18660837 -0.09755808 0.11976182 0.3986787 0.44364727 0.08082772 0.67830276 0.1725204 -0.201615 0.16088746 0.6890402 0.48199773 0.05621042 -0.28547794 0.14636725 -0.28389496
게 -0.11285351 0.18287945 -0.032929443 0.09071685 0.091790564 -0.64583457 0.081510894 0.88927746 -0.19755132 -0.24506555 -0.15154079 -0.45641965 0.0038544496 0.2291407 0.18528733 -0.13608542 0.2522656 -0.21765976 -0.20155959 -0.85431343 0.2560482 0.22362134 0.3645326 -0.3032259 -0.13062564 -0.22160053 -0.6268444 -0.24447745 -0.2686708 0.15942183 0.34890518 -0.07333615 0.31049648 -0.516667 -0.2247099 0.47856915 0.0064749448 -0.20904915 -0.34538344 -0.582129 0.10867213 -0.36887965 -0.32105595 -0.005574561 0.08851576 -0.17003186 -0.25664884 -0.005582865 0.16541336 0.30617437 0.20867085 -0.37857178 -0.16010228 -0.122811094 -0.1457471 0.2687096 0.28858057 -0.15014566 -0.2997352 -0.113009244 -0.03669197 -0.054262303 0.054055307 0.113421924 -0.45447278 0.5141775 0.22964011 0.41792014 -0.5523357 0.22200133 -0.010497189 0.15039214 0.4318067 0.27321723 0.44937962 -0.124443665 0.098506264 0.030730696 -0.47299755 0.12427411 -0.3189939 -0.0335848 -0.4258745 0.55544025 -0.2062071 -0.10171362 0.13016564 0.47995934 0.51087475 0.09310532 0.7936276 0.20470393 -0.22911939 0.18074371 0.8147163 0.5537508 0.057195704 -0.3142632 0.17493975 -0.34488344
국민 -0.096985914 0.14003003 -0.019345643 0.070027195 0.07839929 -0.5484418 0.06641098 0.7352622 -0.14373028 -0.20316423 -0.14514948 -0.36405605 -0.0035147613 0.18653508 0.15168272 -0.1173664 0.18725412 -0.18268418 -0.1653955 -0.7100013 0.20602418 0.1806421 0.3025148 -0.26382434 -0.09042078 -0.1791433 -0.512002 -0.18101195 -0.24300173 0.13850464 0.30547094 -0.05715851 0.2512346 -0.43733644 -0.19861138 0.39118037 0.004751782 -0.1714165 -0.2864457 -0.4762917 0.097439945 -0.30245328 -0.28213376 -0.021584228 0.0726029 -0.15501261 -0.22985068 0.002305592 0.1424811 0.25531954 0.18343067 -0.32779455 -0.13397944 -0.1076826 -0.12036461 0.24174395 0.23333843 -0.11445945 -0.25582808 -0.09281273 -0.04552888 -0.047892272 0.0430509 0.08246839 -0.37408903 0.4339792 0.19086206 0.3580173 -0.45485064 0.18701154 -0.014437582 0.14831959 0.36954996 0.22799942 0.38274443 -0.119798794 0.074806914 0.01993999 -0.3839699 0.10877436 -0.2767213 -0.014862476 -0.3727863 0.482099 -0.17351821 -0.09967671 0.11857428 0.4115724 0.42260498 0.07017817 0.67941296 0.1797373 -0.17619239 0.14072621 0.6774436 0.47073945 0.057157863 -0.2694715 0.14207634 -0.29125488
일 -0.12472375 0.18903014 -0.021127056 0.09374864 0.10882347 -0.6764386 0.08850862 0.92995167 -0.19008985 -0.25871453 -0.16663927 -0.46444935 0.019062243 0.24659063 0.1914172 -0.13935728 0.25258172 -0.21468869 -0.22261925 -0.89866686 0.2544173 0.22512652 0.35877135 -0.3270973 -0.11970181 -0.24274226 -0.6336183 -0.24641813 -0.28947327 0.16668113 0.3682315 -0.06696736 0.3134225 -0.54407036 -0.24216719 0.49610698 0.0060475934 -0.21933053 -0.3564651 -0.61000115 0.12381187 -0.38366956 -0.33462816 -0.024430247 0.08625363 -0.1863406 -0.27103704 0.0005205701 0.17734115 0.32238683 0.22427091 -0.400235 -0.17665514 -0.13464135 -0.16931446 0.28303066 0.3080443 -0.15366846 -0.3161411 -0.101267755 -0.033176195 -0.053228818 0.06541544 0.104204394 -0.477118 0.5234985 0.23787683 0.42757133 -0.5770718 0.23484911 -0.0018685242 0.16171508 0.4427128 0.29142022 0.47299045 -0.13886648 0.10768246 0.027829468 -0.4883717 0.13328916 -0.31504998 -0.021695508 -0.45359138 0.5774509 -0.2208706 -0.10884641 0.12754256 0.50797045 0.5284581 0.102112785 0.83758473 0.21917303 -0.23145069 0.18914741 0.83166814 0.57657224 0.070799775 -0.34394887 0.19265716 -0.36181572
없 -0.087632 0.1395672 -0.031621 0.07221247 0.0910336 -0.5486352 0.07775271 0.75238425 -0.1441462 -0.19633716 -0.122657225 -0.36676633 -0.004053661 0.18384515 0.14730744 -0.10779257 0.21038847 -0.16899647 -0.17845275 -0.7220566 0.21003237 0.17390084 0.3009435 -0.2650563 -0.10160379 -0.19714774 -0.5081008 -0.20662712 -0.23026977 0.13146722 0.3106296 -0.06768896 0.26134327 -0.43670705 -0.18045221 0.39189434 0.0052103465 -0.1833173 -0.27703208 -0.4960735 0.10407914 -0.3145177 -0.26905522 -0.014929515 0.08028351 -0.14371021 -0.23293805 0.010062078 0.14078358 0.26431113 0.1795183 -0.3217003 -0.13818987 -0.10142765 -0.1382088 0.24360584 0.25431427 -0.11857652 -0.2430604 -0.081276156 -0.029098917 -0.04625549 0.056703936 0.08907508 -0.37676844 0.4441626 0.18558466 0.35409886 -0.46931317 0.1802874 -0.017636087 0.13504097 0.35636938 0.2271438 0.3888667 -0.117179126 0.08552482 0.017244408 -0.39684334 0.10066155 -0.27536258 -0.015578992 -0.36483738 0.47068426 -0.18193127 -0.0909703 0.11467931 0.38933077 0.423708 0.069204256 0.65612143 0.17102504 -0.18911281 0.15706539 0.6805528 0.45519865 0.054409795 -0.27537265 0.13764039 -0.29099894
투표 -0.11092738 0.15915439 -0.03065822 0.0861076 0.101947166 -0.64005476 0.07842839 0.883575 -0.17250948 -0.24635023 -0.14750165 -0.4423635 0.011318763 0.2335724 0.17553005 -0.111419745 0.23280355 -0.19553031 -0.19282307 -0.84869933 0.23657253 0.2024586 0.34646127 -0.30973056 -0.11916764 -0.23409937 -0.6022079 -0.23417614 -0.2579587 0.15245989 0.34115636 -0.0625284 0.31026992 -0.50580573 -0.21872784 0.4478058 0.007816384 -0.21819003 -0.34099138 -0.5638646 0.116478994 -0.3501784 -0.3293664 -0.010450947 0.08824925 -0.17605233 -0.25603408 0.01289192 0.15591905 0.29986146 0.20979494 -0.3749834 -0.16257003 -0.11561105 -0.14443544 0.2751925 0.29117718 -0.14891885 -0.27623603 -0.096303515 -0.047922734 -0.055342354 0.067478105 0.110229656 -0.45822856 0.49982855 0.2298798 0.40941447 -0.5247427 0.19992274 -0.0008757703 0.14147782 0.4220032 0.27936438 0.4350706 -0.14086409 0.10855442 0.013228879 -0.46911514 0.12902388 -0.31064212 -0.015530362 -0.4067204 0.54883665 -0.19728024 -0.088617906 0.13256328 0.47217074 0.50612676 0.098892234 0.7809266 0.2105036 -0.2330072 0.19228885 0.8008343 0.5508497 0.05419645 -0.3188408 0.17623016 -0.3280008
기 -0.11103621 0.15863657 -0.011925001 0.101960264 0.083508894 -0.5863061 0.08698136 0.8146918 -0.1703751 -0.2329528 -0.14626303 -0.40020627 0.0132516315 0.19663456 0.16056013 -0.114414565 0.22339334 -0.194991 -0.18286097 -0.7815194 0.21841572 0.20772602 0.3159352 -0.28397325 -0.09966544 -0.20589861 -0.57120025 -0.21438707 -0.25651583 0.1452899 0.31456956 -0.057712235 0.269234 -0.47036722 -0.21286063 0.4355917 0.0023871958 -0.20219372 -0.30151236 -0.53703743 0.10961219 -0.33941865 -0.30477265 -0.018766643 0.09138192 -0.16212805 -0.23517871 -0.009315913 0.15683642 0.2759758 0.18622528 -0.3554203 -0.16137059 -0.12482639 -0.1438585 0.24907841 0.2547837 -0.14023618 -0.26321173 -0.09466091 -0.030188417 -0.045936603 0.0648793 0.09163099 -0.42289698 0.4684249 0.20482826 0.39193603 -0.4894306 0.19534872 -0.0023087205 0.15228216 0.3941658 0.25384673 0.42241764 -0.1159603 0.08317341 0.012810596 -0.4263198 0.119358465 -0.2753533 -0.037745263 -0.3905681 0.52009237 -0.19645852 -0.10875105 0.12288154 0.4295932 0.46115738 0.07745712 0.7262677 0.19812728 -0.20023432 0.1768718 0.7513364 0.508655 0.054971427 -0.2832831 0.15120986 -0.31717312
· -0.114408076 0.19306678 -0.02199986 0.09851716 0.11724552 -0.7073443 0.08788281 0.97899693 -0.19646908 -0.2593027 -0.17708263 -0.47019467 0.022160567 0.25468934 0.21185862 -0.14567815 0.25567448 -0.22966991 -0.22174262 -0.92039543 0.27321404 0.2363232 0.39144942 -0.33133015 -0.13213085 -0.259452 -0.67769665 -0.24691798 -0.30064863 0.1811811 0.38929182 -0.08168437 0.3451227 -0.5599781 -0.24251494 0.5204068 0.007499682 -0.23395501 -0.38352752 -0.6128936 0.1193466 -0.39213157 -0.34520876 -0.010996154 0.086391404 -0.17828 -0.28898266 0.010979835 0.17838801 0.32803923 0.2302669 -0.42837644 -0.18871956 -0.14841944 -0.16638605 0.30286175 0.30891627 -0.14812987 -0.32173973 -0.11871057 -0.04299208 -0.0604179 0.06374529 0.121448785 -0.49682266 0.55980307 0.2691073 0.45431796 -0.6027113 0.2485041 -0.013134667 0.17166692 0.46115044 0.28821388 0.497168 -0.14506589 0.11430001 0.023671238 -0.5057686 0.14762455 -0.34752333 -0.033347994 -0.4801476 0.61460114 -0.23214169 -0.10792069 0.14050297 0.52342635 0.5599521 0.10050151 0.8698908 0.22313985 -0.25310752 0.19643494 0.86696213 0.59128875 0.07985231 -0.34353435 0.18837978 -0.3856719
않 -0.100072116 0.15173422 -0.03168139 0.08958012 0.09058343 -0.5220243 0.05979348 0.74063194 -0.16134857 -0.18385276 -0.13645813 -0.3661291 0.0115756765 0.18581592 0.15861537 -0.11104067 0.2079825 -0.18368116 -0.16306801 -0.71124554 0.19844058 0.17537852 0.28872487 -0.24982251 -0.101849504 -0.20099635 -0.5142544 -0.20407732 -0.23833878 0.13153648 0.3057248 -0.0616542 0.23869236 -0.43746713 -0.17903478 0.38038445 0.0057715643 -0.1792774 -0.26508856 -0.4870647 0.08659255 -0.29271156 -0.27677417 -0.0041194204 0.07470252 -0.12642673 -0.2116504 0.003671782 0.1445674 0.2544562 0.17810813 -0.3198851 -0.13101265 -0.099151514 -0.1118073 0.22271295 0.23347536 -0.107091315 -0.2548581 -0.0849139 -0.043956727 -0.03857668 0.037179954 0.091031946 -0.35861793 0.4200426 0.18125515 0.3338885 -0.44429407 0.16740483 0.0008408449 0.12801224 0.35882223 0.22056305 0.36418197 -0.11547958 0.08030864 0.013467271 -0.37438318 0.10387433 -0.265833 -0.023035977 -0.3527961 0.4441461 -0.17798324 -0.08914038 0.10799369 0.39291447 0.4335754 0.08656632 0.6566809 0.17058577 -0.18940789 0.16331787 0.6622159 0.4565887 0.05321883 -0.25276762 0.14837632 -0.29149157
와 -0.12598996 0.190015 -0.017603545 0.098101 0.1092009 -0.7040298 0.09546998 0.9757032 -0.21400106 -0.2590397 -0.18700494 -0.49546367 0.013928846 0.23975098 0.19572994 -0.14346434 0.25852534 -0.23747392 -0.22469197 -0.94344795 0.27282634 0.23410062 0.3970796 -0.3486134 -0.12756935 -0.25488564 -0.6771971 -0.26462966 -0.30506933 0.1755271 0.38344276 -0.0640361 0.34158736 -0.56780326 -0.25711894 0.5228808 -0.0020364153 -0.23938857 -0.38119006 -0.63982403 0.13310024 -0.40930384 -0.35345215 -0.0072737113 0.09399865 -0.191131 -0.29376534 -0.007962548 0.17435913 0.33727777 0.23841175 -0.4254945 -0.18565607 -0.14026774 -0.17018116 0.29392245 0.31868845 -0.14572568 -0.33333197 -0.11357933 -0.040299978 -0.062133703 0.0640844 0.10959299 -0.49120787 0.5692469 0.26461324 0.45969865 -0.60535896 0.23402765 -0.023027182 0.18228109 0.46705803 0.2956223 0.50684094 -0.15174136 0.11577555 0.018464528 -0.514684 0.14933942 -0.34787303 -0.034480907 -0.47980776 0.61220086 -0.23708948 -0.120715365 0.15542866 0.5354367 0.56313354 0.10199557 0.86738765 0.23769145 -0.25281474 0.20692188 0.8996729 0.61325985 0.07442623 -0.34535962 0.20433597 -0.37987047
선거 -0.09568442 0.15774632 -0.010163151 0.0859445 0.08598556 -0.56568515 0.06511093 0.7689433 -0.166387 -0.20938614 -0.14297462 -0.38435787 0.015517829 0.20813984 0.16598237 -0.1078279 0.20564608 -0.17730479 -0.18180089 -0.7529667 0.22077386 0.1775946 0.310916 -0.27075228 -0.11180337 -0.19857483 -0.5414494 -0.19524422 -0.24427186 0.13518122 0.3142468 -0.055290494 0.2707806 -0.44682536 -0.2003632 0.4008138 0.009129309 -0.17679535 -0.2986122 -0.5025827 0.10449224 -0.31235027 -0.28930634 -0.015050731 0.07562413 -0.14766717 -0.22194664 0.008692559 0.13673222 0.27123454 0.17987171 -0.33865207 -0.15373114 -0.11917077 -0.12418232 0.2427204 0.23862195 -0.12071906 -0.26300985 -0.09777378 -0.033067953 -0.044003632 0.052481014 0.09981108 -0.38486657 0.4380458 0.20802025 0.36530522 -0.47227308 0.19535507 -0.01799174 0.13256896 0.37079895 0.2417632 0.3920859 -0.103798024 0.081645526 0.011085733 -0.41066614 0.10857094 -0.26028866 -0.030305495 -0.37470138 0.49247012 -0.19191583 -0.0909265 0.120341554 0.40531033 0.44378358 0.07777306 0.6942851 0.17533334 -0.20301597 0.16903669 0.69640666 0.4852106 0.05025551 -0.26870164 0.150885 -0.30381054
화 -0.122157045 0.18181427 -0.02331927 0.10614161 0.09147111 -0.68568873 0.08931591 0.9573005 -0.18905467 -0.25737587 -0.18370506 -0.4644261 -0.0062674335 0.24295111 0.19430846 -0.14269213 0.24422942 -0.2362852 -0.23763421 -0.8962607 0.26242656 0.22745498 0.39018458 -0.3393347 -0.12776138 -0.24481004 -0.67059183 -0.26416793 -0.2787203 0.17018437 0.36202937 -0.059137646 0.31640252 -0.554598 -0.24324866 0.49708703 -0.011575992 -0.23827338 -0.3771873 -0.6094923 0.12037495 -0.38999695 -0.33681074 -0.0109206615 0.1087871 -0.17044245 -0.2816295 -0.0005104673 0.17850971 0.33635953 0.2402582 -0.41792217 -0.17582187 -0.14180538 -0.16733105 0.28402483 0.29576644 -0.16464613 -0.31495968 -0.10861101 -0.03736307 -0.06235882 0.06700346 0.09578245 -0.46494737 0.54148483 0.2591141 0.45488903 -0.58277696 0.23498017 -0.008815329 0.15062042 0.4461873 0.28041545 0.4687288 -0.1280197 0.116940185 0.021661099 -0.47635654 0.1354655 -0.33280182 -0.021712616 -0.4710505 0.58429486 -0.21583869 -0.1240937 0.15278581 0.5180593 0.5280492 0.11393291 0.85432476 0.21105482 -0.25279844 0.18116862 0.8618419 0.5963594 0.070281364 -0.32956338 0.17691387 -0.37120947
정부 -0.099406675 0.15418234 -0.030718304 0.094911896 0.08265787 -0.61462617 0.08606525 0.85000753 -0.18411866 -0.2199742 -0.13938925 -0.4118997 0.0037804649 0.2236134 0.16424274 -0.122791596 0.22964925 -0.20344037 -0.20503426 -0.8074329 0.24248731 0.1974268 0.32865173 -0.28668186 -0.11407366 -0.22202629 -0.571586 -0.22567782 -0.25276384 0.15867078 0.34094626 -0.054634355 0.29378298 -0.49395248 -0.20892355 0.43949482 0.007477461 -0.19066724 -0.31140208 -0.551636 0.12051878 -0.34549648 -0.3028771 -0.0056208437 0.077754125 -0.1601863 -0.24503152 0.010057834 0.16321811 0.2827815 0.18970084 -0.3649443 -0.14696398 -0.13219088 -0.13498569 0.25956917 0.26669222 -0.12099799 -0.2668951 -0.08760797 -0.02857779 -0.058794316 0.063674375 0.088244185 -0.43281832 0.4697458 0.22266974 0.40051302 -0.5179035 0.19778153 -0.015061517 0.14108738 0.39599973 0.25925535 0.42758918 -0.12397234 0.08954143 0.020338412 -0.43882918 0.12627928 -0.28265288 -0.01907402 -0.4064782 0.5160095 -0.20733641 -0.104766205 0.12726605 0.4406814 0.48169324 0.09646222 0.74611974 0.19670098 -0.2030719 0.1807734 0.76100314 0.51232827 0.06474525 -0.29315054 0.17401911 -0.3259487
자 -0.09465927 0.17153586 -0.013884163 0.08938333 0.10548576 -0.6340287 0.0718648 0.88447183 -0.19326499 -0.24526332 -0.15234312 -0.42175716 0.008405778 0.23254073 0.19019362 -0.117855705 0.22510004 -0.19497254 -0.21451893 -0.8446546 0.25272363 0.20150958 0.35450217 -0.3059388 -0.11730366 -0.23486406 -0.61459935 -0.23956913 -0.25436908 0.17299506 0.33511943 -0.07713935 0.30188155 -0.5185425 -0.20956963 0.46563137 -0.004377518 -0.20057622 -0.32376847 -0.5659114 0.11568108 -0.36575732 -0.31060994 0.0025048477 0.088233896 -0.17841372 -0.24718775 0.00013013573 0.16192296 0.31109908 0.21177278 -0.37164772 -0.17367733 -0.124610744 -0.15740518 0.2743695 0.29076958 -0.13075863 -0.27694654 -0.106922634 -0.037981544 -0.04074055 0.054746095 0.1107003 -0.45983708 0.5130439 0.23746051 0.41763604 -0.5316304 0.21896328 -0.017734611 0.14488748 0.4120863 0.26783168 0.43706477 -0.14047086 0.09170143 0.03478776 -0.44904393 0.14092967 -0.3128785 -0.027588649 -0.4308146 0.5562286 -0.20935099 -0.092871346 0.11644975 0.46328065 0.50867015 0.09513344 0.76898247 0.19507822 -0.21883121 0.17192373 0.7984901 0.54824245 0.06500107 -0.32192758 0.16242039 -0.33801168
아야 -0.08362584 0.1433718 -0.028215468 0.09130138 0.067201376 -0.5193737 0.08047468 0.7325532 -0.16264111 -0.19428198 -0.13906395 -0.37059075 0.015674999 0.17701915 0.13922386 -0.10913711 0.20284666 -0.16788478 -0.17395322 -0.7082113 0.21224344 0.19107266 0.30151692 -0.24855155 -0.09320664 -0.18443818 -0.50115293 -0.1881179 -0.22217599 0.13837571 0.28441647 -0.06455251 0.25954306 -0.4315983 -0.18409875 0.38261488 0.0023524181 -0.17961097 -0.27197757 -0.478371 0.084695205 -0.3021219 -0.2595518 -0.0014041873 0.07819439 -0.13050514 -0.223203 -0.00643332 0.12750949 0.24418253 0.18171549 -0.32350877 -0.14579849 -0.12082255 -0.114360504 0.21965726 0.23717298 -0.122585766 -0.24241912 -0.08336492 -0.0374322 -0.052279953 0.041912567 0.08890927 -0.37916735 0.41940263 0.18647726 0.35320002 -0.44675487 0.18157427 -0.018091856 0.11754463 0.35174704 0.22081551 0.3637999 -0.11296904 0.09449654 0.0067194905 -0.38385925 0.10729542 -0.2542285 -0.012530962 -0.34734595 0.445003 -0.17888574 -0.09934747 0.09819412 0.37797967 0.40888998 0.07389176 0.6451285 0.16269599 -0.17844643 0.15270516 0.67194 0.4448076 0.05964538 -0.25181988 0.13961537 -0.28537852
년 -0.13083333 0.18775359 -0.012730946 0.12348409 0.12123775 -0.7438418 0.10490072 1.0229731 -0.20655817 -0.28470165 -0.18316373 -0.51052743 0.0021137337 0.26134965 0.21966109 -0.13932587 0.26308778 -0.23427375 -0.24117781 -0.9618506 0.27010724 0.253727 0.3929905 -0.3594175 -0.13627614 -0.26227024 -0.7139025 -0.26879784 -0.3111078 0.18203309 0.40940621 -0.0746839 0.36001414 -0.57945406 -0.26428136 0.5411651 0.013695347 -0.23829117 -0.380823 -0.66061336 0.1402556 -0.41928202 -0.36888525 -0.021666238 0.10129575 -0.19182232 -0.30832773 0.01568132 0.19412541 0.3467493 0.23566258 -0.44063812 -0.18338363 -0.14122261 -0.18569562 0.32450822 0.32376197 -0.17224306 -0.3263838 -0.11000645 -0.04377215 -0.04825354 0.058089595 0.109408684 -0.517994 0.57426304 0.27304718 0.476515 -0.6330475 0.24931669 -0.011411685 0.17794007 0.48933837 0.30837232 0.5200324 -0.14900753 0.12499839 0.028190931 -0.5246423 0.14587818 -0.34548894 -0.028880626 -0.48761618 0.6487823 -0.2520423 -0.10793669 0.1467732 0.5430191 0.577547 0.09575957 0.9005903 0.239217 -0.25168556 0.21945345 0.9080582 0.63710815 0.06985873 -0.3605619 0.21375498 -0.3951356
까지 -0.12503587 0.17332794 -0.017961718 0.1040227 0.09355847 -0.67755884 0.094982 0.94828045 -0.19244778 -0.2540267 -0.17945035 -0.46194652 0.013882601 0.23236647 0.18981141 -0.13380511 0.25309274 -0.22160466 -0.22467533 -0.9070789 0.2668969 0.226523 0.37558287 -0.32359648 -0.1321445 -0.24929938 -0.64228773 -0.25986394 -0.29160416 0.1740576 0.3647299 -0.07177039 0.33188346 -0.54741704 -0.22930391 0.4963631 0.0014993805 -0.22885992 -0.35946175 -0.6027142 0.13331693 -0.3834404 -0.34967446 -0.018221416 0.102250606 -0.17839965 -0.27318475 0.003976273 0.18654689 0.31397736 0.2346263 -0.41692877 -0.1791606 -0.13129008 -0.17577897 0.29775363 0.29626465 -0.15701005 -0.3088922 -0.10656719 -0.046923447 -0.04631775 0.055507362 0.10997946 -0.47072342 0.5414578 0.24328984 0.44779226 -0.58397776 0.22907181 -0.010520835 0.17279938 0.45571077 0.28123516 0.4878968 -0.14247882 0.114954926 0.017056143 -0.5000035 0.13866237 -0.33927873 -0.03288743 -0.45192012 0.59011436 -0.23546018 -0.11811591 0.12992303 0.504406 0.54589206 0.09715179 0.8493158 0.21553834 -0.23046844 0.20198667 0.86358637 0.5834768 0.07247673 -0.33520982 0.17741983 -0.35119224
대하 -0.11047578 0.17652123 -0.015138283 0.101199895 0.09014778 -0.6351697 0.084674604 0.865175 -0.19335984 -0.2399062 -0.15557255 -0.43250328 0.01202241 0.22319508 0.1803561 -0.1294781 0.22384407 -0.19634892 -0.19199467 -0.82673657 0.24408679 0.20068465 0.35368186 -0.30462274 -0.1259048 -0.20797928 -0.600674 -0.23746684 -0.26885834 0.16634819 0.3377016 -0.059006117 0.29869658 -0.49667236 -0.2168164 0.44320336 0.0016785042 -0.19818287 -0.32483837 -0.56470513 0.12275781 -0.3498911 -0.30726165 -0.01293622 0.075530946 -0.17376475 -0.24777181 -0.002118249 0.17544983 0.28395256 0.1940191 -0.38048393 -0.1557322 -0.13526943 -0.14013584 0.25551566 0.2792684 -0.13222884 -0.28646648 -0.08740754 -0.03294618 -0.05255738 0.06380465 0.109760985 -0.43593457 0.5055994 0.22619481 0.39953032 -0.536574 0.208012 -0.023200825 0.15106429 0.42108813 0.25811613 0.44550347 -0.11908772 0.09446345 0.023559676 -0.44285938 0.11860283 -0.29878762 -0.018166907 -0.41951552 0.5345712 -0.21528217 -0.11217718 0.13381127 0.46919996 0.50379044 0.08778343 0.770817 0.20495269 -0.23003143 0.16888559 0.7904051 0.5259638 0.06293124 -0.31307885 0.17812379 -0.3365395
다고 -0.08805453 0.15518785 -0.025775041 0.08397696 0.089092046 -0.5784099 0.086457215 0.8055825 -0.16300018 -0.22344631 -0.14779451 -0.3972301 0.006402248 0.19511068 0.17116214 -0.107431784 0.21221498 -0.18134432 -0.17793392 -0.76240784 0.23180674 0.19083172 0.30703217 -0.27212328 -0.1174529 -0.19100459 -0.554449 -0.21219686 -0.2482852 0.15144971 0.32020763 -0.07250269 0.2669161 -0.4623046 -0.19635372 0.4242115 0.007483398 -0.1899138 -0.30799064 -0.5086849 0.094426595 -0.32423952 -0.29194707 -0.017742619 0.09073672 -0.1522992 -0.24299353 -0.009505001 0.15001008 0.26224455 0.19207111 -0.33907694 -0.14303918 -0.12508617 -0.12829755 0.23523396 0.2621289 -0.12829348 -0.26282802 -0.087742455 -0.039770182 -0.05187299 0.051951796 0.08524801 -0.40385377 0.44947815 0.21307215 0.36502725 -0.4902956 0.17968139 -0.020716367 0.13602993 0.36961356 0.23451287 0.40291414 -0.11498758 0.09378872 0.029794374 -0.42493913 0.12301794 -0.28743136 -0.01816944 -0.3685339 0.5043373 -0.19741155 -0.09053543 0.107404865 0.41901672 0.44913328 0.07247301 0.7095066 0.18872777 -0.20158215 0.15536667 0.7253969 0.48464397 0.05071334 -0.2894261 0.15468426 -0.29379272
윤 -0.092261165 0.14034323 -0.0013733659 0.06838043 0.0692515 -0.49527153 0.072352715 0.6841253 -0.15028594 -0.19609395 -0.119492956 -0.3549078 -0.004168622 0.1755828 0.14031196 -0.098283544 0.18078038 -0.15774736 -0.15712714 -0.64955753 0.18192786 0.1530621 0.26176995 -0.2270915 -0.09097799 -0.17869934 -0.46673363 -0.16780774 -0.20184071 0.11841718 0.26593262 -0.053666726 0.23154949 -0.3914762 -0.16995886 0.35618484 0.013433175 -0.17635725 -0.25538388 -0.4450818 0.09640307 -0.2889426 -0.2441771 0.0032000202 0.069491826 -0.1385501 -0.21240032 0.005853664 0.13237813 0.24026495 0.15917516 -0.3090931 -0.115997545 -0.10500795 -0.11964991 0.21928038 0.21050707 -0.107615754 -0.230157 -0.08744503 -0.041653566 -0.04274945 0.036038686 0.07874916 -0.3482118 0.4000037 0.18886419 0.33199662 -0.41895208 0.1650177 -0.014923061 0.13054 0.33471984 0.19420563 0.3560432 -0.084583774 0.086293496 0.011123897 -0.35467649 0.10228605 -0.23805852 -0.024066031 -0.33590096 0.43744585 -0.15832812 -0.081965394 0.09685 0.36017293 0.38675168 0.076932974 0.6109173 0.15804733 -0.18461315 0.13887015 0.6267923 0.4315112 0.057237875 -0.24669802 0.14997002 -0.2600419
면 -0.12356167 0.20010394 -0.028823422 0.11830639 0.11676912 -0.7127741 0.09993377 0.9967837 -0.2121823 -0.27823368 -0.17600639 -0.49241778 0.0039067464 0.25414518 0.20918737 -0.14916177 0.26954725 -0.22511263 -0.23886885 -0.953696 0.2655171 0.23110005 0.40121812 -0.3507422 -0.13623959 -0.26099953 -0.69600976 -0.270896 -0.3045766 0.1867142 0.385468 -0.08345433 0.3369849 -0.57856226 -0.25792035 0.51770824 0.012227518 -0.23609887 -0.36962238 -0.63792294 0.12963389 -0.40713358 -0.35076436 -0.010694786 0.10224314 -0.19129644 -0.30205378 0.007946832 0.1925919 0.33932367 0.24462226 -0.43401596 -0.18225762 -0.15228407 -0.18236086 0.3087932 0.32250977 -0.15094338 -0.33817133 -0.10843147 -0.042528953 -0.054798484 0.06617336 0.122061975 -0.49751884 0.5591932 0.25147778 0.47544828 -0.6108752 0.2299892 -0.019701313 0.17692159 0.48179382 0.30027443 0.5022876 -0.15217184 0.10242004 0.02758461 -0.51729935 0.13815823 -0.34675017 -0.042593632 -0.47817564 0.6265396 -0.23530672 -0.10882795 0.15136063 0.53126204 0.576218 0.109421946 0.89192873 0.24195217 -0.24588577 0.20996304 0.90816045 0.6127144 0.070721775 -0.34586185 0.19925538 -0.38589227
단일 -0.098088786 0.13675182 0.00056978985 0.086552896 0.08534919 -0.51932317 0.08593233 0.72454756 -0.1642741 -0.20552914 -0.14522348 -0.3810824 0.004711494 0.17341565 0.16205613 -0.1140547 0.18121007 -0.1871535 -0.18446408 -0.7212665 0.19850323 0.18344182 0.28909522 -0.24238789 -0.10264715 -0.20424505 -0.519538 -0.1964994 -0.23718078 0.12290417 0.2832363 -0.057208203 0.2648311 -0.4392497 -0.19824211 0.393327 -0.0021773211 -0.17673555 -0.2855826 -0.46537843 0.10981211 -0.31692278 -0.2560376 -0.00026004814 0.07496234 -0.12984687 -0.22970912 -0.005477234 0.12370653 0.26649708 0.16131796 -0.3278747 -0.13485028 -0.114569284 -0.11557155 0.21720254 0.21813995 -0.101954766 -0.2597698 -0.0696644 -0.039326742 -0.035129428 0.044401746 0.07699886 -0.38289854 0.40783656 0.21074824 0.35903797 -0.45377633 0.18968968 -0.0029753065 0.1359799 0.3551551 0.20428066 0.39352712 -0.11856264 0.07978778 0.02092553 -0.36850977 0.08931546 -0.2561614 -0.015088293 -0.37342244 0.48046526 -0.18662022 -0.07246454 0.09822681 0.40695733 0.4358506 0.063267685 0.65829426 0.15688401 -0.1755708 0.16553482 0.6562035 0.45762464 0.051507942 -0.2710021 0.15130655 -0.29979217
정치 -0.07842337 0.11858042 -0.0066226376 0.08098899 0.068221435 -0.4730103 0.05239092 0.656207 -0.13344896 -0.16665511 -0.11270906 -0.32715777 0.011602171 0.17545074 0.14255437 -0.085710116 0.16693598 -0.16166054 -0.14372502 -0.6356616 0.18258971 0.16413365 0.25372595 -0.21671233 -0.09712689 -0.1594189 -0.44477877 -0.16745958 -0.20905821 0.13005155 0.26699072 -0.050875172 0.22851446 -0.37195095 -0.16645837 0.3480577 0.0014963194 -0.15900995 -0.24838404 -0.4244438 0.085106164 -0.27634567 -0.23260216 0.001421604 0.070548005 -0.11830661 -0.1967766 0.008244139 0.11476907 0.2170068 0.16415404 -0.27512473 -0.12585022 -0.1002204 -0.10479957 0.20235008 0.21430033 -0.109180875 -0.2170765 -0.07499116 -0.03116786 -0.0379637 0.037021924 0.080617316 -0.3331462 0.38138136 0.17162208 0.31621343 -0.4007608 0.16264144 -0.017109632 0.10589509 0.30974633 0.19407265 0.3416213 -0.0899676 0.06695278 0.024477355 -0.33828175 0.083805494 -0.22309169 -0.02354318 -0.32197925 0.41610917 -0.14750814 -0.0672697 0.09622435 0.35546938 0.38061857 0.060214136 0.58778626 0.14841896 -0.17418516 0.14352082 0.58300614 0.41082278 0.04196834 -0.22152932 0.12228837 -0.24554186
보 -0.06930091 0.12595563 -0.017396918 0.063202195 0.057454348 -0.4456193 0.06795485 0.6204956 -0.12375444 -0.16368793 -0.11963624 -0.30888453 -0.002960835 0.15495528 0.12757316 -0.096454196 0.16509004 -0.15202002 -0.152129 -0.6079243 0.18513288 0.15968172 0.24705264 -0.21630083 -0.07800947 -0.15716958 -0.4392568 -0.17318961 -0.18976204 0.12471955 0.24985404 -0.038911864 0.2201573 -0.3619191 -0.14888899 0.33737683 0.01544323 -0.13837528 -0.2449608 -0.40014482 0.07567499 -0.26497787 -0.23618555 -0.0047938386 0.06296188 -0.12606731 -0.17745258 0.009081602 0.12328298 0.22290091 0.14297552 -0.2758871 -0.11132593 -0.095880225 -0.116959184 0.19827813 0.19839688 -0.10447979 -0.20248078 -0.0639918 -0.02209924 -0.035715617 0.051297173 0.074998125 -0.30981556 0.3564372 0.1679402 0.30035433 -0.39213222 0.15661295 -0.0057637515 0.11588898 0.29412535 0.18674345 0.31031626 -0.09307417 0.06815041 0.012598741 -0.32521087 0.10060602 -0.21283434 -0.02779213 -0.30383658 0.38707575 -0.14437635 -0.08434051 0.09879059 0.33462948 0.35361633 0.07368837 0.56363875 0.14472291 -0.15124597 0.11878436 0.5568903 0.3834562 0.05774411 -0.2209146 0.12929289 -0.24310234
겠 -0.09956328 0.16673777 -0.020347465 0.09123841 0.09658298 -0.62371224 0.09015649 0.8582046 -0.18167529 -0.23630215 -0.15984228 -0.43140343 0.0027414735 0.21894865 0.16571331 -0.12320559 0.22029781 -0.20201865 -0.19782779 -0.8301266 0.2403433 0.2159165 0.34167537 -0.28943643 -0.119879596 -0.21589251 -0.5843071 -0.22159307 -0.2514264 0.1587596 0.34515825 -0.058684178 0.29602706 -0.48863825 -0.22080249 0.44436046 0.015920376 -0.19480644 -0.31852022 -0.55347985 0.119156465 -0.34909555 -0.3096807 0.0013915659 0.09376467 -0.15980875 -0.25168753 -0.0089647295 0.15802051 0.2949197 0.19526218 -0.35973668 -0.15073863 -0.13547543 -0.15466692 0.25606585 0.27102622 -0.13658936 -0.28278497 -0.098859444 -0.035750326 -0.041162554 0.05216245 0.09077737 -0.427839 0.47923172 0.2324322 0.40419477 -0.5310409 0.19754557 -0.0211563 0.15242898 0.40861207 0.25974852 0.4313488 -0.12221728 0.10048643 0.02014424 -0.4521413 0.124669015 -0.29510066 -0.030556194 -0.40957898 0.5288646 -0.19520876 -0.10572884 0.13578387 0.44795948 0.4752418 0.07961625 0.7508456 0.19864108 -0.20572893 0.17799467 0.7819062 0.5246411 0.07202697 -0.30423382 0.16630211 -0.31584817
대선 -0.103647344 0.17323995 -0.02520561 0.08470122 0.090599924 -0.6151567 0.079658814 0.84670824 -0.18229105 -0.2398114 -0.14402314 -0.42360538 0.0056276857 0.21538463 0.1723975 -0.13116689 0.22469652 -0.19791679 -0.18819492 -0.82231325 0.22844559 0.20136762 0.33886236 -0.29877573 -0.12127503 -0.22484864 -0.58024484 -0.23076048 -0.263767 0.15843834 0.33735403 -0.07493219 0.3007336 -0.49309048 -0.21612655 0.4374714 -0.0011981949 -0.19978322 -0.3188909 -0.5443468 0.11944862 -0.3571224 -0.30943114 -0.014389706 0.08507892 -0.15958123 -0.24793641 -0.004380332 0.16205671 0.29503876 0.19469628 -0.36437076 -0.16262509 -0.11474223 -0.14446418 0.26567155 0.26868808 -0.14494784 -0.27079153 -0.098876394 -0.031765986 -0.045665424 0.048147764 0.09724273 -0.42697015 0.48156118 0.23618647 0.39384577 -0.52841526 0.2098256 -0.01523936 0.14175841 0.4066167 0.26310894 0.42412385 -0.12637472 0.087615915 0.024778074 -0.44595113 0.1335243 -0.2946663 -0.02568253 -0.4107805 0.5394337 -0.20280047 -0.10942364 0.117028095 0.45396927 0.49359205 0.089956254 0.74927795 0.1909158 -0.22581965 0.17781292 0.758925 0.5272501 0.06737028 -0.30418602 0.15996471 -0.31930158
명 -0.09443891 0.13586535 -0.025713632 0.091027856 0.08720167 -0.5572117 0.07242622 0.7685537 -0.16771276 -0.2145249 -0.13459612 -0.38658512 0.009604323 0.19662431 0.16748972 -0.10637947 0.20413272 -0.16994935 -0.18049188 -0.72059536 0.212615 0.18321975 0.28872204 -0.2612837 -0.094305515 -0.19381233 -0.5348924 -0.20989844 -0.23545896 0.14914438 0.29181847 -0.05274004 0.25363886 -0.44538733 -0.19743985 0.40386498 -0.0018876808 -0.18985516 -0.2957805 -0.49691224 0.09357868 -0.31004125 -0.27000812 -0.009283132 0.065797515 -0.14558531 -0.21403559 -0.0011362096 0.13754898 0.2685972 0.18798274 -0.3360959 -0.13556464 -0.12253149 -0.14456536 0.23143752 0.25101283 -0.119117625 -0.24488221 -0.079721816 -0.030902306 -0.04408919 0.043138202 0.07925479 -0.39049762 0.4454089 0.19229941 0.3626177 -0.4607704 0.17942885 -0.018943317 0.12677741 0.3541335 0.222536 0.38849062 -0.12082668 0.08359928 0.028475996 -0.39930198 0.10772037 -0.26951888 -0.019855494 -0.35991332 0.47575238 -0.18355647 -0.08569777 0.108018115 0.40391713 0.44281417 0.07100704 0.6809531 0.16752748 -0.19499066 0.16557397 0.68477434 0.4795815 0.066183984 -0.28248814 0.1530944 -0.2957087
안 -0.095271476 0.13328625 -0.006772801 0.084822126 0.06758935 -0.49683034 0.06176366 0.685371 -0.14322434 -0.19688943 -0.12090269 -0.35153243 0.0056444756 0.17830147 0.13261367 -0.09738336 0.18084581 -0.17110756 -0.16218889 -0.6537101 0.17760956 0.15715405 0.27081537 -0.22914708 -0.09318534 -0.16486451 -0.48153976 -0.17172243 -0.21412694 0.11943336 0.26340726 -0.051044203 0.23254976 -0.38893795 -0.17609517 0.3643707 0.011281282 -0.17445995 -0.2622945 -0.44811183 0.08346448 -0.28007448 -0.24583028 -0.009798682 0.06856788 -0.13767284 -0.2068307 0.0031460137 0.13602594 0.24128371 0.15940028 -0.2940066 -0.1280004 -0.10476541 -0.1254539 0.204873 0.22057523 -0.11693565 -0.23497571 -0.08405681 -0.024941798 -0.039810535 0.050788816 0.087842815 -0.35284364 0.38715205 0.1908437 0.32849032 -0.4158916 0.1749643 -0.0009282104 0.117147796 0.32803094 0.21245393 0.35724357 -0.08643524 0.06803627 0.01197166 -0.34875557 0.101943225 -0.23933053 -0.013345191 -0.3215455 0.42155343 -0.16561642 -0.09057243 0.10891574 0.36935106 0.38936228 0.07468076 0.6171032 0.1682966 -0.16881637 0.14370337 0.62301505 0.43315905 0.05358015 -0.24436322 0.12889 -0.25935328
방역 -0.093063995 0.13772933 -0.02264752 0.07272866 0.073846936 -0.48690978 0.05401831 0.675493 -0.14721727 -0.1905176 -0.115122326 -0.3336453 0.014770133 0.16300863 0.13898033 -0.096948884 0.18818983 -0.1656222 -0.1488753 -0.6569916 0.1785409 0.16101998 0.26349744 -0.23408641 -0.09857429 -0.16602053 -0.47425434 -0.17672499 -0.20110314 0.123667255 0.2658072 -0.043758098 0.21942532 -0.39955163 -0.16425818 0.36174315 -0.0021763348 -0.16878396 -0.2541601 -0.44280133 0.09142985 -0.26771855 -0.25072035 -0.015523864 0.07749268 -0.1299171 -0.20086929 -0.00093290355 0.11790464 0.2236697 0.15426409 -0.2903966 -0.12458434 -0.08851482 -0.108699605 0.20599727 0.2044607 -0.10248141 -0.22862914 -0.066175275 -0.026378494 -0.040548697 0.053355247 0.07429226 -0.34466773 0.38444248 0.18658942 0.321922 -0.41038153 0.16517147 -0.0121356 0.12815858 0.3126184 0.20073858 0.33376676 -0.087013885 0.07096769 0.015640225 -0.34177157 0.08731161 -0.23895518 -0.019870125 -0.3263531 0.42808616 -0.1569384 -0.084877975 0.103557594 0.36822167 0.38674426 0.07693129 0.5884418 0.15364909 -0.15866818 0.14525338 0.6091697 0.41085264 0.058082793 -0.2365725 0.14218664 -0.257531
대통령 -0.0721728 0.1202905 -0.019214287 0.06901822 0.07223517 -0.47063756 0.07042885 0.64043546 -0.14758666 -0.16867921 -0.110202625 -0.3277092 0.0019520927 0.16051868 0.13128535 -0.08354917 0.17402926 -0.15505555 -0.15409319 -0.6284211 0.16682124 0.16177745 0.24773054 -0.22891171 -0.09742071 -0.15494841 -0.44350347 -0.16969426 -0.19620857 0.1174656 0.26848322 -0.05300464 0.22849219 -0.37914908 -0.15650688 0.3520954 0.012746387 -0.15723662 -0.24990298 -0.42767483 0.09821601 -0.27829465 -0.2440384 -0.0016912057 0.062686734 -0.117610015 -0.20108894 0.012816449 0.12554766 0.21162605 0.15840624 -0.28771108 -0.11166625 -0.08681507 -0.12577465 0.20883445 0.21120302 -0.095517665 -0.22270209 -0.08299933 -0.040458646 -0.03425593 0.037557237 0.080117375 -0.32342955 0.38155234 0.17643973 0.30619743 -0.39858484 0.16006409 -0.018888082 0.11109757 0.31024858 0.20246042 0.33064318 -0.1019219 0.069431104 0.025180165 -0.3308124 0.09889699 -0.23408262 -0.024687799 -0.3155701 0.40240765 -0.16441095 -0.077715546 0.099135615 0.35365263 0.37688446 0.076481946 0.5734195 0.1640182 -0.16910762 0.13422754 0.5851878 0.39908528 0.049920347 -0.24142505 0.14170139 -0.2444266
다는 -0.10296114 0.15941574 -0.010147788 0.08207674 0.09082796 -0.5786921 0.082579345 0.8010901 -0.17876352 -0.21046855 -0.14515984 -0.40845954 0.0088202 0.19630866 0.17363313 -0.12301143 0.21541965 -0.1870189 -0.18972255 -0.7764312 0.23138525 0.19275174 0.3073929 -0.27360803 -0.1215251 -0.20665511 -0.5492054 -0.20871532 -0.25371596 0.15084924 0.3255451 -0.06942656 0.27172405 -0.46983403 -0.21235673 0.42551777 0.0147842625 -0.1899235 -0.30100855 -0.5179713 0.1050305 -0.33864516 -0.29131883 -0.0038887751 0.086107485 -0.15487452 -0.22673641 0.0048318193 0.1433488 0.28036055 0.20097223 -0.35776597 -0.14080821 -0.12604757 -0.13910499 0.25269598 0.25058803 -0.1353742 -0.27367675 -0.10205777 -0.04500207 -0.036906652 0.05760737 0.082234554 -0.3981966 0.46722546 0.2216128 0.3889662 -0.500959 0.18980788 -0.007967899 0.14296433 0.38741416 0.23417024 0.4114633 -0.10283431 0.07997621 0.031193728 -0.4141364 0.11302933 -0.28523374 -0.034795187 -0.3908693 0.50822437 -0.1937981 -0.08475955 0.10979655 0.42171454 0.46733952 0.090230696 0.71805924 0.19586876 -0.19559959 0.1589968 0.73729193 0.48909917 0.05918223 -0.2944543 0.16644627 -0.31147164
힘 -0.06402715 0.10425519 -0.0076838583 0.051640905 0.04948596 -0.3975831 0.054685783 0.54903924 -0.118630506 -0.14665945 -0.10756186 -0.25885373 0.0050045843 0.12890822 0.10534083 -0.06951386 0.14082128 -0.1376509 -0.13999954 -0.5385739 0.14067392 0.13581327 0.20717534 -0.1905759 -0.0749193 -0.13187596 -0.38952643 -0.12747766 -0.17517243 0.10993203 0.20336205 -0.032809127 0.17868829 -0.32236165 -0.14556023 0.2864717 0.0016147387 -0.13317432 -0.20820822 -0.3556902 0.071284205 -0.24003837 -0.19015956 0.0015341989 0.06899813 -0.10118396 -0.17175744 0.011478581 0.09435731 0.19163282 0.12749457 -0.24002904 -0.09181131 -0.08187757 -0.10578687 0.16789763 0.16948654 -0.07611294 -0.19360943 -0.05748844 -0.031783853 -0.047276787 0.029489458 0.066410616 -0.26640955 0.3275591 0.16500323 0.27060324 -0.34412733 0.1328153 0.005973414 0.11066465 0.26982972 0.17428218 0.28520265 -0.07464655 0.04734343 0.024988106 -0.27213207 0.069425784 -0.19372879 -0.004266317 -0.26984426 0.35590267 -0.12333541 -0.069134116 0.098793715 0.30474755 0.3147093 0.05773735 0.50694555 0.14099716 -0.14832841 0.10648777 0.49425966 0.34393206 0.04758202 -0.21121249 0.11783177 -0.19677363
라는 -0.08371582 0.1392275 -0.011690914 0.0855998 0.084330335 -0.49589208 0.06456805 0.69574517 -0.15421869 -0.17932262 -0.12879546 -0.3346733 -0.002492324 0.17440107 0.15122713 -0.104308575 0.18546398 -0.1566112 -0.1511094 -0.66978204 0.1840268 0.17776158 0.26422763 -0.23655252 -0.08860038 -0.18427718 -0.48654297 -0.19144464 -0.21277441 0.13513362 0.26599345 -0.055682987 0.24626413 -0.40778747 -0.17317 0.366982 0.0034484316 -0.1725173 -0.2542922 -0.4493758 0.10248966 -0.28898773 -0.24802549 -0.0033465617 0.07177234 -0.1289767 -0.20889391 0.011162674 0.12969431 0.23115 0.16929519 -0.2891037 -0.13576123 -0.09926746 -0.11731173 0.21049203 0.22255619 -0.10109011 -0.22085887 -0.08528025 -0.03586468 -0.03125228 0.046983313 0.07039005 -0.3515811 0.38912287 0.18377255 0.32695478 -0.42860824 0.16153519 -0.0004075663 0.12756987 0.33208635 0.21218374 0.36014798 -0.105557576 0.083097614 0.018446112 -0.36776304 0.09150069 -0.2458842 -0.015648827 -0.32980797 0.42389563 -0.16314058 -0.08574278 0.09678038 0.38069278 0.40423667 0.072324686 0.6186011 0.16480236 -0.1847885 0.14623688 0.6351255 0.43312007 0.05610932 -0.2517406 0.14091171 -0.27131525
어야 -0.09407501 0.15752397 -0.019852486 0.088903464 0.08717111 -0.5710247 0.08046152 0.8043832 -0.16425897 -0.21594474 -0.14522313 -0.40231508 -0.0007371743 0.19821292 0.16497663 -0.10552483 0.21574883 -0.1897046 -0.17978542 -0.7689942 0.21991709 0.20265837 0.32326123 -0.2738849 -0.11294088 -0.19764301 -0.5383931 -0.20111729 -0.24575335 0.15664685 0.32364514 -0.07172168 0.2823132 -0.46028653 -0.2063894 0.4214726 0.015524161 -0.19724429 -0.2923504 -0.5219111 0.095303155 -0.32188904 -0.2925688 -0.0055697295 0.09042804 -0.14195706 -0.22838764 -0.00810298 0.15246168 0.262291 0.18808798 -0.33249938 -0.15400064 -0.113466255 -0.14376707 0.23720062 0.2630367 -0.123444736 -0.25548622 -0.08641781 -0.035422634 -0.043432035 0.044297118 0.0998258 -0.4076962 0.4592565 0.20314534 0.37470296 -0.48171425 0.18863976 -0.019612836 0.13217023 0.36758682 0.24995689 0.3971699 -0.11671951 0.08157266 0.013738949 -0.4179136 0.11959382 -0.27042162 -0.021594735 -0.36684385 0.49675366 -0.17727835 -0.087490305 0.118407 0.42485473 0.44647843 0.080905326 0.71019524 0.17541252 -0.19677374 0.15506792 0.7296755 0.48932606 0.061132535 -0.28766716 0.16382715 -0.3099334
아니 -0.09304954 0.14041957 -0.018904421 0.07581926 0.078187704 -0.4890278 0.07355391 0.6918248 -0.13768974 -0.19548629 -0.116966635 -0.33020127 0.0020225893 0.17513664 0.13660826 -0.101683 0.19411016 -0.15927441 -0.15485002 -0.6645455 0.19720718 0.16184111 0.26567963 -0.2322637 -0.082837656 -0.1800815 -0.4692029 -0.18183638 -0.21766745 0.12453426 0.26372448 -0.047761526 0.23206465 -0.40287787 -0.17119962 0.36582297 0.016230017 -0.17474985 -0.25889942 -0.44483626 0.089132965 -0.28378865 -0.241043 -0.009982507 0.08053707 -0.13079575 -0.2025364 0.00935807 0.13746712 0.2338024 0.16244744 -0.29100466 -0.13178645 -0.095931284 -0.118697666 0.2059192 0.22695462 -0.111865684 -0.22324114 -0.08636439 -0.029267248 -0.03430672 0.051311787 0.071571365 -0.3522037 0.40019423 0.18356493 0.3232032 -0.4258199 0.16350777 -0.019322991 0.12134695 0.3209639 0.20761432 0.35124487 -0.09583595 0.068358004 0.019498214 -0.36240253 0.095856026 -0.23841266 -0.01386293 -0.3327751 0.42930835 -0.1535777 -0.07211091 0.107639425 0.35679173 0.3968164 0.0802342 0.6132669 0.16179265 -0.17384128 0.14504619 0.6237494 0.43195075 0.048760515 -0.2551553 0.14228787 -0.2673087
( -0.09918792 0.15126939 -0.01667514 0.0837564 0.089673355 -0.58257306 0.078466676 0.7865266 -0.17240173 -0.2081717 -0.14129874 -0.3860062 0.012985638 0.18879725 0.17330222 -0.11786228 0.20858116 -0.17600787 -0.1833084 -0.7539343 0.22125022 0.19127063 0.31805992 -0.2613907 -0.10806916 -0.20570761 -0.54102826 -0.21702361 -0.23171039 0.14979978 0.32081953 -0.056262933 0.2708906 -0.4529425 -0.20390981 0.42583874 0.013036444 -0.18467957 -0.3057722 -0.518415 0.115657344 -0.32427895 -0.29190522 -0.021840299 0.07468468 -0.15123312 -0.24210763 0.0056488244 0.15095045 0.2548956 0.18597288 -0.34748563 -0.15281728 -0.114892624 -0.15110938 0.24172948 0.24335979 -0.13454092 -0.2573938 -0.08894701 -0.025583902 -0.03347508 0.046313584 0.079897694 -0.39329162 0.45650396 0.22191338 0.3669962 -0.49062285 0.18641932 -0.021630043 0.14702603 0.37054062 0.24920443 0.3915885 -0.10114211 0.084353656 0.03372894 -0.4185046 0.10900591 -0.265841 -0.037344266 -0.3895947 0.5017333 -0.2021711 -0.08410854 0.11724165 0.4143303 0.45629036 0.083004944 0.7114592 0.18775786 -0.20486271 0.16072245 0.7230157 0.47818595 0.07306972 -0.28427482 0.15267867 -0.30852786
) -0.08716821 0.12844494 -0.009792891 0.07859839 0.0943515 -0.53996223 0.06190774 0.7443533 -0.14438604 -0.19826002 -0.1354361 -0.36210194 0.0003177814 0.1824871 0.14661904 -0.10441978 0.18980327 -0.18213095 -0.17853844 -0.70123965 0.20786467 0.18791905 0.29350954 -0.24905793 -0.09368124 -0.18345663 -0.5180448 -0.1918125 -0.22549646 0.14238884 0.28441772 -0.056798846 0.2605522 -0.43336025 -0.19669211 0.39609814 0.0050985483 -0.1766658 -0.28803876 -0.4661412 0.09822775 -0.30287415 -0.2674412 -0.009450299 0.08116448 -0.15611506 -0.21336703 -0.00047324505 0.15155084 0.25608683 0.1650101 -0.32026792 -0.146335 -0.09652563 -0.119273916 0.23404138 0.24772449 -0.12399654 -0.23835732 -0.09394194 -0.045438983 -0.046671547 0.048751563 0.079121165 -0.38336667 0.42235354 0.198233 0.3384371 -0.44353595 0.17998984 -0.023126649 0.12959771 0.34384492 0.23396134 0.37243426 -0.09617042 0.08976823 0.016924618 -0.39545903 0.10254932 -0.24655163 -0.027043873 -0.3549876 0.46380526 -0.18588038 -0.08075153 0.096591 0.40769064 0.4138459 0.0851129 0.65263194 0.17097786 -0.19071908 0.15527943 0.6737364 0.45852867 0.055602293 -0.25357646 0.13935266 -0.29608884
성 -0.10056574 0.15028931 -0.018740462 0.07790343 0.08426275 -0.54504913 0.07500603 0.75142616 -0.14866139 -0.20542406 -0.13110462 -0.36404964 0.018210597 0.18570568 0.15303722 -0.11061005 0.1967439 -0.17287837 -0.1700378 -0.721453 0.21056859 0.17246757 0.2893186 -0.2648671 -0.09286461 -0.18455455 -0.51684874 -0.18706463 -0.22638696 0.12704107 0.28566104 -0.060994875 0.24843664 -0.42407677 -0.18396094 0.39388326 0.0053095995 -0.18686676 -0.27605417 -0.48616332 0.095325634 -0.3139561 -0.27175406 -0.019955384 0.07942876 -0.15168777 -0.21179737 -0.007050053 0.1344239 0.2536368 0.16617368 -0.3159836 -0.14326659 -0.10798335 -0.121058166 0.23252238 0.23695827 -0.109924085 -0.24635406 -0.07823297 -0.027985176 -0.05272071 0.052076835 0.07718998 -0.37789804 0.43466517 0.19417854 0.34412837 -0.45241937 0.18744944 -0.0028679639 0.1228618 0.36201924 0.23378405 0.3716701 -0.1081614 0.083299324 0.0085023455 -0.38877437 0.11881628 -0.2633475 -0.033588372 -0.3601584 0.45478076 -0.17378603 -0.082222424 0.109823175 0.3949893 0.4363809 0.06755221 0.6564261 0.16347535 -0.1761649 0.14987916 0.6668949 0.4511697 0.0649773 -0.26857135 0.14185825 -0.28007874
사전 -0.095744506 0.14194426 -0.007687455 0.068547405 0.07100483 -0.48977315 0.05332052 0.6861342 -0.13431044 -0.17737007 -0.13093759 -0.33448416 0.0013157135 0.18427618 0.15164702 -0.09891354 0.17193183 -0.15184626 -0.15786502 -0.6470589 0.18231583 0.16353334 0.26608768 -0.22662543 -0.100701146 -0.1822127 -0.47032556 -0.18335798 -0.19895901 0.124977686 0.264616 -0.06540651 0.22023542 -0.3874598 -0.17167549 0.342534 0.015925018 -0.15228668 -0.25063872 -0.44067433 0.09095683 -0.2698007 -0.25538886 -0.020306543 0.05769868 -0.12685531 -0.20990302 0.0072464454 0.13732705 0.23438922 0.14642535 -0.28366956 -0.12150895 -0.106866345 -0.11267303 0.22162281 0.22833258 -0.114457496 -0.21329473 -0.08218237 -0.039097853 -0.033067398 0.04049574 0.07666497 -0.35281605 0.37766615 0.17936061 0.31832707 -0.41381878 0.17339642 -0.00335464 0.107200675 0.3089941 0.20467061 0.3398961 -0.108131915 0.08869523 0.024593456 -0.36580536 0.10831344 -0.23620181 -0.029140227 -0.32232028 0.43414813 -0.1675696 -0.08268235 0.09494821 0.36822653 0.3932869 0.06264019 0.5925551 0.15651052 -0.16957934 0.14463413 0.61691636 0.41861668 0.050985504 -0.23847555 0.13801816 -0.2522258
코로나 -0.09460967 0.15843685 -0.021336619 0.08887857 0.087901376 -0.56434613 0.08516574 0.7782355 -0.15621015 -0.21142088 -0.12685747 -0.37714523 0.007557085 0.20069174 0.16546696 -0.101393595 0.20821756 -0.17730838 -0.18260434 -0.7476869 0.20603476 0.18504883 0.3033955 -0.2637429 -0.105647214 -0.19580431 -0.52904826 -0.21277319 -0.22793448 0.15325363 0.31174248 -0.057743978 0.26418573 -0.44581452 -0.2012597 0.3994464 0.0075272713 -0.1862878 -0.2884164 -0.50475717 0.10566968 -0.32112023 -0.27276278 -0.012748159 0.07208796 -0.14620045 -0.22594006 7.311765e-05 0.14149895 0.27368426 0.17440365 -0.32850406 -0.14929827 -0.1038621 -0.13106816 0.24384911 0.24472183 -0.1227862 -0.26142395 -0.091418564 -0.029342342 -0.053304654 0.053957608 0.09393469 -0.38552082 0.43781546 0.21064557 0.35378402 -0.4730172 0.19560742 -0.007319343 0.12949666 0.36402258 0.22522022 0.39020807 -0.10724474 0.07805862 0.028217802 -0.4082866 0.1208037 -0.26403874 -0.022194048 -0.37115684 0.4747108 -0.19070365 -0.08975078 0.10000997 0.42261744 0.44785476 0.07864572 0.69574857 0.17500304 -0.19469833 0.16126098 0.7075372 0.48077345 0.057449922 -0.28055847 0.14505252 -0.29083255
어제 -0.081673644 0.14343056 -0.0062485347 0.06731602 0.08605923 -0.51573247 0.06962402 0.7025329 -0.14055175 -0.19983743 -0.12325797 -0.35456094 0.006971822 0.18567227 0.13383114 -0.08990038 0.17796995 -0.15686464 -0.17292477 -0.68328816 0.18543962 0.17368105 0.27550775 -0.24185355 -0.10600345 -0.16816121 -0.483359 -0.19020692 -0.21890701 0.13959666 0.28152207 -0.06333813 0.24495515 -0.41275007 -0.17590398 0.37843052 0.0044682147 -0.1692711 -0.26154825 -0.4597162 0.0971888 -0.28668925 -0.26581675 -0.01118538 0.07828716 -0.13445804 -0.19741665 0.0008246438 0.14095254 0.23170434 0.1725005 -0.31350875 -0.12767373 -0.09414089 -0.12782164 0.2267487 0.2136446 -0.11087809 -0.22916986 -0.08652461 -0.02585268 -0.048755392 0.045070846 0.090947725 -0.3487852 0.40426734 0.19868585 0.32170302 -0.4357662 0.17329001 -0.013178875 0.12968211 0.34289587 0.209562 0.3549049 -0.090203606 0.07083026 0.011291993 -0.3665451 0.09583272 -0.24570353 -0.020635797 -0.34660447 0.44039148 -0.17372444 -0.08540992 0.10588759 0.38017514 0.401175 0.08155841 0.62726855 0.1721716 -0.17542374 0.14954619 0.64696294 0.4311203 0.055959646 -0.25611842 0.1451832 -0.2762136
그 -0.08480966 0.13590875 -0.016233435 0.077097744 0.07145727 -0.47612694 0.06465706 0.6513418 -0.12930489 -0.17218474 -0.12868536 -0.33577153 0.009270845 0.1682368 0.13101271 -0.08556881 0.16801082 -0.15882723 -0.14564256 -0.6377633 0.17706342 0.1677923 0.26939812 -0.23299007 -0.09925469 -0.16916876 -0.44764936 -0.17817482 -0.19775483 0.12121318 0.2662143 -0.05112099 0.23469298 -0.37239787 -0.1761835 0.35500944 -0.0027918583 -0.16878322 -0.24513781 -0.42562914 0.09418177 -0.28360763 -0.23156007 -0.017821163 0.060247917 -0.12559365 -0.19922793 0.004254686 0.119219065 0.21886443 0.16375789 -0.28829008 -0.11565894 -0.098628774 -0.11701205 0.21045397 0.21861163 -0.10532594 -0.22966845 -0.07772879 -0.022825722 -0.03210561 0.0368079 0.0798624 -0.3251732 0.36993042 0.17560714 0.3113215 -0.41313595 0.15478145 -0.0037737272 0.11198878 0.309981 0.20303586 0.34585494 -0.08662298 0.06735548 0.01600194 -0.33461547 0.097564414 -0.23707515 -0.029589253 -0.32315227 0.41976202 -0.15614918 -0.085036 0.10474179 0.35129222 0.3791352 0.06362302 0.59227175 0.15440059 -0.1662568 0.13255836 0.5966051 0.408074 0.0472143 -0.23778452 0.14087524 -0.25089675
던 -0.08169267 0.14081381 -0.012455677 0.07858093 0.084881 -0.5029363 0.061025176 0.7114727 -0.15510474 -0.19105417 -0.13623339 -0.35885754 0.003439061 0.18501897 0.14541514 -0.10122191 0.18240671 -0.15806781 -0.15347572 -0.6678485 0.19330947 0.15996392 0.28640345 -0.24385767 -0.094133586 -0.1738292 -0.47533774 -0.18624055 -0.22019821 0.12953451 0.2827418 -0.053992145 0.23962969 -0.39712945 -0.17535129 0.365318 0.01613318 -0.17633311 -0.27026054 -0.44686326 0.08754923 -0.28247756 -0.26096725 -0.01811443 0.06211167 -0.1333238 -0.1991791 0.010182695 0.13511989 0.24309018 0.1653822 -0.31044373 -0.12071954 -0.109021075 -0.117104255 0.21676028 0.22278401 -0.11490582 -0.22307892 -0.08758018 -0.03021951 -0.04032063 0.048085023 0.0746521 -0.3649507 0.3912114 0.18285982 0.33084437 -0.43751857 0.17833734 -0.007003711 0.115906775 0.32914862 0.20653798 0.3475794 -0.09968131 0.07735473 0.029199392 -0.36078542 0.10439605 -0.23630199 -0.029413342 -0.345514 0.44164997 -0.17439917 -0.08652245 0.1044453 0.36792973 0.4016806 0.0757982 0.62496215 0.1626415 -0.18016848 0.15438491 0.6402014 0.43212622 0.04865184 -0.258353 0.13955826 -0.27200785
확진 -0.08570672 0.114861496 -0.021843676 0.06159367 0.06623613 -0.43505615 0.065132104 0.6067791 -0.11284868 -0.15662901 -0.10042797 -0.29342556 0.01322258 0.15164505 0.13773431 -0.092843704 0.16202013 -0.132735 -0.12969297 -0.5788575 0.1790914 0.15042396 0.23146974 -0.19604982 -0.085738525 -0.14671329 -0.426419 -0.16857408 -0.17426461 0.11390665 0.22786365 -0.047687814 0.19498356 -0.34043095 -0.13981895 0.31194744 0.012312271 -0.14895241 -0.22325023 -0.38462263 0.06432529 -0.24303845 -0.22458257 0.0048145046 0.04735768 -0.10457263 -0.17225896 0.010329286 0.11847073 0.22113709 0.1445857 -0.2576174 -0.111847185 -0.09044452 -0.11038592 0.19446361 0.20426315 -0.08392257 -0.19348869 -0.06473754 -0.029673984 -0.03174509 0.033825684 0.06290715 -0.31645682 0.34990782 0.15082014 0.29251134 -0.3740266 0.14506648 -0.0171667 0.11399856 0.29204842 0.18596913 0.29974487 -0.09385353 0.060911544 0.029166766 -0.32752767 0.09666329 -0.20598985 -0.007811936 -0.2830183 0.3785302 -0.13881299 -0.06330521 0.07405478 0.3154191 0.34731534 0.06274719 0.5380514 0.13727693 -0.15422632 0.13036433 0.54721916 0.3816701 0.05961314 -0.21699288 0.121264935 -0.2453883
대 -0.08907386 0.14398159 -0.011708203 0.086303905 0.09295424 -0.54458386 0.083813615 0.76482934 -0.16578501 -0.21317652 -0.1441731 -0.3747166 0.018187292 0.20209908 0.15366745 -0.10843684 0.19782056 -0.16995744 -0.16974182 -0.7314991 0.22159459 0.17309795 0.29126704 -0.25307903 -0.09765084 -0.20283596 -0.5179674 -0.20586605 -0.23208664 0.14445184 0.29284286 -0.052220292 0.25560325 -0.44621748 -0.18385717 0.40839458 0.015451867 -0.17866044 -0.28706038 -0.5018873 0.10056409 -0.3155429 -0.27388418 -0.0027247944 0.08409453 -0.14862543 -0.23023078 0.010989007 0.15308 0.25289583 0.18337792 -0.32065842 -0.14319076 -0.106189154 -0.14086305 0.22742529 0.23763564 -0.12931772 -0.26110572 -0.08177377 -0.041128132 -0.036419693 0.05257274 0.08588817 -0.3973706 0.42946815 0.20671315 0.368217 -0.47022748 0.19177082 -0.014526291 0.14441556 0.36092046 0.22437167 0.3893609 -0.10903532 0.09296734 0.012851242 -0.39434272 0.117133714 -0.25789514 -0.026953526 -0.3683469 0.4683563 -0.17722638 -0.095957175 0.1174857 0.41621572 0.4433091 0.08591089 0.6706473 0.18727796 -0.2000846 0.16644225 0.6854396 0.47039184 0.058581844 -0.2718365 0.16015972 -0.28957817
면서 -0.09647441 0.14155617 -0.010999795 0.07101714 0.082268625 -0.5074034 0.0737563 0.69970864 -0.14090614 -0.18419297 -0.12898165 -0.358114 0.0065635885 0.18066558 0.1357529 -0.108127244 0.18892823 -0.16273089 -0.1680357 -0.68129975 0.20254889 0.17866914 0.2688821 -0.24943836 -0.09513212 -0.18242802 -0.4863423 -0.19289942 -0.22327073 0.12640339 0.2802385 -0.049655717 0.23168759 -0.41683337 -0.18404935 0.37213758 -0.0030564754 -0.1688515 -0.25789678 -0.4634096 0.08942318 -0.28102607 -0.24723597 -0.008811189 0.066732764 -0.14434423 -0.21169668 0.0018295663 0.13998865 0.23821643 0.17618352 -0.31127915 -0.12571587 -0.096642174 -0.12818617 0.22477528 0.21718845 -0.107696116 -0.24280532 -0.08052424 -0.03488272 -0.034252 0.05079614 0.071801595 -0.35934246 0.39538097 0.1789287 0.33179352 -0.42413667 0.16290447 -0.00046585803 0.12610507 0.32570678 0.21163468 0.35790855 -0.09456942 0.07852582 0.028610151 -0.36858317 0.09378156 -0.2536162 -0.01767932 -0.3410321 0.42931584 -0.17359748 -0.0816824 0.11076913 0.3719137 0.40574673 0.07153592 0.6328025 0.16765146 -0.18487944 0.13452998 0.6295141 0.43518913 0.058746982 -0.24244902 0.14455847 -0.26085514
지만 -0.07405391 0.123067744 -0.008502299 0.07253351 0.0699443 -0.46118155 0.05281036 0.6237619 -0.1401775 -0.16049252 -0.12224465 -0.32312787 0.009222111 0.16732258 0.1363011 -0.09566215 0.17614803 -0.14643495 -0.1494512 -0.6118591 0.1726482 0.14282109 0.24996184 -0.20883699 -0.08979488 -0.15706722 -0.4308205 -0.1587632 -0.20031732 0.12027698 0.24808565 -0.044641208 0.21421549 -0.37423456 -0.1578237 0.32176715 0.0153069245 -0.15923834 -0.23829962 -0.39910364 0.07718895 -0.27001342 -0.23305207 -0.016215656 0.07121214 -0.13016234 -0.18928514 -0.0068084914 0.12914804 0.21131635 0.14284728 -0.27015322 -0.1160291 -0.084242225 -0.11128962 0.18740645 0.19548951 -0.109493345 -0.19779417 -0.062753096 -0.026535768 -0.04425928 0.040129233 0.078000784 -0.32505277 0.36919385 0.17403208 0.2952847 -0.3935278 0.16094308 -0.00843997 0.10698686 0.30321547 0.18368207 0.30958316 -0.08269152 0.07159801 0.020442704 -0.3174945 0.08871369 -0.22673331 -0.030650444 -0.29229677 0.3895089 -0.1439638 -0.072000116 0.08406877 0.33726546 0.37076274 0.0609143 0.56026703 0.14562722 -0.15175633 0.12634318 0.567042 0.3801169 0.04409916 -0.22235256 0.12399269 -0.23986852
4 -0.074312106 0.13690645 -0.0056559597 0.08076057 0.079540834 -0.48975608 0.06610091 0.68050796 -0.14777839 -0.18142347 -0.12354055 -0.32441026 0.014764537 0.16564845 0.14081644 -0.09954619 0.16970854 -0.1576944 -0.15515934 -0.6524313 0.18753628 0.16306885 0.2555517 -0.23522022 -0.094430536 -0.1676576 -0.46031663 -0.16996796 -0.20290738 0.11660622 0.2677801 -0.04183496 0.24246788 -0.38258982 -0.16602042 0.36035454 0.0023656692 -0.1673036 -0.25728875 -0.4393468 0.09604962 -0.269044 -0.24441108 -0.019108104 0.06292787 -0.1389241 -0.20754324 0.0064668856 0.13057019 0.22341351 0.15035309 -0.28931952 -0.1249806 -0.09572678 -0.11183812 0.20771301 0.20670672 -0.100792885 -0.21305542 -0.08350356 -0.023812175 -0.031636283 0.04180211 0.075975604 -0.3361783 0.39112258 0.19082725 0.31010002 -0.41222042 0.15772176 -0.019809633 0.11496874 0.31637767 0.1983343 0.34290624 -0.10075369 0.07741456 0.017657764 -0.34824872 0.10548139 -0.22452804 -0.016787698 -0.32637048 0.42924973 -0.15767828 -0.07631564 0.10738554 0.3566753 0.39035165 0.062894456 0.60240334 0.16741845 -0.18028542 0.14280464 0.61491686 0.4087108 0.045135345 -0.24460468 0.1395254 -0.25654876
크 -0.07609256 0.13235067 -0.009837331 0.06626213 0.073715344 -0.4985879 0.066987485 0.68568367 -0.13156419 -0.17834602 -0.118906744 -0.34530324 0.014728346 0.16795896 0.13720705 -0.09863746 0.18203144 -0.16257094 -0.15150174 -0.6502232 0.19109541 0.16463694 0.26682848 -0.24051122 -0.09857859 -0.17398404 -0.4801848 -0.18188384 -0.20577683 0.12279836 0.27547 -0.05058608 0.23472458 -0.39060894 -0.17077115 0.353681 0.010814258 -0.16866128 -0.24895433 -0.45011008 0.09472683 -0.28490794 -0.24924657 -0.0031303354 0.07875696 -0.12573917 -0.19389205 0.010811432 0.13340256 0.2310814 0.15947829 -0.30507416 -0.1284687 -0.1061829 -0.11475639 0.21261476 0.22664161 -0.11580528 -0.23283625 -0.07278552 -0.028476054 -0.04394022 0.048614033 0.07904248 -0.33968997 0.39033508 0.18437873 0.31800777 -0.41407079 0.1718309 -0.014267251 0.10932532 0.32058546 0.21545058 0.33916834 -0.10633119 0.08168397 0.010562052 -0.36253068 0.094973266 -0.24389149 -0.0147501975 -0.33240718 0.43663344 -0.15138923 -0.08757484 0.10666779 0.36606443 0.3967051 0.072548226 0.6131762 0.15342231 -0.16618817 0.14594707 0.62599266 0.4204059 0.04717607 -0.2510137 0.13350545 -0.26598734
